5636 24
723 0.79225 0.907337 0.315934 -0.366717 0.741852 -0.635661 0.531859 0.238287 -1.31751 0.432351 1.6116 0.529977 -0.199719 0.596359 -1.21592 1.65563 -0.48153 -0.090762 -0.909205 1.22738 1.5071 0.92254 0.8806 -0.996961
2195 0.845926 0.983818 0.326663 -0.458375 0.685229 -0.693785 0.534623 0.257608 -1.38315 0.521537 1.67916 0.489537 -0.195467 0.59377 -1.21649 1.66451 -0.488925 -0.171245 -0.928972 1.23741 1.49336 0.963075 0.761064 -0.981753
1638 0.79585 1.04727 0.297758 -0.403291 0.649665 -0.604305 0.514747 0.218687 -1.23986 0.478277 1.66692 0.517877 -0.244974 0.650299 -1.1623 1.64484 -0.476176 -0.130953 -0.962804 1.14988 1.47933 0.930608 0.778772 -0.960319
2149 0.716323 0.88377 0.234927 -0.359584 0.6736 -0.627159 0.57503 0.198554 -1.26859 0.419899 1.55393 0.525264 -0.216984 0.566459 -1.18078 1.56905 -0.507658 -0.0746247 -0.868781 1.17355 1.37511 0.867102 0.70814 -0.921674
64 1.02685 0.0134086 -0.489586 -1.01803 0.0728187 0.119315 0.508978 -0.545554 1.45258 0.00458452 0.839793 0.523959 -1.11564 0.778211 -0.102803 1.34776 -0.310991 0.239591 -1.8882 1.55309 -0.161208 0.693782 0.947909 -2.0909
1678 0.902391 -0.148918 -0.42919 -1.02889 0.0747198 0.0768007 0.493231 -0.509825 1.47842 0.038401 0.920272 0.557636 -1.16372 0.82143 -0.143352 1.2807 -0.362617 0.270556 -1.90591 1.54413 -0.119831 0.66752 1.04976 -2.11929
5153 -0.551754 0.283336 -0.313187 1.54219 -0.0609349 -0.839316 1.13031 0.335885 0.256231 0.0575806 0.257823 0.546486 -0.0123962 0.260143 -0.428984 2.12218 -1.20057 -0.0695628 -0.947716 0.897132 1.3579 1.29831 -0.22436 -0.649576
3162 -0.614013 0.248146 -0.23851 1.63768 -0.0272647 -0.984743 1.25459 0.29816 0.37609 0.0518116 0.363483 0.653223 -0.115106 0.248841 -0.467359 2.18401 -1.24953 -0.052467 -0.906998 1.04073 1.44909 1.31513 -0.264921 -0.67784
2644 -0.53961 0.159995 -0.223999 1.50989 0.00310434 -0.911106 1.09821 0.322443 0.362855 0.0228439 0.306701 0.589518 -0.0421536 0.261511 -0.572299 2.08719 -1.19239 -0.0510562 -0.906859 0.975735 1.40004 1.29431 -0.207114 -0.622608
5412 -0.584032 0.222439 -0.215742 1.6319 -0.0213259 -0.933509 1.15098 0.403691 0.311095 0.0905767 0.340722 0.564324 -0.0592384 0.355954 -0.507793 2.04766 -1.18603 -0.0330109 -0.902181 0.974158 1.41704 1.38353 -0.189404 -0.72703
1401 -0.537874 0.131781 -0.234338 1.56915 0.0307137 -0.84485 1.13121 0.29996 0.323687 0.0322647 0.287774 0.548553 -0.0898814 0.304327 -0.513159 2.08494 -1.21639 -0.0498524 -0.907201 0.943508 1.37476 1.34027 -0.228746 -0.561529
4603 -0.628204 0.268356 -0.265043 1.65782 -0.00943941 -0.940449 1.08631 0.31392 0.272707 0.0620858 0.21273 0.617151 -0.043149 0.241812 -0.545687 2.15669 -1.28001 -0.0432648 -0.923048 0.996519 1.32487 1.3748 -0.246691 -0.580855
2608 -0.549602 0.241551 -0.228243 1.55292 -0.0403259 -0.890742 1.10746 0.325087 0.322617 0.0203975 0.263372 0.55993 -0.0326407 0.277431 -0.487106 1.98652 -1.19218 -0.0152442 -0.900682 0.970004 1.34142 1.29809 -0.234518 -0.550857
965 -0.526528 0.215828 -0.225987 1.44409 0.0245259 -0.857002 0.995275 0.311562 0.304019 0.0227834 0.274799 0.514686 -0.0499508 0.246218 -0.480386 1.89292 -1.06509 -0.0790053 -0.850978 0.845405 1.26176 1.198 -0.201759 -0.570546
5032 -0.558204 0.209591 -0.221577 1.47767 0.0123027 -0.795878 1.05579 0.320077 0.285419 0.0340688 0.245448 0.49169 -0.0124799 0.293388 -0.479925 1.87055 -1.10696 -0.102178 -0.788459 0.858272 1.28681 1.12029 -0.2136 -0.60243
2968 -0.517756 0.253643 -0.249949 1.6188 0.0564397 -0.872014 1.10177 0.327451 0.312838 0.050045 0.226866 0.564036 -0.0284199 0.308448 -0.557401 2.02864 -1.21665 -0.0986131 -0.97004 0.956587 1.43042 1.3546 -0.171691 -0.588794
2311 -0.536997 0.20976 -0.183543 1.40652 0.0310968 -0.748342 1.00455 0.304275 0.290268 0.0657635 0.277878 0.511966 -0.0491121 0.24728 -0.457248 1.86716 -1.05015 -0.0742607 -0.859746 0.875544 1.29362 1.18836 -0.161539 -0.564106
5208 -0.54023 0.201781 -0.279744 1.45943 -0.0327199 -0.817971 1.07176 0.261797 0.374493 0.0049683 0.29838 0.506352 -0.0647621 0.291942 -0.462938 2.0364 -1.13383 -0.0374027 -0.888462 0.912232 1.3569 1.26489 -0.183912 -0.56183
1088 -0.508054 0.208939 -0.228484 1.40351 -0.00549476 -0.76554 0.952093 0.305676 0.316736 0.0219805 0.262206 0.53037 -0.0301039 0.290326 -0.434352 1.88124 -1.0845 -0.0362819 -0.846515 0.817725 1.28559 1.16686 -0.172793 -0.537607
5288 -0.483377 0.197239 -0.257363 1.48484 -0.0396002 -0.812022 1.00096 0.260819 0.341417 0.0140932 0.201926 0.491247 -0.00667593 0.272488 -0.46792 1.84782 -1.0744 -0.0847786 -0.867539 0.859646 1.22338 1.16391 -0.211181 -0.505896
5539 -0.513869 0.333267 -0.338065 1.61821 0.111853 -1.11097 1.24456 0.38678 0.18492 0.079885 0.271669 0.674199 -0.012162 0.339152 -0.583205 2.1919 -1.24306 -0.152951 -0.929686 1.0586 1.43457 1.42099 -0.24466 -0.684751
4679 -0.340185 -0.303914 0.332009 -0.155334 -0.172301 0.60408 0.185583 -0.723353 1.10884 -0.883708 1.50509 1.83196 0.334356 -0.137487 0.389289 0.930273 -1.23377 0.290725 -0.569301 0.834487 0.757123 0.816033 0.0232901 -1.67159
3857 -0.341539 -0.338156 0.347979 -0.163272 -0.163038 0.65503 0.182065 -0.902888 1.2354 -0.946495 1.68076 2.05244 0.372277 -0.144338 0.353973 0.976171 -1.36357 0.314974 -0.690907 0.922855 0.805879 0.916009 0.00766528 -1.83989
3861 -0.350758 -0.33868 0.329352 -0.135476 -0.187129 0.636052 0.22619 -0.846876 1.15087 -0.916596 1.62201 1.95979 0.355652 -0.1187 0.344914 0.944464 -1.33495 0.276553 -0.642834 0.919187 0.84552 0.863468 -0.0102765 -1.78292
1541 -0.936848 0.854581 0.646272 -0.516624 0.280383 -0.269496 0.91476 -1.09883 1.20535 -0.334358 -0.750261 0.21556 -0.0160249 0.842628 -0.678738 1.31664 -1.69318 0.0857827 -1.19982 -0.534617 0.00136911 2.46094 -0.376076 -0.878248
2317 -0.962447 0.778138 0.691985 -0.510501 0.317037 -0.294855 0.943621 -1.11674 1.22215 -0.366605 -0.716098 0.236306 -0.0176338 0.875303 -0.601852 1.37881 -1.70162 0.0196431 -1.19162 -0.552475 0.0845234 2.42298 -0.393661 -0.890008
4504 0.176442 -0.417093 -0.242729 0.710114 -0.357083 -1.36774 0.459094 0.285912 0.0764497 -0.142752 1.03124 1.72442 -0.300445 -0.426034 -0.800161 2.52893 -0.115133 0.645915 0.398385 -0.194772 -0.433389 1.4022 0.353606 -2.03143
604 0.215378 -0.334387 -0.222996 0.744203 -0.365589 -1.28488 0.445016 0.376429 0.105388 -0.19822 1.04641 1.7352 -0.385946 -0.460309 -0.759417 2.50346 -0.102491 0.592286 0.416856 -0.236789 -0.41637 1.42454 0.315102 -1.95352
3386 1.13626 -0.264533 -0.118831 -0.823003 -0.0838556 -0.962409 0.155889 -0.104721 0.315086 -0.577498 0.748318 0.432127 -1.14005 -0.0515724 1.19759 0.646802 -1.78688 0.61399 -0.172453 0.706275 -0.51319 2.12559 -0.209231 -1.23835
2839 1.06267 -0.229087 -0.124364 -0.843932 -0.107328 -0.951384 0.241092 -0.0992584 0.248202 -0.595683 0.757246 0.468497 -1.05922 -0.0281769 1.15347 0.616021 -1.69198 0.602175 -0.0862759 0.604017 -0.494024 1.97883 -0.19185 -1.15853
4282 1.05145 -0.224079 -0.130751 -0.816312 -0.0958925 -0.923288 0.154299 -0.151354 0.282133 -0.554388 0.720123 0.445924 -0.982611 -0.0312857 1.16277 0.616111 -1.7569 0.595963 -0.0991351 0.61922 -0.490688 2.0614 -0.224417 -1.22817
1187 0.170812 -0.108979 -1.25476 0.042811 1.14967 -0.579983 -0.291118 -0.12644 0.8993 1.23063 0.645638 1.99875 -1.04547 -0.0746768 -0.0886943 1.44406 -1.10272 -0.177819 -0.402188 1.4417 1.09886 1.54217 0.0943155 0.154022
765 0.179199 -0.231441 -1.08265 0.039325 1.00808 -0.471192 -0.283397 -0.0985934 0.809143 1.07351 0.540084 1.72299 -0.902329 -0.0908373 -0.133614 1.2244 -0.978649 -0.244121 -0.359412 1.2389 0.9577 1.34011 0.0656398 0.138286
943 0.19121 -0.18006 -1.18506 0.100502 1.07564 -0.557661 -0.291488 -0.117289 0.848136 1.08704 0.561919 1.74776 -0.933431 -0.107882 -0.0552316 1.33088 -0.977462 -0.247412 -0.375162 1.27082 1.00005 1.41028 0.0134257 0.150732
3027 0.480982 -0.351731 -0.588977 0.733735 0.62235 -0.221329 -0.584382 0.249978 0.532969 1.5019 0.782901 0.710607 0.306525 0.0368715 -0.0459641 1.25157 -1.33294 0.261836 -1.61659 1.39413 -0.45201 1.71838 -0.718308 -0.325004
3220 0.525489 -0.370246 -0.7006 0.776135 0.681001 -0.232852 -0.600875 0.272388 0.589057 1.66843 0.89193 0.726131 0.320797 0.0632074 -0.00975667 1.43379 -1.53478 0.245041 -1.73705 1.53864 -0.468913 1.93131 -0.814887 -0.402133
1946 0.648986 -0.467215 -0.668282 0.826873 0.714626 -0.33377 -0.765711 0.462651 0.604793 1.76724 1.09381 0.879069 0.378805 0.0990917 0.0124446 1.62696 -1.52905 0.497169 -1.92098 1.62977 -0.466776 2.14995 -0.675536 -0.493163
864 0.489551 -0.351812 -0.629327 0.703182 0.607963 -0.207337 -0.626594 0.237122 0.527847 1.48382 0.801435 0.67932 0.300944 0.0400838 -0.0360645 1.27101 -1.3547 0.277609 -1.58722 1.45999 -0.425193 1.74831 -0.742269 -0.378354
4224 0.4992 -0.347916 -0.617203 0.761753 0.614457 -0.18983 -0.6432 0.283188 0.508376 1.51006 0.805679 0.683628 0.321453 0.0366047 -0.0166185 1.28674 -1.41473 0.290545 -1.65234 1.45507 -0.458669 1.76921 -0.77784 -0.416268
4179 -0.351201 0.269382 0.149783 -0.660671 -1.08677 -1.37024 0.525669 -0.775836 -0.483583 0.1626 0.928714 0.738006 0.181042 -0.289788 -0.199727 0.670294 -0.781441 0.838976 0.216113 1.13968 0.532474 1.256 0.543233 -0.50979
2092 -0.45566 0.40039 0.234816 -0.878398 -1.43364 -1.75852 0.687917 -1.18917 -0.632104 0.22504 1.23206 1.0019 0.309823 -0.40849 -0.276112 0.834589 -1.01206 1.11639 0.238905 1.48884 0.769599 1.66062 0.751557 -0.587178
5189 -0.410611 0.277456 0.146411 -0.707929 -1.19118 -1.55066 0.6506 -0.96982 -0.505384 0.203845 1.0722 0.788247 0.251598 -0.348758 -0.258083 0.758767 -0.899758 0.964147 0.272608 1.27217 0.581933 1.43205 0.653267 -0.568695
2286 -0.593785 0.43277 0.234231 -0.863508 -1.29463 -1.80481 0.630397 -1.13141 -0.631982 0.280705 1.22754 1.0585 0.364326 -0.333772 -0.278145 0.760704 -0.907803 1.06423 0.313163 1.51771 0.8097 1.56828 0.714527 -0.61877
2343 -0.463436 0.391939 0.172343 -0.820245 -1.20994 -1.73367 0.699087 -1.06529 -0.567616 0.255872 1.22139 0.805597 0.290185 -0.342334 -0.221338 0.79953 -1.06035 1.13875 0.356649 1.5175 0.704613 1.62574 0.835448 -0.650271
5572 -0.376806 0.25374 0.176691 -0.72179 -0.99824 -1.4539 0.68794 -0.909164 -0.415834 0.241811 0.984587 0.583511 0.207645 -0.212701 -0.115562 0.604699 -0.922903 1.04658 0.303146 1.22227 0.611229 1.39683 0.732404 -0.565696
5129 -0.469794 0.300891 0.176542 -0.798999 -1.21792 -1.63443 0.697071 -1.08446 -0.573302 0.251743 1.20556 0.730649 0.241391 -0.303267 -0.231225 0.732902 -1.09969 1.16509 0.336794 1.46373 0.763756 1.58832 0.81234 -0.666152
2703 -0.385395 0.252194 0.190228 -0.710123 -1.00943 -1.43579 0.709897 -0.897838 -0.389099 0.185483 1.02554 0.498819 0.14489 -0.244542 -0.195259 0.582647 -0.981407 1.06022 0.33778 1.22006 0.666031 1.44751 0.700145 -0.626639
5256 -0.878768 1.14276 -0.573187 -0.345233 0.724428 -0.41904 0.0338421 -0.384921 -0.0211143 0.159464 -0.128755 1.03303 -0.449841 0.0363145 -0.303146 0.77003 -1.79154 -0.899702 -1.70696 0.639896 -0.709056 1.73914 0.109578 -0.304165
2064 -0.887921 1.25619 -0.643046 -0.35122 0.803076 -0.428168 0.0293756 -0.422111 -0.0195072 0.193483 -0.179872 1.05209 -0.516882 0.0451853 -0.299869 0.870906 -1.9647 -1.02885 -1.74212 0.667103 -0.727396 1.82429 0.116868 -0.340362
4472 -0.898869 1.16665 -0.716142 -0.419965 0.774568 -0.503525 -0.0162837 -0.480215 -0.00420514 0.309221 -0.205876 1.06209 -0.571387 0.0454155 -0.347527 0.893005 -2.11846 -0.994218 -1.84574 0.669855 -0.77029 1.98212 0.180117 -0.431805
3190 -0.769876 1.00047 -0.644066 -0.383598 0.564202 -0.442619 -0.0391378 -0.391167 0.0409074 0.299793 -0.102773 0.873537 -0.498337 -0.00238198 -0.275224 0.698659 -1.66549 -0.793987 -1.48988 0.545364 -0.62223 1.51496 0.170839 -0.319721
3691 -0.715449 0.988688 -0.591118 -0.347309 0.541989 -0.451085 0.0147176 -0.362446 0.0359232 0.284718 -0.0735617 0.896873 -0.467332 0.0488143 -0.247637 0.710375 -1.60094 -0.687342 -1.44699 0.569136 -0.576667 1.50606 0.131618 -0.290116
436 -0.36941 -0.626303 -0.493154 -1.34352 0.303367 0.541407 0.586345 -0.275069 1.33124 -0.309355 0.308256 1.09416 -0.40854 -0.294261 -1.07088 0.593417 -1.74255 0.328604 -1.67267 0.949686 0.254412 0.993427 0.799172 -1.40163
1411 -0.408643 -0.597045 -0.503095 -1.40616 0.334385 0.530186 0.668259 -0.289032 1.34747 -0.315033 0.264607 1.12217 -0.428902 -0.305464 -1.12654 0.607858 -1.80006 0.330207 -1.71486 0.977274 0.233815 0.979912 0.8482 -1.42799
2175 -0.427908 -0.632837 -0.510412 -1.3679 0.32179 0.478759 0.609153 -0.284001 1.32004 -0.322116 0.282635 1.09241 -0.381459 -0.326624 -1.09896 0.579727 -1.7884 0.371265 -1.69457 0.967924 0.221662 0.974607 0.8511 -1.4124
47 0.289433 1.16892 0.954521 -1.73024 0.311007 0.237604 0.246007 0.936441 -0.269623 0.364341 1.1508 0.512004 -0.388138 1.64712 -0.119881 0.600064 -1.69937 1.14337 0.228038 0.976816 -0.125458 1.74499 0.488456 -1.35519
3466 0.282659 1.10281 0.991669 -1.71269 0.320892 0.167862 0.228497 0.976956 -0.294046 0.259206 1.0794 0.4517 -0.457194 1.6548 -0.0638609 0.648922 -1.68996 1.16771 0.219049 0.911668 -0.126996 1.68336 0.533991 -1.40861
3759 0.234693 0.310673 -0.290438 -1.02073 -1.52392 0.120911 0.579088 0.442438 0.0712315 -0.132652 0.543063 1.25431 1.48536 0.933248 -0.228858 0.851091 -0.29226 1.61753 -1.77215 0.606945 0.25759 1.17132 0.116136 -0.887319
4022 0.268915 0.294943 -0.283814 -0.992443 -1.58091 0.11915 0.580755 0.475729 0.0936624 -0.112131 0.535816 1.26751 1.52664 0.961313 -0.236694 0.824094 -0.27185 1.65427 -1.77296 0.640557 0.327016 1.20653 0.129307 -0.923224
1579 0.252222 0.257295 -0.252366 -0.966729 -1.52866 0.119843 0.562534 0.438566 0.0502957 -0.142672 0.56215 1.25498 1.61954 0.951874 -0.225428 0.840713 -0.286831 1.64318 -1.78191 0.649324 0.344984 1.21886 0.159887 -0.933056
3064 0.181888 0.312484 -0.465893 -0.762607 -0.992923 -0.0286265 0.478772 0.0335344 -1.31963 0.660771 0.626631 0.123722 -0.125203 1.33317 0.203591 -0.206367 -2.20214 -0.194003 -0.757709 1.42784 1.03512 2.11252 -0.537789 -1.43561
3290 0.217984 0.230997 -0.423843 -0.784461 -1.06708 -0.0142799 0.49221 0.0334947 -1.29545 0.730087 0.619522 0.130401 -0.155218 1.33474 0.267585 -0.174115 -2.13142 -0.204813 -0.708537 1.4055 0.99333 2.1651 -0.568462 -1.38089
3617 0.993084 0.0745413 -0.948767 -0.0365158 0.656848 -1.4934 0.364861 -0.682001 -0.751173 -0.87611 0.322261 1.03338 -0.167458 0.338131 0.605263 2.40044 -0.556834 -0.21051 -0.898627 0.572042 -0.684575 1.12043 -0.247264 -1.11376
2752 1.00433 0.0885364 -0.995241 -0.0496689 0.659263 -1.50162 0.387822 -0.643487 -0.73595 -0.96014 0.329057 1.01943 -0.201813 0.321821 0.630412 2.40787 -0.500779 -0.208818 -0.87277 0.573274 -0.619301 1.16969 -0.20185 -1.07454
2401 1.01161 0.0709368 -0.976591 -0.0529495 0.591031 -1.42681 0.418128 -0.670276 -0.749596 -0.966653 0.336505 0.982097 -0.167436 0.35213 0.588074 2.3524 -0.481144 -0.15978 -0.828088 0.606831 -0.633313 1.11058 -0.235207 -1.11851
3741 0.692727 0.510601 -0.204144 -0.275666 -1.58226 -1.15587 -0.235574 1.03472 -0.695093 0.81594 0.312901 1.25992 -0.391177 -0.605924 0.247977 1.40256 -2.13824 0.545581 -0.931514 0.706583 -0.985975 0.635693 0.631529 -1.05481
5456 0.654091 0.469616 -0.236685 -0.279787 -1.58147 -1.08525 -0.293727 1.01168 -0.678211 0.758364 0.310542 1.26131 -0.398862 -0.634809 0.262572 1.36525 -2.11863 0.526778 -0.930883 0.760222 -0.948984 0.65521 0.624493 -1.07952
3285 0.758045 0.531187 -0.218737 -0.28678 -1.64945 -1.18154 -0.276293 1.04855 -0.723539 0.893033 0.323502 1.28645 -0.420318 -0.635722 0.309732 1.46045 -2.26022 0.556966 -0.938959 0.755611 -0.997059 0.763721 0.644003 -1.06773
4751 0.0733026 0.90911 -0.921119 -0.604928 -0.460141 0.337996 0.341425 -0.629532 0.53904 -0.00622452 1.00711 0.405438 -0.983113 1.52811 -0.941098 1.00136 -0.177391 1.08703 -1.05767 0.0906273 0.861521 2.03305 0.22726 -1.39473
1563 0.0540051 0.839037 -0.837154 -0.592294 -0.484404 0.293004 0.333646 -0.599238 0.466325 0.0345033 0.98961 0.404654 -0.911936 1.3566 -0.817701 0.906501 -0.10019 1.00371 -0.974535 0.0727638 0.759596 1.83589 0.183346 -1.31343
2975 0.0737647 0.887431 -0.941932 -0.602538 -0.470077 0.339986 0.361968 -0.644928 0.523818 0.0298932 1.01338 0.400934 -0.969788 1.46587 -0.920807 0.987359 -0.137538 1.089 -1.03429 0.109042 0.835646 2.01554 0.204162 -1.46481
2500 0.0584539 0.845332 -0.898793 -0.556306 -0.425686 0.351573 0.313929 -0.629617 0.51688 0.0344571 0.936474 0.380597 -0.943676 1.4477 -0.872816 0.948192 -0.119732 1.00345 -0.938638 0.147827 0.808641 1.92432 0.21864 -1.32274
4893 0.537624 0.57836 0.657133 0.551722 -0.162786 -0.0526058 -0.0966194 -0.420858 -0.0772799 -0.881685 1.1203 1.3925 1.19509 -0.258509 0.242712 0.274789 -0.152969 1.81052 -1.69973 1.53515 1.07014 1.96924 0.332835 -0.826752
2245 0.50313 0.576111 0.682486 0.614296 -0.24912 -0.0765528 -0.0916369 -0.47826 -0.0926701 -0.860195 1.09654 1.36998 1.12058 -0.312006 0.218797 0.388621 -0.10368 1.82932 -1.71711 1.49005 1.08333 1.9398 0.360655 -0.80672
180 -0.382182 0.86017 -0.460683 0.927065 -0.189569 -0.105923 1.17767 1.03315 -0.0617174 1.4048 0.669315 1.55446 0.185336 0.177839 -0.0552308 1.21704 0.262338 1.65223 -0.162887 1.89842 1.13675 1.07169 0.0524307 -0.791512
4241 -0.386696 0.908697 -0.385995 0.979879 -0.159049 -0.0660383 1.15474 0.968792 -0.0979958 1.37401 0.73087 1.59973 0.172104 0.100247 -0.0344033 1.2388 0.184466 1.65415 -0.0574534 1.92547 1.13509 1.0576 0.066209 -0.776487
4828 -0.373421 0.860191 -0.405475 0.943936 -0.182202 -0.0338099 1.18712 0.90292 -0.088259 1.34397 0.674666 1.54312 0.119495 0.172928 -0.0726498 1.18371 0.190781 1.59152 -0.0694549 1.847 1.04066 1.07979 0.0888637 -0.701827
2889 -0.34082 0.945367 -0.417195 0.992683 -0.197062 -0.0672961 1.18676 0.998576 -0.0539322 1.33888 0.735418 1.61247 0.131667 0.154717 -0.076089 1.28937 0.201728 1.65997 -0.103581 1.90075 1.05588 1.1469 0.0919135 -0.777311
154 -0.409612 0.861438 -0.396486 0.986576 -0.197212 -0.13462 1.15801 0.929279 -0.144056 1.39066 0.727294 1.59694 0.159265 0.126365 -0.0623124 1.24685 0.224288 1.6332 -0.112677 1.93879 1.10821 1.14082 0.110596 -0.792422
2377 -0.644021 0.827573 0.0393815 -0.842324 -0.255072 -0.584327 1.3036 0.15985 -0.159749 0.456311 -0.25315 1.08125 -0.0585931 1.32094 -0.868223 0.560081 0.119756 0.649824 -1.36473 -0.139425 0.722586 1.7481 -0.848904 -1.83531
941 -0.562888 0.841696 0.00918015 -0.827314 -0.244211 -0.577275 1.23942 0.148855 -0.157196 0.453735 -0.206695 1.04425 -0.0293198 1.23537 -0.810703 0.562489 0.151047 0.614638 -1.34729 -0.131457 0.687248 1.67736 -0.795158 -1.77269
1152 -0.641441 0.74513 0.0327469 -0.842511 -0.302306 -0.585962 1.27212 0.125696 -0.154317 0.428537 -0.242827 1.01692 -0.0957459 1.27125 -0.852033 0.494749 0.10148 0.649635 -1.38242 -0.196988 0.704557 1.6917 -0.83694 -1.80023
2177 1.02465 0.166616 -0.166778 0.568139 0.955927 0.00473393 0.780328 0.389444 -0.00747791 0.938659 0.000157432 0.889064 -0.700311 0.547736 -0.509754 1.06742 0.00894242 -0.0312343 -0.389071 2.31095 -0.0907118 2.50113 -0.82138 -0.323155
5302 1.01224 0.198005 -0.221148 0.552645 0.926419 0.0617162 0.715921 0.411116 -0.0264857 0.946787 0.000593829 0.895863 -0.691565 0.531475 -0.512976 1.03067 -0.0072574 -0.0283062 -0.366138 2.23833 -0.0960627 2.43572 -0.759578 -0.336992
2077 0.938989 0.214521 -0.151996 0.53432 0.893712 0.00729244 0.728965 0.32336 -0.0375196 0.911396 0.000745714 0.859865 -0.64306 0.478613 -0.520636 1.02425 0.0327007 0.0182012 -0.364706 2.16219 -0.112563 2.36633 -0.739993 -0.373203
1616 0.994605 0.225035 -0.151983 0.530558 0.91682 0.0648322 0.75587 0.396562 -0.0235208 0.935848 -0.0104613 0.863219 -0.692308 0.53205 -0.540408 1.05568 0.0208693 -0.0563325 -0.395024 2.23943 -0.0846569 2.42209 -0.781964 -0.310131
4984 0.945397 0.276168 -0.18424 0.567209 0.880612 0.00222609 0.734716 0.390863 -0.0158424 0.876083 0.0725683 0.873733 -0.651315 0.532498 -0.469071 1.05996 0.0487115 -0.00804551 -0.353287 2.1831 -0.0414792 2.39679 -0.752383 -0.316743
2876 0.562145 -0.406865 -0.927672 -0.410854 -0.70807 -0.193168 -0.289937 0.138976 0.789376 1.25982 0.877258 2.44983 0.605786 -0.639313 0.189371 1.46258 -0.260086 -0.110147 -1.36922 0.518383 -0.394413 1.48712 0.667823 -0.160267
107 0.536164 -0.360357 -0.965973 -0.45282 -0.666843 -0.156588 -0.270355 0.147512 0.793712 1.30663 0.880869 2.42464 0.568332 -0.647019 0.259502 1.41881 -0.336158 -0.128668 -1.32961 0.510177 -0.405155 1.45867 0.634264 -0.131568
785 0.540192 -0.392513 -0.946472 -0.449183 -0.632489 -0.175178 -0.286 0.122205 0.790536 1.25238 0.886499 2.4529 0.564634 -0.633582 0.230932 1.43544 -0.281236 -0.177613 -1.36361 0.496708 -0.417032 1.53112 0.568757 -0.154168
2008 -0.0940627 1.16858 0.43078 -0.999634 0.122177 -0.810033 1.38967 -0.376877 -1.01129 -1.01628 0.215947 1.25192 -0.109811 -1.20931 0.109059 0.563335 -0.175884 0.256381 -0.880739 0.958052 -0.662339 2.00502 0.951864 -1.27891
2927 -0.0838905 1.08248 0.415219 -1.08771 0.130682 -0.74082 1.30842 -0.379798 -0.98137 -0.931183 0.189558 1.19816 -0.147161 -1.16751 0.114892 0.567629 -0.17719 0.209912 -0.858901 0.908396 -0.624707 1.98275 0.901856 -1.24835
4173 0.0843708 0.709627 -1.00999 0.0849919 -0.0437162 0.545246 0.453006 -0.284224 0.304782 -0.803361 0.589003 0.272717 0.316809 -0.0760537 -0.578394 0.997419 -2.26446 -0.579542 -2.11629 1.73204 0.756017 1.52785 -0.0759084 0.100909
4146 0.0632698 0.693825 -1.00925 0.0265582 -0.0750982 0.528132 0.436848 -0.312611 0.36311 -0.863574 0.554233 0.30474 0.302759 -0.14747 -0.601519 1.02477 -2.27 -0.606714 -2.09053 1.71888 0.723119 1.43965 -0.00221202 0.108841
388 0.10309 0.731723 -0.964902 0.0570818 -0.0582575 0.544942 0.438558 -0.290313 0.290367 -0.862277 0.624497 0.25313 0.33083 -0.0875935 -0.601504 1.02045 -2.29385 -0.618838 -2.09681 1.67799 0.68979 1.4735 -0.0652646 0.144034
68 0.121685 0.766833 -1.17348 0.0749975 -0.00196591 0.561468 0.500822 -0.388462 0.333116 -0.864828 0.605218 0.397138 0.357905 -0.142331 -0.609624 1.09749 -2.40097 -0.611411 -2.18666 1.85633 0.802811 1.5301 -0.136918 0.0800391
5560 0.051623 0.752363 -1.01949 0.0306107 -0.0381893 0.48761 0.435282 -0.313989 0.274693 -0.835399 0.606447 0.309586 0.379436 -0.138913 -0.511429 1.0216 -2.27161 -0.557104 -2.0937 1.68456 0.68578 1.46178 -0.10248 0.107625
3733 0.0631226 0.646435 -0.962132 0.0359341 -0.0434458 0.498809 0.377652 -0.254253 0.243844 -0.753227 0.496594 0.263059 0.288215 -0.118855 -0.535254 0.887969 -2.07171 -0.574373 -1.88298 1.54204 0.671617 1.32958 -0.0538041 0.0736244
3540 -1.30625 0.696901 -0.15096 -0.911962 -0.0671575 -0.678293 1.78263 -1.29933 -0.242146 -0.0863922 2.08902 0.744381 0.0104949 0.0412085 -0.66709 0.440842 -0.67451 0.458891 -0.56039 1.44127 -0.390119 1.43226 -0.169828 -0.0612958
4071 -1.21112 0.669856 -0.162836 -0.89511 -0.0257023 -0.619373 1.71935 -1.21244 -0.198128 0.0229236 1.90587 0.769295 0.00351683 0.00769111 -0.600664 0.427856 -0.568904 0.443858 -0.47509 1.32823 -0.32448 1.31063 -0.173439 -0.0415843
2160 -1.27432 0.681649 -0.126395 -0.958441 -0.0296957 -0.673026 1.78758 -1.34091 -0.234277 -0.0575045 2.05073 0.786743 0.0199588 0.0243949 -0.666424 0.418795 -0.644604 0.442533 -0.500997 1.3715 -0.372442 1.4361 -0.17332 -0.0749034
5171 -0.0523426 -0.811206 -0.0437513 0.0282078 0.198972 0.91941 2.03966 -0.940915 -0.561641 0.198448 0.935415 1.50644 -0.276728 0.917494 0.487134 2.09912 -1.06383 0.204249 -0.4608 -0.282539 -0.0375068 1.80063 -0.669141 -0.329508
5009 0.00952517 -0.836761 0.000662329 0.0355816 0.197164 0.889547 2.01606 -1.00322 -0.519656 0.214017 0.932485 1.50888 -0.321936 0.880492 0.520227 2.08584 -1.04893 0.165563 -0.465571 -0.314213 -0.0253367 1.83567 -0.666588 -0.376705
5585 1.12119 1.22764 -0.17678 -0.649469 -1.05357 -0.587113 0.624564 0.751932 -0.615596 0.950509 -0.412546 1.27663 -0.103887 0.172588 -1.3 0.283897 -1.17375 0.602192 -0.578912 0.418242 -0.835931 2.46377 -1.53764 -0.267482
1351 1.15036 1.23339 -0.174009 -0.610366 -0.995458 -0.596117 0.695538 0.675844 -0.581641 1.02395 -0.406171 1.25618 -0.058569 0.156209 -1.3145 0.28374 -1.16547 0.59924 -0.539858 0.424565 -0.900311 2.49392 -1.50429 -0.337869
2239 1.15867 1.24487 -0.108788 -0.715944 -1.15273 -0.526358 0.69061 0.692897 -0.577442 0.995801 -0.398707 1.28863 -0.0466161 0.154385 -1.2994 0.317009 -1.14124 0.655458 -0.567142 0.491409 -0.877691 2.55494 -1.5755 -0.41964
2802 0.92766 1.03222 -0.132209 -0.529153 -0.844338 -0.489678 0.57233 0.59725 -0.422909 0.7264 -0.297813 1.05064 -0.0483794 0.143376 -1.00088 0.15383 -0.928352 0.521283 -0.403344 0.364448 -0.674732 2.00754 -1.231 -0.285585
2110 0.58309 1.11757 -0.319617 0.40686 -0.171121 -0.112027 0.93929 -0.510411 -1.27924 0.764577 0.533023 0.677007 -0.658946 1.2991 -0.198538 0.641826 -0.82924 0.419377 -0.749048 0.476734 -0.112971 1.6239 -1.08689 -2.04071
3645 0.510948 1.03801 -0.330978 0.445826 -0.180334 -0.111756 0.875817 -0.432255 -1.18047 0.612315 0.453591 0.627484 -0.587583 1.15493 -0.238996 0.575846 -0.676149 0.372947 -0.643857 0.444984 -0.0731256 1.47397 -1.03939 -1.9366
139 0.582631 1.0939 -0.339459 0.490281 -0.154041 -0.0871459 0.890141 -0.499472 -1.30644 0.727927 0.531184 0.6742 -0.653947 1.28702 -0.232957 0.605845 -0.849446 0.439193 -0.723333 0.453064 -0.142478 1.60311 -1.11328 -2.04839
2231 0.641411 1.16085 -0.369471 0.477171 -0.16608 -0.103231 1.01951 -0.510655 -1.32927 0.772289 0.541545 0.71409 -0.648545 1.33731 -0.351985 0.633176 -0.827714 0.434145 -0.754916 0.375637 -0.0566451 1.63679 -1.17338 -2.19177
2097 1.20883 -0.261407 0.610595 0.17398 -0.0994943 -0.279704 0.731009 -0.33092 0.574998 -0.147616 1.11732 2.08957 0.668657 -0.435246 0.802907 1.00515 -1.90586 0.587168 -0.393299 -0.526016 0.552801 1.94368 -1.40176 -0.0530647
28 1.2491 -0.325786 0.690699 0.149737 -0.137129 -0.316624 0.733556 -0.357907 0.599229 -0.154991 1.02269 2.09082 0.641582 -0.422315 0.811195 1.0597 -1.88513 0.593767 -0.360019 -0.532861 0.529466 1.96392 -1.42373 -0.120747
3504 0.660832 0.392931 0.855048 -0.105027 -0.425063 -1.74201 0.0590121 -0.516034 -0.268005 0.166844 0.187468 1.04578 0.517379 1.08712 0.513799 0.945159 -1.47246 0.564085 -0.850172 0.847268 0.650388 0.533233 -0.911306 -1.38554
2793 0.663414 0.434001 0.930183 -0.103345 -0.411338 -1.85445 0.0848355 -0.568424 -0.310401 0.186816 0.189071 1.11154 0.538662 1.15491 0.551796 1.03197 -1.60138 0.604246 -0.83985 0.94177 0.714525 0.575533 -0.896647 -1.46521
4160 0.630222 0.373838 0.83492 -0.105231 -0.427463 -1.71068 0.104806 -0.5009 -0.292829 0.141988 0.21159 1.08285 0.55535 1.04181 0.561085 0.976024 -1.50639 0.573851 -0.822384 0.915758 0.617662 0.550792 -0.886837 -1.34792
3131 0.630106 0.366095 0.858683 -0.111269 -0.374532 -1.76161 0.125085 -0.538655 -0.262402 0.146788 0.198184 1.05141 0.545585 1.0794 0.514194 0.938719 -1.46883 0.576262 -0.801403 0.899391 0.60848 0.520762 -0.892519 -1.34438
2552 0.73234 0.405005 0.875976 -0.156314 -0.417305 -1.83974 0.156689 -0.55313 -0.256176 0.12914 0.184643 1.1213 0.568843 1.1555 0.590663 1.00255 -1.55242 0.588428 -0.827163 0.899708 0.664535 0.603897 -0.919208 -1.41693
2133 -0.26823 0.263519 -0.484965 -1.18845 -1.09012 -1.50195 0.809601 0.251474 0.538013 0.152501 -0.25329 0.121881 0.00523542 -0.323812 0.431348 2.0783 -0.303606 -0.760577 -1.57058 0.493857 0.441338 1.09925 0.351279 -1.54327
2325 -0.240622 0.223951 -0.516552 -1.22399 -1.12057 -1.5302 0.848056 0.271561 0.487722 0.18744 -0.310235 0.149739 0.117812 -0.313982 0.431009 2.12366 -0.317983 -0.821046 -1.64217 0.480066 0.466039 1.14437 0.360007 -1.56743
5382 -0.23269 0.27274 -0.540528 -1.17922 -1.14705 -1.54894 0.805628 0.237195 0.502369 0.1734 -0.256927 0.155611 0.0256492 -0.345084 0.440395 2.08683 -0.348097 -0.775518 -1.5482 0.485524 0.396081 1.07455 0.357452 -1.56432
5443 1.62899 1.2774 -0.14129 -0.360816 -0.132306 -0.383288 -0.288982 0.754022 0.95528 1.32349 0.679079 1.31804 -0.207634 0.282839 0.28047 0.620272 -0.952095 1.66635 -1.50074 0.0611571 -0.538489 1.68376 -0.117389 -0.834031
3607 1.79465 1.46724 -0.128423 -0.379694 -0.157373 -0.501136 -0.288838 0.836555 1.03234 1.46146 0.762867 1.48469 -0.216155 0.293123 0.260069 0.744129 -1.06692 1.86867 -1.64205 0.0978274 -0.56735 1.88173 -0.151889 -0.910455
584 1.65956 1.3174 -0.0839849 -0.358802 -0.189918 -0.476858 -0.353293 0.808335 0.977724 1.24045 0.681164 1.22681 -0.229243 0.267608 0.305701 0.672767 -0.983446 1.72063 -1.52809 0.0461088 -0.458729 1.67719 -0.151547 -0.869671
4830 1.24942 0.950787 -0.100401 -0.311875 -0.0759141 -0.36599 -0.310663 0.608865 0.750696 0.940234 0.491951 0.954448 -0.237591 0.243946 0.182793 0.447572 -0.699848 1.25816 -1.11562 -0.0678321 -0.320255 1.26332 -0.124343 -0.63757
589 1.17076 -0.115364 -0.34668 -1.0596 -0.203531 0.138385 0.274012 0.768466 0.336835 0.0834295 0.26046 0.397635 -0.174633 -0.845094 -0.641216 1.09816 -2.00008 0.692538 -0.718382 0.410235 1.64683 1.39251 -0.690002 -1.29674
347 1.25426 -0.0683893 -0.360145 -1.03845 -0.219104 0.12292 0.232652 0.821915 0.399389 0.0581978 0.232049 0.396375 -0.183594 -0.893423 -0.638495 1.04238 -2.05545 0.793144 -0.794548 0.411889 1.67095 1.49964 -0.671885 -1.38857
2540 1.29351 -0.0538771 -0.406038 -1.03609 -0.192078 0.144459 0.23531 0.774763 0.348033 0.0212408 0.268588 0.397691 -0.150402 -0.919933 -0.65666 1.11594 -2.09983 0.764942 -0.798027 0.359291 1.7026 1.47503 -0.682632 -1.34013
5190 -0.021334 0.553103 0.0495663 -0.504219 0.393984 -0.227111 0.614852 -0.566146 -0.302631 -0.0908004 -0.144309 0.101958 -0.177092 0.330302 0.844896 1.50618 -2.17818 -0.226587 -0.0228219 0.715472 1.92706 1.89675 -1.20017 -1.14922
4182 0.0044618 0.457052 0.0448627 -0.537107 0.412604 -0.161449 0.595249 -0.540385 -0.333436 -0.129902 -0.116092 0.0476805 -0.164673 0.243316 0.781018 1.46795 -2.03045 -0.181919 -0.093975 0.663555 1.80439 1.76546 -1.09388 -1.0886
92 -0.046998 0.585367 0.105024 -0.588088 0.442103 -0.226636 0.644277 -0.514581 -0.283927 -0.111029 -0.137877 0.055855 -0.177967 0.275522 0.842543 1.54885 -2.24025 -0.239074 -0.0729667 0.765951 1.98338 1.89826 -1.2186 -1.19968
3114 0.0980815 1.06963 0.595976 -0.114648 -0.140694 0.00499425 -0.831969 0.445728 0.595544 0.588296 0.0279294 1.20628 -2.03235 0.106812 -0.579741 2.18234 -1.41804 1.06953 -0.696577 0.106698 1.10251 1.03733 0.137776 -1.13245
1018 0.0484072 1.04462 0.582483 -0.123842 -0.158862 0.0272121 -0.896916 0.42615 0.596157 0.492769 0.13873 1.15622 -2.02556 0.105127 -0.534452 2.244 -1.38073 1.08764 -0.733139 0.150968 1.17609 0.981317 0.148345 -1.12724
4599 -0.302689 -0.43387 -0.515905 0.300634 0.283718 -0.577138 0.918059 -0.425067 0.241363 0.577041 0.38798 0.878583 -1.06224 -0.418105 0.07225 1.25934 -0.999638 -1.0048 -1.16427 -0.091986 0.388292 1.40409 -0.148489 -0.369203
3647 -0.429085 -0.563969 -0.725293 0.368575 0.332739 -0.774501 1.22812 -0.529276 0.278428 0.881486 0.520223 1.17335 -1.34628 -0.551959 0.0738925 1.72932 -1.32556 -1.30003 -1.56728 -0.1174 0.50819 1.89738 -0.191883 -0.408713
3233 -0.38999 -0.528202 -0.649297 0.373058 0.359812 -0.734964 1.18867 -0.569952 0.265047 0.813497 0.510835 1.07886 -1.30159 -0.582807 0.0713558 1.66435 -1.31241 -1.24718 -1.50631 -0.1748 0.448725 1.77268 -0.190543 -0.31276
5534 -0.419487 -0.508666 -0.661236 0.382929 0.347448 -0.752505 1.18889 -0.585578 0.32386 0.870581 0.482499 1.17648 -1.3929 -0.501645 0.0975354 1.69533 -1.32798 -1.25127 -1.54998 -0.119729 0.497041 1.86272 -0.207828 -0.397793
3074 -0.412547 -0.503157 -0.620712 0.373843 0.330058 -0.73317 1.08622 -0.55567 0.276049 0.810675 0.464291 1.06557 -1.25214 -0.591363 0.0212427 1.63482 -1.25444 -1.20076 -1.43048 -0.106189 0.514994 1.73634 -0.15157 -0.334269
2731 -0.393708 -0.486391 -0.640275 0.32542 0.327993 -0.687381 1.06846 -0.502283 0.257614 0.811888 0.466217 1.05234 -1.20127 -0.577275 0.0494636 1.56732 -1.2083 -1.20721 -1.37457 -0.13584 0.503266 1.68951 -0.1884 -0.323856
5191 -0.392627 -0.493032 -0.661924 0.437185 0.389165 -0.790939 1.24322 -0.52737 0.318859 0.838925 0.512725 1.18049 -1.41993 -0.616411 0.0697224 1.73931 -1.34744 -1.33678 -1.56843 -0.135744 0.567454 1.83641 -0.175405 -0.437669
3021 -0.739961 0.371814 0.499927 -0.94451 -0.0697822 0.385625 0.329682 -0.0270938 -0.939235 0.380709 1.20765 0.787319 -0.644739 -0.229785 0.79683 1.35338 -0.311638 0.180965 -1.16389 0.986572 1.13463 1.8435 -0.782059 0.277947
5175 -0.745294 0.343525 0.470649 -0.922964 -0.0942221 0.384171 0.256013 0.0158783 -0.991532 0.402854 1.20485 0.746603 -0.586575 -0.212576 0.78407 1.26404 -0.267809 0.175199 -1.11507 0.96028 1.11124 1.87498 -0.761627 0.276988
5012 -0.821406 0.357728 0.573809 -1.05577 -0.0201744 0.408052 0.264474 0.0163517 -1.06234 0.422418 1.357 0.819936 -0.677894 -0.220912 0.880961 1.42295 -0.28981 0.214199 -1.26819 1.03094 1.25837 2.03504 -0.889191 0.304623
4867 -0.786131 0.362504 0.566272 -1.04572 -0.0154231 0.43274 0.273121 0.00410461 -1.07187 0.400729 1.3606 0.833123 -0.712036 -0.218241 0.867403 1.44479 -0.352878 0.193775 -1.26583 1.11989 1.35071 2.09199 -0.837913 0.338339
1134 0.386591 0.844955 0.086685 -0.145422 0.613081 -1.0486 -0.119955 0.625749 -0.631715 0.733637 -0.0358811 1.99511 -0.719233 0.404154 0.785192 0.948267 -0.745979 -0.535512 -0.575854 0.163564 -0.399105 1.65767 -0.18222 -1.00586
249 0.38846 0.894208 0.120956 -0.151166 0.707665 -1.15401 -0.113745 0.721357 -0.750138 0.843672 -0.079325 2.26257 -0.821042 0.437397 0.88696 1.05333 -0.770615 -0.59385 -0.658721 0.183933 -0.506053 1.88558 -0.225408 -1.15833
2941 0.382772 0.813279 0.113581 -0.11969 0.680043 -1.03985 -0.147254 0.629333 -0.667874 0.772389 -0.0372732 2.01779 -0.740161 0.390091 0.796223 0.974877 -0.720524 -0.563829 -0.601671 0.17793 -0.464327 1.70069 -0.201629 -1.04311
1363 0.390995 0.900387 0.189112 -0.121809 0.682629 -1.10155 -0.085353 0.709115 -0.76011 0.790039 -0.0537539 2.15032 -0.74588 0.362462 0.91305 1.01456 -0.733437 -0.625437 -0.634476 0.193281 -0.435208 1.83452 -0.226988 -1.13858
2522 0.058672 -0.464997 0.502962 -0.775261 -0.852152 -0.224093 0.704352 0.247434 0.351827 0.163719 0.120012 1.61937 0.678822 0.838737 -0.708789 1.3443 -1.75844 1.06726 -0.957638 -0.0538509 0.348755 0.65168 -0.923317 -0.173997
1905 0.0786962 -0.571097 0.588697 -0.863356 -0.949183 -0.255392 0.787923 0.277699 0.349138 0.156398 0.156575 1.79582 0.815842 0.967576 -0.762196 1.54274 -2.03281 1.21488 -1.07405 0.00916816 0.370729 0.751844 -1.13864 -0.232386
3835 0.0608812 -0.539467 0.545743 -0.824157 -0.85615 -0.247224 0.684405 0.278928 0.320502 0.180268 0.137743 1.61499 0.729538 0.878235 -0.720604 1.34215 -1.78674 1.03164 -0.952305 -0.034919 0.362984 0.679463 -0.996238 -0.15239
2247 -0.0910733 -0.0105879 -0.753696 -1.53403 -0.726535 0.51727 0.295395 0.214285 -0.108448 0.23709 1.46742 0.732778 0.0307959 -0.783146 -1.06309 1.40831 0.205875 0.58375 -1.65004 -0.0650454 -0.000925686 1.86132 -0.548733 -1.61072
1101 -0.104846 -0.0140534 -0.70117 -1.49847 -0.682045 0.53118 0.221073 0.15449 -0.098595 0.231159 1.46327 0.719594 0.0013595 -0.769479 -1.06978 1.38129 0.165838 0.565064 -1.62285 -0.107053 -0.0224025 1.79545 -0.510712 -1.50052
4244 0.120342 -0.440023 0.411877 -1.11615 0.404001 -1.04114 1.55413 -1.21116 0.275342 -0.417816 0.0720316 1.53934 0.386276 -0.99334 -0.472995 0.949416 -0.814781 -0.537219 -0.270243 1.09597 0.325903 2.55803 -0.307358 0.928462
5119 0.0727306 -0.361355 0.346877 -1.07621 0.375758 -1.06901 1.55032 -1.21852 0.268488 -0.488004 0.0776237 1.56919 0.385121 -1.02644 -0.395418 0.954539 -0.796901 -0.655428 -0.277121 1.14518 0.406214 2.53305 -0.354013 0.904094
1580 0.155591 0.69357 0.130529 0.149807 -0.595481 -1.41347 0.745368 0.4004 0.151378 1.09824 1.49786 1.63506 0.612379 -0.148405 0.0557971 0.322394 -0.638802 0.984945 -0.188994 1.14369 -0.531797 0.70473 -0.263526 -0.831154
2176 0.219391 0.654185 0.0944815 0.185419 -0.6095 -1.36369 0.814577 0.394427 0.198824 1.05453 1.4757 1.54982 0.549388 -0.116087 0.0581778 0.348951 -0.598933 0.922681 -0.222602 1.05592 -0.518098 0.686932 -0.270154 -0.800861
4585 0.223912 0.679569 0.143045 0.161747 -0.623532 -1.40048 0.781886 0.417364 0.170069 1.0937 1.49535 1.59482 0.576336 -0.147927 0.0405748 0.331086 -0.639591 0.957761 -0.204609 1.09965 -0.491209 0.739413 -0.280567 -0.873014
5596 0.258556 0.82178 0.126116 0.206391 -0.767227 -1.73234 0.861909 0.533062 0.179788 1.29419 1.86122 1.95342 0.721514 -0.1229 0.111473 0.4106 -0.753276 1.21588 -0.240166 1.44553 -0.631723 0.920235 -0.34645 -1.03295
5468 -0.0107964 -0.0774657 -0.227623 -0.179772 -0.385865 -0.141078 1.10507 0.648756 0.936967 -1.07224 1.10948 0.603546 0.330843 -0.271305 0.376684 1.58463 -0.451219 0.0521886 -2.52057 0.734201 -0.385617 1.4547 0.79766 -0.264191
1324 -0.0359306 -0.00429191 -0.19458 -0.156551 -0.361922 -0.105326 1.08424 0.635363 0.907723 -1.10442 1.16892 0.545459 0.286466 -0.274581 0.343247 1.51736 -0.423322 -0.111192 -2.54863 0.729506 -0.314741 1.45096 0.883119 -0.293099
3484 -0.0570528 -0.0585319 -0.19141 -0.20035 -0.33472 -0.100202 1.06913 0.648161 0.875442 -1.03402 1.14387 0.614533 0.333571 -0.28342 0.371877 1.5016 -0.43955 -0.0352597 -2.49794 0.721482 -0.367813 1.44625 0.819546 -0.279728
3426 0.00758128 -0.0622706 -0.184263 -0.221068 -0.304569 -0.0965929 1.07683 0.654079 0.884409 -1.074 1.14967 0.596664 0.301596 -0.29067 0.386655 1.56001 -0.420721 -0.067371 -2.5341 0.712344 -0.350826 1.48302 0.814954 -0.280081
395 -0.0607408 -0.0207531 -0.199862 -0.177577 -0.339231 -0.109475 1.01313 0.604485 0.899282 -0.976829 1.08118 0.602601 0.273471 -0.268143 0.299729 1.48022 -0.40073 -0.0379503 -2.36614 0.720184 -0.363114 1.45002 0.748451 -0.235893
3106 -0.0595719 -0.0599883 -0.202369 -0.182054 -0.346891 -0.098315 1.10949 0.567852 0.94097 -1.0831 1.12537 0.62305 0.354536 -0.290628 0.419999 1.51777 -0.423569 -0.0313166 -2.50591 0.728854 -0.376564 1.44748 0.804921 -0.2982
904 -0.0183838 -0.0466348 -0.213243 -0.194882 -0.34729 -0.161861 1.05564 0.588623 0.87039 -1.0129 1.06586 0.600949 0.275554 -0.314066 0.337739 1.43698 -0.437471 -0.0187274 -2.46895 0.771143 -0.387896 1.42966 0.727927 -0.232453
1750 -0.000702644 -0.0853538 -0.245892 -0.171174 -0.361194 -0.0947212 1.10441 0.612845 0.92233 -1.10297 1.18373 0.649728 0.284142 -0.30659 0.393506 1.56246 -0.412202 0.0428145 -2.57631 0.810218 -0.357428 1.52424 0.823213 -0.273613
5093 -0.0542387 -0.0413949 -0.205927 -0.152759 -0.318979 -0.136669 1.01591 0.607794 0.827075 -0.977678 1.07616 0.582011 0.304309 -0.25237 0.29807 1.41694 -0.399333 0.0137342 -2.3688 0.686377 -0.32213 1.39264 0.75206 -0.285941
2078 -0.165912 0.425508 -0.505421 -1.155 -1.15214 -1.48717 0.198709 0.133073 0.332302 -0.492585 0.0172486 0.877843 -0.442022 0.171302 -0.184465 0.137761 -1.824 1.62226 -0.645384 0.494914 0.0145999 1.37228 -0.517413 -0.657499
678 -0.158308 0.383331 -0.481651 -1.08984 -1.12854 -1.45865 0.221446 0.147527 0.322491 -0.488809 0.0380678 0.879267 -0.412194 0.103415 -0.158376 0.136075 -1.77143 1.59128 -0.647307 0.489118 0.0213005 1.32999 -0.479194 -0.648358
2061 -0.198723 0.397036 -0.487875 -1.15467 -1.16133 -1.46701 0.224663 0.174096 0.288701 -0.469273 -0.00883016 0.85719 -0.437599 0.128576 -0.148251 0.0811217 -1.78076 1.60173 -0.67896 0.427432 0.0494649 1.32131 -0.503751 -0.65939
1421 -0.795943 0.0307544 -0.343042 -1.09892 0.0510913 -0.466192 0.0519526 1.02194 0.74126 0.383397 -0.32236 1.91633 0.166465 0.805948 0.953158 0.12956 -1.18224 0.965597 -0.82577 1.62692 0.863055 1.54778 0.0746688 -1.72123
2555 -0.668286 -0.205206 -0.22018 -1.30933 0.505319 -0.795284 0.21541 0.624491 0.764357 0.380883 -0.196548 1.65824 0.0335201 1.17567 0.92517 -0.0786744 -1.09729 0.836092 -0.970633 1.72493 1.15987 1.78869 0.00934868 -1.62507
520 -0.810936 -0.00506955 -0.553161 -1.1475 0.0260548 -0.424311 0.0411979 1.13879 0.589354 0.363795 -0.311775 2.07899 0.138981 0.868061 0.99923 0.128973 -1.20993 0.934057 -0.835354 1.7014 0.968826 1.61218 0.0751746 -1.73468
3378 -0.683636 -0.12241 -0.4117 -0.917141 0.145071 -0.372041 -0.125175 1.04226 0.299024 0.155047 -0.264782 1.63562 0.177378 0.87496 0.777646 0.0323389 -1.07881 0.793337 -0.739046 1.60253 0.722878 1.47372 -0.0262643 -1.42414
558 -0.700187 -0.0344477 -0.422331 -0.984093 0.0548651 -0.401861 -0.075915 1.04353 0.492286 0.269102 -0.269216 1.7273 0.12887 0.786385 0.886774 0.125983 -1.05817 0.790125 -0.73708 1.56041 0.774731 1.47995 0.0291919 -1.51983
3509 -0.721112 -0.0614549 -0.332515 -1.10238 0.114357 -0.510358 0.051577 0.877058 0.683005 0.322784 -0.289952 1.7449 0.12345 0.846409 0.943772 -0.0356381 -0.969931 0.907421 -0.753404 1.48961 0.961817 1.44089 0.119198 -1.56364
5230 -0.730435 0.316404 -0.32876 -0.92521 -0.238168 -0.362044 0.116834 1.04746 0.837762 0.462286 -0.424144 1.88074 0.107887 0.408976 0.958976 0.154117 -0.956165 0.964785 -0.616392 1.12733 0.803091 1.21975 0.323681 -1.60048
5406 -0.671506 0.829849 -0.0990993 -0.781719 -0.669198 -0.395664 0.486192 0.970496 1.25945 0.749005 -0.423104 2.10887 0.0704077 -0.153647 0.973964 0.549583 -0.970848 1.26461 -0.497232 0.81172 0.829008 1.31677 0.649374 -1.70692
4681 0.309721 1.16221 0.66689 0.436966 0.578646 0.209485 0.835395 0.0874992 0.467181 1.53335 0.600202 1.35354 -1.03644 1.0318 -0.914156 1.35761 -1.21962 0.435033 -0.597499 0.651909 0.156924 0.550562 -0.150644 -1.7978
1338 0.350345 1.12511 0.676134 0.409866 0.603043 0.240371 0.908158 0.123893 0.453076 1.57872 0.565588 1.34316 -1.12795 1.01414 -0.972466 1.34981 -1.17317 0.499926 -0.534357 0.651387 0.177215 0.554768 -0.171794 -1.838
24 0.400278 1.18915 0.645084 0.463599 0.618098 0.208724 0.89709 0.120407 0.44757 1.60396 0.571335 1.41295 -1.15032 1.05516 -0.940511 1.42448 -1.18529 0.475587 -0.565073 0.627293 0.135168 0.535756 -0.167938 -1.84652
1655 0.299073 1.18756 0.633593 0.392262 0.582911 0.161229 0.855858 0.123387 0.453534 1.56948 0.563997 1.28372 -1.07024 1.00557 -0.898376 1.36487 -1.19502 0.438267 -0.534973 0.610987 0.16147 0.504069 -0.2091 -1.72524
2639 0.359199 1.20041 0.668413 0.438201 0.604379 0.180655 0.858792 0.11403 0.458893 1.63534 0.589482 1.38403 -1.07518 1.06985 -0.979249 1.42779 -1.22561 0.464774 -0.606437 0.610218 0.196286 0.564637 -0.17876 -1.85486
4057 -0.28988 0.81258 0.169777 0.704608 0.295176 -0.0066669 -0.0241227 0.622 0.836254 0.208666 0.442753 0.449387 -0.177132 1.17212 -0.733641 1.4131 -1.76435 -0.746082 -0.856627 0.633501 -0.410165 1.53398 0.623199 -1.42172
3753 -0.333168 0.872301 0.20302 0.735053 0.352427 -0.0611529 -0.0382884 0.590915 0.859155 0.246498 0.437819 0.421019 -0.239762 1.21487 -0.748334 1.48721 -1.7376 -0.783482 -0.90001 0.678384 -0.42383 1.58019 0.676305 -1.43908
69 -0.334856 0.815041 0.1814 0.684935 0.333771 -0.0166799 -0.0457629 0.569508 0.836346 0.190336 0.446143 0.438524 -0.247856 1.1306 -0.675157 1.45473 -1.66726 -0.735623 -0.818696 0.645075 -0.426149 1.50651 0.676086 -1.34102
461 -0.311502 0.842743 0.165948 0.703928 0.299366 0.00353009 -0.0013698 0.588533 0.84516 0.219862 0.431357 0.445253 -0.184244 1.20272 -0.729587 1.52414 -1.80622 -0.754805 -0.861783 0.655308 -0.416058 1.53965 0.668672 -1.35406
4469 -0.324436 0.799752 0.191905 0.681256 0.302166 -0.0168611 -0.0158102 0.628122 0.809367 0.213138 0.412313 0.459208 -0.184639 1.08969 -0.679269 1.41211 -1.71926 -0.741325 -0.834583 0.616937 -0.368879 1.50696 0.649463 -1.35183
1360 1.33387 -0.333946 0.108741 -0.583562 0.0269498 -1.4929 1.7073 0.287663 -0.572863 -0.260157 0.349673 1.58602 -1.09585 0.35959 -0.525353 0.880918 -0.194848 -0.125799 -0.384425 0.877183 0.219602 1.46995 -0.247234 -0.320708
608 1.4449 -0.421106 0.182015 -0.652832 0.0437034 -1.56582 1.86839 0.282447 -0.583244 -0.251843 0.413862 1.69034 -1.14509 0.437864 -0.594464 0.935245 -0.193293 -0.139939 -0.393293 0.891998 0.170316 1.64336 -0.327693 -0.349184
571 1.4076 -0.363464 0.115524 -0.650428 0.0397253 -1.61863 1.82675 0.348802 -0.569685 -0.296735 0.351704 1.72881 -1.128 0.38172 -0.638924 0.935874 -0.168721 -0.088962 -0.390893 0.859836 0.141424 1.58694 -0.219304 -0.351554
2266 -0.26505 0.37672 -1.39922 -0.28432 -0.465658 -0.815885 0.456685 0.0575291 0.310626 1.07646 1.96167 1.23386 -0.0528255 0.101859 -0.270536 0.807472 -0.167364 0.0554103 -0.228908 0.431356 -0.70402 1.6727 -0.34895 -0.464262
4724 -0.399436 0.351873 -1.62682 -0.387154 -0.569186 -0.723246 0.585654 0.167974 0.468859 1.07576 2.54079 0.90397 -0.167793 0.245673 -0.474811 0.883901 -0.670356 0.581692 -0.363448 0.36952 -0.673209 2.21963 -0.539661 -0.0986071
2136 -0.27262 0.706724 -1.28609 -0.514023 -0.289375 -0.607207 0.74467 0.353926 0.466871 0.741849 2.5453 0.756069 -0.377513 0.370488 -0.358895 0.887499 -0.885911 0.933567 -0.436334 0.241444 -0.49522 2.00488 -0.586636 0.198379
3170 -0.253431 0.53248 -1.1841 -0.530632 -0.345032 -0.666933 0.73511 0.391935 0.480369 0.839634 2.52226 0.837785 -0.331505 0.260299 -0.36874 0.841835 -0.830024 0.878055 -0.327229 0.290906 -0.538097 2.10539 -0.621177 0.212388
1253 -0.174554 0.621003 -1.2691 -0.475321 -0.142512 -0.669457 0.787906 0.23351 0.268148 0.56016 2.2506 0.793664 -0.45612 0.377057 -0.234932 0.83363 -0.735649 0.874241 -0.360753 0.258117 -0.309542 1.68589 -0.341361 0.285795
5433 -0.247945 0.80425 -1.17634 -0.494298 -0.177694 -0.65517 0.849393 0.406844 0.412855 0.769245 2.48151 0.792545 -0.639342 0.269926 -0.391773 1.02373 -0.84267 0.979874 -0.465947 0.182878 -0.385581 1.85113 -0.646358 0.418658
36 -0.220438 0.637109 -0.927795 -0.388755 -0.107163 -0.475102 0.663473 0.377929 0.314292 0.566723 1.98887 0.635092 -0.508784 0.170355 -0.341337 0.795981 -0.759706 0.773321 -0.320494 0.294837 -0.3471 1.55872 -0.571597 0.324922
3583 -0.0240822 0.557654 -1.60164 -0.458133 -0.202944 -0.978643 0.984749 0.0583126 0.166893 0.474121 2.76556 1.11987 -0.50895 0.550669 -0.173133 1.03843 -0.714657 1.15724 -0.608588 0.269706 -0.330081 1.93564 0.0286295 0.400707
3482 -0.0942964 0.735703 -1.39462 -0.407048 -0.207476 -0.776048 0.966425 0.257162 0.39679 0.601544 2.61469 1.05228 -0.483557 0.440489 -0.283685 0.920994 -0.817322 1.14805 -0.441025 0.253017 -0.433628 1.90212 -0.508783 0.19176
3108 -0.0165222 0.586084 -1.00242 -0.359392 -0.118935 -0.678486 0.835294 0.240648 0.335524 0.417615 2.20721 0.943308 -0.383822 0.362319 -0.276224 0.824386 -0.682809 0.980515 -0.344141 0.280516 -0.330989 1.5816 -0.392438 0.211997
3185 0.886236 1.21643 -0.557387 0.268605 0.150316 -0.618322 0.120883 0.713612 0.0142023 1.13533 0.390025 0.590068 0.177084 0.934877 0.653992 0.746408 0.0878972 0.148258 -0.65018 1.87414 -0.206534 2.00765 0.561834 -1.08857
2453 0.963504 1.30836 -0.599397 0.19207 0.153377 -0.627986 0.0940153 0.78555 0.0101882 1.21818 0.443006 0.594519 0.173209 1.00767 0.630146 0.743324 0.0716616 0.131207 -0.701688 2.02319 -0.193072 2.09096 0.649372 -1.17952
568 0.964161 1.3142 -0.602907 0.238599 0.171149 -0.706446 0.052329 0.748842 0.0248077 1.22923 0.434725 0.611808 0.228436 1.04355 0.663827 0.738506 0.0899247 0.144955 -0.684554 1.97306 -0.197515 2.0582 0.65662 -1.16643
2511 0.96537 1.24744 -0.590298 0.21365 0.174582 -0.60968 0.127642 0.720159 0.0268019 1.17519 0.397256 0.644768 0.201086 0.947514 0.60896 0.732032 0.0793221 0.130252 -0.697852 1.9325 -0.216521 1.95513 0.575606 -1.06365
2778 -0.632885 0.0712644 0.32767 -0.516322 -1.22194 -0.213057 0.0767031 -0.0296473 0.177811 1.24119 0.413271 -0.105356 0.00236159 -0.163678 -0.855902 0.897615 -1.68439 -0.221148 -1.47315 -0.510246 -0.0706899 2.31247 -0.089676 -1.00951
3082 -0.630793 0.105548 0.392857 -0.506969 -1.30592 -0.240767 0.0732565 0.0103665 0.215102 1.32136 0.470436 -0.0714458 -0.0180206 -0.254109 -0.991635 0.986792 -1.85157 -0.188566 -1.61231 -0.6236 -0.0894612 2.49762 -0.0983385 -1.03853
2828 -0.629056 0.107065 0.297362 -0.526012 -1.30053 -0.256711 0.0976908 0.00459097 0.245677 1.30794 0.467916 -0.14943 -0.0326795 -0.254333 -1.0032 0.979768 -1.85871 -0.254012 -1.57074 -0.633932 -0.0813226 2.44861 -0.136522 -1.0572
3766 0.527216 0.475444 -0.791943 -1.10949 -0.0601767 -1.59764 1.14686 0.270237 0.377527 0.67797 0.845501 1.37707 0.705867 0.211413 -1.19753 0.771387 -2.07024 0.518945 -0.828822 1.05813 1.59311 0.148686 0.257358 -1.26044
63 0.316907 0.417532 -0.553535 -0.810081 -0.0325578 -1.17934 0.911462 0.297697 0.275836 0.491501 0.594432 1.05786 0.425912 0.145723 -0.880326 0.683788 -1.45734 0.352827 -0.648092 0.739596 1.08881 0.127456 0.109383 -0.927437
4529 0.341185 0.481691 -0.554071 -0.809068 -0.0217806 -1.23499 0.948761 0.288409 0.278899 0.532729 0.556854 1.09438 0.461639 0.136421 -0.830425 0.709658 -1.50272 0.367244 -0.654849 0.75908 1.12957 0.109842 0.121336 -0.899486
2648 0.290004 0.477401 -0.612238 -0.81578 -0.0271211 -1.2346 0.9232 0.282547 0.27001 0.516135 0.655325 1.13876 0.436423 0.161593 -0.884948 0.736847 -1.60788 0.409528 -0.668776 0.83513 1.14345 0.253272 0.137947 -0.967726
4124 0.468654 0.39877 -0.763443 -1.00255 0.00224161 -1.40306 1.09781 0.34755 0.372784 0.62851 0.699706 1.26686 0.581366 0.213172 -1.14723 0.689189 -1.86849 0.410961 -0.691785 0.916346 1.51195 0.110141 0.160292 -1.13336
4334 0.374229 0.45854 -0.799011 -1.01947 -0.0240477 -1.4763 1.20816 0.328947 0.39495 0.637113 0.78292 1.2948 0.627957 0.147633 -1.09011 0.803913 -1.95492 0.430648 -0.732861 0.857523 1.57383 0.074541 0.236816 -1.11304
3541 1.53736 0.107656 -0.682814 0.115 1.23311 0.375727 0.494566 -0.261646 -0.29696 0.516121 1.18528 1.50144 -0.042408 0.431982 0.25989 0.50353 -1.24602 -0.0712869 -0.568065 1.18581 0.312886 1.67036 0.285206 -1.42679
5435 1.50964 0.029297 -0.692779 0.167105 1.23556 0.416098 0.466268 -0.1878 -0.313473 0.422455 1.10948 1.57243 0.00146359 0.440117 0.251761 0.516919 -1.27188 -0.0152844 -0.506177 1.17587 0.259154 1.58525 0.309703 -1.39401
4166 1.73716 0.123073 -0.669249 0.217878 1.31717 0.356549 0.457565 -0.301669 -0.353373 0.479731 1.26392 1.80271 -0.0744067 0.549643 0.350729 0.592159 -1.43383 -0.0941425 -0.61605 1.37817 0.250177 1.80226 0.383103 -1.53816
3358 1.59007 0.0548239 -0.660775 0.169157 1.25343 0.354411 0.508976 -0.271915 -0.334527 0.470396 1.18408 1.64125 -0.0297337 0.500265 0.32412 0.602904 -1.36441 -0.0710059 -0.529669 1.23826 0.17108 1.66264 0.30824 -1.4565
3116 1.38186 -0.0839023 -0.553131 0.167128 1.06167 0.37751 0.445469 -0.204762 -0.26806 0.456762 1.02187 1.32374 -0.00545421 0.328839 0.254989 0.436799 -1.10053 -0.0344859 -0.434865 1.00892 0.247859 1.40677 0.325171 -1.17974
813 1.6856 -0.221784 -0.930203 0.00728671 1.23878 0.585814 0.721668 -0.307701 -0.217377 0.858734 1.29389 1.48936 -0.0757708 0.221541 0.448007 0.728285 -1.16343 0.153329 -0.564339 1.28169 0.344552 1.83691 0.252506 -1.55307
4371 1.23477 -0.631651 -1.1257 -0.535727 0.755912 0.393902 1.22922 -0.241699 -0.00693246 1.34245 1.28619 0.921374 -0.0539306 -0.506992 0.545531 1.24437 -0.582848 0.463265 -0.462767 1.1956 0.606833 2.00386 -0.086344 -1.61139
4104 0.944381 -0.478072 -0.990351 -0.57928 0.567825 0.3695 1.24353 -0.151909 0.0184412 1.22369 1.08809 0.612484 -0.0457349 -0.773724 0.412617 1.06849 -0.392618 0.416064 -0.427611 1.11565 0.600802 1.96673 -0.162352 -1.37928
2189 1.29105 -0.480871 -0.883812 -0.251562 0.939965 0.60797 1.03593 -0.280286 -0.127874 1.11074 1.22169 1.10891 -0.0469368 -0.432003 0.530043 1.01869 -0.725523 0.494912 -0.465207 1.20557 0.613369 2.05169 0.110775 -1.51428
2934 0.873067 -0.545979 -0.925021 -0.467187 0.627506 0.3536 1.11291 -0.212933 0.021013 1.1191 0.990922 0.612397 -0.0565985 -0.655988 0.415659 0.960579 -0.405091 0.363544 -0.362437 1.05407 0.4504 1.83414 -0.145099 -1.29933
4118 0.757 -0.401382 -1.0863 -0.733396 0.710988 0.0145327 1.43855 -0.356122 0.274706 1.60944 1.00897 0.268083 -0.110946 -0.884882 0.345574 1.30597 -0.416133 -0.0429042 -0.350705 1.52821 0.128107 2.18693 -0.422347 -1.72044
4664 0.271423 -0.224944 -0.943637 -0.873785 0.304431 -0.514482 1.30081 -0.403364 0.518372 1.49162 0.711785 -0.152505 -0.146728 -0.985514 0.223069 1.35426 -0.282463 -0.243559 -0.367621 1.40492 -0.232429 1.90243 -0.585197 -1.38894
5372 0.383337 -0.218201 -1.08874 -0.95884 0.318738 -0.537693 1.47549 -0.352849 0.545419 1.59965 0.906629 -0.0564368 -0.0912477 -1.01355 0.293802 1.43922 -0.34929 -0.107908 -0.49114 1.47449 -0.22992 2.0407 -0.575527 -1.50458
1058 0.280883 -0.233734 -0.927948 -0.864492 0.35324 -0.41438 1.22935 -0.355303 0.565651 1.44665 0.739972 -0.0837545 -0.175579 -0.863063 0.233127 1.32483 -0.293242 -0.157795 -0.338397 1.38019 -0.232579 1.85331 -0.524291 -1.36927
1874 0.180467 -0.146029 -0.872743 -0.818589 0.203626 -0.49025 1.14729 -0.322338 0.445481 1.32242 0.621682 -0.0848082 -0.168461 -0.848963 0.118303 1.16109 -0.250384 -0.177621 -0.347854 1.22103 -0.292 1.62203 -0.524521 -1.23611
5605 -0.156283 -0.460353 0.160214 -0.314838 -0.430158 -0.623622 1.33227 0.112891 0.303076 -0.200223 1.20174 0.740176 -0.703476 0.168598 -0.987714 1.98459 -1.40057 -1.38953 -0.0337853 -0.000503876 0.742763 1.31753 -0.313887 -1.57928
3470 -0.177475 -0.462433 0.193474 -0.254809 -0.366245 -0.541741 1.28387 0.0977338 0.310141 -0.238418 1.12884 0.775475 -0.700435 0.185342 -0.951349 1.9118 -1.4137 -1.24078 -0.0598709 -0.00186406 0.633859 1.24038 -0.346972 -1.51246
3123 -0.193283 -0.413394 0.116007 -0.33143 -0.356238 -0.531338 1.24095 0.0778028 0.265581 -0.197522 1.10157 0.718841 -0.676103 0.207451 -0.979132 1.85457 -1.34642 -1.26815 -0.0591151 0.016182 0.647532 1.2195 -0.31236 -1.41318
4274 -0.142196 -0.434658 0.153732 -0.34371 -0.379633 -0.631568 1.32917 0.140218 0.25299 -0.213509 1.12988 0.748061 -0.687585 0.175589 -1.01123 1.98954 -1.45881 -1.27114 -0.0566183 0.0715667 0.776809 1.23847 -0.372965 -1.57306
1864 -0.180941 -0.514703 0.167693 -0.292186 -0.38045 -0.62363 1.35802 0.103062 0.30968 -0.226183 1.21969 0.785132 -0.673063 0.244064 -1.04754 1.97065 -1.49735 -1.31043 -0.102909 0.0115179 0.728727 1.31861 -0.383861 -1.57495
265 -0.156591 -0.405788 0.169696 -0.33178 -0.393979 -0.577376 1.26782 0.0720561 0.266404 -0.233195 1.14489 0.756166 -0.644405 0.189154 -0.937649 1.87588 -1.38473 -1.21673 -0.0213663 0.0227698 0.676195 1.18337 -0.358011 -1.52292
3342 -0.132674 0.115486 0.459287 -0.166247 -1.72807 0.943334 0.232591 0.976143 -0.828182 0.0196737 0.80372 1.51287 0.0102466 0.645835 1.07585 1.91703 -1.17544 -0.603318 -0.677728 0.451666 -0.355741 1.70467 -0.402553 -1.21478
2987 -0.0599307 0.0712669 0.476019 -0.219601 -1.65973 1.02483 0.148876 0.895433 -0.914894 0.0844713 0.791646 1.49701 0.0551329 0.705862 1.09647 1.86574 -1.22986 -0.568719 -0.657185 0.530393 -0.293859 1.70848 -0.408458 -1.21169
5313 -0.175629 0.552877 -0.731416 -0.0785519 -0.726951 0.17016 1.39099 -0.403669 0.259999 0.773753 0.807541 0.662723 0.887187 -0.0649088 0.167678 0.726248 -0.403736 0.149705 -0.934365 1.69413 1.02082 1.7205 1.0912 0.0651943
2387 -0.190085 0.511586 -0.67769 -0.0792474 -0.711297 0.137426 1.37978 -0.385653 0.251684 0.785541 0.774818 0.663472 0.876379 0.0119547 0.188546 0.677578 -0.395134 0.118537 -0.933444 1.66716 1.01132 1.67908 1.04684 0.0643679
2800 -0.195311 0.580162 -0.726253 -0.108588 -0.739258 0.168872 1.4037 -0.392312 0.240121 0.838877 0.809459 0.697209 0.928624 -0.0233883 0.168693 0.679184 -0.386116 0.104245 -0.930854 1.76913 1.07676 1.76991 1.08571 0.0450828
5511 -0.332357 1.12138 -0.0109343 0.373547 -0.763035 -1.48217 0.578546 -1.19578 -0.0113963 0.466139 0.469882 1.00836 1.16169 -0.894726 0.243334 0.886669 -1.23187 0.719139 -1.92659 1.7986 -0.406881 1.11668 -0.392086 0.115491
3275 -0.334262 1.10211 -0.0273908 0.38838 -0.725491 -1.32217 0.593132 -1.0641 -0.0276438 0.46066 0.523301 0.8731 1.1047 -0.814828 0.281567 0.802185 -1.14881 0.587505 -1.72262 1.63411 -0.391456 0.919058 -0.324154 0.163081
3032 -0.278392 1.15967 0.0394439 0.340714 -0.684432 -1.29547 0.604303 -1.04335 -0.0391466 0.495179 0.456523 0.867629 1.12303 -0.756341 0.294083 0.80046 -1.06986 0.677807 -1.71364 1.57936 -0.37549 0.948142 -0.371939 0.11956
4601 -0.302464 1.04135 -0.0328103 0.388255 -0.707896 -1.33527 0.591927 -1.09533 0.0210937 0.429421 0.404979 0.93582 1.08551 -0.873018 0.318298 0.759722 -1.09342 0.6548 -1.75039 1.61433 -0.345471 1.02424 -0.366974 0.0833347
1470 -0.319956 1.03699 -0.0287687 0.283837 -0.649326 -1.23186 0.588432 -1.07108 0.00431102 0.462975 0.408266 0.855902 1.06141 -0.792885 0.243612 0.777657 -1.07557 0.618822 -1.67777 1.58974 -0.347748 0.875237 -0.365501 0.0739754
2872 -0.300696 1.06941 0.0159744 0.353165 -0.706238 -1.32008 0.568658 -1.09721 0.0245765 0.481206 0.451086 0.883347 1.1345 -0.798594 0.30171 0.754322 -1.12052 0.654224 -1.68563 1.65224 -0.382247 0.913536 -0.339884 0.180064
3445 -0.286753 0.98068 -0.0285463 0.38351 -0.694256 -1.26611 0.512021 -1.00695 -0.0181953 0.407833 0.384825 0.799018 1.07473 -0.796566 0.276451 0.724071 -1.00225 0.608502 -1.68099 1.53384 -0.315136 0.903018 -0.325243 0.115801
1227 0.309778 -0.905037 0.168633 0.297432 0.564646 -1.22378 0.486683 0.360196 0.841027 -0.365047 0.32888 0.957153 -0.065122 0.126048 -0.34067 1.31116 -1.25259 -0.727987 -1.89826 0.92579 0.197209 0.948178 -0.77053 -1.20102
4876 0.344079 -0.87045 0.128937 0.266689 0.538474 -1.22026 0.480417 0.36039 0.823998 -0.344816 0.322422 0.94436 -0.0681958 0.132946 -0.324368 1.23874 -1.20775 -0.671088 -1.85307 0.914309 0.204097 0.934492 -0.723301 -1.13713
2244 0.356704 -0.923875 0.138847 0.316246 0.554565 -1.29212 0.503162 0.332977 0.874114 -0.389729 0.349697 1.00862 -0.10478 0.138683 -0.369095 1.34121 -1.26185 -0.744115 -1.92878 0.896035 0.229657 0.961943 -0.726382 -1.195
3377 0.481593 0.292727 -0.325074 -0.285869 -0.319211 -0.822547 0.805964 -0.290605 1.26236 -0.647469 0.833306 2.39813 -0.79738 0.243364 0.133064 0.62903 -0.98879 0.735045 -0.303004 -0.100937 0.444425 0.951014 0.579993 -0.676646
1087 0.494046 0.320075 -0.367566 -0.32072 -0.379701 -0.981408 0.924705 -0.412534 1.49497 -0.81577 0.97679 2.82337 -0.878614 0.275817 0.161186 0.746095 -1.16601 0.831662 -0.37362 -0.114491 0.481341 1.21763 0.700319 -0.793164
3516 0.480714 0.397934 -0.373711 -0.339029 -0.332747 -0.898501 0.905994 -0.34413 1.30218 -0.664554 0.974359 2.55176 -0.781368 0.241018 0.135508 0.646725 -0.99798 0.730533 -0.360442 -0.12258 0.44621 0.971242 0.602603 -0.667703
477 0.520267 0.404878 -0.39192 -0.297932 -0.337951 -1.00005 0.97533 -0.376429 1.43833 -0.709347 1.01873 2.81659 -0.91217 0.279758 0.169635 0.717016 -1.07103 0.856664 -0.355827 -0.0793281 0.494899 1.07676 0.676389 -0.738398
1127 0.473961 0.350425 -0.356013 -0.265368 -0.304654 -0.870163 0.876057 -0.350367 1.25901 -0.667449 0.910697 2.4739 -0.789083 0.24521 0.10862 0.685798 -0.955909 0.722147 -0.415825 -0.0823855 0.452943 1.03324 0.580752 -0.702717
501 -0.476765 0.247122 0.270523 -0.780362 -1.26913 -1.72276 0.673727 -1.00569 -0.567313 0.141726 1.24147 0.769566 0.213649 -0.319471 -0.218599 0.803011 -0.959249 1.06884 0.330342 1.34607 0.691385 1.66698 0.678385 -0.635207
4839 -0.369752 0.32485 0.233822 -0.652734 -1.07195 -1.34193 0.648346 -0.729935 -0.399778 0.123684 1.01409 0.803259 0.108664 -0.23057 -0.210876 0.764846 -0.808656 0.838272 0.16978 1.05392 0.482975 1.3656 0.501403 -0.508211
1734 -0.386924 0.320674 0.242639 -0.65112 -1.08071 -1.39292 0.676235 -0.781705 -0.418262 0.133187 1.11593 0.827254 0.0554065 -0.233509 -0.23752 0.796501 -0.879385 0.883155 0.179064 1.11633 0.499489 1.42874 0.499392 -0.536884
1993 -0.489039 0.283418 0.197848 -0.780477 -1.19661 -1.72077 0.66301 -1.02799 -0.572065 0.174798 1.18078 0.790961 0.253295 -0.322724 -0.191546 0.760573 -0.990877 1.07922 0.365597 1.45498 0.709917 1.54597 0.730932 -0.67569
1919 -0.486046 0.349481 0.160911 -0.773985 -1.23743 -1.63657 0.645791 -0.970724 -0.579861 0.212815 1.11475 0.810286 0.29368 -0.317076 -0.205125 0.72609 -0.965325 1.02527 0.288658 1.41455 0.761308 1.52867 0.729285 -0.586238
4882 -0.548198 0.0459434 0.764719 -0.206133 0.253375 0.0699094 0.295774 0.589062 0.31688 0.227475 0.632689 1.16863 0.192546 0.648067 -0.421103 0.691834 0.126496 0.187984 -0.468396 0.84575 -0.56264 1.45369 -0.0790509 -0.707349
5179 -0.749172 0.243766 1.27346 -0.426619 0.0682429 0.0956015 0.570185 0.95506 0.544973 0.44183 0.996283 1.88532 0.361767 0.970292 -0.542776 1.09573 0.0998847 0.419787 -0.906793 1.3497 -0.949926 2.33077 -0.0528508 -1.18499
2679 -0.767034 0.148605 0.92164 -0.232262 0.338145 0.0179382 0.505969 0.726177 0.350079 0.318971 0.895993 1.42712 0.204282 0.741179 -0.540953 0.956769 -0.00112148 0.281213 -0.64658 1.07613 -0.636984 1.8549 -0.0995908 -0.860898
2432 -0.738956 0.102056 1.01794 -0.269661 0.379294 0.0773251 0.512966 0.81394 0.488282 0.275988 0.97782 1.79403 0.237963 1.03105 -0.564171 1.08922 0.055492 0.317321 -0.668812 1.19007 -0.77195 2.24393 -0.0297616 -0.993147
2382 -0.71351 0.115253 0.949356 -0.20754 0.337436 0.111121 0.448821 0.76736 0.387253 0.305819 0.894124 1.51215 0.248964 0.783536 -0.542298 0.948815 0.0828697 0.266531 -0.60633 1.10841 -0.739359 2.0111 -0.0220383 -0.950979
4374 -0.750105 0.111046 0.927139 -0.245048 0.352327 0.120142 0.452384 0.736985 0.436025 0.26092 0.890111 1.55692 0.158113 0.8374 -0.497913 0.986494 0.0924853 0.236411 -0.65219 1.10643 -0.726701 1.93081 -0.00775299 -0.903119
5045 -1.20353 0.384245 1.12108 -0.275491 0.687366 0.079118 0.722678 0.752895 0.397367 0.387336 1.1206 1.57921 0.0317168 0.721565 -0.961362 1.17598 -0.105789 0.373532 -0.743707 1.29615 -0.678236 2.23604 -0.0432356 -0.88195
174 -0.76301 0.215809 0.999532 -0.171334 0.344534 0.133898 0.487615 0.700247 0.317117 0.283339 0.843739 1.35893 0.111392 0.717395 -0.698502 0.950557 0.012787 0.319031 -0.61688 1.0423 -0.711996 1.89928 -0.0665927 -0.848592
1097 -0.792969 0.128711 0.973986 -0.246205 0.321757 0.101206 0.498626 0.804485 0.500707 0.325496 0.967245 1.67172 0.228544 0.982288 -0.564992 1.07311 0.0541183 0.28752 -0.733638 1.30404 -0.863518 2.22753 -0.0281248 -1.04375
4596 -0.791801 0.109049 0.992812 -0.2262 0.312334 0.130854 0.53925 0.846357 0.413906 0.352248 0.947271 1.69154 0.262593 0.912079 -0.577885 1.02925 0.11359 0.318598 -0.750639 1.22435 -0.820239 2.21795 -0.0729893 -1.03103
4714 -0.570827 0.0846893 0.710502 -0.156836 0.240551 0.0869651 0.410791 0.55038 0.301239 0.219977 0.61034 1.1987 0.161441 0.63076 -0.409062 0.784546 0.0650208 0.243411 -0.58426 0.866075 -0.556897 1.52551 -0.0472206 -0.755184
3457 0.274893 0.0815841 -0.744022 -1.533 0.283607 0.177353 1.2762 -0.284115 -0.318307 0.106715 0.719433 1.18827 0.580723 -0.131514 -0.0049947 2.26135 -0.781287 -0.727673 -0.643949 0.741093 0.331286 0.920748 0.107007 0.262447
1658 0.185391 0.148784 -0.88832 -1.70688 0.273783 0.194135 1.20413 -0.628401 -0.371276 0.0573388 0.912737 1.58136 0.538098 0.00421038 0.0639293 2.53271 -0.775822 -0.967312 -0.583569 0.715624 0.602118 1.09739 0.176385 0.292496
4772 0.317092 0.0578668 -0.801241 -1.6306 0.260622 0.17848 1.43598 -0.255183 -0.410085 0.168437 0.743183 1.2054 0.685068 -0.193479 -0.0097562 2.32723 -0.841232 -0.712218 -0.698704 0.787626 0.409099 0.951982 0.0677626 0.262402
1835 0.361423 0.0549808 -0.782541 -1.66656 0.262639 0.212668 1.4187 -0.344645 -0.367158 0.171277 0.812548 1.2392 0.675193 -0.208928 -0.0303508 2.45402 -0.765397 -0.751747 -0.695224 0.808701 0.415238 1.02592 0.0920564 0.279985
5402 -0.0347469 0.0962064 1.27199 -0.936466 0.110962 -0.111327 0.975215 0.0155181 1.16631 0.246608 0.14648 1.56871 -1.72064 -0.208204 0.217327 0.827218 -0.54015 1.03248 -2.05517 0.685682 0.442641 1.0094 -0.871165 -0.45646
2372 -0.00309957 0.0668121 1.26757 -0.900612 0.136341 -0.100581 0.907878 -0.0126394 1.13295 0.296753 0.180134 1.54985 -1.61633 -0.27597 0.213533 0.824771 -0.582346 1.0508 -1.97231 0.598213 0.475242 0.957131 -0.870792 -0.45493
2821 -0.00812902 0.074367 1.24415 -0.966712 0.12149 -0.0781586 0.966008 -0.0274765 1.12524 0.240925 0.168977 1.57351 -1.60153 -0.295156 0.220317 0.786294 -0.5688 1.05358 -1.98235 0.606761 0.470665 0.945379 -0.856602 -0.434933
1781 0.003627 0.114505 1.20252 -0.917708 0.08813 -0.107221 0.924539 -0.020086 1.07868 0.280202 0.162031 1.5143 -1.6181 -0.263251 0.273939 0.748949 -0.560098 1.01933 -1.95799 0.692141 0.473813 0.925856 -0.835949 -0.447197
3870 0.403214 0.270676 -0.386326 -0.233555 -0.318565 -0.712906 -0.0181928 -0.593151 0.772889 -0.683866 0.41404 1.01275 1.30088 0.24474 0.188679 0.919141 -2.30293 -0.0270919 -1.50617 1.63544 -0.394661 0.52064 1.45469 -1.51783
1573 0.40754 0.271771 -0.375334 -0.225585 -0.278015 -0.695893 -0.062899 -0.596376 0.805506 -0.696025 0.403589 1.04809 1.26096 0.225323 0.216306 0.889455 -2.28246 0.0672955 -1.52089 1.63123 -0.420053 0.495553 1.50361 -1.51883
5015 -0.212948 0.662152 -0.0617709 -0.568766 -0.523145 0.321686 0.520637 0.333368 0.379467 0.90624 -0.289737 1.1925 -0.931141 0.763737 -0.0241087 1.4652 -1.46797 -0.0189546 -0.543649 0.135604 0.61139 1.30509 -1.27603 -0.587813
3374 -0.231501 0.710189 -0.0390683 -0.54099 -0.547555 0.336831 0.521118 0.32688 0.397355 0.918193 -0.328994 1.20489 -1.01713 0.745762 0.013225 1.47664 -1.48782 -0.0156814 -0.539477 0.124054 0.621679 1.31451 -1.34365 -0.557219
4780 -0.224432 0.624592 -0.0870807 -0.52333 -0.47421 0.334005 0.483395 0.302901 0.394409 0.882434 -0.25792 1.16277 -0.942194 0.76567 -0.0216208 1.36017 -1.39465 -0.00432947 -0.544605 0.121593 0.584184 1.23435 -1.19617 -0.536544
4790 -0.28607 0.688743 -0.0101319 -0.580694 -0.689589 0.501772 0.504006 0.318975 0.411451 0.978355 -0.524675 1.33757 -1.11983 0.876957 -0.0806346 1.79385 -1.74681 0.0545419 -0.577584 0.152081 0.740474 1.58975 -1.56414 -0.638989
810 -0.239338 0.517629 0.121142 -0.392118 -0.619844 0.530915 0.399772 0.205676 0.320355 0.700332 -0.559361 1.14541 -0.936003 0.655851 0.0042883 1.54602 -1.52058 0.0942083 -0.500055 0.20413 0.566541 1.4887 -1.38195 -0.517197
321 -0.248764 0.408906 0.350499 -0.365827 -0.822986 0.670462 0.381767 0.112147 0.26403 0.557954 -0.736066 1.35804 -1.04418 0.595122 -0.121517 1.82542 -1.75976 0.214985 -0.528862 0.175656 0.612359 1.86213 -1.55022 -0.610468
4143 -0.252751 0.702469 -1.06387 0.202169 -0.136849 -0.643475 1.80583 -0.585987 0.211421 0.259505 -0.235846 1.5049 0.275745 0.0437656 0.366438 0.656847 -1.54667 1.39248 -0.92576 -0.220156 -0.189413 1.54122 -0.467793 0.408379
1084 -0.199904 0.636268 -0.978543 0.219028 -0.15749 -0.592039 1.75632 -0.546924 0.203881 0.234308 -0.207142 1.46498 0.242826 0.0723027 0.305773 0.648851 -1.51311 1.36224 -0.897673 -0.214289 -0.170681 1.47027 -0.501754 0.374871
4855 -0.279827 0.711429 -1.08376 0.157802 -0.110461 -0.646114 1.89279 -0.547647 0.235317 0.302634 -0.250897 1.65689 0.310828 0.0609493 0.323108 0.604189 -1.61315 1.44017 -0.940689 -0.198553 -0.22372 1.64391 -0.549899 0.402096
2746 -0.240037 0.747827 -1.0801 0.227289 -0.179577 -0.646626 1.90002 -0.639599 0.25675 0.309362 -0.285826 1.61918 0.317706 0.0617588 0.37054 0.659403 -1.65004 1.4956 -0.992125 -0.215626 -0.224391 1.7278 -0.576074 0.428443
71 0.373091 0.449587 -0.0852423 -0.968799 -1.10596 -1.38384 -0.519432 -1.19957 -0.810805 0.565028 -0.781075 0.94846 -0.741725 -0.918063 -0.436823 0.647682 -1.01735 0.0131037 -1.62529 0.47502 -0.206303 2.03578 -1.0979 -1.43442
4807 0.442577 0.460945 -0.0406733 -0.955001 -1.08074 -1.39425 -0.508465 -1.11933 -0.829441 0.600597 -0.776008 0.900222 -0.731406 -0.837465 -0.518909 0.661757 -1.03972 0.0407024 -1.59184 0.422099 -0.174084 2.07995 -1.09495 -1.42139
543 -0.236823 0.47199 -0.109002 -0.15082 0.142257 -0.703698 -0.45504 -0.873237 -0.372052 0.93981 1.03235 0.96296 0.627918 0.738504 -0.967111 1.34522 -0.259915 0.943537 -1.04046 1.14395 -0.154873 0.340037 -0.502196 -1.62374
1754 -0.278403 0.642876 -0.109235 -0.197573 0.0750138 -0.904246 -0.522149 -0.993913 -0.434686 1.23059 1.34719 1.25759 0.830431 0.934413 -1.26133 1.61218 -0.32981 1.20155 -1.22842 1.40101 -0.149028 0.454965 -0.754676 -1.99104
2126 -0.248562 0.435989 -0.114977 -0.143415 0.121589 -0.661637 -0.422467 -0.7773 -0.311584 0.874888 1.01405 1.00997 0.584815 0.79282 -0.928137 1.29097 -0.2321 0.941326 -1.04319 1.13409 -0.105875 0.394805 -0.571193 -1.56458
5264 0.901005 0.680818 -0.784589 -1.1676 0.548581 -0.958978 1.13639 -0.309929 0.411188 0.355805 -0.635408 1.12942 -1.31449 -0.329366 -0.0584445 0.619316 -0.923489 0.417451 0.187763 2.31248 0.405642 1.53612 0.3201 -0.191251
445 0.886956 0.663306 -0.746233 -1.07548 0.539812 -0.888883 1.06106 -0.31221 0.390392 0.355994 -0.583784 1.08455 -1.26379 -0.321777 -0.0507469 0.631039 -0.866966 0.440768 0.175583 2.18663 0.395815 1.45032 0.282079 -0.14681
4271 0.445063 -0.428667 0.210656 -0.426631 0.187513 0.629173 0.890345 -0.0813584 -0.0800076 -0.209763 0.40693 -0.00789821 -0.135553 0.239011 0.197301 1.85628 -1.93947 -0.574312 -0.754665 2.15012 -0.871351 1.43416 -0.503302 -0.562085
202 0.412634 -0.460547 0.197557 -0.400671 0.128605 0.64484 0.884278 -0.034254 -0.041251 -0.209184 0.424348 -0.0235585 -0.13412 0.23199 0.227451 1.77366 -1.81609 -0.562469 -0.650791 2.02944 -0.795287 1.37726 -0.475638 -0.557088
3237 0.434522 -0.504731 0.22281 -0.409035 0.169316 0.701291 0.930341 -0.0484059 -0.0659007 -0.204824 0.423441 -0.0752238 -0.107365 0.22441 0.186323 1.93723 -1.98414 -0.629176 -0.711957 2.21683 -0.871718 1.45608 -0.495579 -0.614776
3838 -0.481419 0.561928 -0.625696 -1.14724 0.146778 0.0132638 0.119774 -1.48551 -0.0396306 -0.326414 1.09914 2.26211 -0.231876 0.473404 0.137687 1.95821 -0.796868 -0.897475 -0.336122 0.506352 0.834205 1.47465 0.31521 -0.0698431
3794 -0.444435 0.489777 -0.682101 -1.22074 0.11419 0.0545291 0.114578 -1.44284 -0.144381 -0.274795 1.12101 2.22702 -0.231763 0.488084 0.0842718 2.02564 -0.723048 -0.900217 -0.348359 0.511208 0.852332 1.38491 0.302278 0.0132559
5594 -0.479411 0.62253 -0.576198 -1.1875 0.210087 0.0128814 0.0437543 -1.4738 -0.0895303 -0.337759 1.14388 2.40736 -0.207454 0.605656 0.102335 2.04833 -0.817019 -0.825906 -0.307475 0.477999 0.786834 1.43515 0.334343 -0.107894
2156 -0.500093 0.553456 -0.626789 -1.15398 0.194461 -9.10921e-05 0.169655 -1.50557 -0.0788277 -0.325679 1.05007 2.33174 -0.231135 0.572655 0.0732656 1.94465 -0.818468 -0.84532 -0.357067 0.486471 0.826473 1.32595 0.290291 -0.106963
5391 -0.414892 0.628667 -0.747264 -1.22342 0.0910388 -0.0102078 0.0880123 -1.65247 -0.0753986 -0.262073 1.17152 2.51236 -0.315835 0.514059 0.034447 2.12026 -0.794062 -0.885354 -0.306222 0.555 1.10364 1.53435 0.369664 -0.0684582
215 -0.595908 0.239563 0.874817 1.20463 -0.70899 -1.41248 0.410376 -0.19271 1.26252 -0.502395 0.0927543 0.609865 -0.26175 0.401456 1.09583 1.64237 -1.28966 1.21167 -1.14041 1.15197 0.230207 1.31109 1.28314 -0.593437
2822 -0.587255 0.211154 0.860785 1.17873 -0.682594 -1.40391 0.382223 -0.206936 1.27991 -0.455731 0.0471845 0.605092 -0.323284 0.372879 1.11224 1.67737 -1.35885 1.11681 -1.22683 1.18696 0.133534 1.27665 1.28746 -0.460103
2723 -0.376353 0.360838 0.371575 -0.0857216 -0.519424 -0.184697 1.02082 -0.665953 0.372707 -0.183513 0.864021 1.28254 -1.31621 -0.822685 0.143131 1.67718 -1.18321 1.0025 -0.630665 0.323312 0.561929 1.57653 1.46801 0.637678
95 -0.321016 0.348826 0.392522 -0.103153 -0.472609 -0.179517 0.988989 -0.612183 0.367619 -0.189834 0.811652 1.20428 -1.23874 -0.790056 0.150479 1.61066 -1.1125 0.965473 -0.592529 0.310922 0.461174 1.52806 1.378 0.638842
2981 -0.362441 0.379662 0.411841 -0.113583 -0.473934 -0.154517 1.05415 -0.674974 0.337899 -0.211939 0.858632 1.28557 -1.31061 -0.860846 0.135218 1.75217 -1.18203 0.998885 -0.653837 0.326603 0.559386 1.66001 1.48341 0.656773
549 -0.348147 0.382925 0.397294 -0.115911 -0.459751 -0.163873 0.999877 -0.609331 0.363142 -0.167217 0.782852 1.20142 -1.25799 -0.857776 0.131886 1.61041 -1.12903 0.948461 -0.598752 0.240905 0.504621 1.52313 1.37891 0.60421
231 -0.338782 0.37519 0.365615 -0.137396 -0.436932 -0.190731 0.937201 -0.582855 0.341366 -0.188624 0.797194 1.23353 -1.25005 -0.788192 0.0969965 1.59471 -1.14709 0.900846 -0.623747 0.294903 0.463278 1.56461 1.39132 0.57695
945 -0.835211 0.344288 0.00742063 1.09386 -1.14724 -1.23896 -0.283322 0.149023 0.00629015 -1.64216 1.60627 1.27254 -0.21986 0.484581 -0.0122233 1.18194 -1.13401 1.32029 -0.572321 1.30628 -0.676208 1.32711 0.671783 -0.423504
131 -0.778919 0.366304 -0.0899126 1.14803 -1.16921 -1.16742 -0.377454 0.105539 -0.0317196 -1.59795 1.63266 1.31947 -0.225268 0.494462 -0.15656 1.2407 -1.17016 1.29029 -0.501666 1.25887 -0.699812 1.37344 0.62957 -0.379345
1825 -0.534801 0.850286 0.164075 -0.536745 0.635313 -0.88045 -0.0621156 -0.601845 1.20164 -0.46322 1.21733 1.15285 0.801696 -0.39459 -0.887802 0.654138 -1.00678 0.663558 -0.340601 1.7853 -0.665222 0.845412 -0.438938 -0.862041
2748 -0.497051 0.889174 0.152289 -0.537785 0.599567 -0.863445 -0.00364151 -0.57097 1.18427 -0.431263 1.16255 1.17326 0.766636 -0.334401 -0.806085 0.617604 -1.00217 0.685753 -0.354287 1.68798 -0.683566 0.7498 -0.436073 -0.81416
4360 -0.538809 0.899473 0.194528 -0.624083 0.678755 -0.976193 -0.0204994 -0.602644 1.28206 -0.460504 1.27946 1.28413 0.887483 -0.447209 -0.916653 0.737173 -1.07225 0.707862 -0.34679 1.88268 -0.760889 0.832319 -0.475546 -0.840946
4854 -0.505069 0.923873 0.146026 -0.554607 0.682254 -0.9164 0.0185906 -0.530246 1.27135 -0.415918 1.24122 1.19391 0.863591 -0.424977 -0.852589 0.662002 -1.04881 0.71024 -0.285491 1.80578 -0.724143 0.832397 -0.445529 -0.879875
1972 -0.537905 0.9171 0.131659 -0.55061 0.650157 -0.915655 -0.0177377 -0.570899 1.22617 -0.455747 1.17656 1.21977 0.804019 -0.437257 -0.843815 0.636423 -0.999793 0.690358 -0.335864 1.75258 -0.753237 0.739338 -0.476681 -0.855463
4422 -0.527241 0.952634 0.168941 -0.53075 0.651144 -0.902886 -0.0244243 -0.630592 1.24259 -0.426839 1.24566 1.2153 0.805224 -0.375535 -0.864872 0.673517 -1.01684 0.726535 -0.29965 1.78871 -0.735428 0.753726 -0.488257 -0.784202
3563 0.88338 0.776297 0.716021 -0.224511 -0.0982626 -0.716146 0.713535 -0.0678235 0.0605127 0.212582 0.181331 0.536989 -0.390977 0.28597 0.472112 1.15873 -0.432501 1.93495 -0.0185032 0.765451 -0.0927932 1.04047 0.271026 -1.38989
4759 0.889001 0.72728 0.681758 -0.202488 -0.0841213 -0.703626 0.765395 -0.092305 0.0549698 0.15871 0.186053 0.518283 -0.398532 0.267951 0.483401 1.13336 -0.419046 1.88195 -0.0250708 0.723191 -0.073402 1.0521 0.301181 -1.3853
3747 1.00298 0.830927 0.707656 -0.207504 -0.107351 -0.770553 0.804989 -0.0811442 0.055884 0.182091 0.206667 0.63868 -0.43803 0.284138 0.549552 1.22924 -0.453892 2.08955 -0.0134081 0.864913 -0.127136 1.20354 0.316928 -1.52254
1714 1.2149 0.998253 0.901557 -0.241705 -0.148888 -0.864534 0.980514 -0.107563 0.0831514 0.195613 0.192625 0.670606 -0.465282 0.432043 0.625007 1.3754 -0.48693 2.49449 0.00816591 1.02725 -0.167442 1.37034 0.371898 -1.77704
3399 -0.0013905 0.598111 0.123159 0.750759 0.144139 -0.275628 1.60716 -0.765315 0.0420979 0.369114 0.269154 0.675972 0.143049 -0.353228 0.864947 0.0752583 -1.28925 -0.449635 -1.42405 2.22905 -0.0734648 1.25805 0.329585 -1.48943
177 -0.0286373 0.522815 0.123115 0.714599 0.164774 -0.246851 1.57509 -0.696699 0.0507449 0.323862 0.255981 0.653964 0.189317 -0.298531 0.81741 0.155228 -1.16645 -0.365721 -1.31159 2.12083 -0.0710779 1.16857 0.338302 -1.37753
4095 -0.00324043 0.535113 0.113745 0.743069 0.161275 -0.231928 1.58685 -0.707941 0.0874688 0.351564 0.19538 0.647614 0.167096 -0.294395 0.844565 0.161767 -1.19336 -0.367603 -1.34647 2.1541 -0.0818648 1.22114 0.341487 -1.43785
5374 0.0007911 0.588234 0.125972 0.766795 0.202679 -0.219276 1.65633 -0.774772 0.0724405 0.352685 0.233154 0.692096 0.197195 -0.294974 0.855385 0.141848 -1.27102 -0.467671 -1.41938 2.21851 -0.0584696 1.25443 0.307896 -1.53422
2237 -0.421685 0.093097 0.117198 -0.175304 0.504511 -0.172066 1.28669 0.528535 -0.753155 0.388776 1.23071 0.867747 0.50176 0.957252 0.0551658 1.11684 -0.774481 1.61465 -1.793 0.938129 0.349569 0.667284 -0.137289 0.131867
4361 -0.410403 0.140074 0.12485 -0.18647 0.544705 -0.204341 1.44205 0.516032 -0.796968 0.497895 1.36637 0.95995 0.571958 1.02245 0.0354105 1.20546 -0.867803 1.72132 -1.99403 1.02187 0.364905 0.722541 -0.149309 0.159196
2131 -0.499687 0.127535 0.0831118 -0.249769 0.50275 -0.188778 1.44862 0.508294 -0.84294 0.422067 1.33412 0.989109 0.574666 1.01746 0.0283094 1.24065 -0.903572 1.7474 -1.96209 0.987522 0.341484 0.73834 -0.203545 0.147819
2310 -0.435914 0.0960818 0.129003 -0.168126 0.473692 -0.194939 1.25495 0.460712 -0.720474 0.410125 1.17043 0.83397 0.486416 0.859188 0.0889974 1.0642 -0.772369 1.55071 -1.77106 0.919482 0.300932 0.668347 -0.12317 0.155219
3956 -0.36891 0.110444 0.126398 -0.184063 0.494735 -0.189198 1.33222 0.500091 -0.751462 0.432529 1.24744 0.847792 0.496979 0.931255 0.0621319 1.15172 -0.757752 1.58332 -1.8474 0.962769 0.326332 0.672589 -0.128675 0.223979
1994 -0.503178 0.14922 0.170993 -0.16037 0.53232 -0.168545 1.46809 0.556946 -0.893575 0.500421 1.41739 0.944991 0.593348 1.08573 0.0699541 1.28841 -0.981385 1.84988 -2.08884 1.09766 0.396116 0.817963 -0.160603 0.14248
616 0.389622 1.34046 -0.208742 -0.538342 -1.02544 -1.00408 0.633979 0.223477 0.0430493 -0.185564 0.19529 0.84498 1.20379 -0.234659 0.285516 0.517648 -1.46297 0.563582 -1.1471 0.715715 0.352633 1.01882 -1.36405 -0.836883
5027 0.380177 1.23908 -0.212641 -0.55122 -0.945449 -0.905277 0.658584 0.216379 0.0157717 -0.134838 0.158464 0.771074 1.10698 -0.224458 0.199454 0.551397 -1.34942 0.501987 -0.995721 0.685705 0.316847 0.894133 -1.26767 -0.765305
3805 0.430864 1.31591 -0.218624 -0.522804 -0.956131 -0.874683 0.63004 0.210897 -0.0333601 -0.114669 0.152923 0.775895 1.17217 -0.261333 0.231446 0.484924 -1.40419 0.477462 -1.02216 0.669707 0.351147 0.90393 -1.31538 -0.810991
1207 0.678638 1.38975 -0.184202 -0.712727 -1.14368 -1.16808 0.786453 0.331326 -0.0165609 -0.0449478 0.324424 0.821952 1.37503 -0.211581 0.203343 0.687976 -1.67111 0.585936 -1.25729 0.878994 0.414712 1.15689 -1.58471 -1.0277
2842 0.659426 1.29219 -0.228576 -0.636857 -1.18047 -1.10809 0.692661 0.373404 0.0095974 0.0345831 0.37891 0.744189 1.39395 -0.253366 0.2191 0.633516 -1.55214 0.517638 -1.22274 0.821496 0.364843 1.0951 -1.59627 -0.999221
960 0.619472 1.34851 -0.295748 -0.644634 -1.09003 -1.11639 0.760225 0.311163 0.00795415 0.0161693 0.295762 0.805941 1.34417 -0.228683 0.268381 0.647449 -1.5166 0.550805 -1.2149 0.829257 0.378333 1.02024 -1.50825 -0.980854
1408 0.552176 1.20609 -0.186755 -0.595367 -0.998649 -0.944987 0.700422 0.31241 0.0167802 0.082833 0.295123 0.673005 1.21418 -0.183017 0.223842 0.515199 -1.33823 0.488085 -1.06068 0.753336 0.326124 0.888191 -1.36363 -0.817814
530 0.378585 0.155822 -0.600085 1.24259 -1.45603 -0.00498284 0.440308 0.0724995 1.48566 0.205605 -0.0688755 1.67382 -0.0112523 0.220552 -0.769558 1.65008 -1.21345 0.407242 0.0948165 0.757092 -0.309812 1.36775 -1.11083 -0.934597
5593 0.385587 0.149036 -0.59786 1.3406 -1.49438 -0.0892766 0.468186 0.115239 1.57727 0.234829 -0.0236978 1.75708 -0.00905823 0.15297 -0.882413 1.69977 -1.2811 0.456115 0.033008 0.791978 -0.317834 1.41439 -1.14569 -0.986602
700 0.360769 0.178872 -0.54495 1.2099 -1.37551 -0.0551044 0.443639 0.0198669 1.44019 0.204462 -0.0622752 1.61418 -0.0139 0.146779 -0.754526 1.53167 -1.1141 0.401516 0.0117324 0.709955 -0.272292 1.31025 -1.01228 -0.916079
373 -0.839749 -0.0521632 -0.337341 -0.600224 -0.70795 0.690312 1.03807 -0.417808 -0.0359694 -0.168744 0.175386 0.703567 0.026978 0.882766 -1.13546 1.69845 -0.640208 0.517241 -0.605391 1.46894 1.02098 1.26624 -0.438438 -0.0897101
5502 -0.848172 -0.0333088 -0.364337 -0.579834 -0.688899 0.693645 1.00515 -0.418869 -0.0791324 -0.136223 0.207717 0.752399 0.0308153 0.912473 -1.1749 1.67526 -0.624024 0.505366 -0.596694 1.50453 0.98742 1.28556 -0.395649 -0.105175
3135 -1.01435 -0.00504191 -0.370915 -0.643711 -0.827985 0.822699 1.13279 -0.504559 -0.0660103 -0.156861 0.137398 0.868806 0.0686356 0.992519 -1.27531 1.95489 -0.843033 0.578757 -0.741407 1.71707 1.15573 1.52427 -0.556746 -0.176078
1837 -0.86824 -0.0151013 -0.377202 -0.642027 -0.787201 0.763882 1.04995 -0.552099 -0.0148735 -0.196581 0.0974182 0.792826 0.110937 0.945262 -1.24034 1.84961 -0.75115 0.559849 -0.711914 1.69197 1.17056 1.46007 -0.558257 -0.181324
1900 -0.794716 -0.0214224 -0.357744 -0.603404 -0.729399 0.789697 1.01956 -0.52324 -0.102917 -0.194684 0.129867 0.77421 0.10068 0.912533 -1.16798 1.71072 -0.704541 0.510702 -0.719249 1.63183 1.09809 1.44043 -0.517925 -0.123596
4356 -0.865869 -0.0205354 -0.34521 -0.594461 -0.749826 0.835608 1.06296 -0.566968 -0.055786 -0.172922 0.0942624 0.770348 0.124226 0.929212 -1.21732 1.77882 -0.726685 0.554628 -0.737389 1.65239 1.09865 1.45095 -0.485766 -0.160938
423 -0.73148 -0.0646471 -0.355826 -0.501226 -0.541952 0.498123 0.830379 -0.349468 -0.0474201 -0.114587 0.170056 0.603194 0.000893831 0.748773 -1.01612 1.51432 -0.574331 0.468094 -0.547427 1.26732 0.839285 1.20703 -0.368266 -0.192905
2721 -0.920582 -0.0237413 -0.379864 -0.616455 -0.716278 0.646345 1.03645 -0.441981 -0.0951153 -0.156625 0.18226 0.733317 -0.000825308 0.928062 -1.25787 1.78997 -0.619922 0.541205 -0.596555 1.60624 1.04838 1.36334 -0.437051 -0.161596
2413 -0.863872 -0.0569015 -0.318832 -0.565098 -0.609151 0.633037 0.919525 -0.411451 -0.0927189 -0.14765 0.20175 0.68815 -0.0120419 0.858465 -1.18829 1.59227 -0.519543 0.478705 -0.458956 1.39395 0.96498 1.18816 -0.393076 -0.1204
1428 -0.618692 0.858528 -1.26426 -0.636145 0.216812 -0.987816 1.12169 -1.12246 0.519604 1.69574 0.3822 1.56187 0.866372 -0.617343 -1.06829 0.332883 -0.761967 0.977245 -0.777548 0.519207 1.03518 1.85334 0.0972866 0.105308
3954 -0.611635 0.603802 -1.01692 -0.168628 0.196095 -0.869339 1.04314 -1.1039 0.261275 1.59046 0.676607 1.30973 0.681415 -0.549245 -1.65747 0.312792 -0.761405 0.47243 -0.986591 0.846442 0.989287 1.76105 -0.0504541 0.134389
45 -0.492826 0.595392 -0.918766 -0.175766 0.230014 -0.701634 0.894809 -0.883046 0.258425 1.31143 0.495959 1.11506 0.551323 -0.463296 -1.25487 0.167842 -0.606539 0.433316 -0.723891 0.541909 0.7708 1.32107 0.0152196 0.138904
324 -0.482431 1.06858 -1.13821 -0.771781 0.279275 -1.0475 1.16752 -0.912251 0.707524 1.57965 0.371162 1.59105 0.894015 -0.511884 -0.653562 0.335479 -0.715168 1.10898 -0.665274 0.264221 0.929449 1.79745 0.0929192 0.0224166
3760 -0.451595 1.06233 -1.20493 -0.762486 0.26417 -0.991878 1.17522 -0.946513 0.722014 1.56567 0.357462 1.55537 0.78313 -0.56412 -0.678856 0.381133 -0.785723 1.15617 -0.653882 0.247978 0.905641 1.78448 0.0910541 0.0267163
824 -0.45752 0.974093 -1.17267 -0.718172 0.207335 -0.965568 1.13259 -0.882969 0.568765 1.55937 0.366303 1.45108 0.851275 -0.468234 -0.685398 0.324492 -0.765887 1.02362 -0.616207 0.265157 0.875864 1.6086 0.0587417 0.0837009
5326 -0.506143 1.04776 -1.2776 -0.833032 0.220608 -1.13648 1.17548 -0.9891 0.71748 1.66766 0.38689 1.65102 0.958019 -0.541806 -0.647907 0.401088 -0.803772 1.15938 -0.696405 0.264149 0.987635 1.90125 0.110513 -0.0121869
3440 -0.469943 0.989227 -1.17542 -0.649309 0.204925 -0.972921 1.12445 -0.955683 0.654286 1.65392 0.380869 1.51471 0.857474 -0.518977 -0.797724 0.349501 -0.725611 1.06229 -0.665762 0.263224 0.893723 1.78734 0.137365 0.0943886
2587 0.00722399 0.893973 0.181696 -1.26436 -0.51136 -1.19677 0.168212 -0.171898 0.947909 0.938139 -0.380285 1.74258 -0.412145 -0.625369 0.203025 0.524925 -1.86283 -0.188099 0.205344 0.91936 -0.0476626 1.18589 -0.679645 -0.242116
1856 0.00127975 0.891693 0.239859 -1.30011 -0.53023 -1.32611 0.137388 -0.194037 1.007 0.930291 -0.408233 1.78055 -0.444198 -0.660705 0.253795 0.545257 -1.88297 -0.216871 0.229041 0.976232 -0.108813 1.23761 -0.687418 -0.203418
1610 0.0468051 0.930918 0.254237 -1.30581 -0.545586 -1.31802 0.139282 -0.199999 0.921979 0.979869 -0.373765 1.7883 -0.399138 -0.673639 0.213838 0.560665 -1.90107 -0.193893 0.200923 0.939774 -0.075991 1.17939 -0.674187 -0.190366
4257 -0.00421612 0.898465 0.216076 -1.20945 -0.553644 -1.20635 0.131346 -0.208046 0.906225 0.858913 -0.359113 1.6984 -0.379244 -0.61672 0.21065 0.530943 -1.77041 -0.171192 0.187769 0.911511 -0.124272 1.15384 -0.679611 -0.177996
1157 0.203267 -0.162268 -0.866292 0.414357 -0.34274 -1.67993 -0.363238 -1.13147 0.437538 0.355067 1.63828 -0.0667455 -0.424153 -0.0891073 0.181119 1.58901 -0.759552 0.481155 -2.11394 0.546041 0.401421 1.38274 0.0817662 -1.45576
5497 0.24581 -0.107323 -0.804545 0.3748 -0.326169 -1.56518 -0.379059 -1.02573 0.384885 0.323616 1.50458 -0.0971301 -0.349829 -0.0657831 0.176278 1.42605 -0.658419 0.414393 -1.90687 0.4895 0.389125 1.19095 0.098954 -1.3425
849 0.213846 -0.108312 -0.738146 0.302185 -0.343918 -1.44206 -0.295418 -0.989236 0.346751 0.264894 1.46073 -0.0450272 -0.346593 -0.0784895 0.145908 1.34375 -0.658784 0.389071 -1.75467 0.45381 0.34318 1.08235 0.0842859 -1.25686
5630 0.193521 -0.10831 -0.787284 0.324261 -0.339932 -1.51899 -0.327176 -1.05864 0.346684 0.325697 1.47913 -0.0689664 -0.352233 -0.0553515 0.150089 1.38369 -0.651224 0.394802 -1.90108 0.475055 0.314439 1.13118 0.0137769 -1.28484
878 -0.313174 0.583848 0.289428 1.06435 0.574955 -0.392226 -0.0640294 0.538865 -0.178586 0.154586 0.423385 0.618948 -0.314192 0.817311 0.677302 0.730133 -0.266166 0.988005 -0.836487 1.37909 0.397528 2.04309 -0.650378 -0.948973
1930 -0.275876 0.46088 0.29155 0.985685 0.47966 -0.350112 -0.0408923 0.494448 -0.176828 0.0787051 0.398249 0.637433 -0.321015 0.711219 0.581453 0.711413 -0.313793 0.877461 -0.754576 1.31726 0.343706 1.90151 -0.617011 -0.885736
5064 -0.549629 0.571791 0.0037437 -0.451879 -1.24511 -0.503126 0.287888 1.01594 0.407721 0.814402 0.971177 0.573421 -1.36049 -0.477779 -0.131707 2.21954 -0.397336 0.672838 0.00066128 1.29435 0.0605759 0.963068 0.877454 -1.27167
1920 -0.540698 0.512399 0.0421109 -0.467958 -1.15497 -0.450177 0.342564 0.943103 0.441246 0.734228 0.923828 0.537494 -1.28554 -0.413125 -0.16007 2.08288 -0.38651 0.626161 -0.0245798 1.21899 0.0710097 0.905385 0.838325 -1.0937
1753 -0.525874 0.53638 0.0418167 -0.462164 -1.16663 -0.380968 0.306745 0.916805 0.423532 0.728944 0.974884 0.533962 -1.29429 -0.418152 -0.135046 2.03422 -0.37644 0.578747 -0.0405615 1.18331 0.0720652 0.875601 0.786908 -1.13472
672 -0.525355 0.514706 0.00819427 -0.490238 -1.19888 -0.457442 0.264089 1.02398 0.429551 0.80432 0.96463 0.576617 -1.32711 -0.456809 -0.154485 2.16261 -0.382861 0.666294 -0.00442702 1.22323 0.0276446 0.909678 0.829118 -1.15271
3081 0.0595376 0.158777 -0.0831573 -0.549451 0.0870747 -1.29969 0.328514 1.26014 0.890407 0.990108 1.03594 0.180132 0.658945 0.384609 -0.344043 2.12204 -1.63284 -0.756061 -0.662029 1.24341 0.685591 1.04878 -0.683747 -0.158828
4528 0.0797382 0.25141 -0.171767 -0.552449 -0.0748758 -1.10303 0.331845 1.00044 0.674656 0.874698 0.735537 0.107789 0.523144 0.242043 -0.260632 1.75069 -1.4252 -0.661848 -0.627142 1.06981 0.541947 0.920161 -0.574413 -0.0312721
1015 0.0644141 0.225022 -0.157971 -0.621842 -0.05388 -1.08927 0.368397 1.05837 0.785158 0.886902 0.755808 0.0395217 0.528533 0.270309 -0.242031 1.77331 -1.41919 -0.734871 -0.606197 1.11889 0.583421 0.883843 -0.510436 -0.0495097
602 0.0442541 0.187677 -0.16514 -0.484176 -0.00760069 -1.06988 0.35698 1.0119 0.743109 0.873086 0.788238 0.107515 0.497012 0.233981 -0.252339 1.64812 -1.40237 -0.688406 -0.602454 1.12227 0.534901 0.946087 -0.572437 -0.0756231
3328 0.521173 0.561371 -0.322564 -0.649115 -0.226534 -1.25506 0.0675093 1.21785 0.90901 0.634874 0.806055 0.241617 0.843849 0.0110163 -0.204108 2.60594 -1.62911 -0.712574 -0.733297 1.37942 1.00565 1.13681 -0.680158 0.0240825
4263 0.241695 0.133907 -0.110227 -0.552804 0.147177 -1.19522 0.527738 1.33548 1.0511 1.08002 1.01146 0.144204 0.613619 0.381456 -0.386018 1.93323 -1.82141 -1.02312 -0.744072 1.46046 0.555059 1.21322 -0.639722 -0.386576
4202 -0.312427 0.79628 0.019023 -1.27641 -0.107166 0.138252 0.139754 1.07488 -0.422751 -0.249103 0.934235 1.44264 -0.202653 -1.37785 0.120523 1.77136 -0.419361 0.423327 0.176522 -0.0140715 0.23556 2.13702 -0.246556 -0.238089
1173 -0.282816 0.802519 -0.041377 -1.3791 -0.0664931 0.221263 0.14324 1.21013 -0.475572 -0.261461 0.990391 1.57681 -0.26974 -1.53644 0.0758805 1.98663 -0.482447 0.542428 0.256026 0.00616243 0.305891 2.40877 -0.218174 -0.176951
1749 -0.340015 0.759014 -0.0110737 -1.33728 -0.0653298 0.177546 0.0930521 1.15735 -0.513426 -0.227074 0.980225 1.5359 -0.234088 -1.4873 0.116356 2.01487 -0.514555 0.491213 0.242972 0.000164904 0.239596 2.45458 -0.241338 -0.174862
2492 -0.393062 0.869719 0.0231064 -1.39827 -0.0625192 0.206348 0.129419 1.18666 -0.561105 -0.331699 1.02343 1.62194 -0.23185 -1.58716 0.091753 2.06959 -0.468235 0.586584 0.259136 -0.0349378 0.356083 2.50375 -0.257199 -0.220899
1311 0.68235 0.415214 -0.0338384 -1.28457 0.341468 -1.43844 -0.0915545 -0.244672 0.12998 0.121071 0.84509 1.53294 -1.07506 0.513625 0.677961 1.13164 0.0463204 0.0118938 -0.453543 1.44302 0.0160591 0.974826 -0.836786 -0.700985
2599 0.663212 0.452342 -0.0671939 -1.23946 0.324853 -1.45038 -0.0706575 -0.285892 0.115007 0.159395 0.862385 1.54071 -1.03051 0.476541 0.632166 1.1436 0.024848 0.00999585 -0.421912 1.42911 0.0152162 0.935364 -0.79387 -0.667458
4507 0.68027 0.423958 -0.0475385 -1.26782 0.330502 -1.46389 -0.110637 -0.290858 0.0863453 0.131326 0.848875 1.60905 -1.05539 0.469355 0.66818 1.15908 -0.030625 -0.00119651 -0.48023 1.44732 -0.0518971 0.988446 -0.81144 -0.645339
1000 0.758673 0.427553 -0.0210443 -1.3424 0.359297 -1.62872 -0.177871 -0.343895 0.12676 0.117507 0.942681 1.71883 -1.22595 0.546404 0.764693 1.20456 0.0492283 -0.0350617 -0.464665 1.60864 -0.0341689 1.03642 -0.919223 -0.709003
2192 0.672751 0.424849 -0.0888615 -1.22542 0.306502 -1.45471 -0.123521 -0.305194 0.126124 0.153657 0.829709 1.47362 -1.05472 0.535331 0.701961 1.07879 0.0400173 -0.0212593 -0.457101 1.36802 0.0114345 0.913605 -0.813789 -0.605377
4170 0.682919 0.463082 -0.00944154 -1.39704 0.314818 -1.60316 -0.120446 -0.319236 0.099993 0.140637 0.948316 1.73529 -1.182 0.559252 0.740834 1.27997 0.0161036 -0.0420699 -0.501608 1.58086 -0.014691 1.06081 -0.93881 -0.771883
2277 0.768721 0.508326 -0.109207 -1.38904 0.358806 -1.70213 -0.123699 -0.356609 0.127681 0.106101 0.937508 1.69866 -1.20398 0.556216 0.732192 1.25335 0.0388608 -0.0205928 -0.538862 1.57599 0.0301591 1.04972 -0.926084 -0.727462
191 0.751469 -0.169835 0.667596 -0.967215 -1.79221 0.265111 -0.253905 -0.681375 -0.966909 0.0103556 1.71635 0.86929 -0.46346 0.0662054 -0.922576 1.36307 -0.0652098 0.0787549 -0.804133 0.971148 -0.240137 2.3682 -0.246879 -0.658936
2262 0.75557 -0.123831 0.637079 -0.988436 -1.84308 0.295382 -0.263658 -0.686735 -0.890457 0.0300396 1.75472 0.81232 -0.437043 0.0587882 -0.871011 1.32255 -0.14826 0.0803198 -0.782955 1.00196 -0.305337 2.3964 -0.246202 -0.76489
375 0.830601 -0.420817 -0.378539 -0.339006 -0.207438 -1.03993 0.470109 0.144887 -0.369485 0.218396 1.43236 1.56328 -1.49887 -0.665115 0.422737 2.10672 -0.984281 0.508353 -0.293783 1.16291 1.51682 0.126606 -1.23977 -0.631415
2636 0.855179 -0.39354 -0.361131 -0.408343 -0.196026 -1.06711 0.478886 0.18711 -0.360577 0.187476 1.5396 1.52946 -1.49131 -0.666882 0.416708 2.1245 -0.989827 0.518389 -0.333379 1.05736 1.49343 0.0914966 -1.23053 -0.625679
1136 0.0769768 -0.148518 -0.2992 -0.665589 -0.626087 -0.00299683 0.991627 -0.818741 0.14727 0.481974 0.840384 0.638307 -1.23517 -0.202586 0.685071 1.06366 -0.526777 0.33749 -1.66512 0.0571547 -0.374228 1.50196 0.22068 -0.150625
4557 0.106285 -0.244797 -0.374181 -0.88602 -0.733326 -0.0320782 1.23828 -1.00564 0.211201 0.61332 1.09202 0.74167 -1.5494 -0.298281 0.864692 1.34221 -0.723042 0.414508 -2.0779 0.105414 -0.472006 1.90609 0.243275 -0.175497
1108 0.133752 -0.192365 -0.276964 -0.71358 -0.656833 0.000675572 1.04612 -0.935781 0.108299 0.57826 0.905789 0.707626 -1.32328 -0.208844 0.732497 1.151 -0.630076 0.361066 -1.79763 0.0716994 -0.422379 1.65523 0.274505 -0.197305
3892 0.304764 0.163085 -0.416284 -0.499505 0.144894 -0.895868 1.30027 -0.507822 -0.829944 0.222494 0.679182 1.07994 0.487003 0.874333 -0.613223 -0.18284 -0.636912 0.958453 -1.24149 1.2179 1.23104 1.4466 -1.27105 -0.59342
3800 0.363071 0.126216 -0.352328 -0.441816 0.118426 -0.817457 1.23969 -0.470225 -0.829213 0.225269 0.645257 1.06433 0.467835 0.837763 -0.559875 -0.212142 -0.609526 0.970044 -1.21202 1.16495 1.16941 1.40877 -1.18742 -0.614428
5186 0.378422 0.182359 -0.418072 -0.472776 0.117673 -0.811535 1.24504 -0.477664 -0.810305 0.206034 0.660876 1.06009 0.482868 0.884069 -0.56345 -0.206699 -0.637384 0.90306 -1.20676 1.23031 1.21417 1.36823 -1.20539 -0.585366
4873 -0.209132 1.03259 -0.877927 -0.933136 -0.773376 -0.769985 0.680336 0.519297 0.470617 -0.61483 0.121572 0.763769 1.44703 0.0315105 -0.664992 2.22868 -0.897698 0.848799 -0.130969 0.361256 -0.32568 1.15134 0.598218 -0.515241
1103 -0.231622 1.08517 -0.887668 -0.927253 -0.739299 -0.81666 0.660456 0.593858 0.506549 -0.580467 0.151468 0.739331 1.46706 -0.0121242 -0.692555 2.2852 -0.912643 0.868936 -0.140454 0.43061 -0.32726 1.19787 0.537733 -0.595889
4973 -0.18468 1.01026 -0.852044 -0.913842 -0.732917 -0.751263 0.68297 0.506952 0.512219 -0.570497 0.126848 0.73626 1.42428 0.0125816 -0.713742 2.23008 -0.911377 0.85911 -0.154223 0.396569 -0.306693 1.15521 0.569143 -0.551025
4383 -0.228874 1.0166 -0.849679 -0.890004 -0.672567 -0.747963 0.593192 0.501779 0.494403 -0.536919 0.131896 0.763724 1.37182 -0.0181217 -0.671197 2.19902 -0.884315 0.808764 -0.146897 0.334118 -0.313362 1.13497 0.554326 -0.506766
873 -0.216417 1.06083 -0.91955 -0.922706 -0.772733 -0.825954 0.634165 0.53414 0.485518 -0.598493 0.185396 0.793157 1.53405 -0.00747944 -0.71666 2.22997 -0.896352 0.967224 -0.128811 0.3508 -0.313604 1.214 0.620231 -0.616646
2916 -0.226288 0.995039 -0.900315 -0.927161 -0.731165 -0.724884 0.636101 0.51468 0.404818 -0.585962 0.116067 0.759099 1.46319 0.00777468 -0.726716 2.21851 -0.907188 0.916201 -0.180051 0.338504 -0.302155 1.2182 0.565123 -0.546128
3915 -0.218513 1.05949 -0.847094 -0.89473 -0.693377 -0.746038 0.612255 0.495839 0.47102 -0.559981 0.117012 0.743497 1.42038 -0.0139904 -0.677048 2.15641 -0.886418 0.85102 -0.17621 0.388528 -0.277013 1.17315 0.542552 -0.567143
2091 -0.195048 1.00583 -0.846821 -0.881882 -0.689909 -0.721963 0.642183 0.497548 0.437121 -0.544636 0.119396 0.723378 1.42203 0.0564442 -0.645198 2.17057 -0.904087 0.875192 -0.162648 0.434392 -0.320278 1.18586 0.548136 -0.535633
582 -0.174858 1.03568 -0.846037 -0.87852 -0.701219 -0.736971 0.615475 0.547459 0.478613 -0.561019 0.192335 0.758808 1.36317 0.0538068 -0.657985 2.15103 -0.859853 0.810171 -0.158023 0.34815 -0.281468 1.12661 0.559625 -0.530277
1716 0.782584 0.0549289 1.16965 0.17838 0.55025 -0.144367 0.331259 0.461488 1.13558 0.513373 0.999356 1.73796 0.251844 -0.886692 -0.402991 0.480394 -1.4267 0.640764 0.388709 0.653137 1.12603 2.56447 -1.08078 -0.10946
2621 0.802599 0.0215997 1.0779 0.214552 0.608442 -0.0236804 0.294724 0.49113 1.23255 0.50353 0.999814 1.72605 0.280032 -0.899586 -0.45249 0.538055 -1.38391 0.661849 0.330325 0.685115 1.15732 2.60586 -0.969551 -0.100947
3055 -0.0706858 1.19968 -1.26783 0.212834 0.134712 -1.57022 0.688689 -0.160004 1.05639 -0.348938 0.828771 0.967784 -0.426478 -0.786437 -0.0594758 0.975848 -1.62406 -0.20438 -0.528797 0.579719 0.548443 0.656759 0.880499 -1.40094
2696 -0.0230962 1.16851 -1.20108 0.196512 0.129472 -1.54037 0.668877 -0.144121 1.08526 -0.402294 0.798179 0.94008 -0.436315 -0.798995 -0.0554017 0.942112 -1.55182 -0.162423 -0.511776 0.605121 0.520777 0.666182 0.848538 -1.39434
4140 -0.047507 1.10574 -1.19809 0.185659 0.145475 -1.44141 0.690133 -0.172726 1.00669 -0.349305 0.738197 0.902354 -0.44976 -0.728889 -0.0658424 0.914695 -1.49877 -0.108444 -0.476482 0.585875 0.525068 0.607309 0.763829 -1.29583
3375 -0.0444256 1.26326 -1.27412 0.276272 0.134558 -1.65939 0.77447 -0.159292 1.19402 -0.476794 0.915773 1.00584 -0.469074 -0.874263 -0.0587155 1.07387 -1.7458 -0.178066 -0.605794 0.666404 0.561635 0.775374 0.943173 -1.57852
1225 -0.00233482 1.16326 -1.18611 0.186285 0.164066 -1.51102 0.72158 -0.164061 1.12648 -0.399641 0.838387 0.979654 -0.460914 -0.80402 -0.0301917 0.969843 -1.60224 -0.203905 -0.501653 0.574835 0.574584 0.664182 0.838723 -1.40749
1081 -0.0536153 1.24198 -1.2721 0.216866 0.0838036 -1.58407 0.733984 -0.221033 1.16576 -0.389539 0.8171 0.993357 -0.407952 -0.855765 -0.0364522 1.00596 -1.66922 -0.159005 -0.581548 0.624403 0.599428 0.688172 0.885823 -1.44892
293 -0.0509915 1.23089 -1.29227 0.2667 0.163917 -1.57371 0.758433 -0.185237 1.15204 -0.425822 0.822448 0.972794 -0.450642 -0.879014 -0.0501581 1.01395 -1.66709 -0.194509 -0.552741 0.651899 0.585245 0.678307 0.931581 -1.48746
2215 -0.723096 -0.177741 0.0930962 -0.288802 -0.0154943 0.05366 0.194153 -0.43542 -0.502798 -0.504686 -0.014469 1.70349 1.00192 -0.614684 -0.307904 1.01698 -1.19783 0.164667 -0.359502 0.14103 -0.0223344 1.31269 0.2563 -0.570991
3022 -0.933391 -0.210371 0.163493 -0.345475 -0.0367367 0.0941344 0.246492 -0.682619 -0.610701 -0.632755 -0.0182807 2.35329 1.40993 -0.852922 -0.431361 1.40069 -1.75381 0.182446 -0.561303 0.260799 -0.044114 1.83249 0.37977 -0.819016
1184 -1.05984 -0.169941 0.203615 -0.399799 -0.043219 0.0830575 0.3436 -0.696798 -0.734936 -0.737457 -0.0196143 2.45762 1.34951 -0.882872 -0.491384 1.53149 -1.78515 0.220109 -0.579234 0.249168 -0.0634658 1.89489 0.38637 -0.853634
1745 -1.0317 -0.213147 0.191595 -0.462304 -0.00130356 0.0922189 0.376338 -0.708907 -0.676731 -0.718773 -0.00364351 2.41393 1.32286 -0.83896 -0.492008 1.46955 -1.70568 0.168805 -0.537606 0.241109 -0.0333002 1.87673 0.341058 -0.790668
5193 -0.937574 -0.223716 0.307255 -0.327911 -0.0136225 0.117944 0.283507 -0.632117 -0.597239 -0.676846 -0.0156556 2.32747 1.34136 -0.799491 -0.449946 1.35725 -1.66681 0.202013 -0.470567 0.222988 -0.0145811 1.80297 0.331827 -0.779917
3099 -1.0525 -0.181332 0.23609 -0.456367 0.0108879 0.044039 0.381797 -0.737132 -0.654317 -0.713664 -0.032486 2.42566 1.35766 -0.826634 -0.513692 1.42247 -1.73915 0.271167 -0.500822 0.303053 -0.0732251 1.8261 0.36267 -0.755014
972 -0.963901 -0.249994 0.16364 -0.339491 -0.0426964 0.110222 0.289515 -0.673686 -0.616389 -0.637716 -0.0520232 2.2415 1.27325 -0.795382 -0.446976 1.42556 -1.66538 0.195688 -0.529573 0.22926 -0.0144123 1.75514 0.334681 -0.783137
2712 -0.953989 -0.245733 0.204248 -0.336107 0.0196412 0.0796968 0.285752 -0.682831 -0.65114 -0.622077 -0.033915 2.31772 1.28895 -0.813709 -0.499969 1.38175 -1.67306 0.212971 -0.532579 0.218029 -0.0334156 1.85262 0.414076 -0.840227
784 0.233426 0.400748 0.339708 -1.76556 0.222771 -1.19905 0.222488 -0.915916 -0.697585 0.0214847 1.20709 1.34142 -0.0231091 0.179598 -1.06015 1.56117 -0.555568 0.309447 -0.700756 0.873676 0.451582 0.822154 -1.62718 -0.305032
3198 0.207342 0.383288 0.410428 -1.8693 0.266936 -1.23837 0.222417 -0.999828 -0.732233 0.0509471 1.25548 1.36162 -0.101767 0.202055 -1.06885 1.61553 -0.567725 0.250253 -0.667784 0.933862 0.507602 0.895061 -1.71682 -0.293773
2589 0.271337 0.477841 0.367757 -1.93211 0.187428 -1.35888 0.281272 -1.04983 -0.741383 0.050252 1.34142 1.44721 -0.0903418 0.239562 -1.16742 1.67266 -0.544798 0.242223 -0.753932 1.02697 0.532093 0.805769 -1.74402 -0.304204
3448 0.234311 0.408299 0.382995 -1.72139 0.165859 -1.20231 0.248567 -0.907316 -0.659324 0.0325764 1.13503 1.26834 -0.113123 0.133058 -1.0169 1.49363 -0.520413 0.248885 -0.66077 0.911417 0.479146 0.807518 -1.6453 -0.33181
4066 0.170967 0.447905 0.429862 -2.06606 0.206104 -1.40421 0.360051 -1.08575 -0.793337 0.0268856 1.3871 1.44948 -0.033459 0.23193 -1.20545 1.78096 -0.575937 0.232692 -0.817206 1.03229 0.588652 0.885172 -1.86512 -0.372585
414 0.160569 0.440368 0.2869 -1.62175 0.167844 -1.1932 0.309811 -0.8477 -0.509894 0.00640498 1.15432 1.17478 -0.0767876 0.189279 -0.868627 1.42568 -0.478881 0.237231 -0.670541 0.915105 0.468675 0.75063 -1.42052 -0.274119
1426 0.181439 0.353335 0.29625 -1.46428 0.186831 -1.01138 0.293929 -0.723556 -0.47446 -0.00187365 1.04769 1.05652 -0.140525 0.113491 -0.881738 1.28439 -0.372107 0.166927 -0.588385 0.798405 0.395142 0.651241 -1.30521 -0.223651
332 -0.919702 -0.43495 0.49773 -0.345354 0.203714 -0.0325621 0.288445 0.923983 -0.2906 0.275985 -0.163521 0.422036 1.40085 0.618422 -0.609861 1.33538 -0.833751 1.74119 -1.35059 0.957635 -0.0384335 1.81254 0.0779048 -1.51977
3841 -0.911008 -0.486748 0.487982 -0.324244 0.244821 -0.00903335 0.301579 0.840042 -0.307667 0.347012 -0.119604 0.439461 1.38502 0.589352 -0.550792 1.38537 -0.936174 1.72509 -1.4035 0.973479 -0.051709 1.80453 0.160773 -1.49651
1220 -0.881475 -0.453959 0.42545 -0.295082 0.201239 -0.00432027 0.331413 0.892069 -0.29265 0.32669 -0.0825672 0.389971 1.37307 0.63358 -0.578801 1.34873 -0.84435 1.71265 -1.35941 0.94739 -0.0154818 1.72243 0.150206 -1.43696
1495 -0.799973 -0.461639 0.504897 -0.347524 0.172052 -0.00572317 0.319339 0.856264 -0.269812 0.315393 -0.114661 0.404892 1.3452 0.623799 -0.632714 1.29174 -0.844987 1.68759 -1.3032 0.940098 -0.00928061 1.70627 0.103832 -1.48521
4578 -0.889166 -0.462465 0.541179 -0.35879 0.26237 0.00167645 0.245158 0.951671 -0.320926 0.311043 -0.11609 0.356273 1.42698 0.662599 -0.583437 1.42548 -0.904264 1.81769 -1.40003 0.959936 -0.0306501 1.86631 0.159565 -1.54282
2420 -0.409978 -0.484781 -0.613263 0.40366 0.366239 -0.775082 1.17574 -0.542059 0.291991 0.812723 0.428513 1.13054 -1.29312 -0.570293 0.0384787 1.66976 -1.28374 -1.23992 -1.46089 -0.135909 0.4771 1.78856 -0.214884 -0.392235
3519 -0.409722 -0.53861 -0.62464 0.387377 0.294093 -0.755099 1.14763 -0.588037 0.302279 0.889275 0.519031 1.1328 -1.39361 -0.602262 0.0767945 1.73636 -1.28424 -1.28113 -1.52137 -0.145887 0.477244 1.83803 -0.235242 -0.379765
