5636 24
4000 0.245802 0.976862 -0.378103 -0.455074 -0.490342 -0.336323 -1.06445 -0.306292 0.776989 -0.303665 -0.492886 -0.0790607 1.83062 -0.814144 -0.236858 -0.798855 -2.29802 0.694622 1.18539 -1.32773 0.672773 -0.460698 0.167895 0.104291
4118 0.209313 0.877523 -0.403678 -0.428834 -0.487666 -0.340124 -0.946222 -0.341577 0.715721 -0.30821 -0.472211 -0.0557643 1.77927 -0.702143 -0.230417 -0.781608 -2.20468 0.648805 1.16695 -1.21111 0.648758 -0.463465 0.13323 0.111694
4690 0.284728 0.942258 -0.377923 -0.477992 -0.480192 -0.317809 -1.02704 -0.352354 0.705823 -0.3438 -0.496815 -0.0750442 1.80268 -0.714956 -0.27061 -0.7801 -2.26379 0.678922 1.19117 -1.31299 0.707313 -0.48463 0.142965 0.0894594
4470 -0.413468 -0.210114 -1.06974 -0.719305 -0.775444 0.313991 0.0523035 0.353102 -0.218497 -0.555584 1.40426 0.576769 -0.678144 0.205781 -1.41268 0.26334 -0.604721 0.79075 1.09341 -0.994865 0.321559 -1.11148 0.228722 -1.11149
4100 -0.454947 -0.185688 -1.2367 -0.86257 -0.848248 0.356163 0.0237021 0.42318 -0.213506 -0.584497 1.65565 0.710466 -0.74097 0.231176 -1.68334 0.340768 -0.801074 0.931551 1.33443 -1.13544 0.382158 -1.37548 0.26716 -1.33513
2741 -0.58845 -0.161561 -1.30547 -0.776873 -1.13784 0.29702 -0.0910247 0.371869 -0.145578 -0.718623 1.74261 0.670696 -0.90132 0.285342 -1.50254 0.358028 -0.684434 0.898194 1.36461 -1.31008 0.484373 -1.36543 0.257282 -1.33323
552 -0.556505 -0.182736 -1.24298 -0.789999 -0.956407 0.28719 -0.0283459 0.362033 -0.185261 -0.657651 1.70468 0.670465 -0.865742 0.234165 -1.462 0.341528 -0.694599 0.848378 1.25002 -1.20897 0.41378 -1.28004 0.321961 -1.25865
2342 -0.504293 -0.150872 -1.28117 -0.78968 -0.97833 0.347436 -0.0253701 0.474298 -0.157241 -0.67174 1.59801 0.695149 -0.838475 0.254304 -1.59596 0.323259 -0.711036 0.910667 1.32415 -1.20037 0.334622 -1.33052 0.234026 -1.27237
5507 -0.444764 -0.263649 -1.30326 -1.09673 -0.678933 0.52808 0.146147 0.542869 -0.272297 -0.535125 1.55201 0.801419 -0.714402 0.192844 -2.05455 0.361768 -0.873812 1.07512 1.40736 -1.00547 0.260579 -1.52169 0.254046 -1.30705
3929 -0.264347 -0.401828 -1.07624 -1.23909 -0.100121 0.59373 0.266464 0.710265 -0.242428 -0.199113 1.0331 0.829366 -0.336194 -0.000244805 -2.30835 0.249969 -1.09956 1.12399 1.26655 -0.547674 0.0159441 -1.61084 0.14593 -1.01829
22 -1.02413 0.392237 0.452263 -0.314726 -0.557354 -0.366125 -2.00462 0.183359 1.45087 -1.10025 -0.695159 1.27526 0.8194 0.0269636 -1.63542 -0.34389 -2.01424 0.136008 0.0174124 -1.10795 0.653655 -0.587965 -0.0765654 -0.882422
2846 -0.991555 0.331171 0.453128 -0.210597 -0.631392 -0.4043 -2.11409 0.207776 1.51933 -1.21795 -0.719417 1.23481 0.837046 0.0484432 -1.73923 -0.233217 -2.07389 0.16884 0.0194124 -1.16066 0.731621 -0.764081 0.0713135 -0.874363
4817 -0.710123 0.268867 0.248611 -0.241514 -0.424295 -0.310618 -1.47556 0.0869374 1.11301 -0.79527 -0.544013 0.914928 0.623575 0.0660994 -1.29441 -0.198038 -1.48508 0.158247 -0.0326069 -0.909088 0.524076 -0.446464 0.000512341 -0.630225
1584 -1.03218 0.371788 0.41392 -0.295823 -0.572786 -0.36689 -2.01772 0.199704 1.47059 -1.1573 -0.67408 1.24855 0.808261 0.0117559 -1.65008 -0.294919 -2.05781 0.164566 0.0459342 -1.03098 0.662713 -0.655973 -0.0534044 -0.882251
5284 -0.999754 0.342394 0.466865 -0.310459 -0.530873 -0.447791 -2.13028 0.170455 1.47595 -1.22171 -0.753918 1.25559 0.88007 0.0723026 -1.67174 -0.331465 -1.99886 0.12082 0.0529456 -1.07623 0.749366 -0.699821 0.00272454 -0.85159
111 -1.119 -0.236642 -0.367108 -0.31864 -1.12588 0.444988 -0.281598 -0.0504191 0.251516 -0.435587 0.256943 -0.821284 0.159381 -0.506896 -0.652109 1.35235 -0.963747 0.0427333 0.434341 -0.509603 1.32212 -2.01041 0.437864 0.200789
3620 -1.14744 -0.2407 -0.37624 -0.317223 -1.18373 0.440801 -0.292215 -0.0679875 0.283765 -0.460816 0.310416 -0.877149 0.183305 -0.498707 -0.689619 1.4 -0.973713 0.0204197 0.419316 -0.506327 1.35913 -2.04288 0.436662 0.164829
1880 -1.1648 -0.291839 -0.383446 -0.385941 -1.16901 0.49993 -0.281416 -0.0149323 0.257166 -0.484022 0.299872 -0.853834 0.178757 -0.488217 -0.715333 1.37414 -0.986319 -0.0232532 0.405614 -0.498724 1.31586 -1.99142 0.443805 0.168164
5410 -1.16047 -0.260572 -0.369007 -0.342656 -1.18084 0.414375 -0.311177 -0.0238254 0.280702 -0.49768 0.29959 -0.861113 0.20739 -0.469426 -0.68716 1.33027 -0.983462 0.00865022 0.468457 -0.538169 1.30043 -2.02281 0.466747 0.213955
2233 -1.16884 -0.279877 -0.359233 -0.338725 -1.24227 0.473674 -0.285281 -0.0268241 0.249809 -0.511798 0.322651 -0.938743 0.148625 -0.521952 -0.702244 1.44786 -1.04636 -0.0109247 0.474959 -0.57093 1.37356 -2.12442 0.479966 0.135034
732 -0.485009 0.8813 -1.45314 -0.322433 -0.626895 0.305178 -1.15837 1.01931 0.619945 0.272113 0.28566 -0.292595 0.348272 0.427406 -0.458589 -0.410654 -0.807568 0.306434 1.67882 -0.186182 0.0608968 -0.795518 0.62318 -0.514414
986 -0.585988 1.11675 -1.77583 -0.253889 -0.862141 0.243453 -1.51245 1.41941 0.748865 0.313199 0.367749 -0.208204 0.389221 0.568801 -0.527721 -0.465573 -0.844461 0.380755 2.15488 -0.228072 0.164096 -1.16392 0.744911 -0.704569
3744 -0.510985 0.914629 -1.59321 -0.408303 -0.53054 0.0620288 -1.44393 1.06414 0.632965 0.282565 0.274574 -0.472822 0.444565 0.58442 -0.412704 -0.45665 -0.802723 0.256454 1.77106 -0.227431 0.270847 -0.937601 0.810107 -0.321322
2779 -0.537592 0.895628 -1.5966 -0.407363 -0.521243 0.175175 -1.28995 1.05689 0.685048 0.280473 0.219567 -0.476125 0.366166 0.544251 -0.47899 -0.477574 -0.866113 0.330901 1.70114 -0.244887 0.20196 -0.821324 0.758039 -0.412811
637 -0.801107 1.19328 -1.75023 -0.217088 -0.864584 -0.242024 -1.33861 1.25926 0.736226 0.139542 0.014175 -0.24037 0.440692 0.628716 -0.448458 -0.274676 -0.685969 0.403848 2.09996 -0.306878 0.391305 -1.17465 0.630224 -0.426281
5438 -0.384476 1.26061 -1.70103 -0.210342 -1.03824 -0.388014 -1.83476 1.33892 0.992371 0.306693 0.50289 0.0807851 0.596502 0.501499 -0.635629 -0.140759 -0.39425 0.212466 2.01981 0.0319606 0.401481 -1.40903 0.59229 -0.65946
2208 -0.842643 1.23431 -1.7984 -0.23544 -0.864519 -0.123516 -1.47329 1.40058 0.805423 0.162902 0.270264 -0.208239 0.38259 0.700549 -0.388265 -0.25358 -0.820443 0.391417 2.12378 -0.315958 0.383603 -1.12501 0.659965 -0.547382
5063 -0.750174 1.18876 -1.7297 -0.286328 -0.741006 -0.0509289 -1.45645 1.27404 0.672275 0.187851 0.320472 -0.42927 0.397027 0.639566 -0.382376 -0.373794 -0.774912 0.329548 2.06446 -0.27586 0.29524 -1.07207 0.759202 -0.462078
1862 0.0142347 1.25884 -0.739053 -1.17577 -1.30642 0.109013 -0.347781 -0.00371053 1.36139 0.308968 0.239715 1.22748 0.380406 -0.449015 -0.119969 -1.08479 -0.398196 1.21484 0.763608 -0.772661 1.32335 -0.981087 -1.22085 -0.361776
2135 0.00994036 1.16463 -0.735897 -1.13566 -1.24688 0.0729965 -0.333615 -0.032467 1.3126 0.310346 0.230199 1.17317 0.363539 -0.494363 -0.127952 -1.01222 -0.315763 1.12293 0.67583 -0.697582 1.29918 -0.91651 -1.14357 -0.39555
666 0.0351305 1.16692 -0.719297 -1.11674 -1.2527 0.105184 -0.319657 -0.0443224 1.28022 0.33671 0.152514 1.1549 0.389468 -0.421342 -0.146312 -1.03706 -0.37184 1.17968 0.670378 -0.683033 1.27915 -0.9097 -1.17754 -0.416431
3792 -0.151498 -0.092451 -0.539661 -0.163316 -1.87482 -0.445171 -0.271205 -0.106749 0.482371 -0.239451 -0.24897 -0.34927 -0.636942 -0.244623 -1.54492 -0.0848377 -1.07199 0.515487 0.501368 0.34204 0.546673 -2.19793 0.944778 0.133527
4281 -0.176669 -0.0743377 -0.517171 -0.233355 -2.20813 -0.69218 -0.43344 -0.120195 0.399843 -0.388318 -0.243643 -0.242235 -0.671312 -0.177234 -1.93258 -0.0547444 -1.17623 0.475529 0.824487 0.497935 0.512151 -2.50184 1.00199 0.218789
3849 -0.14575 -0.114949 -0.562444 -0.140214 -2.02309 -0.416318 -0.148461 -0.140702 0.509469 -0.234873 -0.28257 -0.392639 -0.696677 -0.370902 -1.55529 -0.0846798 -1.12952 0.500496 0.482006 0.309274 0.642305 -2.33847 1.03506 0.125712
3459 -0.1603 -0.0858025 -0.337165 -0.332127 -1.85344 -0.749064 -0.570804 0.00515958 0.254978 -0.313425 -0.20044 -0.1482 -0.431173 -0.0545217 -1.79194 0.0128787 -0.999644 0.391361 0.753295 0.518882 0.356259 -2.1587 0.838675 0.24752
2728 -0.138642 -0.0725305 -0.573676 -0.107712 -1.9073 -0.386383 -0.171683 -0.128014 0.476653 -0.24009 -0.275881 -0.372713 -0.685429 -0.327412 -1.47591 -0.0528576 -1.05955 0.453479 0.446567 0.336467 0.596844 -2.21857 1.0036 0.126866
2571 -0.67128 0.544289 -0.221449 -0.0956827 -0.361298 -1.22081 0.212486 -0.217015 -0.546972 0.0450747 -0.401533 0.881147 -0.349922 -0.0332101 -0.810127 -0.521074 -2.55046 1.01507 1.00022 -0.446636 0.931589 -0.965006 -1.01736 -0.157202
4015 -0.765869 0.609008 -0.264541 -0.204652 -0.400401 -1.34853 0.248103 -0.161622 -0.597867 -0.0410799 -0.472074 0.982759 -0.33785 -0.0221388 -0.916867 -0.538864 -2.92354 1.16094 1.15137 -0.500373 1.07354 -1.11683 -1.07281 -0.157228
1595 -0.691449 0.504804 -0.202201 -0.150021 -0.457061 -1.32493 0.324596 -0.298318 -0.565637 0.0355047 -0.555348 1.07666 -0.284308 -0.0781858 -0.873191 -0.575409 -2.74001 1.03392 1.12239 -0.496275 1.0461 -1.08973 -0.994255 -0.068557
3915 -0.640992 0.519316 -0.206646 -0.0859617 -0.389502 -1.12105 0.228587 -0.189769 -0.590996 0.00708942 -0.457244 0.847364 -0.359299 0.0174716 -0.775581 -0.541413 -2.48858 1.01643 0.906506 -0.41855 0.863993 -0.910712 -0.966394 -0.196228
1517 -0.721802 0.548267 -0.215428 -0.119797 -0.409243 -1.27189 0.239368 -0.236895 -0.627789 0.050663 -0.449817 0.989289 -0.352097 -0.0396894 -0.849719 -0.487705 -2.84499 1.17393 1.05264 -0.49933 1.05096 -1.10287 -1.08112 -0.164487
4797 -0.706323 0.591056 -0.200376 -0.152601 -0.411303 -1.26491 0.303213 -0.202642 -0.601663 0.036545 -0.412558 0.880644 -0.344496 -0.0754136 -0.797582 -0.523702 -2.70415 1.01595 1.07813 -0.412147 0.935063 -0.983783 -1.02059 -0.123711
1895 -0.707114 0.523381 -0.22202 -0.133834 -0.365399 -1.2081 0.2076 -0.217323 -0.548807 0.0282616 -0.406842 0.957259 -0.367072 -0.0112953 -0.857532 -0.55108 -2.71936 1.1296 1.02417 -0.54526 0.979194 -1.05156 -0.985585 -0.170156
4261 -0.670058 0.525335 -0.212556 -0.150686 -0.366712 -1.14065 0.266739 -0.185325 -0.549823 -0.0297431 -0.432193 0.882263 -0.319119 -0.0396508 -0.818042 -0.518669 -2.6117 1.00239 0.969916 -0.442529 0.876205 -0.987472 -0.95982 -0.141801
1871 -0.897612 0.922225 -0.0912612 0.510308 0.602812 -0.0260052 -0.701171 0.670589 1.79288 0.824127 -0.714459 1.17552 0.197993 0.376303 -0.752559 0.360362 -1.35658 1.98997 0.627137 0.472469 2.0295 -0.220828 0.031491 -0.807275
3023 -0.896477 0.962493 -0.0397812 0.532502 0.605465 -0.00387866 -0.690335 0.613939 1.84191 0.745362 -0.640787 1.18077 0.207483 0.348516 -0.695756 0.405623 -1.36663 1.99816 0.626336 0.469199 2.05856 -0.180023 0.0123944 -0.837239
2463 -1.02065 -0.0851724 -0.847386 0.366107 -0.924849 -1.01471 -1.10317 0.703713 -0.207852 -0.665789 0.391195 -0.214195 0.293072 -0.641805 -0.540596 0.414336 -0.802174 0.393375 1.43517 -0.650256 0.83106 -2.24148 -0.331197 0.78998
4399 -1.09469 -0.0747676 -0.87349 0.33101 -0.935457 -0.93528 -1.15328 0.67628 -0.165904 -0.648436 0.443254 -0.186557 0.313169 -0.658602 -0.569381 0.441305 -0.812744 0.294461 1.46441 -0.639813 0.799144 -2.23231 -0.30807 0.779485
1212 -1.23872 0.0421557 -0.957555 0.320525 -0.910692 -1.02177 -1.2076 0.756307 -0.14606 -0.76431 0.487829 -0.284818 0.349492 -0.718595 -0.663945 0.58292 -0.879344 0.33183 1.58989 -0.7169 0.851494 -2.45416 -0.38455 0.69704
2235 -1.04559 -0.174306 -0.855867 0.313226 -0.617918 -0.674859 -0.912732 0.434819 -0.0291602 -0.597159 0.589991 -0.112261 0.384545 -0.597851 -0.568569 0.608551 -0.916184 -0.02922 1.5072 -0.503132 0.773811 -2.06805 -0.419944 0.664257
2680 -0.971985 -0.189921 -0.77926 0.305824 -0.620732 -0.650694 -0.852803 0.362071 -0.097946 -0.532474 0.568407 -0.115112 0.366405 -0.556854 -0.480686 0.637272 -0.862559 0.0116648 1.4515 -0.481733 0.739543 -2.01354 -0.345219 0.641632
4224 -1.04009 -0.0849641 -0.810741 0.357019 -0.895362 -0.926039 -0.996532 0.547856 -0.196707 -0.602229 0.40682 -0.235157 0.333068 -0.664049 -0.508967 0.483391 -0.786971 0.353114 1.22139 -0.528584 0.778074 -2.02956 -0.319445 0.769981
1508 -1.32474 0.397843 -0.251866 -0.214114 0.139845 0.527954 -1.19464 0.235511 -1.52881 -0.239337 0.171805 0.0470666 0.799185 -0.427565 -0.837679 0.623132 -1.67959 1.73533 0.600865 -0.295129 1.49256 -1.18409 0.961631 -0.697754
5021 -1.30404 0.381532 -0.231605 -0.218788 0.0890071 0.47984 -1.21424 0.209883 -1.50172 -0.207107 0.215118 0.043011 0.820497 -0.461303 -0.767662 0.626268 -1.63294 1.7006 0.550372 -0.305327 1.50494 -1.16378 1.0035 -0.702762
4361 -1.3219 0.3372 -0.18768 -0.275215 0.148881 0.537466 -1.19492 0.204261 -1.47492 -0.201989 0.173341 0.0644919 0.856332 -0.42866 -0.788737 0.575597 -1.62186 1.68825 0.593825 -0.300196 1.44735 -1.15272 0.989092 -0.737407
1084 -1.36792 0.575574 -0.349824 -0.134481 -0.0378619 0.763801 -1.36079 0.218435 -1.56214 -0.2593 0.346107 0.0381253 0.822431 -0.468308 -0.830641 0.826407 -1.48567 1.7515 0.613386 -0.194403 1.50413 -1.18029 1.05585 -0.619293
764 -1.37026 0.332515 -0.133638 -0.275739 0.101882 0.473564 -1.2529 0.265083 -1.54232 -0.231215 0.139744 0.0571229 0.821055 -0.4782 -0.817385 0.56555 -1.57431 1.6695 0.582845 -0.312545 1.47925 -1.24801 1.04495 -0.824342
746 -1.03454 0.344544 -0.234585 -0.139689 0.129996 0.438179 -0.921784 0.166989 -1.18018 -0.164642 0.142606 0.0385929 0.644987 -0.392135 -0.563579 0.507758 -1.29997 1.229 0.389018 -0.184666 1.05525 -0.844092 0.730156 -0.515718
3157 -1.55537 0.510014 -0.466993 -0.243039 0.230606 0.417163 -1.15875 0.264015 -1.68517 -0.076937 0.332814 0.0919911 1.1218 -0.545495 -0.740836 0.717525 -2.36836 1.86889 0.525931 -0.28483 1.78355 -1.21481 0.926352 -0.564519
2952 -1.0933 0.410037 -0.338536 -0.144377 0.212962 0.385511 -0.856435 0.0564733 -1.11861 0.0182778 0.193356 0.0928459 0.866195 -0.370803 -0.511832 0.437554 -1.65606 1.31239 0.347665 -0.180519 1.16628 -0.859022 0.597715 -0.352802
4528 -1.16593 0.728331 -0.51061 0.106626 0.013863 0.547294 -1.05767 0.0719985 -1.22761 0.0358043 0.510911 0.0449173 0.789068 -0.372795 -0.69553 0.717977 -1.58626 1.42705 0.385951 -0.149509 1.31209 -0.870827 0.612634 -0.237451
1761 -1.24045 1.09768 -0.635614 0.246254 -0.146908 0.921605 -1.43728 0.0904698 -1.38078 0.054345 0.718711 0.0859951 0.982992 -0.334471 -0.927617 0.975668 -1.45322 1.6305 0.544996 -0.104366 1.48682 -1.11884 0.718796 -0.135656
3882 -1.26071 0.800555 -0.462227 0.122341 0.0321429 0.520413 -1.23612 0.104921 -1.47006 0.135323 0.584534 0.101771 0.913203 -0.278308 -0.799478 0.62327 -1.64284 1.53477 0.531955 -0.162974 1.39567 -1.01816 0.714737 -0.293897
953 -1.00348 0.920332 -0.960583 0.459718 -0.461521 -0.349223 -0.829034 0.806935 0.625832 0.800614 -0.502304 1.25868 -0.986624 0.596907 -0.654607 -1.15032 -0.423007 0.778152 1.07575 0.103278 2.41204 -1.14045 0.354334 0.433779
2613 -0.956812 0.815816 -0.845666 0.39506 -0.383413 -0.281713 -0.747924 0.766974 0.579872 0.716051 -0.425457 1.12121 -0.881329 0.507638 -0.627734 -0.992474 -0.327596 0.667527 0.901744 0.109105 2.07723 -1.02086 0.260033 0.312639
5220 -1.01628 0.818308 -0.859408 0.358404 -0.454579 -0.283208 -0.741749 0.763789 0.597837 0.763132 -0.446878 1.14931 -0.9089 0.465965 -0.590088 -0.993569 -0.380448 0.693452 0.943062 0.156351 2.19935 -1.06087 0.303561 0.308162
2988 -1.0451 0.916422 -0.926928 0.491884 -0.427258 -0.354913 -0.804713 0.79415 0.646913 0.826249 -0.487129 1.28327 -0.997524 0.599492 -0.660973 -1.11694 -0.381704 0.781481 1.08649 0.0979433 2.38412 -1.11988 0.313796 0.376755
2091 -1.02032 0.886615 -0.89096 0.472047 -0.424501 -0.320077 -0.781691 0.797629 0.572204 0.785838 -0.489384 1.21929 -0.982079 0.53991 -0.633024 -1.06025 -0.391225 0.831466 1.04762 0.143463 2.37363 -1.14824 0.322778 0.443914
782 -1.07366 0.986192 -0.983032 0.42345 -0.438929 -0.388272 -0.896756 0.848147 0.624965 0.843425 -0.56749 1.27641 -1.00709 0.629071 -0.665778 -1.14102 -0.425316 0.790561 1.17268 0.135192 2.48948 -1.26165 0.321856 0.418108
883 -1.08774 0.922521 -0.970125 0.500899 -0.425039 -0.316827 -0.890637 0.889108 0.623923 0.850633 -0.466345 1.2992 -0.986904 0.642392 -0.665388 -1.11283 -0.428483 0.759864 1.08178 0.0657414 2.40572 -1.13937 0.32646 0.404983
3437 -0.168766 0.843781 -0.572567 -1.31787 -0.902834 -1.06971 -0.251243 0.239186 0.870124 -0.956864 0.145714 0.652911 0.702062 1.46112 -0.541611 0.0573038 -1.84557 -0.0336513 0.624944 0.537199 1.40991 -1.54578 1.24993 0.0961903
5062 -0.315463 0.663839 -0.711755 -1.11863 -0.6778 -0.576 0.0297759 0.262367 0.758637 -0.698541 -0.00850335 0.343974 0.2918 1.18042 -0.455196 -0.106379 -1.6549 0.228414 0.23907 0.41343 1.09059 -1.32535 1.11311 0.0602026
1031 -0.248308 0.678202 -0.613884 -1.09924 -0.727593 -0.672127 -0.0536221 0.225867 0.755487 -0.769831 0.0294682 0.454166 0.45087 1.19199 -0.429732 -0.0315493 -1.57577 0.0892575 0.336251 0.429399 1.08944 -1.28307 1.07077 0.0933858
2918 -0.41264 0.706288 -0.939614 -1.25398 -0.678235 -0.537671 0.200489 0.331162 0.890957 -0.764453 0.0138316 0.197385 0.234953 1.39659 -0.515576 -0.309531 -1.96389 0.298458 0.177793 0.416938 1.23782 -1.72841 1.31635 0.0611379
442 -0.4143 0.555037 -0.912747 -1.00216 -0.523906 -0.30404 0.262748 0.279793 0.741748 -0.504542 0.0229233 0.113857 0.136996 1.14735 -0.46493 -0.273688 -1.68925 0.369349 0.0917941 0.29278 1.01844 -1.48326 1.0917 0.0439885
1596 -0.470361 0.527392 -0.952106 -1.02241 -0.552136 -0.261181 0.297348 0.284123 0.726573 -0.537557 -0.0265448 0.0701509 0.0579047 1.1008 -0.525939 -0.327087 -1.70746 0.465149 0.0764855 0.288588 1.04832 -1.51346 1.10791 0.0276449
5613 -0.495364 0.520188 -0.949465 -0.997785 -0.532909 -0.190883 0.271725 0.333114 0.76412 -0.43544 -0.018854 0.113207 0.0197213 1.04614 -0.518427 -0.336782 -1.70292 0.472297 0.136073 0.235575 1.06568 -1.58838 1.07196 0.0113372
1378 -0.423404 0.602086 -0.91581 -1.02243 -0.554733 -0.320569 0.222922 0.286893 0.762223 -0.520098 0.0378824 0.107556 0.0691805 1.07146 -0.459072 -0.299651 -1.60998 0.425301 0.115556 0.287897 0.989161 -1.5096 1.06639 0.0273081
4136 1.1143 0.13424 -1.67597 -0.00529349 -0.127232 1.17667 -0.584682 1.39785 0.372107 -0.0370815 0.905376 1.41619 -0.506355 -0.270389 -0.262783 0.112862 -1.04109 1.52522 1.83172 -0.0149391 1.49397 -0.74065 0.401176 -0.778527
2107 1.14015 0.103133 -1.70657 0.0145618 -0.119867 1.18075 -0.610652 1.36338 0.371229 -0.0656167 0.909676 1.39663 -0.460564 -0.212186 -0.237597 0.107992 -1.0093 1.55969 1.81748 -0.0317669 1.51416 -0.746321 0.429835 -0.758734
3723 -0.525652 -0.219133 -0.110562 -0.061246 -0.22182 1.66676 -0.523392 -0.889514 1.1281 -0.30375 0.162931 1.59142 0.650641 -0.361243 -0.305764 -0.232352 -2.21127 0.875679 1.11867 -0.343084 1.0399 -0.479024 0.758469 0.721383
4478 -0.553891 -0.224644 -0.0742399 -0.0506849 -0.340935 1.7002 -0.592136 -0.96124 1.15776 -0.329292 0.128975 1.6103 0.670776 -0.334699 -0.355032 -0.281194 -2.21867 0.923113 1.09523 -0.336634 1.05717 -0.441841 0.734606 0.734783
3818 -0.554324 -0.199841 -0.111585 -0.0735214 -0.256756 1.72 -0.554876 -0.980742 1.1925 -0.299025 0.110571 1.67231 0.696255 -0.332526 -0.326751 -0.29542 -2.26118 0.883154 1.0984 -0.375334 1.04547 -0.49881 0.765089 0.730928
4761 0.0210687 -0.0604825 -0.380075 -1.46386 -0.947743 0.44138 -0.529132 0.124994 0.308441 0.296653 -0.701389 1.13064 -0.125121 -0.248024 -0.763836 0.326296 -0.653516 -0.768225 1.16947 -0.375132 1.66168 -2.26241 0.875713 0.130364
4019 -0.020112 -0.0380271 -0.424115 -1.63607 -1.04397 0.514842 -0.531799 0.167232 0.234295 0.308712 -0.670046 1.23709 -0.0369229 -0.276949 -0.949515 0.439953 -0.659952 -0.752516 1.31353 -0.404376 1.75497 -2.35247 1.03031 0.0312464
2301 -0.037931 -0.0395321 -0.394963 -1.45414 -1.0014 0.563694 -0.504978 0.0511372 0.238465 0.289708 -0.719335 1.18442 -0.102911 -0.254438 -0.768549 0.279882 -0.666152 -0.814029 1.18842 -0.376268 1.6359 -2.18607 0.870426 0.103817
3302 -0.038539 -0.0747597 -0.352856 -1.36411 -0.858875 0.506673 -0.505066 0.0949495 0.212319 0.294352 -0.662444 1.10409 -0.0848702 -0.229231 -0.679479 0.301791 -0.564298 -0.703842 1.06727 -0.34335 1.47866 -2.01352 0.772218 0.11587
5448 0.00998119 -0.0233395 -0.388099 -1.41852 -0.980665 0.543093 -0.500013 0.0858722 0.280913 0.265906 -0.701251 1.14072 -0.138815 -0.304839 -0.757632 0.351031 -0.603055 -0.742245 1.15274 -0.332264 1.64639 -2.14908 0.84792 0.101844
3955 0.0179038 0.000913208 -0.395357 -1.35236 -0.921121 0.545355 -0.499071 0.0815261 0.26405 0.257622 -0.650173 1.07878 -0.129436 -0.265555 -0.655172 0.281355 -0.573247 -0.768081 1.10114 -0.352635 1.46596 -2.0434 0.782796 0.0821549
5565 0.00361622 -0.066639 -0.36195 -1.50811 -0.90877 0.58831 -0.589635 0.0890906 0.392284 0.390939 -0.760127 1.24748 -0.077155 -0.333625 -0.76813 0.322671 -0.678934 -0.785653 1.26701 -0.403689 1.81134 -2.42645 0.875608 0.105615
3632 -0.0153268 -0.0182429 -0.34451 -1.25584 -0.81263 0.483262 -0.539115 0.0645756 0.246256 0.25605 -0.639607 1.06565 -0.152979 -0.274848 -0.656496 0.297629 -0.538902 -0.717506 1.04868 -0.35731 1.46912 -1.94053 0.753825 0.121247
3338 -0.0501359 -0.0753899 -0.412283 -1.52452 -0.97159 0.471889 -0.536753 0.123094 0.28973 0.323209 -0.652698 1.14278 -0.0208973 -0.203284 -0.766112 0.329864 -0.643338 -0.71442 1.15111 -0.410325 1.6177 -2.18043 0.92909 0.0576554
534 -0.070514 -0.0217257 -0.386659 -1.69932 -1.04351 0.588938 -0.565424 0.195605 0.275886 0.288133 -0.696986 1.2606 -0.0352829 -0.323905 -0.949375 0.440184 -0.724518 -0.796793 1.21021 -0.386072 1.80042 -2.29733 0.955018 0.0705926
3531 -0.187099 -0.0269249 -0.340852 -1.4322 -0.912462 0.562078 -0.448165 0.125593 0.166438 0.289664 -0.548396 1.07321 -0.0492699 -0.221546 -0.917834 0.322297 -0.573346 -0.715685 1.06361 -0.341117 1.55331 -2.00681 0.86994 0.0704828
1900 0.246327 1.67221 0.448848 -0.607321 -0.710276 1.10213 -0.0358873 1.34267 1.67629 -1.11926 0.515238 1.2047 0.587005 -0.582068 -1.75715 -0.164717 -1.28573 0.743647 1.19496 0.0206713 0.931838 -1.20604 -0.664762 0.481009
4750 0.280303 1.59054 0.40617 -0.560721 -0.628796 0.995122 0.0106186 1.25626 1.59293 -1.08203 0.463197 1.1451 0.483534 -0.510852 -1.64825 -0.213 -1.26161 0.689705 1.03686 0.0208537 0.876754 -1.14206 -0.643522 0.407431
406 0.201877 1.41566 0.402597 -0.486829 -0.577983 0.915258 0.0246374 1.04568 1.35937 -0.893261 0.511305 0.946556 0.46248 -0.467844 -1.4658 -0.181415 -1.02169 0.616621 0.94174 0.0226833 0.696585 -0.955211 -0.537686 0.373503
2497 -0.0939119 0.281342 -0.0103647 -1.64576 -0.627666 0.631228 -0.215598 0.992801 0.372605 0.573484 -0.226915 0.975144 0.163393 1.44834 -1.60383 0.0697003 -1.55166 1.02878 1.13119 0.448369 0.748757 -0.626363 -0.485059 -0.634749
4844 -0.0892355 0.271266 0.004226 -1.68531 -0.633611 0.692096 -0.215402 1.05782 0.362728 0.467179 -0.245252 1.04185 0.139415 1.53335 -1.6743 0.0450121 -1.63828 1.13397 1.16334 0.381004 0.807705 -0.642336 -0.541654 -0.595292
1806 -0.0788063 0.282875 -0.0384343 -1.74948 -0.697116 0.698198 -0.208839 1.05822 0.371233 0.548943 -0.241757 1.0071 0.17241 1.52625 -1.67542 0.16241 -1.69283 1.15502 1.18086 0.446396 0.809198 -0.694222 -0.560017 -0.603625
3467 -0.113737 0.304507 -0.0354002 -1.84044 -0.699701 0.710074 -0.214546 1.02701 0.42473 0.552366 -0.272775 1.09369 0.194409 1.54969 -1.68062 0.0695043 -1.63029 1.13893 1.21233 0.475469 0.730807 -0.66164 -0.521794 -0.627227
3860 -0.0854094 0.663754 -0.225134 -0.921686 -0.789953 -0.94095 -0.444234 0.154168 0.648341 -0.730368 0.149112 0.644069 0.769465 1.08125 -0.336897 0.158258 -1.36325 -0.246696 0.563649 0.443046 1.03468 -1.06386 0.861236 0.117023
4364 -0.0306619 0.844071 -0.282103 -1.1254 -1.06432 -1.23573 -0.700211 0.177306 0.821624 -0.892893 0.267413 0.883551 1.03273 1.31134 -0.531479 0.321536 -1.82648 -0.332909 0.827326 0.581319 1.40636 -1.34909 1.04894 0.144121
1812 -0.0842838 0.675815 -0.242434 -0.977207 -0.791464 -0.957777 -0.472987 0.180458 0.650285 -0.724643 0.154182 0.682907 0.788697 1.13476 -0.380942 0.159071 -1.39537 -0.206794 0.624575 0.461755 1.05922 -1.10505 0.851675 0.101233
4438 -0.0644253 0.831913 -0.294945 -1.16102 -0.925562 -1.16692 -0.562743 0.217507 0.81285 -0.966954 0.161261 0.878663 0.917855 1.37031 -0.484997 0.167863 -1.69762 -0.31968 0.799396 0.519707 1.41834 -1.3411 1.04766 0.146966
2814 -0.0148459 0.787598 -0.220549 -1.08045 -0.938086 -1.18048 -0.589044 0.253111 0.813317 -0.837256 0.204289 0.830329 0.907018 1.29125 -0.456105 0.290454 -1.65013 -0.266905 0.785702 0.503235 1.31997 -1.25741 0.994593 0.134116
3705 -0.0464318 0.837509 -0.265925 -1.19044 -0.952723 -1.2003 -0.577138 0.260815 0.793121 -0.926844 0.224779 0.853816 0.948314 1.38528 -0.508884 0.267641 -1.79253 -0.276472 0.813197 0.535099 1.36719 -1.33442 1.10004 0.151199
1677 -0.0706813 0.827745 -0.243528 -1.15358 -0.888347 -1.20827 -0.543041 0.232633 0.828037 -0.856713 0.211577 0.831351 0.925758 1.28004 -0.480973 0.245674 -1.79585 -0.274815 0.788068 0.560161 1.39035 -1.37964 1.04348 0.100262
2300 0.0217159 -0.392943 -0.629236 0.0508026 -0.752784 -0.409052 -0.197321 1.40111 1.18921 0.545898 0.250058 -0.520864 0.454801 0.0921552 -1.50798 0.388643 -0.56466 0.564262 1.00414 -0.573988 1.14683 -1.37481 1.61696 0.32422
2773 -0.0279936 -0.41071 -0.665 0.138983 -0.850958 -0.426502 -0.176395 1.53008 1.2859 0.676922 0.265375 -0.560346 0.489813 0.067905 -1.64234 0.429123 -0.555671 0.535372 1.11568 -0.55591 1.2128 -1.39784 1.79571 0.319824
3889 -0.00364462 -0.495926 -0.735503 0.151218 -0.840922 -0.453769 -0.175702 1.60163 1.33575 0.663014 0.231199 -0.556074 0.471271 0.0726121 -1.68927 0.411387 -0.609857 0.594566 1.11064 -0.590457 1.26192 -1.42106 1.7771 0.337051
3771 -0.11707 0.515577 -0.676693 0.475876 -1.9611 -0.523612 0.86268 -0.331293 1.52416 0.779939 0.166204 -0.179962 -0.738716 -0.792523 -0.558448 1.25268 -0.651027 1.8817 0.944437 -0.131805 1.11994 -1.77636 0.168687 -0.391596
186 -0.10759 0.525986 -0.69436 0.441152 -1.98616 -0.571085 0.830395 -0.317489 1.53672 0.774693 0.199605 -0.171212 -0.734002 -0.836271 -0.563287 1.23382 -0.641104 1.78014 0.977652 -0.114471 1.12249 -1.78097 0.160691 -0.372419
5604 -0.0881455 0.956532 -0.818657 -0.352623 -0.190123 -0.31061 -0.741538 -0.424067 -0.358263 -0.331691 0.534409 -0.00794766 0.365644 0.0753508 -2.06535 0.643238 -0.597154 1.71418 0.322816 -0.913298 2.08475 -0.734032 0.163064 0.741479
3582 -0.0898531 0.969547 -0.770005 -0.353819 -0.145318 -0.294235 -0.694416 -0.405085 -0.381089 -0.394703 0.565601 -0.021719 0.340709 0.101834 -2.0405 0.640077 -0.601676 1.70243 0.309191 -0.955754 2.06556 -0.735186 0.181301 0.727417
3618 -0.091845 1.0518 -0.800167 -0.381255 -0.132064 -0.342591 -0.750795 -0.435708 -0.369231 -0.404784 0.564106 -0.0276636 0.382558 0.0727951 -2.148 0.62457 -0.615661 1.80638 0.333507 -0.974539 2.14257 -0.764151 0.181942 0.758972
3001 -0.0902579 1.04856 -0.850795 -0.382375 -0.181045 -0.252805 -0.767024 -0.472604 -0.458847 -0.321015 0.60807 -0.039586 0.344985 0.117 -2.15016 0.653134 -0.701331 1.85092 0.334813 -1.07932 2.21527 -0.814771 0.220151 0.803053
2819 0.133345 0.630179 -0.429236 -0.987812 -0.743263 0.462917 -0.786505 0.536266 0.0748629 1.17213 -0.91551 0.296379 0.618642 -0.335509 -0.527421 0.163093 -1.54242 1.79836 -0.65896 -1.86144 2.20197 -0.382011 -0.00375962 -0.0199336
1354 0.0803381 0.583912 -0.474951 -0.956753 -0.77316 0.479699 -0.732702 0.530858 0.0435561 1.19802 -0.850258 0.34267 0.68568 -0.263777 -0.511783 0.225479 -1.57878 1.73824 -0.745698 -1.89832 2.21631 -0.37535 -0.0637553 -0.0529558
1042 -0.977797 0.741674 -0.266081 -0.225293 -1.10873 0.0837634 -1.12279 0.558435 1.62577 -0.313005 -0.455407 0.605609 0.511324 -0.665065 -1.27508 -0.603784 -1.04848 0.755872 -0.0142511 -0.990719 0.625554 -0.961493 -0.887084 0.701845
1856 -0.982811 0.777668 -0.277962 -0.247001 -1.10638 0.0926461 -1.16408 0.55904 1.66463 -0.364303 -0.511394 0.605184 0.538768 -0.715507 -1.27529 -0.655946 -1.09936 0.840194 -0.00961186 -1.04978 0.633041 -0.953324 -0.893958 0.692372
5007 -0.892386 0.715237 -0.23646 -0.23911 -1.03145 0.0959855 -1.13558 0.548817 1.58524 -0.334487 -0.521425 0.551441 0.506429 -0.691979 -1.23644 -0.609272 -1.06884 0.793338 -6.44861e-05 -0.988557 0.620231 -0.981902 -0.887288 0.689383
3117 -1.29234 -0.836722 -0.236961 -1.04802 -0.939645 0.0317335 0.0810197 0.527373 0.712023 0.530375 0.501323 0.291824 0.915776 -0.582499 0.0366594 0.907553 -1.66132 1.00933 0.000515407 0.70578 -0.0234407 -2.79599 0.578758 -0.270572
1033 -1.21623 -0.792246 -0.191036 -0.967203 -0.907872 0.0641998 0.0244355 0.525411 0.706222 0.555248 0.483301 0.278902 0.947448 -0.467599 0.0301966 0.832297 -1.58781 0.9578 0.00512668 0.60023 -0.0465544 -2.58512 0.522662 -0.251799
4935 -1.27252 -0.777825 -0.220003 -1.05009 -0.938866 0.0346999 0.0750406 0.537376 0.743647 0.489699 0.460569 0.35682 0.936713 -0.480525 0.0341834 0.922081 -1.64814 0.940535 -0.0175373 0.684439 -0.0878122 -2.68339 0.555091 -0.206504
2721 -1.29614 -0.828675 -0.270154 -1.02284 -0.935891 0.0300492 0.0636878 0.59783 0.745991 0.588689 0.457757 0.320239 0.912612 -0.549599 0.108392 0.969292 -1.65311 1.01664 -0.0127154 0.69912 -0.0406554 -2.75423 0.597077 -0.230369
1405 -0.93883 -0.404044 0.0150276 -0.863577 -0.800869 1.43003 -0.72403 0.408281 0.884145 -1.21542 0.821527 0.0981632 0.0740125 -0.30035 -0.0753339 -0.709704 -1.50166 0.998246 0.995626 0.345428 1.18451 -1.28403 0.0233033 0.318817
4300 -0.843474 -0.35308 0.00831759 -0.731523 -0.497086 1.27175 -0.515733 0.373796 0.751038 -0.938615 0.495936 0.122122 -0.193158 -0.320452 -0.0538785 -0.550853 -1.3427 0.859288 0.868635 0.492887 1.087 -1.17598 -0.0404974 0.200212
5523 -0.937762 -0.422906 0.093114 -0.858464 -0.76007 1.40657 -0.612182 0.37124 0.975268 -1.10391 0.565231 0.044499 -0.0439482 -0.320943 0.0167234 -0.583376 -1.43675 0.858036 0.897578 0.442363 1.18415 -1.32769 -0.14475 0.243659
3065 -0.828469 -0.305378 0.299388 -1.34009 -0.992458 1.37766 -0.79068 0.272097 1.40325 -1.13908 0.815448 0.138897 -0.264429 -0.0516893 -0.0257421 -0.2439 -1.93122 0.93488 0.685294 0.231537 1.31221 -1.44351 -0.0371887 0.288029
5397 -0.674625 -0.243897 0.172983 -1.31973 -0.67245 1.20555 -0.764648 0.192882 1.16109 -0.836471 0.557172 0.582308 -0.369788 -0.0833538 -0.16178 -0.11906 -1.43796 0.695586 0.362741 0.329169 1.05939 -1.13678 -0.0871759 0.126755
3813 -0.927319 -0.455262 0.403351 -1.06998 -0.474508 1.35807 -0.621076 0.237959 1.25539 -0.944898 0.242464 0.477262 -0.558526 -0.172085 -0.245492 -0.279427 -1.70843 0.932164 0.604823 0.507419 1.58143 -1.53504 -0.123914 -0.119806
4841 -0.969656 -0.43372 0.49424 -0.874649 -0.136421 1.18032 -0.29394 0.253064 1.23253 -0.579167 -0.191284 0.478772 -1.06743 -0.256712 -0.33298 -0.158678 -1.95523 1.10399 0.864559 0.538352 1.96849 -1.7703 -0.322722 -0.274012
2630 -1.08833 -0.0804915 0.174666 -0.544704 0.153139 1.05927 -0.21632 0.432765 0.781888 -0.0836517 -0.534669 0.377172 -1.1522 -0.433275 -0.232824 0.0189816 -1.76149 0.852109 1.03444 0.507957 2.02026 -1.77188 -0.34474 0.0680043
4383 -1.11812 -0.228254 0.0253505 -0.507912 -0.119349 1.21793 -0.237497 0.490606 0.60982 -0.46439 -0.36696 0.24413 -0.67613 -0.68422 -0.150793 -0.416477 -1.44957 0.888797 1.14715 0.789788 1.68002 -1.6862 -0.261804 0.130522
1198 -0.948901 -0.197997 0.188194 -0.488515 0.114037 0.966082 -0.145645 0.351029 0.703441 -0.174495 -0.529884 0.346298 -1.03987 -0.432568 -0.244813 -0.0988205 -1.54226 0.816031 0.887746 0.561872 1.83597 -1.58506 -0.355414 -0.0577921
4504 -1.02731 -0.209488 0.431957 -0.309411 -0.16584 0.953952 -0.044402 0.481828 0.95952 -0.0920558 -0.672301 0.330689 -0.965132 -0.530038 -0.403373 -0.164626 -1.6934 0.843901 1.19227 0.539669 2.26848 -1.88157 -0.618064 -0.0699718
2753 -1.12938 -0.014254 -0.0760378 -0.697217 0.269859 1.07421 -0.304065 0.452544 0.664289 -0.100283 -0.572183 0.595448 -1.19727 -0.559907 -0.236293 0.0568379 -1.84463 0.892955 1.01726 0.541196 2.02922 -1.83318 -0.213237 0.0601559
4972 -1.24707 0.762696 -1.25373 0.207775 -0.154731 0.660696 -0.0525733 0.670156 0.250416 0.127265 -0.0658666 1.03311 0.778538 -0.0975148 -0.79418 -1.17273 -0.322911 1.3273 1.63169 0.833303 1.78382 -0.803166 -0.40659 -0.258722
1240 -1.29191 0.818308 -1.31511 0.287052 -0.125804 0.789759 -0.0119934 0.763352 0.224299 0.211216 -0.0237302 1.12175 0.843527 -0.147211 -0.884061 -1.24405 -0.33643 1.43909 1.75686 0.944734 1.94291 -0.859424 -0.438071 -0.277487
4789 -1.27033 0.755377 -1.23619 0.241019 -0.151114 0.702793 0.00810528 0.684482 0.254925 0.215461 -0.0220069 1.06296 0.840349 -0.103996 -0.83438 -1.21522 -0.356973 1.3802 1.69561 0.918511 1.83279 -0.816912 -0.430264 -0.238247
5419 0.860335 0.641111 -1.12115 -0.825814 -0.430606 0.400933 0.80558 -0.299669 0.53147 0.882839 0.763604 0.206404 0.78275 -0.329422 -0.108397 0.485415 -1.07787 0.681428 0.782458 -0.894977 1.10009 -1.79803 -0.0345545 -0.391206
4628 0.722672 0.662593 -1.19369 -0.867789 -0.401265 0.420773 0.783803 -0.287827 0.448831 0.911556 0.724759 0.204842 0.770429 -0.287442 -0.127678 0.478326 -1.00428 0.66308 0.753714 -0.861955 1.10684 -1.8493 -0.018437 -0.338433
1994 1.01101 0.792327 -1.45715 -1.07178 -0.527903 0.532922 1.06034 -0.385612 0.575757 1.10071 0.949902 0.203994 0.995429 -0.40578 -0.142535 0.563436 -1.34192 0.849936 0.965947 -1.06924 1.40737 -2.20914 -0.0250474 -0.540444
2908 0.882391 0.661825 -1.28487 -1.07806 -0.476046 0.579468 1.01059 -0.289874 0.511233 0.949119 0.828881 0.154749 0.831241 -0.361974 -0.14648 0.420218 -1.15275 0.71833 0.791771 -0.981534 1.26065 -2.01467 -0.0369357 -0.488457
84 0.801498 0.63554 -1.12272 -0.815546 -0.4235 0.407209 0.762787 -0.298665 0.553415 0.857612 0.754444 0.184212 0.846346 -0.344177 -0.153908 0.453367 -1.05043 0.666238 0.810916 -0.862911 1.07843 -1.76454 0.022005 -0.373358
3132 0.821595 0.620076 -1.07945 -0.772122 -0.395284 0.394222 0.781987 -0.271216 0.418981 0.860089 0.718641 0.149783 0.768143 -0.30589 -0.114368 0.446899 -0.955471 0.564495 0.723188 -0.809437 1.04329 -1.72662 -0.014027 -0.300651
3402 -0.725859 0.14552 -0.497494 -0.865565 -1.51359 0.534952 0.518956 0.697104 0.0240754 -0.219598 0.145791 -0.0795976 0.0159154 0.100564 -0.655213 0.123763 -1.64679 0.547844 0.0993632 -1.30984 0.778633 -1.45852 1.15775 1.3969
4976 -0.761736 0.129495 -0.543097 -0.932504 -1.60351 0.495606 0.523792 0.73704 0.0568377 -0.22587 0.157927 -0.0715711 -0.00390817 0.0938239 -0.703041 0.118564 -1.71954 0.626383 0.105899 -1.39702 0.764651 -1.52404 1.2331 1.46211
4388 -0.764963 0.144035 -0.504929 -0.966156 -1.58918 0.531441 0.552414 0.734062 0.0491783 -0.236404 0.136137 -0.0689612 0.00954916 0.104552 -0.748256 0.0871469 -1.78947 0.659012 0.0809511 -1.43579 0.819118 -1.56963 1.25302 1.52364
2867 -0.686614 0.167861 -0.527777 -0.936416 -1.53353 0.491829 0.489004 0.686419 0.0209368 -0.179448 0.127252 -0.0902764 -0.0116364 0.0796782 -0.668161 0.117813 -1.76953 0.597844 0.0804843 -1.33306 0.756428 -1.45344 1.22513 1.44389
4332 -0.753952 0.179045 -0.535361 -0.937348 -1.58525 0.502066 0.483894 0.710043 0.0865624 -0.238387 0.171888 -0.105761 -0.0267695 0.176178 -0.683383 0.140907 -1.67983 0.58461 0.103816 -1.38505 0.723969 -1.44805 1.22622 1.46755
1131 -0.756042 0.116135 -0.533684 -0.939557 -1.59785 0.561479 0.552796 0.721672 0.104203 -0.23364 0.130236 -0.0717409 -0.0408666 0.119958 -0.719885 0.111459 -1.70913 0.590273 0.0704743 -1.38805 0.796144 -1.49643 1.24398 1.48038
1777 -0.758909 0.160025 -0.538992 -0.885544 -1.58851 0.503284 0.515881 0.695783 0.0445389 -0.23555 0.124636 -0.0965231 -0.0010784 0.0999786 -0.637056 0.113869 -1.68709 0.574685 0.101316 -1.3307 0.701048 -1.43662 1.22087 1.42245
4889 -0.825935 0.221 -0.523497 -0.955245 -1.62575 0.529714 0.523821 0.77047 0.0739168 -0.241882 0.146607 -0.0974568 -0.0119565 0.121891 -0.712749 0.0881506 -1.76503 0.618688 0.0275062 -1.39407 0.790227 -1.54393 1.28063 1.49645
774 -0.741708 0.222486 -0.56218 -0.939221 -1.59016 0.55272 0.500168 0.750294 0.0898057 -0.278728 0.148787 -0.0809929 -0.0454488 0.111452 -0.676246 0.113307 -1.735 0.587269 0.0852176 -1.34332 0.778359 -1.45073 1.26238 1.45341
4248 -0.146424 1.60405 -0.579788 -1.05025 0.521315 0.119339 -0.897017 0.244992 -0.214317 0.852063 0.137882 0.244664 -0.829682 -0.127567 -0.940441 0.0636597 -1.12787 0.654503 0.736226 -0.744352 0.988863 -1.10239 0.428091 -0.971412
4053 -0.189707 1.76084 -0.671372 -1.16179 0.558816 0.127705 -0.922923 0.247911 -0.261995 0.91812 0.176397 0.245597 -0.824676 -0.108891 -1.00745 0.139378 -1.30407 0.738792 0.75876 -0.782269 1.02835 -1.18653 0.427219 -1.05435
1554 -0.168982 1.68305 -0.597259 -1.12222 0.537093 0.175755 -0.889897 0.235897 -0.215744 0.860526 0.139906 0.236644 -0.851766 -0.115727 -0.93864 0.155201 -1.22643 0.679297 0.79669 -0.754647 0.970409 -1.13665 0.421368 -1.02534
2320 -0.173235 1.79954 -0.678723 -1.10959 0.565676 0.127264 -0.963457 0.253623 -0.290076 0.96821 0.193086 0.232155 -0.890683 -0.109463 -1.05033 0.151703 -1.265 0.719583 0.808293 -0.814928 1.05902 -1.22939 0.410979 -1.08324
5609 -0.137901 1.71298 -0.677248 -1.15478 0.467909 0.108349 -0.929247 0.282873 -0.220226 0.902487 0.209846 0.229371 -0.843978 -0.193318 -1.00804 0.171786 -1.30286 0.734819 0.779794 -0.880154 1.03371 -1.22077 0.378755 -1.11961
3396 -0.168045 1.78878 -0.683499 -1.21996 0.519664 0.107975 -0.928903 0.216706 -0.204266 0.893846 0.138639 0.242563 -0.840674 -0.14291 -1.02882 0.130211 -1.29705 0.749321 0.875615 -0.870016 1.10968 -1.22637 0.391174 -1.10211
424 -0.128208 1.67246 -0.593859 -1.06558 0.517181 0.107709 -0.873305 0.225322 -0.195146 0.849216 0.145871 0.219091 -0.771703 -0.132194 -0.904871 0.0595009 -1.17056 0.657886 0.735986 -0.750997 0.902963 -1.08599 0.342469 -0.989901
3080 -0.23284 1.92324 -0.772516 -1.27743 0.53761 0.153651 -0.996054 0.337081 -0.193242 1.0459 0.152022 0.266843 -0.981099 -0.154517 -1.09844 0.14996 -1.38494 0.779772 0.920983 -0.916416 1.13837 -1.39999 0.409146 -1.16308
2957 -0.108387 1.63551 -0.655583 -1.11107 0.535711 0.162729 -0.971397 0.222788 -0.24621 0.886723 0.157206 0.255835 -0.816198 -0.127701 -1.02542 0.139559 -1.24968 0.725065 0.816679 -0.806795 1.00653 -1.16814 0.435379 -1.12083
3364 -0.161327 1.76607 -0.674408 -1.1938 0.597884 0.147741 -0.939306 0.265268 -0.27119 0.950842 0.174503 0.244253 -0.856623 -0.11535 -1.04006 0.122871 -1.28591 0.786593 0.824917 -0.816754 1.05518 -1.1908 0.387625 -1.16272
1782 -0.162886 1.87176 -0.705118 -1.24018 0.590884 0.136782 -0.994341 0.256506 -0.224334 0.989004 0.163938 0.281994 -0.898251 -0.129132 -1.07203 0.117273 -1.35387 0.777767 0.81215 -0.887548 1.14344 -1.29652 0.433043 -1.16424
5148 -1.01725 0.894991 -0.546212 -0.674586 -0.334033 0.350467 -0.00509571 0.0132423 1.20953 0.494159 0.0146312 1.29895 -0.366936 -0.43525 -0.948235 -0.0246471 -2.10881 -0.21761 0.474959 -0.0667812 1.04554 -0.240672 0.114478 0.0791232
5205 -0.989522 0.870235 -0.521762 -0.65836 -0.348842 0.354721 -0.0173058 0.0226922 1.10386 0.492111 0.0522983 1.23162 -0.362352 -0.411679 -0.902194 -0.0020721 -1.97868 -0.171912 0.444189 -0.0517861 0.960145 -0.261586 0.149881 0.0645729
3508 -1.16768 1.11382 -0.677307 -0.809173 -0.469397 0.46044 -0.00281545 0.0140849 1.49836 0.690096 0.063841 1.66613 -0.506275 -0.538536 -1.1916 0.0144344 -2.60129 -0.260722 0.587335 -0.113126 1.33702 -0.233872 0.14833 0.0755811
1525 -1.15547 0.984899 -0.573822 -0.767386 -0.407726 0.354275 -0.0968741 -0.0136651 1.24519 0.538736 0.0623937 1.35618 -0.374048 -0.442358 -0.943801 0.0110321 -2.19729 -0.213034 0.482195 -0.0889935 1.0793 -0.174334 0.0467972 0.0637513
4156 -1.05883 0.960224 -0.600012 -0.748768 -0.316037 0.414145 -0.0212957 -0.00134064 1.2554 0.53874 0.0419848 1.38434 -0.390484 -0.419071 -0.940291 -0.012219 -2.20133 -0.261436 0.523264 -0.0929079 1.05664 -0.249166 0.141183 0.0527032
781 -1.00665 0.91005 -0.563796 -0.701865 -0.36742 0.37828 -0.0503767 -0.0161863 1.20733 0.468342 0.0489536 1.34354 -0.380898 -0.449028 -0.97295 -0.0559748 -2.13192 -0.231884 0.503335 -0.0954183 1.06882 -0.258426 0.14606 0.083344
4056 -0.788047 -0.32456 0.820772 -0.245452 -0.855745 0.171857 -0.168103 0.788806 0.82832 0.0107923 -0.131757 0.286019 1.1586 -0.867988 -0.0688896 -0.104641 -1.74375 0.561236 0.616424 -0.474547 2.10766 -1.89493 1.46728 0.727133
4076 -0.733977 -0.249842 0.81434 -0.26635 -0.801393 0.154572 -0.159301 0.743516 0.7085 -0.0233312 -0.131687 0.22102 1.02636 -0.748203 -0.0956577 -0.0240209 -1.54861 0.513458 0.508476 -0.376007 1.79486 -1.58923 1.31238 0.690395
2641 -0.778937 -0.281786 0.875849 -0.224148 -0.840734 0.197965 -0.125864 0.843573 0.753051 -0.0514028 -0.210017 0.275122 1.13303 -0.872834 -0.177542 -0.0770545 -1.6198 0.564276 0.571781 -0.421145 2.04283 -1.80782 1.47143 0.790794
1205 -0.705608 -0.236398 0.722267 -0.202844 -0.735157 0.157994 -0.182381 0.69169 0.695224 -0.025929 -0.13964 0.263115 0.986937 -0.711127 -0.00158505 -0.0302427 -1.47673 0.453622 0.487327 -0.376033 1.78979 -1.50313 1.26049 0.661057
3216 -1.23904 -0.163379 1.10486 -0.556819 -1.02266 0.307008 -0.322352 0.982327 0.970165 0.0532061 -0.065859 0.308748 1.32115 -0.862048 -0.0861514 0.0491437 -2.09963 0.704572 0.659006 -0.350656 2.09911 -1.62617 1.20793 0.87485
340 -1.02402 -0.0519612 0.79673 -0.497992 -0.854547 0.235469 -0.287077 0.722042 0.799438 0.052136 -0.00601565 0.241108 1.01723 -0.576803 -0.043073 0.0847991 -1.60473 0.524697 0.480128 -0.245657 1.50027 -1.18439 0.883117 0.676078
3386 -1.03041 -0.0452863 0.711487 -0.493956 -0.836043 0.176715 -0.321167 0.71949 0.805252 0.0985978 0.0161166 0.219196 0.966313 -0.55363 -0.0873853 0.0999505 -1.58944 0.51682 0.476146 -0.230571 1.43372 -1.09639 0.816575 0.619427
4725 -0.970372 -0.0415759 0.717545 -0.485135 -0.883449 0.160457 -0.279679 0.716059 0.763727 0.102722 -0.0259443 0.229295 0.994768 -0.576217 -0.0786741 0.0929496 -1.60455 0.520388 0.423555 -0.266728 1.46251 -1.12532 0.901402 0.635012
4808 -1.23761 0.152111 0.272586 -1.04871 -0.930676 -0.597946 -0.354207 -0.173847 0.0710916 0.253396 -0.0232869 -0.181955 0.0703747 -0.124115 -1.22447 -0.554941 -1.58 -0.0175916 1.24926 -0.0199036 0.955637 -1.17198 -0.748433 -2.41394
5524 -1.24055 0.0866458 0.23405 -1.02049 -0.848425 -0.64173 -0.398422 -0.117045 0.105227 0.22231 -0.0909153 -0.192192 0.106035 -0.118691 -1.23776 -0.504178 -1.53135 -0.056118 1.21489 -0.0681382 0.992507 -1.21621 -0.808838 -2.38709
221 -1.22004 0.0792404 0.26073 -1.07074 -0.85988 -0.611074 -0.352684 -0.0896997 0.131619 0.257671 -0.0889264 -0.219133 0.150598 -0.108578 -1.21303 -0.538598 -1.54136 -0.0124578 1.27986 -0.0341615 0.966248 -1.28115 -0.773652 -2.34915
1019 -1.36598 0.0879091 0.274301 -1.17722 -0.87252 -0.71363 -0.499447 -0.0953066 0.148991 0.27441 -0.0999254 -0.180599 0.208811 -0.0983915 -1.37251 -0.506585 -1.80776 0.0212997 1.38585 -0.0571677 1.16302 -1.46052 -0.867329 -2.60986
1497 -1.23796 0.12317 0.281029 -1.05284 -0.884353 -0.62413 -0.364024 -0.115484 0.0758652 0.255487 -0.0665505 -0.202478 0.128151 -0.112156 -1.24226 -0.490439 -1.57773 0.0202989 1.30045 -0.00269104 1.05186 -1.30076 -0.815942 -2.40344
3875 -1.11378 0.139863 0.154089 -0.981184 -0.772263 -0.616728 -0.504767 -0.0748885 0.191911 0.258801 -0.0820833 -0.161725 0.139016 -0.106947 -1.06275 -0.357624 -1.38897 -0.0521522 1.02603 -0.0347338 0.797179 -1.13199 -0.696616 -1.94948
2333 0.73918 1.01179 -0.208148 -0.86764 -0.428622 0.290498 -1.66143 -0.249167 0.683049 0.734267 -0.477442 0.330699 -0.586462 -1.26779 -0.641876 0.551041 -0.760625 0.933564 0.491135 0.536104 2.53666 -1.7092 -0.580689 0.776794
3035 0.685993 1.01206 -0.154945 -0.887843 -0.484657 0.258938 -1.63373 -0.233991 0.716086 0.765577 -0.451418 0.354598 -0.645871 -1.28522 -0.643347 0.524299 -0.689679 0.951348 0.424743 0.505269 2.51402 -1.69769 -0.609914 0.777814
4842 -0.95315 -0.250995 -0.428967 0.0977177 -0.0586674 -1.18355 -0.756944 0.480612 0.462572 -0.56741 0.529833 1.26811 0.0512523 0.03181 -0.885701 0.125563 -0.98516 1.03459 0.433883 -0.776536 0.736711 -0.807969 1.00904 0.452092
1867 -1.20583 -0.26873 -0.584297 0.138207 -0.116469 -1.4919 -1.02473 0.653588 0.574067 -0.698377 0.622384 1.54692 0.0769343 0.0187503 -1.13728 0.120506 -1.22916 1.42216 0.563546 -1.00139 1.08074 -1.06327 1.30374 0.576295
4403 -1.10503 0.556903 0.0692437 -0.461755 -0.769249 0.463097 -0.83599 -0.579955 -0.160582 0.022749 -0.361288 -0.478766 0.329853 -0.430737 -1.53044 -0.0200075 -1.52993 0.110254 -0.178552 -1.44369 0.3716 -1.93439 -0.581455 -1.1948
989 -1.15569 0.611969 0.112412 -0.512563 -0.79727 0.47595 -0.980204 -0.547786 -0.23709 -0.00749159 -0.409923 -0.502699 0.391655 -0.46284 -1.65599 -0.058303 -1.69549 0.170597 -0.226035 -1.59624 0.405066 -2.07179 -0.687846 -1.26405
2120 -1.22563 0.631834 0.0983378 -0.510053 -0.818958 0.510989 -0.979646 -0.611118 -0.263262 0.0373086 -0.396589 -0.589355 0.382764 -0.455814 -1.6823 -0.123389 -1.73466 0.163139 -0.238775 -1.64198 0.470042 -2.09403 -0.614611 -1.29362
1927 -1.64791 0.0555382 -1.14339 -0.705979 -0.508643 -0.429129 0.160481 -0.783879 0.43847 0.151008 0.451414 -0.0991322 1.1922 -0.407671 -1.26363 -0.600999 -0.830927 0.869759 0.673091 0.499548 1.11885 -1.0024 0.582996 -0.948316
354 -1.91755 0.118519 -1.25368 -0.756568 -0.600553 -0.458892 0.226369 -0.999249 0.55096 0.14926 0.536153 -0.171785 1.41528 -0.443927 -1.50718 -0.745346 -1.00205 1.05222 0.862175 0.626496 1.36654 -1.28442 0.706089 -1.09469
228 -1.82382 0.0954197 -1.15846 -0.639701 -0.571579 -0.492191 0.11256 -0.967535 0.449747 0.16122 0.44584 -0.167316 1.38047 -0.390395 -1.47755 -0.713652 -0.925109 1.03527 0.842061 0.609975 1.28759 -1.26371 0.758288 -1.00034
931 -1.48574 0.0988134 -0.972482 -0.596256 -0.469917 -0.43769 0.11415 -0.874342 0.353528 0.0966021 0.351495 -0.179731 1.14617 -0.358431 -1.20405 -0.59868 -0.794585 0.880009 0.682733 0.520984 1.10258 -1.06042 0.617166 -0.797667
3235 -1.90788 0.0649757 -1.21876 -0.767389 -0.550959 -0.521316 0.162399 -1.01852 0.504269 0.137413 0.471129 -0.204628 1.42791 -0.437123 -1.48307 -0.71385 -0.942761 0.98335 0.797106 0.647543 1.29862 -1.21749 0.753322 -1.09062
4934 0.119081 -0.497288 -0.856434 -0.558812 -1.33045 0.121029 -0.262769 -0.476335 1.16188 0.691393 0.674926 -0.546582 0.133412 0.822825 0.314668 0.0747442 -1.63819 1.94014 1.08654 -0.430265 1.20182 -1.03744 1.65741 1.09996
1732 0.161955 -0.551171 -0.820558 -0.574308 -1.39244 0.0635805 -0.287736 -0.520709 1.15973 0.737986 0.589135 -0.53472 0.161333 0.784166 0.283334 0.0723075 -1.63532 1.91225 1.07088 -0.477052 1.12047 -1.07272 1.67577 1.07737
2211 -0.165941 -0.161158 -0.864554 -0.723631 0.149855 0.878117 -1.88672 0.18958 0.641916 0.869439 0.562694 0.516573 -0.476467 0.359623 0.240689 -0.980729 -1.25732 1.19008 0.399307 -0.0749144 1.19252 -1.4662 0.0257208 -1.21152
1785 -0.22082 -0.168041 -0.850275 -0.723861 0.143612 0.894534 -1.92125 0.1854 0.62694 0.885505 0.575226 0.515714 -0.477819 0.353928 0.215523 -1.04038 -1.22469 1.17559 0.398412 -0.0805145 1.25762 -1.44819 0.0608161 -1.24726
3330 -0.204255 -0.117906 -0.886995 -0.73055 0.16046 0.900966 -1.92741 0.198819 0.686006 0.871678 0.560809 0.469935 -0.497153 0.342825 0.274568 -1.02163 -1.20295 1.14695 0.382766 -0.0643038 1.27313 -1.45969 0.0481722 -1.22656
510 -0.210897 -0.118401 -0.816027 -0.674047 0.166193 0.855293 -1.87262 0.195834 0.629295 0.851546 0.611065 0.484593 -0.468601 0.352537 0.224622 -1.02072 -1.20856 1.12577 0.375974 -0.0577212 1.18487 -1.44329 -0.0114959 -1.18605
2511 0.178778 1.47143 -0.340676 -0.441658 -0.931165 0.393196 -0.289608 -0.4488 0.384709 0.340959 0.188002 1.44353 0.490932 -0.731997 -0.249535 0.000441081 -0.572743 0.887603 2.18937 -0.162879 0.117949 -1.05625 0.034614 -0.954846
913 0.182457 1.62241 -0.41381 -0.444691 -0.93512 0.428124 -0.272059 -0.523508 0.355708 0.355248 0.159672 1.53284 0.534431 -0.799628 -0.269844 0.0165278 -0.648485 0.937167 2.3348 -0.148867 0.18479 -1.1186 0.0412888 -1.02538
5431 0.239849 1.56569 -0.374807 -0.425276 -1.0058 0.452271 -0.292857 -0.479334 0.406327 0.406819 0.192728 1.53217 0.534251 -0.784687 -0.277994 -0.000285025 -0.652461 0.910039 2.31509 -0.129399 0.145437 -1.14079 0.0315391 -1.03318
4698 0.163717 1.56681 -0.357135 -0.448041 -0.963345 0.470575 -0.284973 -0.486998 0.416039 0.361658 0.198306 1.50836 0.522863 -0.756771 -0.271235 0.00316065 -0.591733 0.91681 2.34218 -0.177944 0.154577 -1.13856 0.0448488 -1.01511
2449 0.197221 1.49126 -0.357947 -0.432471 -0.92418 0.392644 -0.269889 -0.457748 0.406441 0.3521 0.166816 1.4649 0.496539 -0.700792 -0.280971 0.000960907 -0.581022 0.870405 2.19209 -0.191517 0.130617 -1.09515 0.062155 -0.980207
198 0.196466 1.46819 -0.315747 -0.444033 -0.967607 0.396598 -0.251837 -0.45539 0.410431 0.374144 0.226687 1.46902 0.516159 -0.716401 -0.257853 -0.0427883 -0.606027 0.885712 2.2225 -0.168229 0.162441 -1.11735 0.0307939 -0.967117
2702 0.175102 1.53193 -0.367285 -0.455982 -1.01369 0.387595 -0.255708 -0.494913 0.426072 0.40845 0.170098 1.50954 0.48335 -0.732334 -0.290421 -0.00768516 -0.585158 0.906573 2.2675 -0.178243 0.132291 -1.11966 0.0367338 -0.962436
2650 0.188837 1.52586 -0.336538 -0.44158 -0.975658 0.427404 -0.268127 -0.478559 0.401289 0.37665 0.197207 1.47174 0.470231 -0.741801 -0.284455 -0.0481765 -0.613733 0.953497 2.26685 -0.134648 0.0984692 -1.06133 0.00631573 -0.976507
1834 0.186617 0.379164 -0.283268 -1.44821 -0.609864 0.0450608 0.904424 1.22269 1.73979 0.322073 0.914754 0.652047 -0.353699 -0.77472 -1.54893 0.21194 -1.51148 -0.205756 -0.022053 -0.289257 1.36855 -0.985969 0.216696 -0.7362
4736 0.284491 0.404581 -0.287421 -1.60288 -0.728277 -0.0236712 0.960072 1.30215 1.90634 0.302694 0.991558 0.692894 -0.328755 -0.880504 -1.57756 0.167232 -1.57507 -0.227066 -0.0196585 -0.278707 1.52265 -1.073 0.29056 -0.779841
230 0.200968 0.387291 -0.269263 -1.58355 -0.714891 0.0200179 0.939206 1.33725 1.91044 0.327218 0.941958 0.705225 -0.338504 -0.812858 -1.66986 0.218295 -1.62895 -0.230595 -0.0321322 -0.27109 1.47481 -1.05637 0.173302 -0.785905
583 0.310288 0.346889 -0.280162 -1.52006 -0.626234 0.0100875 0.926194 1.26989 1.87388 0.303109 0.94809 0.678656 -0.326156 -0.804512 -1.54611 0.226012 -1.57522 -0.225598 0.0138885 -0.296817 1.50124 -1.02556 0.248045 -0.819353
1817 0.298732 0.36277 -0.262097 -1.54841 -0.684754 -0.00498594 0.926033 1.30863 1.87828 0.313337 0.931827 0.713449 -0.311358 -0.814932 -1.59339 0.2152 -1.58965 -0.211303 -0.0169147 -0.30852 1.45466 -1.04162 0.211567 -0.740595
5032 -0.409285 0.264364 -0.0542809 0.13667 -0.309058 0.317158 -0.024354 -0.851865 0.991075 0.991917 0.488645 0.53427 0.0651793 0.0160244 -0.722386 -0.403206 -1.29376 0.932552 0.234955 -0.206916 0.215771 -0.572357 0.418852 -0.136687
4321 -0.689448 0.433152 -0.106696 0.119606 -0.494647 0.453319 -0.261812 -1.20885 1.53911 1.52075 0.831056 0.850368 0.114744 -0.0165548 -1.25214 -0.66696 -2.2167 1.51117 0.471015 -0.320918 0.349619 -0.809068 0.732923 -0.220198
5560 -0.67822 0.560735 -0.163032 0.143768 -0.536701 0.424641 -0.168156 -1.06149 1.40732 1.34635 0.72489 0.731732 0.077577 -0.054272 -1.30839 -0.41137 -2.02054 1.39719 0.485131 -0.216152 0.31411 -0.763942 0.657478 -0.234486
4591 -0.635624 0.516508 -0.177257 0.0480609 -0.472064 0.388566 -0.175629 -0.910461 1.25147 1.16054 0.657058 0.623093 0.0796147 0.0108791 -1.13363 -0.274531 -1.7893 1.20137 0.397106 -0.15061 0.328979 -0.682901 0.58605 -0.212198
5386 -0.728396 0.539697 -0.132966 0.245068 -0.669195 0.479631 -0.190208 -1.34041 1.72536 1.55149 0.855945 0.862084 0.0501395 0.0325351 -1.32647 -0.484711 -2.2198 1.59423 0.440869 -0.446238 0.384246 -0.963093 0.59113 -0.288233
341 -0.697299 0.414636 -0.132716 0.118782 -0.551171 0.411418 -0.207128 -1.21898 1.57268 1.52463 0.781719 0.812654 0.00112957 0.0514357 -1.26642 -0.616502 -2.12439 1.5054 0.449777 -0.301041 0.329296 -0.830838 0.666326 -0.191315
1461 -0.701657 0.51849 -0.107419 0.0396285 -0.482223 0.458518 -0.294371 -1.17912 1.55871 1.55478 0.812306 0.818006 0.113214 -0.0745287 -1.23074 -0.704381 -2.19577 1.58545 0.563523 -0.348468 0.365682 -0.857607 0.787137 -0.217611
3960 -0.669897 0.498022 -0.12217 0.115728 -0.470125 0.42026 -0.337874 -1.18424 1.54367 1.46356 0.843363 0.816182 0.111982 -0.0374386 -1.20153 -0.710401 -2.14307 1.54069 0.513002 -0.331615 0.34135 -0.828461 0.73612 -0.287711
2681 -0.586836 0.468102 -0.102351 0.105051 -0.426002 0.399674 -0.23488 -1.17364 1.47029 1.50308 0.859863 0.832302 0.113579 -0.0684283 -1.18693 -0.821076 -2.23687 1.68943 0.499511 -0.302147 0.349437 -0.862705 0.753149 -0.20451
5317 -0.714047 0.494479 -0.112218 0.111326 -0.542644 0.488504 -0.209089 -1.22947 1.64838 1.54493 0.775143 0.784251 0.147866 -0.0198627 -1.23695 -0.555319 -2.11481 1.51325 0.45479 -0.322209 0.40592 -0.959013 0.755582 -0.188111
4178 0.488823 0.60226 -0.75886 -0.753616 -1.00643 -0.310739 -0.579234 0.368611 0.680751 0.427981 1.40173 -0.0129678 0.825157 0.0157432 -0.328752 0.529263 -2.17019 0.271122 -0.0318459 0.203712 0.273799 -1.2476 0.497042 0.0724101
5064 0.427442 0.645875 -0.821812 -0.826624 -1.14129 -0.245885 -0.644395 0.376466 0.729772 0.487332 1.50029 -0.0336227 0.866009 -0.0801872 -0.346565 0.483797 -2.27618 0.310452 -0.0238782 0.165057 0.265451 -1.31365 0.499961 0.11605
408 0.494558 0.563289 -0.780319 -0.79176 -1.05949 -0.33883 -0.653585 0.36548 0.690748 0.462805 1.43795 -0.0511066 0.847486 -0.0256984 -0.298192 0.514083 -2.20537 0.305386 -0.0253075 0.192715 0.26785 -1.25717 0.528201 0.023357
4903 0.48939 0.57599 -0.800977 -0.784368 -1.07151 -0.267832 -0.601334 0.375857 0.724616 0.522838 1.49353 -0.0882806 0.853524 -0.116382 -0.336468 0.563004 -2.26118 0.383556 -0.0909374 0.121691 0.221064 -1.2733 0.471517 0.0763336
3116 0.52732 0.684273 -0.811778 -0.88603 -1.16442 -0.418928 -0.687025 0.357185 0.729052 0.453392 1.5295 -0.00722922 0.919891 0.0711926 -0.31897 0.535986 -2.43539 0.259332 -0.0861183 0.296516 0.287658 -1.35853 0.605541 0.097908
1997 -0.124706 -0.0092647 -0.34055 -1.30177 -0.794341 0.495222 -0.422696 0.106216 0.162908 0.265577 -0.536956 1.01055 -0.0611852 -0.233237 -0.810877 0.325076 -0.439072 -0.677108 0.938587 -0.332987 1.36125 -1.82179 0.720419 0.0228594
3292 -0.227071 0.00975741 -0.41543 -1.63895 -0.933829 0.604713 -0.666983 0.0550727 0.275372 0.350691 -0.813674 1.33601 -0.0737314 -0.380638 -0.964268 0.492812 -0.654822 -0.73967 1.16861 -0.597357 1.84337 -2.27227 0.785362 0.011777
1940 -0.00236746 0.00910604 -0.420213 -1.51371 -0.910869 0.518745 -0.586947 0.10543 0.329463 0.358874 -0.764255 1.17402 -0.109001 -0.313555 -0.756287 0.329725 -0.634056 -0.74731 1.1965 -0.365811 1.70444 -2.27424 0.853053 0.109279
3515 -0.0986985 -0.0245133 -0.360913 -1.41273 -0.843616 0.492061 -0.505904 0.102022 0.160268 0.2785 -0.597096 1.03338 -0.0699059 -0.206415 -0.814471 0.349054 -0.536893 -0.704179 1.05888 -0.339754 1.50767 -1.91494 0.848685 0.085315
3599 -0.110634 -0.0338193 -0.361547 -1.3546 -0.847808 0.490365 -0.491895 0.0752106 0.175509 0.267672 -0.573899 1.05813 -0.0799676 -0.236332 -0.77869 0.341223 -0.493286 -0.690987 1.0396 -0.366971 1.41341 -1.89672 0.794083 0.0467581
3920 -0.2003 -0.00522105 -0.386173 -1.48823 -0.962178 0.502407 -0.514203 0.151611 0.165251 0.231895 -0.569503 1.13075 -0.0533754 -0.270291 -0.932854 0.369046 -0.551914 -0.73351 1.08154 -0.361053 1.56112 -2.01097 0.955802 0.0834043
2960 -0.060889 0.0456172 -0.47844 -1.58953 -1.13082 0.682905 -0.660055 0.151301 0.369792 0.36566 -0.756768 1.32827 -0.103492 -0.371541 -0.796552 0.32599 -0.76088 -0.880942 1.35287 -0.345792 1.77249 -2.42755 0.858386 0.137374
4813 -0.0647242 0.0101882 -0.424263 -1.34144 -0.895269 0.497258 -0.514507 0.0991361 0.260324 0.27585 -0.633257 1.0637 -0.073032 -0.286727 -0.689474 0.333933 -0.542962 -0.71971 1.04553 -0.380818 1.50607 -2.0043 0.793581 0.117511
5593 -0.166133 0.122324 -0.41187 -0.972453 -0.636631 0.445426 -0.610855 0.0186969 0.309539 0.272806 -0.564155 0.964573 -0.04314 -0.307803 -0.550535 0.176578 -0.541174 -0.591244 0.921074 -0.379543 1.35899 -1.85434 0.594973 0.120489
3322 -0.118435 0.0742115 -0.332871 -1.00048 -0.616001 0.444354 -0.561422 0.0456011 0.277513 0.251212 -0.575989 0.914382 -0.0644194 -0.302541 -0.483486 0.193685 -0.470633 -0.587927 0.903328 -0.337878 1.27756 -1.75176 0.588339 0.125439
1075 -0.0943807 0.10114 -0.424231 -1.29988 -0.813301 0.554746 -0.711683 0.0781289 0.394813 0.373686 -0.735061 1.19593 -0.0836013 -0.363979 -0.698213 0.270899 -0.628819 -0.752354 1.12294 -0.478666 1.6251 -2.26388 0.73071 0.186641
2624 -0.0999568 -0.0370084 -0.518556 -1.66383 -1.16829 0.528457 -0.568809 0.168217 0.284707 0.268029 -0.706813 1.27598 -0.0885226 -0.128487 -0.770224 0.259292 -0.709599 -0.792838 1.35436 -0.382879 1.77534 -2.41549 1.03208 0.141569
1505 -0.82893 0.169145 -0.614274 -0.150923 -1.09322 -0.0364282 -1.30821 1.34162 0.797728 -0.0687622 -0.742581 0.50262 0.89199 0.356757 -1.34443 -0.238268 -1.23535 0.980805 1.50374 -0.883668 0.12689 -0.284448 -0.425285 0.189754
3429 -0.816338 0.159269 -0.587415 -0.178938 -1.07217 0.00145288 -1.25778 1.30125 0.760474 -0.068871 -0.690763 0.525397 0.837499 0.317781 -1.3001 -0.212842 -1.17546 0.983022 1.44903 -0.825039 0.122605 -0.219999 -0.369423 0.185215
5422 -0.770725 0.142698 -0.586317 -0.121004 -1.02502 -0.0447477 -1.24336 1.24162 0.756332 -0.0709557 -0.696699 0.491492 0.870483 0.35243 -1.28427 -0.236963 -1.17642 0.964072 1.4392 -0.850602 0.132734 -0.259379 -0.398937 0.16758
3487 -0.253824 -0.405619 -0.0560091 -0.610528 -0.943277 0.0743155 0.553293 0.75725 -0.902758 0.408064 1.24991 -0.476413 0.555927 -0.677359 -0.102566 0.0246786 -2.09629 2.62671 1.2493 -0.720727 0.863938 -0.954002 0.00127893 -0.945858
1935 -0.301117 -0.429715 -0.0594413 -0.554818 -1.02196 0.0684348 0.552658 0.76251 -0.815143 0.456144 1.2408 -0.510044 0.53734 -0.720953 -0.0762235 -0.00648164 -2.13063 2.63765 1.27588 -0.638445 0.856157 -0.932898 0.00672799 -0.999397
596 -0.91099 0.851337 0.345709 -0.497592 -0.129571 0.285191 -0.652749 0.615088 0.582699 0.807397 0.502452 0.014452 -0.229969 -0.409399 0.24719 0.386011 -1.51332 1.40231 1.33702 0.991585 0.766417 -0.686929 1.44952 0.144972
4798 -1.18301 1.0748 0.431055 -0.705326 -0.127736 0.30143 -0.899307 0.801376 0.794312 0.987378 0.70255 0.0338975 -0.269903 -0.442023 0.34714 0.493998 -1.95793 1.81745 1.67157 1.27085 1.04651 -0.886468 1.89812 0.197716
3441 -1.01341 0.977401 0.39825 -0.628489 -0.162875 0.281901 -0.743988 0.684192 0.689262 0.923671 0.574311 0.0886321 -0.281252 -0.444158 0.249722 0.480926 -1.77438 1.60533 1.50293 1.17603 0.904923 -0.791841 1.67263 0.202224
1759 -1.06878 1.03036 0.375726 -0.641359 -0.115588 0.343661 -0.793559 0.743545 0.661971 0.852121 0.576215 0.0948805 -0.241496 -0.437089 0.241332 0.452719 -1.82435 1.6892 1.56554 1.20091 0.937707 -0.782033 1.76687 0.164859
3748 -1.05905 0.997121 0.430737 -0.633487 -0.235317 0.296654 -0.796408 0.707804 0.65016 0.908265 0.527784 0.0318457 -0.274098 -0.436126 0.287793 0.450733 -1.74942 1.6417 1.57979 1.2018 0.942208 -0.752187 1.77586 0.154456
331 -1.08784 1.05631 0.44819 -0.627486 -0.102137 0.327652 -0.807338 0.774388 0.640526 0.902395 0.529013 0.0398452 -0.280834 -0.433246 0.30029 0.454574 -1.85607 1.64767 1.59428 1.25098 0.936791 -0.803859 1.84743 0.162508
1882 -1.38102 0.200426 -0.191622 -0.192243 0.594293 -0.362208 0.0510177 0.244301 0.0470784 0.857734 0.511916 -0.421745 -0.550336 -1.09909 -0.770799 0.0737164 -2.13389 0.932303 0.909619 0.35451 0.732039 -1.36863 0.669976 -0.414416
4847 -1.57338 0.261901 -0.183018 -0.246867 0.633035 -0.417783 0.0669158 0.292812 0.0189538 0.986904 0.590656 -0.452748 -0.5909 -1.2853 -0.927705 0.0620813 -2.39111 1.00016 1.08414 0.389398 0.853339 -1.58702 0.840528 -0.454783
3187 -0.174918 -0.346475 -0.729603 -1.2415 -0.66341 0.0172547 -0.139547 0.864739 0.387129 1.04211 0.805024 0.852525 0.533536 -0.691455 -0.812975 -0.985307 -0.844515 -0.00931151 1.1272 -0.885381 2.51315 -0.836441 -0.63905 1.19058
1514 -0.256587 -0.40141 -0.743279 -1.22382 -0.745798 -0.00115993 -0.117693 0.85773 0.434951 1.06196 0.822658 0.890766 0.598774 -0.690778 -0.858048 -1.00315 -0.82505 -0.0361102 1.11601 -0.966429 2.46068 -0.826864 -0.726672 1.20929
300 -0.156955 -0.371602 -0.717068 -1.12728 -0.635122 0.0502591 -0.0508466 0.817519 0.391838 0.960831 0.768951 0.769359 0.526997 -0.630675 -0.809184 -0.91303 -0.806264 0.0432286 1.01641 -0.806946 2.2626 -0.735282 -0.605082 1.07635
3774 -0.352751 0.40006 -0.307732 1.4601 -0.0305742 0.562743 -0.154022 0.533419 -0.261805 0.0751604 0.512232 0.450829 0.0235171 -1.0288 -0.145218 -1.08467 -1.81211 1.56123 1.78083 0.130725 0.796005 -1.86656 0.0982725 -0.247927
1077 -0.438793 0.458767 -0.342978 1.53406 -0.0116676 0.655541 -0.102079 0.572981 -0.254832 0.100003 0.527876 0.483002 -0.0234387 -1.05162 -0.16544 -1.11219 -1.95956 1.66005 1.7993 0.161722 0.815698 -2.0033 0.0874064 -0.217015
4045 -0.409598 0.4882 -0.351695 1.4817 -0.0130652 0.564198 -0.164923 0.569731 -0.260488 0.0594331 0.491382 0.466152 0.0313671 -1.05251 -0.166861 -1.13675 -1.8568 1.56331 1.76755 0.146944 0.860076 -1.92218 0.122523 -0.262424
1335 -0.368454 0.434381 -0.298786 1.46527 -0.0467766 0.618157 -0.141811 0.523276 -0.275054 0.0987932 0.560413 0.462787 -0.00461319 -1.03984 -0.134615 -1.08337 -1.83794 1.58785 1.75023 0.183996 0.813086 -1.95926 0.103484 -0.257868
4503 -0.503899 0.442258 -0.3604 1.69008 -0.149622 0.71665 -0.16405 0.710717 -0.293484 0.054403 0.483971 0.571181 0.0146954 -1.25763 -0.198152 -1.16127 -2.15053 1.76572 1.97127 0.176499 0.922851 -2.24181 0.109151 -0.365559
5454 -0.388622 0.481114 -0.359463 1.5076 -0.0838855 0.586156 -0.169059 0.560533 -0.298827 -0.00114748 0.5874 0.489031 0.00888339 -1.09647 -0.17014 -1.13809 -1.94525 1.64907 1.83504 0.163211 0.83697 -2.03449 0.149637 -0.309536
963 -0.416145 0.456484 -0.363192 1.50362 -0.0194149 0.637816 -0.21347 0.596409 -0.271479 0.0575661 0.548088 0.460483 0.0248205 -1.10076 -0.159904 -1.22367 -1.98058 1.69267 1.97677 0.202489 0.868679 -2.04435 0.130639 -0.273681
4684 -0.380271 0.41695 -0.34638 1.51627 -0.0384472 0.620333 -0.178492 0.536912 -0.262417 0.0995684 0.512033 0.514721 0.0446725 -1.09159 -0.167232 -1.14829 -1.92326 1.7167 1.80189 0.139217 0.820648 -2.0531 0.17654 -0.31305
2900 -0.182041 0.263609 -0.155952 1.1995 -0.0117207 0.39078 -0.122319 0.399303 -0.195369 0.097215 0.413592 0.359325 0.0232768 -0.770796 -0.0983711 -0.805655 -1.34735 1.20736 1.28314 0.127598 0.506978 -1.43483 0.0383265 -0.322128
3378 -0.452891 0.565167 -1.48831 -0.640525 -0.553543 0.296197 -1.27997 0.249603 -0.0857797 -0.154297 -1.16575 0.249006 0.203279 1.153 -1.70395 0.191285 -1.3831 0.384007 1.26787 0.0240648 1.32534 -0.583109 0.539849 0.241228
1386 -0.542406 0.694237 -1.66351 -0.753794 -0.619348 0.378651 -1.44484 0.309562 -0.0866095 -0.159741 -1.24989 0.235628 0.193252 1.26098 -1.92 0.162521 -1.58178 0.469275 1.4553 0.00154856 1.48622 -0.658954 0.54694 0.285593
5018 -0.467769 0.643324 -1.57332 -0.680619 -0.617817 0.289215 -1.46855 0.275466 -0.0606163 -0.10885 -1.32677 0.328163 0.219497 1.23714 -1.8394 0.300283 -1.52506 0.50195 1.45715 0.00866377 1.51481 -0.792006 0.665128 0.270611
372 -0.380431 0.471755 -1.23837 -0.543031 -0.524429 0.175974 -1.11444 0.2455 -0.0427941 -0.085044 -0.974792 0.245195 0.200994 0.995703 -1.39065 0.269026 -1.15249 0.411624 1.06714 0.0136877 1.13345 -0.52278 0.45511 0.236929
5501 -0.425394 0.513353 -1.31446 -0.531143 -0.515819 0.21012 -1.17784 0.228977 -0.0795162 -0.094558 -1.04182 0.229277 0.172571 1.05019 -1.47785 0.268652 -1.16514 0.401893 1.09294 0.0626579 1.16513 -0.536749 0.511993 0.230502
2644 -0.576349 -1.60096 -0.0751764 -0.477992 -0.844913 0.0503026 -0.348979 -0.600682 0.0137822 0.611167 0.888285 0.65752 0.409151 0.283525 -1.41471 0.647749 -1.94124 1.57234 1.17413 -0.572289 1.1506 -0.964535 2.00477 -0.472585
2892 -0.524102 -1.52596 -0.0861672 -0.365663 -0.733149 0.054973 -0.263694 -0.484217 0.0577501 0.553736 0.726706 0.623575 0.459849 0.206963 -1.21572 0.539119 -1.74747 1.47637 1.08033 -0.503026 0.956744 -0.959846 1.82706 -0.49202
4260 -0.422128 -1.26316 -0.115869 -0.397208 -0.609875 -0.0156578 -0.240456 -0.51644 0.0361823 0.431436 0.76251 0.443695 0.310028 0.257396 -1.12223 0.575263 -1.62059 1.2051 0.934745 -0.500623 0.926574 -0.807989 1.5463 -0.388181
4571 -0.489976 -1.43626 -0.0669409 -0.336779 -0.781319 0.0588997 -0.219366 -0.487844 0.0574303 0.497825 0.743865 0.548129 0.393196 0.214328 -1.17025 0.571084 -1.67412 1.33728 1.0436 -0.492105 0.928619 -0.81723 1.80756 -0.462939
1197 -0.55909 -1.7033 -0.0801318 -0.387023 -0.830775 0.0773947 -0.335992 -0.536378 0.127172 0.560479 0.826037 0.707478 0.419001 0.22155 -1.27015 0.519453 -1.85563 1.49456 1.12271 -0.558429 1.02354 -1.00287 1.95723 -0.640711
2599 -0.422273 -1.24434 -0.147416 -0.338028 -0.663432 0.0317019 -0.215588 -0.421027 0.0760229 0.402391 0.643462 0.546203 0.328587 0.208468 -0.997059 0.419493 -1.48312 1.15155 0.847334 -0.387057 0.747529 -0.758759 1.48217 -0.47232
4022 0.147765 0.842672 -0.380663 0.322894 -0.636594 0.235142 -0.0853359 1.99585 -1.00482 -0.74324 0.061813 1.44109 -0.1031 -0.86821 -1.11932 1.28517 -1.30058 0.558635 0.968188 -0.145541 1.03211 -1.82393 0.704384 -1.17264
5584 0.120417 0.85008 -0.278613 0.333092 -0.607916 0.235302 -0.0573716 2.04762 -0.974374 -0.684073 0.0321405 1.49748 -0.142684 -0.790177 -1.07821 1.2739 -1.31382 0.582848 1.01385 -0.0930192 1.02766 -1.78917 0.682755 -1.19052
891 0.227392 1.04947 -1.19695 -1.34877 -1.23242 0.192995 -0.307057 0.551006 0.955603 0.220829 -0.998536 0.146875 0.205205 0.0248512 -0.484158 -0.38631 -1.24398 -0.197613 0.264792 -0.651878 0.867045 -1.26026 -0.258216 -0.626122
1086 0.258167 1.11538 -1.23999 -1.34566 -1.29879 0.215062 -0.331027 0.500982 0.967818 0.248477 -1.11783 0.156796 0.191752 0.0783201 -0.497903 -0.397941 -1.26714 -0.232248 0.269986 -0.716966 0.899661 -1.19679 -0.309943 -0.708235
243 0.372608 1.34391 -1.53138 -1.69786 -1.53202 0.297985 -0.374174 0.619738 1.22346 0.314773 -1.34874 0.195785 0.295512 0.0304954 -0.595623 -0.510755 -1.56699 -0.278481 0.320911 -0.874817 1.12399 -1.64742 -0.380929 -0.873681
2234 0.283432 1.17566 -1.35188 -1.47595 -1.34159 0.243125 -0.368519 0.564651 1.09202 0.251729 -1.22684 0.168386 0.261914 0.0578642 -0.509209 -0.521686 -1.36375 -0.273576 0.260669 -0.866939 1.02245 -1.3657 -0.324522 -0.769933
4419 0.275519 1.20289 -1.37487 -1.58482 -1.37532 0.217894 -0.322842 0.529128 1.1329 0.296776 -1.26665 0.198196 0.244573 0.0994174 -0.492081 -0.563353 -1.42065 -0.246435 0.28566 -0.869946 1.07649 -1.43268 -0.337125 -0.783369
2053 0.371516 0.66168 0.249085 -0.981555 0.531412 0.665414 -0.630491 0.321471 0.676862 0.51777 -0.487461 0.244775 0.289162 0.151595 -1.28226 -0.607168 -1.36833 0.219699 0.961586 -0.825998 1.61326 -0.181838 1.00849 -0.109691
1394 0.461873 0.937599 0.296853 -1.4077 0.660539 0.959596 -0.876792 0.674305 1.01622 0.72376 -0.72398 0.40891 0.445933 0.0709854 -1.72396 -0.793433 -1.82062 0.239513 1.30387 -1.09913 2.2957 -0.34577 1.26405 -0.150353
4353 0.494063 0.900665 0.316513 -1.26805 0.67977 0.85748 -0.882777 0.593878 0.941621 0.623487 -0.639763 0.324901 0.399791 0.108973 -1.60839 -0.715002 -1.73153 0.267932 1.21474 -0.966442 2.11792 -0.238114 1.18303 -0.171214
3517 -0.348769 0.221336 -0.704211 0.0754843 -1.11582 -0.197855 -0.525775 -0.256575 0.115566 1.23766 0.863169 0.643973 -0.929238 0.30725 -0.560968 -0.63881 -1.32096 -0.688937 0.812652 -0.09973 0.723919 -2.30551 0.267046 0.294635
2764 -0.292053 0.232875 -0.779758 0.0690547 -1.13381 -0.205494 -0.575573 -0.318029 0.102732 1.36756 0.863617 0.759923 -0.990256 0.391983 -0.530396 -0.682856 -1.44827 -0.708215 0.965505 -0.112978 0.733136 -2.47281 0.258675 0.309104
495 -0.30988 0.206332 -0.69278 0.0421515 -1.11103 -0.209032 -0.538316 -0.279137 0.0944907 1.20402 0.822887 0.709305 -0.923859 0.334676 -0.547044 -0.651856 -1.30632 -0.654482 0.852919 -0.150687 0.644017 -2.22466 0.226086 0.29253
1306 -0.325471 0.261094 -0.748771 0.0781807 -1.0905 -0.21535 -0.539519 -0.27277 0.101566 1.24337 0.828219 0.722059 -0.947645 0.313877 -0.506205 -0.646024 -1.39923 -0.692765 0.865641 -0.0961091 0.723702 -2.31887 0.275587 0.292824
3617 -0.294415 0.218001 -0.73649 0.0449885 -1.16836 -0.229789 -0.516105 -0.275678 0.122191 1.33019 0.938459 0.730592 -0.963502 0.295898 -0.569913 -0.665129 -1.40275 -0.707005 0.926106 -0.165453 0.781242 -2.49281 0.262772 0.30028
188 -0.341106 0.225584 -0.788854 0.0168324 -1.12913 -0.277912 -0.61727 -0.309989 0.0876006 1.29429 0.889758 0.741612 -0.989134 0.347119 -0.531692 -0.666331 -1.42849 -0.726144 0.942838 -0.112525 0.714201 -2.35814 0.285627 0.304693
5311 -0.355444 0.236831 -0.840424 0.0697411 -1.19855 -0.24066 -0.60797 -0.28452 0.11933 1.37243 0.893373 0.78983 -1.04087 0.315995 -0.573536 -0.753624 -1.45684 -0.762689 0.940095 -0.132738 0.76683 -2.45534 0.296281 0.305892
2817 -0.339772 0.247339 -0.760588 0.0374571 -1.09662 -0.198311 -0.573119 -0.352155 0.106005 1.32786 0.837149 0.728686 -1.00531 0.357778 -0.551697 -0.660349 -1.43237 -0.685046 0.928285 -0.0914713 0.74294 -2.3557 0.244656 0.300941
3825 -0.636479 0.0622603 -0.556347 -0.409501 -1.34566 -0.324676 0.949024 0.62809 0.379811 1.19208 0.0255669 0.0242863 0.56644 -0.848817 -0.0301071 0.212813 -2.16272 0.163319 1.21029 -1.13798 0.386144 -0.807304 0.940979 0.157195
3970 -0.738389 -0.010988 -0.562058 -0.427133 -1.42211 -0.373353 0.951703 0.684156 0.333601 1.31182 0.0361414 -0.035837 0.566081 -0.938996 -0.0746845 0.218279 -2.27056 0.231478 1.22776 -1.20454 0.374385 -0.852389 1.01738 0.188043
5340 -0.672077 -0.0113632 -0.629874 -0.500329 -1.44816 -0.31778 0.956064 0.646209 0.359156 1.28996 0.0894302 0.00633707 0.567931 -0.920328 -0.0989849 0.218546 -2.31974 0.206567 1.21021 -1.26182 0.390415 -0.876139 1.0542 0.240751
3052 -0.745285 0.00844322 -0.615047 -0.462838 -1.479 -0.343689 1.0036 0.712066 0.373616 1.35927 0.0385668 0.00879755 0.560816 -0.957359 -0.103469 0.248953 -2.30492 0.209696 1.29554 -1.26217 0.477046 -0.864304 0.959535 0.129952
37 0.290017 -0.55814 -0.302628 -0.187041 -1.58211 -0.079281 -1.84991 0.567858 1.06685 1.07515 0.388127 0.437408 0.449783 -1.19965 -0.836816 -0.385683 -1.40473 -0.463667 0.969679 -1.31193 0.612478 -1.76823 0.486634 0.491324
4765 0.16172 -0.497435 -0.249252 -0.172262 -1.25449 -0.0574286 -1.44779 0.417818 0.815222 0.817118 0.368309 0.330051 0.398755 -0.928911 -0.686155 -0.359589 -1.04345 -0.452665 0.687111 -1.019 0.422468 -1.39121 0.387709 0.389981
2707 0.287917 -0.577445 -0.291507 -0.153428 -1.58348 -0.109028 -1.82891 0.510297 1.10183 0.985418 0.409726 0.455593 0.464744 -1.23372 -0.890565 -0.427789 -1.3711 -0.511527 0.990469 -1.27025 0.547261 -1.75681 0.54697 0.486207
3510 0.067825 -0.317338 -0.961755 -1.49782 0.560245 0.088994 0.277068 0.673598 0.0747509 0.566853 0.263151 1.3019 0.34299 -0.0384901 -2.38749 0.222466 -1.54433 1.37571 1.29423 0.0218839 0.0480688 -1.61433 -0.0624535 -0.159446
5520 0.155043 -0.153042 -0.653451 -1.21443 0.45993 -0.0613893 0.152337 0.477877 0.201656 0.598739 0.0499242 1.14263 0.406148 0.0674064 -1.84466 0.144111 -1.31859 1.18317 1.12554 0.064293 0.0734169 -1.33936 -0.0470209 -0.0450623
1901 0.156386 -0.132954 -0.713568 -1.1906 0.434226 -0.0240122 0.209761 0.519746 0.1101 0.633028 0.0924365 1.16109 0.315608 0.0554466 -1.91652 0.17524 -1.31224 1.16525 1.15398 0.0866456 0.0991572 -1.36073 -0.029145 -0.0671043
3484 0.159317 -0.0986547 -0.720622 -1.19976 0.476303 -0.0279001 0.161154 0.520244 0.194247 0.676694 0.0687252 1.22044 0.39171 0.0378849 -1.93775 0.157792 -1.36282 1.19451 1.20886 0.0999439 0.10804 -1.38646 -0.0852189 0.0228839
414 0.118483 -0.357761 -0.855719 -1.28379 0.501585 0.167216 0.252794 0.604596 0.0379425 0.433144 0.258573 1.12733 0.293002 0.0704918 -2.08506 0.206174 -1.31407 1.14903 1.20039 -0.0130677 -0.0300106 -1.40736 -0.0841678 -0.266441
4733 -0.775978 -1.03505 -0.718613 -0.207877 -0.397744 0.906206 0.272714 -0.053905 0.0165624 1.36499 -0.340514 -0.217568 0.468475 -1.51872 -0.634375 -0.716033 -1.07299 1.12099 0.955754 -0.900268 1.27482 -2.33545 -0.962965 -0.926742
2566 -0.838366 -1.02053 -0.738787 -0.160606 -0.439803 0.843358 0.351023 -0.00588057 -0.0300461 1.34516 -0.30999 -0.219248 0.466252 -1.54576 -0.634754 -0.675351 -1.09381 1.12154 1.00188 -0.886918 1.26632 -2.29182 -0.920352 -0.880701
3953 -1.35926 -0.648145 0.0110869 -0.389355 -0.793998 -0.294557 0.679562 0.694668 0.866669 0.128733 0.047042 0.394579 -0.118722 -0.0350296 -0.996205 1.34635 -1.42584 0.307297 0.574224 -1.27525 0.660118 -1.48788 0.103464 -0.541155
4146 -1.28781 -0.60189 0.0241342 -0.402866 -0.793153 -0.288942 0.617049 0.619942 0.801489 0.143243 0.0288248 0.372341 -0.116908 -0.0443903 -0.991695 1.286 -1.40345 0.325838 0.571402 -1.25139 0.629011 -1.46756 0.0952836 -0.5689
1589 -1.3803 -0.716183 0.0359188 -0.430246 -0.824915 -0.315536 0.687978 0.660297 0.896928 0.11 0.000786099 0.447403 -0.127993 -0.0620728 -1.06298 1.42156 -1.5234 0.289292 0.577794 -1.31453 0.683336 -1.54464 0.0975628 -0.618558
5387 -1.27673 -0.634198 0.0144255 -0.403001 -0.768565 -0.319308 0.666547 0.657291 0.844591 0.109431 0.00897677 0.369369 -0.119139 -0.0609924 -0.979346 1.33197 -1.43717 0.321484 0.552016 -1.29672 0.665258 -1.48803 0.150905 -0.562613
3202 -0.868647 -0.209575 0.414784 -1.14611 -0.788416 0.815877 -0.425908 -0.100716 1.46632 -0.873361 0.723565 -0.28931 -0.764618 0.411614 -0.0666716 0.117917 -2.57768 1.00886 0.503864 -0.166801 1.24746 -1.58202 -0.167797 0.0330915
5502 -0.677467 -0.182029 0.236063 -1.39015 -0.854602 1.01955 -0.702861 -0.0111129 1.38948 -0.965076 0.840526 0.174646 -0.351445 0.258424 -0.0520479 0.00521952 -1.9168 0.842352 0.325539 0.0413661 1.04195 -1.27948 -0.107385 0.106308
803 -0.53791 -0.208071 0.250606 -0.923131 -0.538698 0.65381 -0.36691 -0.0656534 0.96135 -0.667141 0.571498 -0.0951177 -0.464115 0.240579 -0.0762952 0.0986085 -1.49615 0.646796 0.241512 -0.0056488 0.80986 -0.9334 -0.040292 0.0294125
2743 -1.59436 1.09812 -0.455202 -0.703589 0.0250363 0.544631 -0.203965 0.131019 -0.525137 -0.416576 0.89865 1.20111 0.503077 -1.19325 -1.25544 0.531417 -2.09916 0.139277 0.284383 -0.276857 0.504321 -0.878095 -0.424445 -0.551834
4129 -1.63036 1.09776 -0.422953 -0.732591 0.00920386 0.579517 -0.257961 0.0843434 -0.586377 -0.463608 0.91934 1.17625 0.555957 -1.18926 -1.31892 0.559654 -2.1696 0.118502 0.289937 -0.326844 0.58261 -0.902538 -0.409985 -0.568539
2529 -1.66883 1.10169 -0.473753 -0.748214 0.0370416 0.584652 -0.249997 0.135625 -0.590123 -0.453993 0.901055 1.24944 0.547037 -1.18714 -1.37302 0.612035 -2.23555 0.150896 0.29332 -0.323452 0.547465 -0.853579 -0.427827 -0.627743
4633 -1.6393 1.09925 -0.501494 -0.727026 -0.0249841 0.567064 -0.260952 0.181209 -0.558175 -0.392749 0.914923 1.17912 0.513236 -1.1947 -1.36404 0.559923 -2.17692 0.177365 0.300818 -0.360031 0.594821 -0.834117 -0.430915 -0.55943
1170 -1.70833 1.15252 -0.468451 -0.700007 0.00397107 0.601725 -0.182752 0.12817 -0.624781 -0.446417 0.974423 1.21229 0.53382 -1.28116 -1.38748 0.559659 -2.26826 0.125458 0.32736 -0.323846 0.545392 -0.974477 -0.448771 -0.540622
4279 -1.64277 1.07009 -0.481696 -0.728465 0.0429784 0.576085 -0.253735 0.0936986 -0.582104 -0.416505 0.967538 1.15152 0.487111 -1.19317 -1.32199 0.534529 -2.17562 0.120996 0.29661 -0.297944 0.546332 -0.883286 -0.434858 -0.57961
2534 -1.71042 1.09569 -0.477658 -0.690008 -0.0687696 0.575414 -0.281223 0.182095 -0.552208 -0.386748 0.918765 1.23191 0.509275 -1.22687 -1.36365 0.569131 -2.18872 0.160465 0.277002 -0.337718 0.583248 -0.926348 -0.421121 -0.55097
502 -1.64038 1.11067 -0.448273 -0.759465 -0.0213118 0.510257 -0.259483 0.107857 -0.582435 -0.461348 0.979736 1.2197 0.537969 -1.21867 -1.31803 0.554888 -2.20763 0.145895 0.315302 -0.356498 0.6318 -0.944867 -0.430108 -0.638383
981 -1.61272 1.02747 -0.441276 -0.716132 -0.0370633 0.562105 -0.260127 0.108133 -0.547093 -0.388853 0.86744 1.1511 0.475293 -1.15306 -1.29015 0.510223 -2.04979 0.167071 0.296194 -0.272227 0.531357 -0.862026 -0.437226 -0.552637
463 -0.0298908 -0.0215454 -0.342729 -1.21361 -0.804386 0.452731 -0.468481 0.104932 0.236123 0.230396 -0.534064 0.938577 -0.0687856 -0.204726 -0.60243 0.227916 -0.516387 -0.613974 0.914628 -0.297823 1.22703 -1.74197 0.720518 0.113192
460 -0.075639 -0.0477046 -0.347824 -1.211 -0.773484 0.455771 -0.496626 0.107659 0.232269 0.284951 -0.623434 1.00117 -0.0639647 -0.201606 -0.645308 0.324115 -0.457783 -0.638169 0.965271 -0.398596 1.36172 -1.873 0.742363 0.070985
952 -0.0437471 -0.0104583 -0.349204 -1.24079 -0.889777 0.481311 -0.476313 0.128813 0.241376 0.272129 -0.534212 0.955401 -0.108051 -0.231521 -0.594393 0.234817 -0.483229 -0.656046 0.967102 -0.273167 1.28986 -1.7778 0.731602 0.135135
3822 -0.0269696 -0.0431754 -0.380004 -1.40293 -0.867611 0.53422 -0.604678 0.0973555 0.277695 0.287169 -0.712785 1.14623 -0.124023 -0.265277 -0.697653 0.2956 -0.632911 -0.753497 1.15156 -0.377327 1.59224 -2.17615 0.826591 0.127482
1829 -1.09877 0.263676 -1.61556 0.838169 0.2368 0.163202 0.839515 -0.47935 0.496094 0.740569 -0.034322 -0.172641 0.299158 -0.407917 -2.21161 -0.0711613 -1.32441 0.744255 0.568366 -1.08842 1.45757 -1.65529 -0.926813 -0.314986
29 -1.07515 0.301539 -1.58092 0.809842 0.219297 0.166808 0.845577 -0.497619 0.544272 0.776671 -0.106884 -0.161599 0.349 -0.386842 -2.18065 -0.122366 -1.24867 0.802658 0.630463 -1.09747 1.47574 -1.67752 -0.918054 -0.333062
4451 -0.614751 1.0835 -0.104853 -0.0253095 -1.43932 -0.546503 0.476128 0.330697 -0.366352 -0.489542 -0.250985 1.19573 0.151759 -1.63213 -1.39242 -0.158534 0.334234 1.03088 1.25638 -0.77311 1.41545 -2.01387 0.983063 0.303523
1551 -0.572547 1.05833 -0.0934681 -0.00240409 -1.44539 -0.562768 0.465495 0.365174 -0.388114 -0.400567 -0.315223 1.11576 0.203394 -1.6369 -1.34284 -0.175147 0.287952 1.13244 1.27161 -0.782894 1.39543 -1.97444 1.02404 0.313044
1746 0.679214 0.0531217 -0.308541 0.564822 -0.813306 0.709307 -0.526336 -0.26893 0.453953 0.135804 -0.85767 -0.39678 2.04686 -1.10879 -0.739275 -1.22703 -1.93577 0.879832 0.704035 -0.334685 1.8726 -1.559 -0.0850134 -0.388134
2018 0.7329 0.0672017 -0.371961 0.586902 -0.839692 0.736307 -0.541396 -0.245225 0.492955 0.118448 -0.87809 -0.388013 2.00343 -1.07446 -0.707324 -1.26615 -1.92717 0.835648 0.698009 -0.327921 1.87752 -1.59912 -0.0525036 -0.408358
3361 -0.699562 1.81954 -0.422212 -0.212955 -0.920292 0.0277467 0.210613 0.823401 -1.22406 0.364617 0.358775 -0.378036 0.897495 -1.00588 -0.597077 -1.06091 -0.808015 1.47941 1.05031 -0.670561 1.70125 -1.20081 0.61685 -0.486365
3622 -0.677802 1.70123 -0.357078 -0.209638 -0.80952 -0.00587886 0.169601 0.808757 -1.06198 0.302463 0.377897 -0.321487 0.833871 -1.00672 -0.63962 -1.05065 -0.734254 1.36702 0.955358 -0.590039 1.57435 -1.08366 0.595279 -0.41029
3344 -0.707049 1.8351 -0.405786 -0.237102 -0.946243 0.0625557 0.112309 0.894846 -1.16802 0.374703 0.411287 -0.380465 0.807538 -1.02667 -0.648709 -1.02786 -0.848229 1.47651 1.07989 -0.67082 1.69449 -1.17745 0.585325 -0.444593
2806 -0.795375 1.77733 -0.438871 -0.254707 -0.912354 0.0237428 0.185531 0.800707 -1.12046 0.310983 0.361379 -0.334963 0.898913 -0.959697 -0.673978 -1.02775 -0.85722 1.42479 1.01886 -0.590689 1.59856 -1.14295 0.584156 -0.426363
2855 -0.668346 1.68612 -0.403538 -0.217555 -0.828174 0.00396462 0.147415 0.761907 -1.07753 0.31565 0.359463 -0.315513 0.809548 -0.912534 -0.566983 -0.936326 -0.681427 1.33826 0.955071 -0.564478 1.49314 -1.09636 0.585594 -0.421567
5558 -0.222399 0.798394 -0.877245 -0.656393 -0.531194 0.31605 -0.195108 0.522032 0.000326616 1.54854 0.0947924 1.61537 -0.0770576 -0.92111 0.929212 -0.435666 -1.3469 0.813615 1.7461 -0.70455 0.385328 -1.75872 0.00118984 1.02444
3134 -0.228914 0.840422 -0.873458 -0.664181 -0.583741 0.357892 -0.118798 0.533302 0.0449399 1.57027 0.0995575 1.61592 -0.0316576 -0.964583 0.96305 -0.433315 -1.39564 0.823826 1.73022 -0.661506 0.336731 -1.76227 -0.000500585 1.08042
4267 -0.21714 0.75169 -0.87005 -0.580271 -0.525198 0.320454 -0.1284 0.505944 0.0653869 1.48037 0.0937624 1.52446 -0.0501123 -0.823411 0.86362 -0.383024 -1.31998 0.738713 1.66856 -0.628127 0.389955 -1.62279 0.00500157 0.92693
2164 -0.868042 -0.0722681 -0.695251 0.415558 -0.393759 1.20437 -0.283191 0.0145206 1.15135 -0.142646 -0.124216 0.64771 1.02732 1.18378 -1.26756 0.443931 -2.00577 -0.198722 1.48137 -0.0175654 0.250368 -1.63815 -0.574391 -1.13102
4927 -0.709357 -0.0420937 -0.563795 0.333568 -0.308505 1.00483 -0.2117 0.0392291 0.871598 -0.0716148 -0.0792759 0.467495 0.814827 0.86889 -1.00931 0.348508 -1.52822 -0.138933 1.12843 -0.0522728 0.163504 -1.28163 -0.458748 -0.952122
4489 -0.863971 -0.103898 -0.727089 0.394397 -0.341858 1.26912 -0.346498 0.0361556 1.16975 -0.0734215 -0.109191 0.610175 0.990661 1.14832 -1.30038 0.484795 -1.95611 -0.197806 1.48308 -0.0716756 0.223072 -1.6788 -0.563355 -1.12319
215 -0.881857 -0.0980504 -0.671983 0.358071 -0.431003 1.26882 -0.286836 -0.0150293 1.1606 -0.117817 -0.105062 0.617111 1.0605 1.11787 -1.30755 0.481612 -2.08385 -0.229151 1.50146 -0.0651418 0.307225 -1.73034 -0.583587 -1.15735
1601 -0.851021 -0.0579241 -0.759262 0.418549 -0.347 1.33506 -0.392908 0.00638876 1.16925 -0.0781461 -0.122339 0.660576 1.02304 1.2285 -1.33269 0.479641 -1.94932 -0.173559 1.51557 -0.0158689 0.282097 -1.78356 -0.599644 -1.09541
3047 -0.281724 0.322486 0.0592912 -0.713916 -2.14485 -0.697837 -0.968727 0.475976 1.38052 -0.84356 1.1675 1.51111 0.75721 0.329544 -0.0457505 0.104545 -0.83774 1.24097 0.468095 -1.4888 0.67003 -0.815224 -0.21335 0.00472461
634 -0.261452 0.312303 0.0192605 -0.681536 -2.10253 -0.677389 -0.9542 0.504083 1.38179 -0.855067 1.12517 1.49631 0.704062 0.29436 -0.0671247 0.065112 -0.84488 1.19777 0.418866 -1.44626 0.694285 -0.785369 -0.243131 0.0504334
711 -0.293938 0.323642 0.0849721 -0.668122 -2.14099 -0.701638 -0.939726 0.513796 1.40063 -0.885219 1.13122 1.49626 0.790763 0.314999 -0.0599897 0.0789111 -0.868597 1.23959 0.437523 -1.51246 0.715304 -0.851255 -0.204598 0.0705287
2277 -0.0268357 1.17341 -0.429532 0.239803 -1.51831 0.118487 0.379457 -0.717918 1.22428 -0.107981 -0.278906 -0.0643946 -0.517661 -0.403922 0.249936 0.191464 -1.39484 1.72886 0.981973 -1.00136 1.38864 -0.870575 -0.776468 -0.553741
2581 0.00402015 1.23806 -0.427618 0.287694 -1.54206 0.0714902 0.376112 -0.692294 1.27579 -0.131914 -0.258855 -0.0367522 -0.520094 -0.362498 0.30233 0.197409 -1.3727 1.74124 1.03259 -1.09073 1.45719 -0.890991 -0.769203 -0.566935
4233 -0.0267747 1.26853 -0.463952 0.291859 -1.60328 0.0877867 0.393547 -0.72911 1.35218 -0.188444 -0.291704 -0.0563511 -0.554566 -0.366252 0.273926 0.254406 -1.43411 1.7945 1.09303 -1.13948 1.49487 -0.921092 -0.864803 -0.609105
3571 -0.0116043 1.28206 -0.444013 0.331276 -1.61071 0.0936934 0.429872 -0.760491 1.35056 -0.111513 -0.266595 -0.110858 -0.562876 -0.4088 0.299757 0.170374 -1.48383 1.89155 1.14096 -1.09279 1.53561 -0.921954 -0.869 -0.665984
2797 -0.00885796 1.31795 -0.427103 0.276424 -1.63084 0.143569 0.374604 -0.693764 1.39369 -0.173317 -0.295707 -0.0435686 -0.56973 -0.33853 0.273841 0.205076 -1.50899 1.82839 1.08232 -1.1632 1.51913 -0.962308 -0.864478 -0.600087
4219 -0.00200411 1.19889 -0.431558 0.295188 -1.57273 0.0814868 0.346977 -0.731614 1.28646 -0.105565 -0.308747 -0.061348 -0.557032 -0.337518 0.307411 0.210759 -1.42248 1.79129 1.02022 -1.13144 1.39912 -0.920588 -0.873207 -0.550104
35 -0.734741 -0.426086 -1.18805 -0.448143 -0.63345 0.838288 -0.935304 0.796439 -0.633452 0.45981 -0.402169 1.19866 -0.508502 0.897931 -1.43219 0.814036 -1.13328 2.0607 1.10911 -0.547754 0.969555 -0.693087 -0.41138 0.505893
3002 -0.694473 -0.428369 -1.19681 -0.364073 -0.611908 0.809522 -0.855894 0.776886 -0.604064 0.446138 -0.403885 1.11734 -0.459613 0.956825 -1.33363 0.718845 -1.02062 1.88439 1.07552 -0.535118 0.936566 -0.680849 -0.396639 0.390107
2076 -0.732988 -0.472435 -1.25667 -0.346239 -0.680984 0.893081 -0.923341 0.832497 -0.669348 0.42905 -0.453337 1.20532 -0.476244 1.02243 -1.4107 0.789307 -1.08246 2.05449 1.12426 -0.607373 1.00842 -0.729761 -0.405543 0.409626
4452 -0.7225 -0.446944 -1.21815 -0.418619 -0.672265 0.806668 -0.87214 0.844769 -0.686444 0.45887 -0.412429 1.16918 -0.517719 0.908306 -1.4383 0.803479 -1.11208 2.12457 1.16495 -0.521981 0.985907 -0.727667 -0.470232 0.544443
2694 -0.221294 0.165211 0.379315 0.467315 -1.09133 0.0325311 0.132876 -0.0568732 1.34518 0.766694 0.29894 1.10615 0.214557 -1.33851 0.0304113 1.94122 -1.43363 -0.299961 1.04385 -0.895681 1.21886 -1.95653 -0.189276 -0.181928
1288 -0.224721 0.19057 0.44717 0.483159 -1.15474 0.0829295 0.115817 -0.120313 1.39032 0.859662 0.302147 1.20209 0.259706 -1.40841 0.110896 1.97472 -1.60474 -0.344491 1.10745 -0.881883 1.33464 -2.07897 -0.13552 -0.156793
132 -0.253755 0.177344 0.361246 0.46671 -1.20341 0.0903454 0.117933 -0.154125 1.43852 0.817891 0.263345 1.17925 0.292909 -1.39472 -0.000570185 2.00336 -1.57526 -0.389936 1.04821 -1.01764 1.36923 -2.13106 -0.119771 -0.197217
3845 -0.247277 0.15117 0.340298 0.478858 -1.07723 0.120148 0.103447 -0.164414 1.34572 0.772643 0.292816 1.15159 0.215482 -1.36529 0.0722732 1.95739 -1.48372 -0.346401 0.9983 -0.998388 1.33275 -2.0542 -0.149163 -0.167111
4434 -0.803049 0.800798 0.366402 -1.65591 0.272114 1.16274 -0.938166 0.195967 -0.243994 -0.0191751 0.089244 0.758045 0.141129 0.375176 -0.85404 -1.07602 -0.858882 0.777189 0.679029 -0.805866 1.02855 -1.32629 0.725381 -0.381694
4874 -0.844912 0.860901 0.408772 -1.77725 0.313269 1.28198 -1.01459 0.144228 -0.23459 0.0386789 0.0983395 0.876048 0.146115 0.383561 -0.92192 -1.1962 -0.921015 0.904191 0.76568 -0.882338 1.08256 -1.48526 0.789362 -0.381608
3196 -0.819958 0.838887 0.357639 -1.70022 0.274371 1.22514 -0.967262 0.184041 -0.240629 -0.0188696 0.108612 0.871482 0.144983 0.396937 -0.832861 -1.1323 -0.883968 0.841366 0.673596 -0.823337 1.06341 -1.36019 0.681559 -0.421003
5231 -0.873719 0.870478 -0.0417529 -0.21808 -0.371445 -0.910949 -0.032069 0.389792 -0.11778 0.767093 0.4077 -1.16896 -0.757087 -0.461682 -1.01585 0.479963 -1.92679 -0.147289 0.258331 -0.389774 2.01081 -1.75627 -0.0195046 0.227652
3408 -0.886095 0.858353 0.0109541 -0.279937 -0.317765 -0.945678 0.0298669 0.451517 -0.131177 0.848003 0.403284 -1.22753 -0.829019 -0.478306 -1.16641 0.521033 -1.97631 -0.102223 0.298424 -0.408243 2.12942 -1.81938 -0.0883996 0.183106
5159 -0.86188 0.905909 0.00398124 -0.23162 -0.289356 -0.947968 0.0287218 0.416326 -0.155312 0.765251 0.465361 -1.19059 -0.840134 -0.504381 -1.10109 0.557439 -1.98368 -0.0761936 0.330774 -0.384386 2.17791 -1.88436 -0.0111485 0.220229
3138 -0.082796 -0.307731 -0.738281 -1.12877 0.202729 0.60376 0.234962 0.650514 -0.0981677 0.0263218 0.611119 0.744292 0.0261785 -0.189893 -2.16304 0.0467206 -1.13428 1.01505 1.053 -0.230317 0.0485602 -1.483 0.0375381 -0.740409
1356 -0.123559 -0.390734 -0.920985 -1.17932 0.243145 0.595811 0.222531 0.677523 -0.143706 -0.0130156 0.696499 0.847435 -0.11631 -0.129377 -2.24337 0.0568388 -1.09392 1.05721 1.15937 -0.324734 0.0317712 -1.56035 0.00484145 -0.825022
1556 -0.0347642 -0.401039 -1.00475 -1.3816 0.331012 0.464337 0.278181 0.68855 -0.157448 0.161584 0.735018 1.04473 0.047028 -0.112147 -2.48106 0.157979 -1.23875 1.2134 1.31016 -0.321417 -0.055208 -1.6978 -0.019249 -0.686855
5005 -0.156683 0.873926 -1.23881 0.0443003 -0.672094 0.325969 -0.659172 0.420855 0.594943 0.670943 0.0570445 0.558992 0.0540473 -0.633044 -0.19691 1.39499 -0.784736 0.669982 0.652184 0.760897 1.6154 -0.717948 0.633274 -0.962615
4298 -0.143405 0.996131 -1.37897 0.0480281 -0.7449 0.388178 -0.781257 0.462471 0.659906 0.755938 0.0860351 0.585855 0.0612149 -0.707265 -0.283283 1.55264 -0.878497 0.800374 0.752283 0.83302 1.89242 -0.857972 0.732653 -1.13083
2622 -0.206903 0.909238 -1.26625 0.0154173 -0.703009 0.315664 -0.724421 0.420103 0.64245 0.720007 0.0621904 0.564459 0.0543559 -0.621744 -0.242265 1.39589 -0.804141 0.733967 0.683415 0.72297 1.67491 -0.754708 0.63131 -1.01411
2606 -0.20451 0.932302 -1.28781 0.0280818 -0.736334 0.339384 -0.688049 0.421787 0.617409 0.70194 0.0995532 0.591408 0.0760909 -0.613581 -0.268256 1.41033 -0.830808 0.757169 0.698199 0.758956 1.6862 -0.765955 0.616538 -0.997486
4879 0.192454 1.76756 -1.24362 -1.0367 -0.522099 1.36549 -0.191136 -0.357825 0.694083 -0.0808914 -0.14014 1.2686 1.28938 0.322909 -0.418056 -0.504558 -1.70096 1.52407 0.168899 0.28379 0.734405 -1.22868 0.614658 0.685068
4681 0.150992 1.81886 -1.2644 -1.00605 -0.556895 1.36391 -0.0800633 -0.35015 0.762953 -0.0317629 -0.131173 1.28678 1.32574 0.377511 -0.428649 -0.52473 -1.66538 1.47796 0.178658 0.303975 0.734401 -1.23294 0.633695 0.61257
4422 0.215305 1.81249 -1.31501 -0.994538 -0.595146 1.3871 -0.133487 -0.368146 0.74871 -0.0297998 -0.0698646 1.3409 1.33992 0.359424 -0.399145 -0.511211 -1.65865 1.50915 0.194955 0.308791 0.746637 -1.21809 0.630077 0.647114
1587 0.245386 1.76339 -1.27521 -1.05292 -0.551533 1.31464 -0.162992 -0.343221 0.785251 -0.0930078 -0.12652 1.28051 1.39948 0.378747 -0.429407 -0.485551 -1.67539 1.5185 0.157363 0.28396 0.75538 -1.23648 0.673561 0.730457
2471 -0.891759 1.47937 -0.632031 0.423702 0.171838 0.951992 -0.24733 -0.714539 1.97696 -0.543025 -0.0841887 0.524363 0.951871 -0.0200636 -0.633077 -0.186551 -0.587967 1.24553 0.227233 -0.308527 1.10304 -1.94286 -0.215479 -0.383365
5071 -0.849381 1.47549 -0.63555 0.372912 0.132633 0.908931 -0.232682 -0.692044 1.9556 -0.554546 -0.0913413 0.554416 1.00171 -0.00721581 -0.671412 -0.119798 -0.563323 1.2234 0.232977 -0.344255 1.09206 -1.94163 -0.190365 -0.342344
4274 -0.819944 1.39464 -0.593467 0.351464 0.133274 0.875303 -0.24828 -0.633791 1.878 -0.486633 -0.0890619 0.484423 0.911008 -0.00665363 -0.629633 -0.0958595 -0.554962 1.16471 0.228004 -0.254163 1.0411 -1.77121 -0.170278 -0.361736
1667 -0.8491 -0.894682 -0.94149 0.140281 -0.90728 -0.672771 -0.869659 0.309372 0.650664 -0.377419 -0.105107 0.257439 -0.161259 0.699482 0.420923 -0.247042 -1.96848 1.31287 1.44155 -1.85928 -0.229086 -1.70859 -0.312785 -1.10802
2362 -0.740078 -0.931243 -0.992966 0.181324 -0.898286 -0.732697 -0.805101 0.29322 0.687882 -0.340793 -0.124588 0.263717 -0.157458 0.629408 0.359828 -0.267342 -1.97844 1.37157 1.43112 -1.82117 -0.234814 -1.76196 -0.270834 -1.12676
1841 -1.24271 0.591434 0.299307 -0.229077 -1.65304 0.374956 -0.703586 -0.354982 1.05732 -0.761774 -0.714182 1.23845 -0.58877 -0.106587 -0.412209 0.505133 -0.819042 1.28806 0.313551 -0.234561 0.72764 -1.98916 -0.130825 1.10448
3861 -1.18925 0.566645 0.277167 -0.29312 -1.61988 0.353709 -0.656075 -0.328723 1.00452 -0.737497 -0.643218 1.15271 -0.519601 -0.0815388 -0.416328 0.481322 -0.703281 1.28404 0.265294 -0.209216 0.653423 -1.88274 -0.118388 0.983522
3766 -1.24978 0.546023 0.212495 -0.243534 -1.59971 0.312636 -0.645073 -0.308878 1.00917 -0.743949 -0.606404 1.16215 -0.51678 -0.0759433 -0.398538 0.472246 -0.731543 1.23315 0.313528 -0.217296 0.693702 -1.84951 -0.107838 1.00655
2483 -0.983208 -0.367715 0.12169 -0.46238 -0.656183 1.23543 -0.285798 0.577747 0.784998 -0.653325 -0.105744 0.0511497 -0.0871836 -0.667513 -0.282247 -0.722168 -1.15528 0.767503 1.22109 0.710952 1.57266 -1.62567 -0.332058 0.209105
1273 -0.866995 -0.291449 0.370398 -0.327887 -0.820072 1.28471 -0.243435 0.702903 0.996879 -0.46631 -0.403454 0.234109 -0.122387 -0.792057 -0.392375 -0.627873 -1.17359 0.592134 1.35217 0.697098 2.01293 -1.67976 -0.552366 0.259146
3600 -1.13945 -0.42747 0.0748305 -1.02051 -0.467791 1.50626 -0.644746 0.479559 0.987096 -1.0757 0.269597 0.474133 -0.416483 -0.550242 -0.226871 -0.573654 -1.75612 1.02861 1.09364 0.793659 1.61614 -1.80803 -0.0764884 0.134633
259 -0.946577 -0.390079 0.0835328 -0.885539 -0.774678 1.23407 -0.59129 0.307015 0.986573 -1.05822 0.667 0.0473502 -0.0461143 -0.221587 -0.023921 -0.540281 -1.48717 0.894301 0.81373 0.370696 0.995808 -1.25491 -0.071882 0.213495
4486 -0.850562 -0.333721 0.0405535 -0.961208 -0.75053 1.21536 -0.64003 0.304783 0.998308 -1.07197 0.697095 0.0313005 -0.0797273 -0.212236 -0.0593331 -0.475521 -1.50958 0.872281 0.788473 0.342883 0.994539 -1.22317 -0.0321292 0.217284
4312 -0.828093 -0.326425 0.00120715 -1.03511 -0.685173 1.35991 -0.697614 0.356964 0.873199 -1.15121 0.703372 0.313811 -0.0326011 -0.295059 -0.20345 -0.455039 -1.32393 0.874493 0.767558 0.455858 1.21574 -1.2689 0.00721058 0.209632
543 -0.817839 -0.346238 0.0735266 -0.864687 -0.596817 1.27412 -0.613999 0.335883 0.85369 -1.03346 0.60104 0.175759 -0.127715 -0.246535 -0.00242924 -0.467233 -1.42471 0.868428 0.799879 0.404383 1.07628 -1.19825 -0.0363266 0.188937
2111 -0.55158 1.32187 -0.919817 -0.89614 -1.11687 -0.0685843 0.176376 1.02221 -0.400379 0.0140627 0.795046 -0.115235 0.310744 0.468581 -0.316373 0.675595 0.0281156 1.04625 1.83563 -0.332592 2.23641 -1.45499 -1.18172 -0.30773
4244 -0.585049 1.32955 -0.979869 -0.870137 -1.14168 -0.0265197 0.238821 1.01368 -0.398959 0.0536086 0.735392 -0.141143 0.375546 0.437709 -0.380931 0.741017 0.0536917 1.05362 1.81473 -0.386692 2.34186 -1.42239 -1.1299 -0.356203
2324 -0.636204 1.43075 -0.953569 -1.00627 -1.16413 -0.083719 0.184574 1.11223 -0.425913 0.0849895 0.916973 -0.0994915 0.39793 0.445021 -0.453817 0.793678 -0.0231015 1.07673 1.92093 -0.369816 2.44149 -1.57805 -1.25112 -0.277743
99 -0.510348 1.15484 -0.73644 -0.784564 -0.90649 -0.0720278 0.191224 0.816426 -0.336298 0.08842 0.700751 -0.10686 0.308851 0.372193 -0.338458 0.590467 0.0197423 0.782369 1.48703 -0.281922 1.80308 -1.10065 -0.908275 -0.257478
809 -0.542632 1.29766 -0.919949 -0.815027 -1.08409 -0.11677 0.165932 1.04035 -0.357646 0.0507442 0.852544 -0.134273 0.370312 0.422192 -0.384173 0.746134 0.0465125 1.07726 1.80486 -0.326115 2.15199 -1.34925 -1.06137 -0.301316
1254 -0.540023 1.24339 -0.966263 -0.894748 -1.23388 0.0015462 0.226224 1.02256 -0.401162 0.0186873 0.850239 -0.120765 0.300029 0.32906 -0.368067 0.655084 0.0634341 1.10244 1.87258 -0.320718 2.30541 -1.45964 -1.14292 -0.298869
702 -1.32287 0.184401 0.12871 -0.671672 -0.462369 -0.278945 0.0176796 -0.439837 0.120214 -0.473761 0.259909 0.736636 0.41365 0.740934 -0.431627 0.510007 -1.84233 1.43094 1.74063 -1.14301 0.494825 -0.293028 1.17406 0.00425157
3030 -1.26364 0.155507 0.120791 -0.65135 -0.458155 -0.254717 -0.00243364 -0.422856 0.104207 -0.430305 0.261748 0.642354 0.37424 0.675157 -0.458499 0.464327 -1.80215 1.38331 1.72247 -1.09982 0.485177 -0.290658 1.08779 0.0317687
3547 -1.27423 0.235699 0.142212 -0.652753 -0.43492 -0.232343 0.0287693 -0.433808 0.12386 -0.453095 0.227263 0.677626 0.353716 0.699258 -0.434378 0.508888 -1.82459 1.39436 1.72203 -1.14806 0.461261 -0.279084 1.14935 -0.00413112
5022 -0.860671 0.945466 -0.715117 -0.848737 -1.63182 0.706924 -1.18662 -1.50854 -0.0211793 0.710821 -0.250179 0.0203019 0.529058 -0.253242 -1.07376 -0.817841 -0.696474 1.14993 0.403105 -0.249833 1.73389 -0.886616 0.0802145 -0.257561
1181 -0.812121 0.875475 -0.637125 -0.713191 -1.4853 0.615256 -1.05538 -1.32437 0.0303111 0.636331 -0.234955 0.0624459 0.41044 -0.240029 -0.912663 -0.773985 -0.551612 0.929041 0.20397 -0.229488 1.51074 -0.787891 0.053968 -0.249428
525 -0.994882 1.02133 -0.776915 -0.836095 -1.8238 0.698579 -1.28837 -1.64818 0.0509227 0.786365 -0.245421 0.0637037 0.599621 -0.336189 -1.16012 -0.880828 -0.741651 1.16752 0.332639 -0.309844 1.92002 -1.02646 0.033859 -0.319697
4390 -0.925009 0.970727 -0.724461 -0.811259 -1.75992 0.788989 -1.21086 -1.48149 0.158097 0.701136 -0.288051 0.0764142 0.603081 -0.224755 -1.14664 -0.840608 -0.655167 1.08795 0.300783 -0.297204 1.7346 -0.943805 0.181539 -0.220299
3821 -0.848159 0.94942 -0.760922 -0.863299 -1.72235 0.81774 -1.23131 -1.43168 0.0727007 0.683438 -0.269212 0.0882385 0.534759 -0.298596 -1.13321 -0.84347 -0.677777 1.05007 0.265024 -0.245966 1.67592 -0.949996 0.115377 -0.169759
1735 -0.743242 0.845562 -0.646899 -0.664025 -1.51102 0.570559 -0.950041 -1.23824 0.0483019 0.625599 -0.219866 0.0208779 0.462988 -0.224927 -0.88267 -0.713951 -0.606756 0.896784 0.288349 -0.219597 1.47833 -0.84311 0.101617 -0.216124
4768 -0.708498 0.79403 -0.652821 -0.730877 -1.53908 0.663836 -0.974455 -1.24609 0.0766053 0.591749 -0.242271 0.0573783 0.449877 -0.208071 -0.968087 -0.720903 -0.596833 0.890001 0.276778 -0.259746 1.47056 -0.857448 0.0966344 -0.183234
4625 -0.782142 0.876595 -0.719634 -0.775201 -1.52316 0.599098 -1.0312 -1.24206 0.0763603 0.619108 -0.253876 0.0842494 0.485246 -0.24682 -0.938449 -0.682745 -0.562653 0.932635 0.260411 -0.187257 1.4902 -0.834576 0.127826 -0.193191
2909 -0.941909 0.999908 -0.839984 -0.808331 -1.6683 0.622181 -1.07466 -1.44972 0.000820543 0.664721 -0.293951 0.0597515 0.506171 -0.309108 -1.08822 -0.786534 -0.728865 1.04814 0.304287 -0.213036 1.75835 -0.899026 0.166961 -0.250791
4931 0.149261 0.553445 -0.0448717 0.123023 -1.58412 0.427929 -1.32832 0.867828 0.28906 -0.0958752 0.785722 1.35449 0.0404314 0.000333333 -0.845979 0.291249 -0.492689 0.122489 1.15742 0.065688 0.719082 -1.3935 -0.0315982 -0.199268
273 0.269854 0.674821 -0.0885302 0.24114 -1.81199 0.447505 -1.65558 1.15527 0.397959 -0.0868502 0.949977 1.57616 0.119936 0.0438648 -0.959624 0.301752 -0.458101 0.102592 1.45878 0.0304042 0.861089 -1.72872 -0.0211921 -0.302057
3123 0.271683 0.610395 -0.133575 0.184525 -1.52507 0.241858 -1.53615 1.12035 0.453634 -0.0702553 0.951373 1.45522 0.226537 0.0868505 -0.827844 0.258087 -0.341285 -0.0184032 1.25309 0.0451775 0.710261 -1.53975 0.0289279 -0.337322
3213 0.181231 0.569984 -0.0676919 0.140909 -1.57055 0.427267 -1.34979 0.848938 0.332581 -0.0809609 0.784114 1.36895 0.0827782 0.0573981 -0.866673 0.292911 -0.522917 0.0940461 1.1543 0.0412465 0.69546 -1.40524 -0.0702451 -0.230939
1774 0.140564 0.582619 -0.0568448 0.147563 -1.53425 0.454516 -1.3332 0.876389 0.327581 -0.0712663 0.761113 1.32848 0.075094 -0.0151749 -0.848007 0.291626 -0.525609 0.126716 1.09542 0.0757063 0.714992 -1.39709 -0.0276824 -0.20818
3911 0.147572 0.565338 -0.0721489 0.125404 -1.54824 0.460753 -1.38442 0.898417 0.302785 -0.110521 0.748122 1.36043 0.0665443 -0.00717145 -0.884683 0.317833 -0.547365 0.120877 1.15673 0.0485096 0.715207 -1.38374 -0.0336952 -0.202441
297 -1.0799 1.30162 0.242178 1.05727 -0.891981 -0.276904 0.263787 1.01007 0.304922 -0.607098 0.0582561 0.472463 -0.00205567 -0.367968 0.0491679 -0.558404 -1.80052 1.93893 0.191508 0.374328 1.98732 -1.28329 0.564731 0.250125
754 -1.0703 1.30158 0.212145 1.01332 -0.813183 -0.249465 0.244472 0.903456 0.332203 -0.566258 0.0557121 0.501476 -0.0652839 -0.29841 0.0314712 -0.516088 -1.74749 1.87788 0.191722 0.326282 1.83202 -1.19245 0.491325 0.266321
1435 -1.08341 1.33653 0.246894 1.04133 -0.896812 -0.248941 0.257847 0.970048 0.414572 -0.601566 0.0821944 0.528877 0.0212055 -0.332604 0.042989 -0.536838 -1.82417 1.94987 0.187853 0.378979 1.9266 -1.28441 0.501638 0.278942
218 -0.115003 -0.314009 -0.898836 -0.675499 -0.499601 -0.899761 -0.122632 0.079274 0.948017 0.0855788 0.0237879 1.98794 0.662113 0.61563 -0.289455 0.457095 -0.56073 0.878607 0.389158 -0.637858 1.6975 -1.04472 -0.274982 -0.523768
1903 -0.146574 -0.362503 -0.988182 -0.786584 -0.492549 -0.823014 -0.274474 0.0936993 0.934425 0.416498 0.0837596 2.00217 0.740344 0.73279 -0.38071 0.713044 -0.728402 0.67835 0.484799 -0.843801 1.54943 -1.0292 -0.303842 -0.195686
580 -0.0559467 -0.453653 -1.04279 -0.798729 -0.594212 -1.12204 -0.13161 0.083497 1.15698 0.202924 0.0189843 2.35254 0.785669 0.74309 -0.344497 0.585149 -0.773028 1.07705 0.411457 -0.812712 2.14999 -1.27142 -0.320623 -0.543889
5076 -0.107382 -0.499635 -0.999491 -0.759191 -0.575332 -1.09207 -0.169501 0.129219 1.05609 0.200413 0.0122248 2.15239 0.754773 0.680233 -0.295718 0.620221 -0.797222 0.854356 0.369059 -0.909277 2.07368 -1.25233 -0.314196 -0.499004
3415 -0.0760501 -0.558334 -1.09135 -0.82162 -0.512542 -1.02421 -0.315797 0.158993 1.03876 0.486201 0.126813 2.20185 0.836473 0.766865 -0.376887 0.861443 -0.861926 0.681346 0.463923 -1.04355 2.00827 -1.15788 -0.421024 -0.380471
3389 -0.170245 -0.171736 -0.897824 -0.705073 -0.555421 -0.854126 -0.0758154 0.0715491 0.989992 0.0523595 0.00206277 1.96833 0.577458 0.529398 -0.344999 0.30861 -0.526804 1.02585 0.357299 -0.481411 1.65298 -1.07887 -0.198556 -0.582673
5381 -1.15516 -0.892384 -0.172332 0.918173 -1.82921 0.0013406 0.169664 0.4482 0.548616 0.227879 0.998273 1.13782 0.187002 -1.95808 -0.734208 -0.101563 -1.89081 0.64106 1.04736 0.35378 1.55002 -0.531495 0.22112 0.153673
3684 -1.10509 -0.912072 -0.254895 0.90981 -1.85165 0.0381433 0.200959 0.390491 0.526091 0.179307 0.988064 1.17058 0.175552 -1.96921 -0.686774 -0.038052 -1.8744 0.693195 1.06718 0.348529 1.52663 -0.536488 0.229774 0.147235
1037 0.213277 1.47882 -0.306563 -0.424681 -0.982409 0.406651 -0.274071 -0.480001 0.42069 0.394397 0.194656 1.45694 0.507965 -0.722354 -0.275019 -0.0504653 -0.619288 0.894719 2.26894 -0.141325 0.1508 -1.07933 0.015867 -1.04208
5025 -1.65284 1.09951 -0.468559 -0.692804 -0.011506 0.488394 -0.245073 0.103769 -0.581455 -0.43989 0.887198 1.15263 0.454293 -1.20447 -1.28638 0.557378 -2.13732 0.129102 0.290168 -0.291541 0.587815 -0.859874 -0.439814 -0.525837
996 -1.6645 1.07272 -0.445083 -0.732726 0.0761702 0.587052 -0.227947 0.0770969 -0.552437 -0.407591 0.905451 1.25128 0.49027 -1.21602 -1.34497 0.553559 -2.21947 0.0958754 0.316188 -0.262129 0.584069 -0.934095 -0.456562 -0.620198
