5636 24
889 -0.000397017 -0.00141948 0.00338399 0.0155379 -0.00955761 -0.00813528 0.00935005 0.00840594 0.0113385 0.00740675 0.00354268 -0.010335 0.0120352 -0.0100001 -0.00357747 0.00619319 -0.00878712 0.0177453 -0.0153814 -0.0147202 -0.0178116 0.0141263 0.00128831 0.00618944
790 0.0151107 0.0150223 0.0179181 0.00110755 0.00778157 0.00412156 -0.00827203 -0.0094669 0.00958174 0.00232321 0.00247758 0.0124919 -0.00575594 0.0163477 0.0207334 -0.00766835 0.0143097 0.017076 -0.0213316 -0.00126473 0.0023933 -0.00835963 0.0147673 -0.0186511
39 0.010099 -0.0114083 -0.0182813 0.0187866 -0.000763972 -0.0177058 -0.0162835 0.0148522 -0.00777628 -0.0162052 0.0176781 0.0238083 -0.011196 -0.00746688 -0.0170427 0.00624107 0.020342 0.0101797 0.0067948 0.0209787 0.0142545 0.0196549 -0.0151297 -0.0224766
5178 0.00720396 -0.0119521 0.00278333 0.00180165 0.00947032 -0.0121272 0.00876608 0.0197162 0.00134673 -0.021164 0.00529838 -0.00696607 -0.0147507 0.00969968 0.00501719 0.00368573 -0.0015763 -0.0148712 0.0119922 0.00310942 0.0156737 0.00543029 -0.00953858 0.00276757
3475 0.0198963 0.00215196 -0.00610877 0.00139618 -0.00537062 0.0197111 0.00783117 0.0138818 0.0162015 -0.0142218 0.0196996 0.00499244 0.0201406 0.00964018 0.0121988 -0.0119592 0.00174496 0.0201125 0.0118337 0.0113996 -0.0109564 0.0189254 -0.00840471 0.000913321
1320 0.00458373 -0.0138715 0.0174889 0.0173859 -0.00964155 0.0205531 0.0173931 0.0197173 0.0113073 -0.0110788 -0.0179439 -0.0170522 0.0165822 -0.0146681 0.00568044 0.0041994 -0.0150183 0.0117599 -0.00890589 -0.0198853 0.011228 0.00841331 0.00601901 0.00995882
5535 -0.00506795 0.0016668 -0.020971 0.0117018 -0.017812 -0.00717809 -0.00497934 -0.0100459 0.00228457 0.0102336 0.00625545 0.0196274 0.00258999 -0.00237438 -0.00506383 -0.018438 0.00762265 -0.010369 0.0115484 0.0159123 0.00389515 0.0049568 0.00678176 0.00517042
486 -0.00446986 0.0154902 -0.009981 -0.0158761 0.00838929 0.00752147 -0.0014482 -0.0021342 0.0193812 -0.000613554 0.00941021 -0.00456988 -4.19504e-05 0.0149363 0.0163392 0.00181244 0.0146219 0.0100438 0.0014386 -0.0122884 0.0182028 0.0207595 -0.0170024 0.0168458
1014 -0.0211885 -0.00426835 -0.0228752 -0.0150438 0.0155317 -0.015828 0.0144562 0.00150702 0.00787876 0.0085348 0.010379 -0.0180154 0.0165171 0.0211881 0.0207298 0.0206464 -0.018452 -0.0207936 0.00417762 0.00740293 -0.0101436 -0.00325957 -0.0118829 -0.00816184
3941 0.00381888 0.013591 -0.0170607 -0.0201765 0.00965765 0.0129719 0.016107 0.00641074 0.00756782 -0.0098044 0.00741894 0.0152723 -0.0168865 0.00584972 0.00833301 0.0210744 0.00432055 0.00865999 0.00948485 -0.00169884 0.0200159 -0.00567076 -0.00233485 -0.0131915
4607 0.00145573 0.0203447 -0.0190413 0.00895977 0.0117965 -0.0210915 0.0114307 -0.019435 -0.0176925 0.0107456 0.0129583 -0.00249271 0.0212935 -0.0153749 0.0216873 0.0213629 -0.00382445 0.0173416 0.00461395 -0.000788843 0.0161231 -0.019207 -0.00437547 -0.0127629
5364 0.015081 0.00767281 -0.00403391 0.013521 0.00540271 -0.0013944 -0.0108635 -0.00827694 -0.0180512 -0.0164034 0.0199463 0.0109521 0.00690338 0.0149208 0.0113152 0.0132913 -0.00771316 -0.0150427 0.0170663 -0.00189277 -0.00694778 -0.0174322 -0.00911761 0.018031
1431 0.00901938 0.00795148 -0.0178871 0.011558 -0.00468249 0.0108551 -0.0153762 0.0199569 0.00964291 0.00810792 -0.00321169 -0.00240886 -0.00697898 0.0197589 -0.0146959 0.00154114 -0.0100367 -0.00715664 -0.0136422 -0.00283279 0.00494837 0.00723784 0.0180998 0.00184068
1628 0.00811097 -0.0109892 -0.00307972 -0.0045117 -0.0187333 0.00665329 -0.0023991 0.00875207 -0.0112304 0.00415995 -0.0157372 0.00880737 -0.00382716 -0.00719939 0.0110507 0.00416624 -0.00846313 -0.00882228 -0.000145557 -0.0154637 0.00787567 -0.0144807 0.0074669 0.0144318
2100 -0.0143772 -0.00898707 -0.0165593 0.000383019 -0.0111842 0.0211027 0.0135721 0.0131719 0.00372937 0.00194469 0.016448 0.0162407 -0.0182235 -0.0113856 0.00335154 0.0175178 0.0112706 0.0178772 0.00631453 0.00501439 -0.0173198 -0.00578607 0.000488729 0.0107093
4482 -0.0103678 0.0209955 -0.0129389 -0.0192834 0.00300852 -0.000420453 -0.0187249 0.021344 -0.0127792 0.00238899 0.00651483 0.0201482 -0.0148504 -0.0164016 0.0118357 0.00650264 -0.0176877 0.02149 -0.00743741 -0.00850158 -0.00240107 -0.0040612 -0.00619514 -0.00981695
4735 0.0181718 -0.0127995 -0.0184747 0.0040769 0.00437482 0.00596755 0.00795474 0.000616194 0.00285578 -0.00588264 0.0157986 0.00141787 0.0208376 0.00495783 0.0175184 -0.00209107 0.00449509 -0.0175121 -0.0151607 0.0127319 -0.0142326 0.00462595 -0.00780405 0.00523298
403 0.00507013 0.0187985 0.00738899 0.00814394 0.0175888 -0.0171618 -0.0053144 0.0132476 -0.00151811 0.00290249 0.00121818 0.00330391 -0.00220134 -0.0131237 0.019726 0.013486 0.0224425 0.00920212 0.00788299 0.00215391 -0.00747549 -0.00998753 -0.0144599 0.0134461
3949 -0.0153093 0.00582726 -0.0175573 0.0070862 -0.0120717 -0.0212608 0.0222267 0.0149247 0.0197998 0.0123408 -0.0198628 -0.0120484 0.0164464 0.0116259 -0.0162295 0.0182934 0.0154007 0.00886279 -0.0164038 -0.0161257 -0.000928628 -0.0168923 0.0117149 0.00937889
4671 -0.0157899 0.0150239 0.0123305 0.000490051 -0.0112464 -0.0135589 -0.00615342 0.0130835 0.0167277 -0.00768294 -0.00565536 -0.00817032 -0.0070331 -0.0169966 -0.00987392 0.0186519 0.00530195 0.00879424 -0.00154185 0.0186235 -0.0178115 -0.0182417 0.00586914 0.0141654
5410 0.00513458 -0.0146197 0.0182116 -0.0210869 0.0125106 -0.00986261 0.010562 0.00136292 -0.00806443 -0.00465214 -0.00545653 -0.00169692 0.00754705 0.0181996 -0.00787702 0.0172911 -0.0154407 -0.00619665 0.01842 -0.017173 0.00993803 -0.0138168 -0.00311643 0.00404456
798 0.0196639 -0.00774856 0.00196658 -0.0123616 0.00744382 -0.00828091 0.0187783 0.0217441 0.00712362 -0.0189323 -0.000305357 0.00115823 0.0194364 0.00893359 0.0217422 -0.0195587 0.00437527 0.0150113 0.00827221 0.00870562 -0.000805364 0.0121763 -0.0162093 -0.00348419
2597 0.000841514 -0.0174678 -0.0167451 -0.0102759 -0.00471438 0.00638172 0.0160245 0.00368581 0.0202328 0.0189388 0.00241464 -0.00117069 0.00299362 0.013706 -0.00670336 -0.0105155 -0.00392476 0.0132363 -0.00660098 0.000366443 0.00937304 -0.014606 -0.00116485 0.0112318
3926 0.0133963 0.0123756 -0.0213554 0.0151206 -0.0207297 -0.00288739 0.0080957 0.00613076 0.010932 -0.00693394 0.0118718 -0.00240624 -0.00647091 0.0185073 -0.019902 0.00634839 0.0041897 -0.00269366 -0.00720397 -0.0122384 0.00331448 -0.00775835 -0.00814735 0.012674
5520 0.00443985 0.0198484 -0.0100286 -0.019182 -0.0208617 -0.0180861 -0.00881291 0.0140089 0.0150953 0.0160063 0.0147682 -0.000735512 -0.00771938 0.00796909 0.0063412 -0.0123476 -0.0174846 -0.0161406 0.00293413 0.00321409 0.0191271 -0.00440558 -0.0177487 0.0190985
4219 -0.0196837 -0.0176012 0.000746105 0.00581279 0.0171568 -0.00349322 -0.00194412 -0.00533894 0.0102498 -0.0112969 -0.0203499 0.00731772 0.0188181 -0.0109449 0.0015826 -0.0118847 0.0139263 -0.0197477 0.0121619 -0.0034729 -0.0124243 -0.00497795 -0.00698003 -0.0101697
633 -0.0192624 0.00810345 0.0131041 -0.00621284 -0.0089763 -0.00279319 0.0178206 0.0198056 0.0164672 0.0010749 -0.0100162 0.0106324 -0.00575263 0.00197164 0.00558867 0.0201472 -0.0180824 -0.000115979 -0.0214583 0.00518108 0.0166012 0.00733905 -0.00105942 -0.00768043
4769 0.0176141 -0.00579746 -0.0179717 0.0187408 0.0194962 -0.00120222 0.0205354 0.00570508 -0.0166117 -0.0149235 0.0169948 0.00409138 0.0045648 -0.00285038 0.00644536 0.0035892 -0.0089029 -0.017341 0.017056 0.00708663 0.014527 -0.00880839 -0.00494766 0.0129087
967 0.00222323 0.0124941 -0.0174381 -0.0156992 0.00593396 0.00034559 0.00485391 0.00847026 0.0131876 0.00931473 -0.00668165 -0.0162417 -0.00669894 0.00838928 -0.0136052 -0.0200036 0.0153025 0.0124597 0.00619674 -0.00593994 0.0197698 0.00538724 0.0194954 -0.0106419
2890 -0.015529 0.0148497 0.011672 -0.01558 0.00697242 -0.00232704 -0.0187551 0.0119931 -0.0197491 0.00543087 0.0174481 0.00730311 0.00456217 0.00683804 0.0121036 -0.00678085 0.0221832 -0.00822704 0.00388009 -0.000396069 0.00154639 0.0173224 -0.0136075 -0.0211888
5590 0.015321 0.00833855 -0.00710597 0.0200807 0.00671096 -0.0143583 -0.015733 0.0217039 0.0180221 -0.0221085 -0.0145275 0.00990239 -0.0144295 -0.00359852 0.0114573 -0.0106388 0.0208257 0.0110767 0.0128954 -0.00973556 0.0188715 -0.0107357 -0.00438285 -0.00415987
4538 -0.00903997 -0.0171679 -0.00991802 0.0065726 0.0036952 -0.019054 -0.00275177 0.00278571 -0.00422189 -0.00405923 -0.00159004 0.0194672 0.0178861 0.0117339 0.0212153 0.0157629 0.00468234 0.0194447 0.0146328 0.012011 -0.0188205 0.00450493 0.00398509 -0.00337344
679 -0.000639842 -0.00593731 -0.00248524 -0.00187865 -0.0051558 0.00934833 -0.00924518 -0.0187038 0.0204347 -0.00256168 0.0123018 -0.0196009 -0.0149113 0.00634126 0.000388273 -0.00957627 -0.00181837 0.0213717 0.000721487 -0.00393102 -0.0205699 0.00150732 0.0171996 -0.00508213
5003 0.0150798 0.0162449 0.0092942 0.0137691 -0.0028728 -0.00794897 -0.0182807 -0.0145789 0.0166051 -0.0157268 0.00296078 -0.0178546 -0.015083 0.0175563 0.0208118 -0.00940142 0.0168135 -0.00217521 0.00592192 -0.0137479 -0.00709648 0.00359885 0.00982711 -0.00608483
2754 -0.0155039 0.00447856 -0.0155608 0.0180267 0.0013336 0.0045715 -0.00650625 -0.0136759 0.0207118 0.00182543 -0.0203538 -0.00487906 0.00279296 0.0085033 -0.000481001 0.00903383 -0.00148702 0.0108778 0.00493348 0.0177876 -0.0169585 0.0211149 -0.00935422 -0.00751863
2081 -0.0085621 -0.00609808 -0.0118611 -0.00195942 -0.016956 0.00564555 -0.012489 0.00199844 0.00916675 -0.00187431 0.0150674 0.0208505 0.0056993 0.00370739 -0.00612836 -0.00510371 0.00467698 0.00230882 -0.00665084 0.0023977 -0.0139544 -0.0199382 0.0069892 -0.00625126
1139 -0.000999552 0.00956505 -0.0156626 -0.0160228 -0.0105618 -0.0072918 0.0189791 -0.0137346 -0.014976 -0.00698627 -0.00292544 0.00899225 0.0212428 0.00476563 0.0132247 -0.0165076 -0.0177396 0.0110812 0.0197967 0.0156156 0.0196487 -0.00555003 -0.00883707 -0.022349
2903 0.00701225 0.0030958 -0.0207384 -0.0166006 0.0212058 0.0109959 -0.00980742 -0.00403718 -0.00362014 0.00560046 0.00746794 -0.0135278 0.0151565 0.0251095 0.00563559 -0.0158839 0.00995843 0.0168707 -0.0176476 0.019614 -0.0178545 -0.00887807 -0.0152882 -0.00983558
1906 0.0166803 0.00955649 -0.018954 0.0147515 0.0211652 0.0047866 -0.0107184 -0.0136955 0.00671153 -0.0114384 -0.0101135 0.000920326 0.020733 -0.0162025 0.015576 0.00308989 -0.000198185 -0.00373978 0.00579689 -0.00854749 0.0166551 -0.0146881 -0.0178966 -0.0135167
3630 -0.0192737 0.0204971 -0.01397 -0.00799713 -0.018576 -0.0086941 0.0192906 -0.00369626 0.0197032 -0.00520427 0.00929257 0.00773131 0.00503931 0.0151734 -0.016632 0.0041239 -0.0126486 -0.0182838 -0.0113893 0.0080173 0.00965418 -0.0101788 -0.0186717 -0.00838845
2884 0.00521961 -0.0164438 -0.00845739 0.0132793 -0.0150048 0.0203716 -0.0134663 0.0217788 -0.0161904 -0.0211904 0.0165318 -0.00276124 -0.0142169 0.0164113 -0.0185128 0.00771704 -0.00893052 -0.0118736 -0.000586151 0.00123979 -0.0063682 -0.00983151 -0.00619322 -0.00658615
374 -0.0128738 0.00528675 -0.0111827 -0.0136523 -0.00108421 -0.00229704 0.0206097 0.0157015 0.0171608 0.00153839 0.00466762 0.012697 0.00148822 -0.0178759 -0.0192011 -0.0149368 -0.00692144 -0.0197695 -0.00442852 0.0133343 0.012918 -0.00367733 -0.00356383 -0.00840231
1620 -0.0142909 0.000430182 -0.0175769 0.0202513 -0.0132339 -0.0151705 -0.020044 -0.0142893 -0.014561 -0.0117818 0.00415132 0.011001 -0.000796559 -0.0126278 -0.0120489 -0.0211765 0.0111203 0.0185088 -0.00491665 0.0173985 0.00796037 0.0135928 -0.0110606 -0.0151956
4589 0.0132902 0.0139161 -0.00466918 0.0167119 -0.0165551 -0.00591726 -0.0143564 0.00955351 -0.0131695 0.0139679 0.0138963 0.0151362 -0.000170889 0.0230331 -0.00511629 0.0150244 0.0021541 -0.00705192 0.0173838 -0.0103337 0.0192308 -0.00889235 -0.0022669 -0.0107635
2308 0.0112494 0.019282 0.00884071 -0.00350739 0.0175615 0.0148046 0.00377494 0.00980377 0.0142494 -0.0116 0.0206627 0.00452207 -0.0121294 0.00486194 0.014884 -0.0119557 0.00296362 0.0104993 -0.011073 0.0195728 -0.00258985 -0.0201149 0.0161703 -0.0114913
5033 0.00800945 -3.0281e-05 0.00973003 -0.0178682 -0.00556687 0.0123811 -0.012355 -0.00096204 -0.00484652 -0.012152 0.00198086 -0.0137037 0.0130261 -0.00829356 -0.012334 -0.00731769 -0.00843447 0.00173783 -0.0107243 -0.00104429 0.0191605 -0.0186487 -0.00411029 -0.0152058
4672 0.0131889 -0.00292964 -0.00620891 -0.00786839 0.0177524 -0.0204461 0.0123949 -0.00146003 -0.00731534 -0.0132396 0.0101757 -0.0168948 -0.0102967 0.00181381 0.0211588 0.0120774 0.0123153 -7.52338e-05 -0.0222804 0.020331 -0.0103705 -0.00901544 0.0172926 0.0133627
3358 -0.00742304 0.0108455 -0.00293359 0.0205555 0.0109064 -0.020879 -0.0174145 0.0140517 -0.0112362 0.0184442 -0.0195637 0.0148116 -0.00566428 0.00628552 0.00359034 -0.000156512 6.37821e-06 -0.00755874 0.0181919 -0.011961 -0.00996212 -0.0194519 -0.00235609 0.0178602
4633 0.00406605 0.0225074 -0.0211073 -0.00111011 -0.00685739 -0.00301371 0.000296335 0.0223918 -0.0205932 0.000882905 0.0177118 0.00346201 -0.00775622 0.00160689 -0.0165481 0.00601009 -0.0109184 0.017564 -0.0100068 0.00143419 -0.0115679 0.00781517 -0.00782009 -0.0022978
1265 0.0181723 0.00831582 0.00217271 0.00266205 -0.0021092 -0.0161853 -0.0179339 0.00502607 0.0196808 -0.0179639 0.0134102 0.0201225 0.0180421 -0.0167429 -0.0149034 -0.0116851 0.0170831 0.00744389 -0.00921592 0.0017082 0.00678677 0.0158773 0.00137314 -0.0156435
481 0.00938112 0.0206643 0.010733 0.00362175 0.00249165 -0.0105739 0.0135849 -0.00511661 0.0140292 -0.00425815 0.010478 0.0146863 0.00911148 -0.0130104 0.0101864 0.0152573 -0.00942179 -0.0102627 0.0105141 -0.00381636 -0.0103969 -0.00129157 0.0177648 0.00809173
4569 -0.0177025 -0.00581937 0.00528267 0.00792693 -0.0118615 0.0110148 -0.0103202 -0.00731802 -0.00892947 0.0016194 -0.0148855 0.00355675 0.0133769 0.00209777 -0.00648764 0.0174433 0.0189517 -0.0132104 0.00797612 -0.0141411 -0.000558287 0.0200535 -0.000199903 0.000672091
4031 0.00902407 0.0123732 0.00569956 0.00356985 0.018064 -0.017092 -0.0151488 -0.0136797 0.00340545 -0.00742805 0.00798599 -0.00823738 -0.01883 -0.0107191 -0.00516456 0.0156958 0.00418315 -0.0108094 0.00946612 -0.0173647 0.018573 0.0198663 0.0175519 -0.000891681
5504 -0.0132089 -0.0146451 -0.0142914 -0.00804347 0.0182685 0.0169589 -0.0141653 -0.00782164 -0.0126708 -0.0114029 0.0140287 -0.00954572 -0.0106605 0.0140599 0.0114356 0.021684 0.00861557 -0.0106023 0.00517311 0.0183233 -0.00993173 -0.017196 0.00452738 0.0111145
1674 -0.0173293 -0.0114302 0.0153951 -0.00056339 -0.00730739 -6.10503e-06 0.00842607 -0.0160857 -0.00846815 -0.00303078 0.0180209 0.0160849 0.00689659 0.0130367 -0.011859 0.00331205 0.0102881 0.018663 -0.00957032 0.00607398 -0.0169858 0.00904005 -0.016208 0.00843988
3456 -0.015035 -0.00116627 0.0146604 0.0199422 0.0221021 0.00405548 0.01987 0.0154838 -0.00411192 0.000190526 0.000577581 0.00325382 0.00244923 0.0181332 0.00895615 -0.00433164 0.00713728 -0.0106902 0.0155334 -0.0164593 0.0196842 0.0181327 0.0131392 0.0123638
1965 0.00992141 0.00680671 -0.00778899 -0.00840623 -0.0145971 -0.00616459 0.000232921 -0.00714711 -0.00895618 0.00825965 0.0198194 0.0202871 0.000989386 0.0026191 -0.0151578 0.0137038 0.00218557 0.0132699 -0.000833188 0.0131943 -0.00582378 -0.00727787 -0.0150439 0.00548944
3481 -0.00934679 -0.00873427 0.0155015 -0.0155926 -0.0174399 0.0001617 0.00833073 -0.0109355 0.00674769 0.000835508 0.022702 -0.00140779 0.00744315 0.0153701 -0.00485017 -0.0126287 0.0219924 -0.00689317 -0.00431969 0.00461437 0.0103458 0.00420192 0.00552072 -0.0168761
4056 -0.00243394 -0.0200034 0.00840764 8.40824e-05 -0.00479058 -0.00400433 0.0209462 0.00766059 -0.0143097 0.0124629 0.0204773 0.0157147 -0.0190407 -0.00464814 0.0141892 0.0100272 0.0109637 0.022779 -0.00456343 -0.0138731 -0.0132365 0.00907402 -0.0198624 0.0185318
599 0.00574997 -0.00344143 -0.0131059 0.0208606 0.0169159 0.00785052 -0.00563493 0.00687241 0.00547319 -0.0031441 0.0196467 -0.0131159 -0.00738401 0.0234429 0.0019307 -0.0182235 0.0156656 0.0117503 0.00825791 -0.0197804 -0.0202566 -0.0202022 0.0114055 0.0152624
1156 0.00157224 0.0193263 0.00311951 0.00162527 -0.0183312 0.0159044 0.0223743 -0.0123241 0.0124923 0.0171372 0.0199161 0.00321735 -0.0126363 0.00517986 -0.00366036 -0.00841228 -0.00748194 -0.00546541 0.00494882 -0.00819445 -0.0182415 -0.00410797 -0.0113767 -0.0215433
955 0.0155135 -0.0153262 -0.0213057 0.0214347 -0.0175731 0.0222026 0.00405852 0.0180199 -0.00306323 0.01559 0.0145333 0.0197299 0.0181843 -0.000189269 0.00198895 -0.00153005 -0.0120267 0.0194034 0.0179825 0.0131938 -0.0210694 -0.012923 0.0160675 -0.0175815
4875 -0.00799567 0.0113276 0.00760107 0.0023741 -0.0115062 -0.00895786 0.0202142 -0.00662687 0.0129572 -0.00141868 0.00361832 -0.00849474 0.021202 -0.00631718 0.00776454 0.0187739 0.00787993 0.00956432 -0.0221502 -0.0196234 -0.012386 -0.0107756 -0.00470039 0.0138691
3182 -0.012586 0.0100109 -0.00975987 0.00876565 0.0200644 -0.00773813 -0.0162013 -0.0177015 0.00329344 -0.0101573 0.00411628 0.00360874 0.0184068 -0.00502072 -0.0066644 0.0182651 -0.0138402 0.0213523 -0.000626407 0.0118369 0.0159554 0.00546875 0.0124313 -0.00217799
1895 0.0194866 0.0117389 -0.00837352 0.00353202 0.003305 -0.00859017 0.016857 0.0138405 0.00393674 0.0190914 -0.00961655 -0.0184069 0.0168669 -0.0161643 -0.0157468 -0.0194163 0.0101548 0.017262 0.0123272 0.000236364 2.42551e-05 -0.00320092 -0.00690896 0.00639684
4645 0.00112931 0.00852621 0.0126982 0.0124488 -0.00395027 -0.0195669 0.0147829 0.0147615 0.0206615 0.00923201 0.00888808 -0.0110557 -0.000835157 0.0112467 0.018555 0.000108872 -0.00596374 -0.0166625 0.0134994 -0.00943472 0.00659187 0.00986555 -0.016036 -0.00879746
2105 0.00735361 0.012156 -0.0174926 -0.0185612 0.00756331 0.0188947 -0.00211731 0.0230877 0.0183102 -0.0141322 -0.00235029 -0.0013129 0.00216106 0.0150256 -0.00294895 -0.00529349 0.0189563 -0.00620967 0.00113425 -0.0112405 -0.00501065 -0.00820243 -0.00811702 -0.0180451
3313 -0.00172691 0.0184842 0.0158326 0.00914103 0.00352289 -0.0121086 0.00504909 0.00351878 -0.00685514 0.0141932 0.0193291 -0.00131743 0.0127357 -0.00394078 0.00532135 0.016049 -0.0057768 -0.00410705 0.00397079 -0.00537574 0.00988033 0.00639844 -0.00654279 -0.00440257
4368 -0.0216299 -0.00933803 0.0112663 0.00347606 0.0211242 0.00124029 -0.0162534 -0.0155701 0.0150169 0.015687 -0.0177889 0.0175812 -0.00777193 -0.000496711 -0.00286693 -0.00875195 0.0157942 -0.017827 0.0193891 0.0156293 -0.00147744 -0.0172241 0.00684066 0.0142508
2033 -0.0219273 0.0234443 -0.00277827 -0.0193837 -0.017522 0.0150865 -0.0181205 -0.00997521 -0.0208451 -0.0145223 -0.0121935 0.0164552 -0.018095 0.00396951 0.000507952 -0.0132388 0.0189267 0.0038743 -0.00833612 0.0110133 0.00256601 0.000236085 -0.000877248 0.0177239
91 0.0100084 0.0125917 -0.00132345 -0.0149161 -0.0137575 -0.00526448 -0.0169145 0.00196901 -0.00806249 0.00283115 -0.0022848 -0.00778094 0.0199439 0.0169768 0.0200778 -0.012411 0.00191621 -0.00990787 -0.0203752 -0.010459 -0.0114593 -0.0138246 -0.00397092 0.00195105
5253 -0.0172542 0.00131561 -0.00662306 -0.00378796 -0.00983303 -0.0204821 -0.0178949 -0.00566138 3.14006e-05 0.00892158 -0.00706285 0.0131329 0.0162176 0.0211045 -0.00695092 -0.0159604 -0.00507227 -0.0191686 -0.0204395 -0.00107596 0.0168335 0.0153858 -0.010476 0.0116669
2238 0.00942404 0.0181275 0.00754733 0.00427428 -0.00942536 -0.0100584 -0.0195846 0.00995929 0.00233453 0.00368792 0.00439919 0.00905637 -0.0128919 -0.0182078 -0.0129302 -0.0155548 -0.00966333 0.012598 -0.0174738 -0.00349441 0.00132157 0.0112032 -0.0173669 -0.015815
1390 -0.00066319 0.00636698 -0.000840692 -0.0200269 0.0107958 -0.00093121 0.0224921 0.00721834 -0.00424269 -0.00733293 -0.00183747 0.009626 0.0113192 -0.00385764 0.0155362 -0.0189165 0.00519503 0.0180927 0.00409352 0.00550925 -0.000158543 0.00356466 0.0178529 -0.0056825
5147 -0.0129429 -0.0024928 -0.0195632 0.00702478 -0.00749404 -0.0213512 0.00157589 0.012077 0.0151522 0.00436179 -0.000190959 -0.0135694 0.0155623 -0.0155538 -0.0155716 0.00783556 0.00920704 -0.0202972 0.00599031 -0.0115407 0.0197857 0.0219903 -0.0136815 -0.0115545
4652 0.00881372 0.00453554 -0.0108796 0.00358522 0.0195398 0.00975051 0.0175861 -0.00748483 -0.00594731 0.00673124 -0.0031871 -0.0178786 -0.0121461 -0.0137816 -0.00244231 -0.0153812 0.00328158 0.00492665 0.0148909 0.00485597 0.00149298 0.000480047 -0.00603346 0.000468677
3781 0.00114171 0.0235867 0.0121565 0.0141411 0.00620859 -0.00833174 0.0115042 -0.00680376 0.018709 -0.0187689 0.0154069 -0.0115734 -0.0121963 -0.016574 -0.0053482 0.0157937 0.0162081 0.00983057 -0.021519 0.0131866 -0.000575474 0.0143188 -0.0208444 -0.0140728
3498 0.0128175 -0.00576273 0.00290964 0.00588737 -0.00525939 -0.016248 0.0190069 -0.0157107 0.0136732 0.00290147 0.0116513 0.02127 0.00638303 0.00723629 -0.013965 -0.00359522 0.00412862 -0.0017783 0.00187654 0.0145527 -0.00500622 -0.00482733 0.00161363 -0.0180337
605 -0.019126 0.0156073 -0.00866964 -0.0191708 0.0227021 0.00815514 0.0170428 -0.0170264 -0.0137597 0.0120842 0.00319866 0.0109057 0.0136672 0.00452156 0.00606548 -0.0124269 -0.0133252 -0.0175426 0.0113297 -0.00937225 -0.000631154 -0.0178805 -0.0170741 -0.020423
1264 -0.00294278 -0.0168291 -0.0104637 0.0212121 -0.00774758 -0.00944596 0.00699716 0.0142123 0.00480603 -0.0080348 0.00128902 0.0218396 0.00126097 0.00836627 -0.000380703 -0.0151214 -0.00333968 0.0151135 -0.0148532 -0.0183799 -0.00053422 -0.0091021 -0.0172368 -0.00249269
3722 -0.00785346 -0.0170084 0.00574652 -0.0188521 0.0173287 0.00526451 -0.00126591 -0.00754878 -0.0124662 0.00504833 -0.00933603 -0.0156699 0.00941731 0.0115493 -0.0202806 0.0193374 0.0108298 -0.0130254 -0.0109267 -0.00298977 -0.000686535 -0.0100681 0.0070364 -0.0133561
4354 0.017655 0.00567738 0.0134377 0.00915408 0.0206876 -0.00920379 -0.00503028 0.00602366 0.00283327 0.0132806 0.0209524 -0.0135411 0.0220983 0.0137679 -0.0189271 -0.00360128 0.0183825 -0.00166917 -0.00685712 -0.00809716 7.29602e-05 0.00252029 -0.0196477 0.0172095
3646 -0.00472298 0.0161322 -0.00624367 0.0149471 -0.0151703 -0.0202369 0.0188588 0.0159167 -0.0204279 0.00751688 -0.0127153 -0.0113114 0.0184744 0.0234918 4.19846e-05 0.0130025 -0.00177591 -0.0106169 -0.00497436 -0.00366497 0.00569872 0.0100041 0.00237299 -0.00284998
4597 -0.00389496 0.00824318 0.0106775 -0.0115356 -0.015954 -0.00775468 0.0209251 0.0168366 0.00537547 -0.0215431 -0.0110214 0.0131375 -0.00465673 0.0222089 -0.0165085 -0.0126444 -0.0174622 0.0117196 0.0136357 0.0159965 0.00238839 -0.0019654 0.0065942 0.0193514
3891 -0.00775111 0.00910417 -0.0160633 0.0137764 -0.0141782 0.00871571 -0.00555865 -0.00989633 -0.0178704 -0.00517097 -0.0166912 0.0220207 0.0131625 0.0080933 -0.00242839 0.0112311 0.00857228 -0.0141576 0.00520581 -0.01891 -0.00898655 -0.0180107 -0.0165128 -0.0187079
1540 0.0183694 0.0105046 -0.0131823 -0.0206014 0.0155754 0.0177795 -0.00771294 -0.00582965 0.0118298 0.00462905 -0.00784543 -0.0110329 -0.00995185 0.00711733 -0.0145385 -0.00390342 0.0124286 0.017995 0.00191821 -0.0107036 -0.0187845 -0.0162237 -0.00626526 0.00534441
4043 -0.0162908 0.00480437 -0.0216811 -0.0203988 0.00563872 0.0167691 0.00333592 -0.00434227 -0.00911793 0.013103 0.0217585 -0.00333408 -0.00180183 0.00193549 0.009872 0.0100894 -0.000974484 -0.0180361 -0.0033794 -0.000966566 0.0164409 0.0133731 -0.0178063 -0.0202562
180 0.0100639 0.0020019 0.000868215 -0.0151873 -0.0116374 0.0195053 0.00432894 0.022351 -0.000369401 0.0134329 -0.000567641 0.017071 -0.000874355 0.0153184 0.00954053 0.0148517 0.000802739 0.0106499 0.0149335 -0.00470531 0.00906112 -0.0144903 0.0157155 -0.00350391
4341 0.0158518 0.0104525 0.00965663 -0.0151584 0.00418666 0.0119064 0.0157498 -0.0113878 -0.0123155 -0.0201688 -0.0147045 0.00160253 0.0142336 0.00960794 -0.00706776 -0.00900894 -0.00681429 0.0120921 -0.00520484 0.00105138 -0.00856454 -0.00274432 0.00606861 -0.0123625
3250 -0.0117469 -0.0176046 0.0198528 0.0178967 0.0176758 0.0184914 0.0184208 0.00114186 -0.0208693 -0.0180294 -0.0158543 -0.0197011 0.0218976 0.022274 0.0172555 -0.0112609 0.0219603 -0.0212105 -0.0196559 -0.000804842 -0.0142271 -0.004738 0.0156472 0.00408862
4068 0.0068512 -0.00805944 0.0156072 0.0186229 0.0110386 -0.0196151 0.0152436 -0.010434 -0.0119803 -0.000373616 -0.00661784 0.0154766 0.0179874 0.0205741 0.0147745 -0.017695 0.0214296 0.00309313 -9.24874e-05 -0.00612172 -0.00461126 0.0164866 0.0116912 -0.0197893
2248 -0.00995253 0.00433389 -0.0178631 -0.00429575 -0.0132945 -0.0177472 0.0109749 -0.00853558 0.0046957 -0.00751774 0.013519 0.0032622 0.00429035 0.00114134 0.000743246 0.00420568 0.00223344 -0.0135618 -0.0198133 0.0136676 0.00144871 0.0195756 0.0160867 -0.00900917
3312 0.0170107 0.0014824 0.00571952 0.00932595 -0.0107337 -0.0153436 0.00869435 -0.00582759 0.00351224 -0.0182419 0.0178043 0.00725856 0.00791619 0.0206967 0.00119674 0.0115093 -0.011358 0.0125035 0.0111149 0.000390823 -0.00463128 0.00592438 0.0102466 0.00117504
1339 0.0040578 0.0206167 -0.0124345 -0.00975382 0.00854605 0.0168315 0.0145277 -0.00719282 -0.0190584 -0.00201625 -0.0153429 0.0135109 0.00965787 -0.000504421 0.00374272 0.00869788 0.0113652 0.0116801 -0.00684503 -0.0186739 0.0176795 -0.0102626 -0.00269932 -0.0195177
4249 -0.00371583 -0.012752 0.0177828 0.0086492 0.0197189 -0.010243 0.0128643 0.0173176 0.00927645 -0.0116042 -0.00511988 0.0185239 0.0222657 0.017819 -0.0148349 -0.00752838 0.000108685 0.00640985 -0.00498342 -0.00450362 0.0080707 0.00323614 0.004915 0.00754785
5406 -0.00121224 -0.01086 0.0189209 -0.0125844 0.00892517 -0.0101899 0.00505653 0.00379035 -0.010771 0.0108953 -0.00844065 -0.0139933 0.021917 -0.00697684 0.0139577 0.014268 0.00512456 0.0134636 0.00667815 -0.0163004 0.0157842 -0.00426673 -0.00499333 0.00744125
211 0.00322458 -0.0121533 0.0123167 -0.0138903 0.0109874 0.00379042 -0.01266 0.00103775 -0.0193037 0.00192114 -0.0164681 0.00682567 0.00691084 0.0013959 0.0019071 -0.00667429 0.0168634 0.000163718 -0.00135105 -0.00444952 0.00728583 0.0117941 0.0192867 0.0126592
62 -0.00809752 0.000677237 -0.0173646 0.00560081 -0.00958285 -0.0181239 0.00145432 -0.0113164 -0.00770837 0.00433282 -0.00999701 -0.0169725 -0.0148215 0.00728503 -0.000378798 -0.020454 -0.0150582 0.0117431 -0.0163615 -0.0123315 -0.0215122 0.000747472 0.0146427 0.019873
4291 -0.0144757 0.0171614 -0.00259295 0.00672684 0.0141878 -0.00605288 0.0175349 -0.0172005 0.0151815 0.0172329 0.0200361 0.0193033 0.0109675 -0.00364346 0.0165917 0.0102909 0.0101726 0.00778722 -0.0135652 0.00678351 0.0167973 -0.00628514 0.0202897 0.01755
2537 -0.0125805 0.0212634 -0.0118982 0.0131977 -0.00879008 0.00135545 -0.00365874 0.00289738 -0.000671612 -0.00919732 -0.0082837 0.0142836 -0.00230375 -0.0136776 0.017594 -0.0034445 -0.00771618 -0.0189436 0.0184141 0.00347696 0.010563 0.0144172 0.0193188 -0.00314289
3217 0.00462663 -0.00896126 0.00245439 0.00879043 -0.0110043 -0.0131293 -0.0190184 -0.0052234 -0.0161918 0.0137402 0.0189281 -0.00299987 0.0215615 0.0242354 -0.00708206 0.00140304 0.00858977 -0.0202614 0.00186145 -0.0114012 0.0140098 0.0207157 0.0193049 0.00485579
4686 -0.0193721 -0.01598 -0.012531 -0.0119232 0.0147986 0.00720497 0.00726133 -0.0137853 0.0052179 0.00106874 0.0135178 -0.00196488 0.0127012 0.018455 -0.0152094 -0.00435783 -0.00881776 -0.000988942 0.00378579 -0.00521686 0.0127761 -0.000239369 0.00946534 0.00428346
71 0.00685429 0.0082433 -0.013975 -0.0130438 -0.00232964 0.00774225 -0.0204757 0.008133 -0.00452881 0.00461701 -0.0139121 0.014198 0.0130055 0.0174832 0.0113717 -0.00137445 -0.00904818 -0.0101457 -0.0109895 0.0117445 0.00237106 0.0212042 -0.0108063 -0.0174957
4469 -0.00305103 0.0101096 -0.023717 0.0153847 -0.005988 0.0201942 -0.0171298 0.00892787 0.0182607 0.0194711 -0.00873453 0.00639411 -0.000542719 0.0029473 0.0194321 -0.0138532 -0.0128425 0.00742298 -0.00214969 -0.00385338 0.000685124 0.00750502 -0.000164561 -0.0236909
4978 0.00595607 0.0110853 0.00262394 0.00851263 -0.00259366 0.000712528 0.0190878 -0.00188583 0.00349598 0.0133348 -0.0143137 0.0144305 -0.0113147 0.00305763 0.00989072 -0.0104689 0.0179039 -0.0193813 -0.0223921 -0.0178944 -0.0119652 -0.0214406 0.0180662 0.00877601
345 0.00324501 0.00187154 0.0103196 0.000348112 0.0135517 0.00576468 -0.00341605 -0.0176369 -0.0122075 0.00978218 -0.0209041 0.00213228 -0.00580515 -0.00688192 0.0207759 0.00317494 0.0218862 0.00129438 -0.0209528 -0.00148967 0.00786222 -0.00884397 -0.0167376 0.0166382
5580 0.0141387 0.0224323 0.00453047 -0.00171114 -0.00369881 -0.0107001 -0.011551 0.0161493 -0.00698527 0.0096413 0.0181474 0.00913628 -0.00974672 0.0144128 0.0115268 0.00977691 0.0149233 -0.0126692 -0.000233858 0.0166554 0.00487191 0.00388343 -0.00456576 0.0148164
2934 -0.00827652 0.00211176 0.00731318 -0.0167928 -0.0147952 -0.00674224 -0.0208828 -0.00466299 0.00415147 -0.0101908 -0.00829317 -0.0158828 0.000394372 -0.000732784 -0.000503759 0.0119668 -0.00432145 0.0064527 -0.00715792 0.0143902 0.021684 -0.00335014 0.00213932 -0.0215821
131 -0.0113612 0.0124414 -0.00199751 -0.00171494 -0.0121663 0.00601898 -0.0205582 -0.00241549 -0.00239198 -0.0148548 -0.0175731 -0.0106937 0.022143 0.000537055 -0.00934276 -0.0158967 0.0118816 0.0144703 -0.0196183 0.00658581 0.00292259 -0.0133374 0.00159593 -0.0114929
2104 0.0194373 -0.00563074 0.0129666 0.0138913 -0.0133537 0.0177184 -0.0160821 -0.0139008 -0.00657847 0.0181788 0.0035376 -0.0163895 -0.0198349 -0.00167255 -0.0135676 -0.00354035 0.00373025 0.0170073 -0.0114444 0.00828476 -0.0169238 -0.0200285 -0.01091 -0.00640923
4602 -0.0025398 0.0217664 0.0162636 0.00406882 -0.00690541 -0.00233195 -0.012041 0.0123797 0.0123321 -0.0113207 -0.00696215 -0.0153388 -0.0182405 -0.0135857 0.0215484 0.0160569 0.00152367 0.0186966 -0.0209229 0.0129365 0.0110832 -0.0205166 5.29584e-05 -0.0026095
2260 -0.0166596 0.0140667 -0.021814 0.0169633 0.017312 0.0130394 0.0120548 -0.0152593 0.00564335 -0.0104691 -0.00154885 -0.00434133 0.00900691 0.0145106 -0.00954147 -0.00751595 -0.00399672 0.007231 0.00493328 0.0066284 0.00893208 0.000171199 0.0152781 0.00322992
2975 -0.011469 -0.00409374 -0.0127944 0.0148971 0.0169926 0.00914154 -0.00217423 0.0118986 -0.00152207 0.00287077 -0.0185479 0.0201033 -0.00101264 0.0225036 -0.0181024 0.000661925 -0.00365417 -0.0173756 -0.0154184 -0.00331249 -0.00795432 -0.0143071 0.0103552 -0.0148842
75 0.00618302 -0.0115611 0.0147324 -0.00474862 0.00609686 -0.00403024 -0.00579436 0.0109524 0.00498619 0.0157962 -0.0144612 -0.00530359 0.0204143 -0.0159102 0.0189249 -0.0185278 0.000814053 0.0189755 -0.00485055 -0.0117225 -0.00334617 -0.0120973 -0.0131756 0.0167601
4168 -0.00830386 -0.0173747 0.00238909 -0.0130248 -0.0176835 0.00434686 0.00253729 0.0125395 0.00274504 -0.016741 -0.0125035 0.00177825 0.0124476 -0.0116626 0.00941457 -0.00124311 0.0165286 0.0129422 0.00660562 -0.0172271 0.00812181 0.00229323 0.0202821 -0.00642918
1459 -0.0226317 -0.0157528 0.00648257 -0.00580655 0.0170175 -0.00691636 0.0138433 -0.014424 -0.0164355 -0.0109684 -0.00140128 -0.00781984 -0.0158055 0.0061593 0.00358523 0.015861 0.000451148 -0.0117604 0.00636893 -0.0121389 -0.00721671 0.00409444 0.00390546 -0.0163224
4054 -0.0123411 0.00356575 0.0124565 0.00165578 0.0195038 0.00545114 -0.00979379 -0.00590736 0.0182083 -0.00220613 -0.00094026 0.00253817 0.00483432 -0.0122387 0.00687689 0.0013848 -0.0176686 -0.00863629 -0.00454587 0.0149823 -0.0152652 0.015107 0.0166676 -0.0177332
4556 0.0159335 -0.000684326 0.010599 0.0188433 -0.00718419 0.0148245 0.0101439 -0.0136026 0.0055105 -0.00335714 0.0190211 0.0089395 0.011221 -0.00994084 0.0192802 0.000265035 0.00146578 0.0147679 0.0176608 -0.00560822 -0.0130293 0.0204897 0.020838 0.0126843
4756 -0.00731996 0.0209347 0.00385053 0.0106605 -0.0144813 0.0112656 -0.00353394 0.0226062 -0.0185361 -0.0128588 0.0024395 -0.00127357 -0.017888 -0.00422926 0.00127352 -0.0141082 -0.0156095 -0.0185018 0.0168176 -0.0124788 -0.00216356 -0.0152929 -0.0146467 0.0112033
1333 0.0104024 -0.00296941 -0.020848 -0.00555643 0.0145657 0.00249071 0.0151961 -0.0185579 0.019373 -0.0074494 -0.00458334 0.0194546 0.0215054 0.0158539 -0.00479937 -0.00227553 -0.00778673 -0.0144564 0.0195584 0.0151092 0.00109424 0.0113009 0.00342256 0.0171953
1292 0.016956 0.000776201 -0.00976555 -0.0199068 0.0141597 -0.0107792 -0.0173785 0.012597 0.0194409 0.00452502 -0.0113284 0.0213779 -0.00416903 -0.00727586 0.0207581 0.00979066 -0.0134443 0.00680307 0.017982 0.021308 -0.0126537 0.00867235 -0.0184892 -0.0148954
1679 -0.022018 0.0194982 -0.00935873 -0.0169196 -0.0131283 0.0119612 -0.0114362 -0.0109587 -0.00742344 -0.0212483 0.0147322 0.0218019 0.0167464 0.00056757 0.0077761 -0.0113125 -0.00488663 -0.00408692 0.0065657 0.011954 0.0111379 -0.00802775 -0.0169957 0.00711242
2885 0.0122607 0.0108999 -0.00944206 0.0161465 -0.0136531 -0.0008443 0.000412322 0.021956 -0.0208869 -0.00987976 -0.014623 0.00522462 -0.00918681 -0.0167964 0.0213139 -0.0103923 0.00221391 0.00477791 0.0162675 -0.00500258 0.0130281 -0.0132988 0.0206543 -0.0151241
5553 -0.014084 0.00683771 -0.00676699 0.0111661 -0.0163344 0.00953137 -0.0126997 -0.0104486 0.0117175 -0.00307259 -0.0106655 -0.00575634 0.0121941 -0.0101234 -0.000971901 0.0176497 0.0206979 -0.0180087 0.0114189 0.00534746 -0.0196581 -0.00576707 -0.0161395 0.00977158
4082 -0.0114177 0.0188815 0.0112143 0.0121293 -0.00151992 -0.00782305 0.000956495 0.00133062 -0.0123929 0.00102582 -0.0182347 0.0141457 0.000339444 0.0189709 0.0142093 -0.0190359 0.00580577 -0.00725809 0.0154045 -0.019972 0.0170505 0.00688233 -0.00152898 0.0190222
5228 -0.0166444 -0.00250317 -0.0201697 -0.0200983 -0.0117867 -0.0205987 0.0121035 0.0172655 0.0162732 -0.00239931 0.0130623 0.00814919 -0.00345985 0.0163077 0.014724 0.00109953 0.0106812 0.0144618 -0.0149515 -0.00872548 0.0145226 0.0119564 -0.0191668 0.00244885
4552 0.00479697 -0.00287079 -0.0176254 0.0100086 -0.0102053 -2.73812e-05 0.0152588 -0.0170125 0.0152364 -0.006715 0.0152969 0.0096319 0.0101149 0.00315427 0.0114246 0.00177071 -0.0102992 0.0093825 -0.00296317 0.0194788 -0.0204523 0.00448859 0.00912759 0.0102404
4673 -0.00998587 0.0137366 0.016381 -0.000186814 -0.00438498 0.00944043 -0.0111595 -3.79812e-05 -0.00842533 -0.0124681 -0.00991023 0.00235144 -0.012481 0.00835361 0.0191152 0.0208025 -0.0123922 -0.0023528 0.00347628 -0.00910864 0.00749202 -0.0144731 0.01839 0.0177605
2281 0.00316329 0.00617495 -0.000480105 0.00881085 -0.0143709 0.0165336 0.0192049 -0.00157786 0.0186082 -0.0221389 0.0188256 0.00962768 -0.00634478 -0.0139906 -0.0175621 0.0174579 0.00733184 0.0220493 -0.00656182 0.0124459 -0.00126308 0.0123811 -0.00116687 -0.00661086
4619 0.00699849 -0.0191486 -0.0129932 0.00206953 0.010236 0.0209406 0.0131335 -0.0119272 0.0100297 -0.0174536 -0.0188574 0.00602195 -0.0206792 0.000563997 0.0186291 0.0116925 -0.017762 0.0226056 -0.00679096 0.0130761 0.0176356 -0.0198476 -0.0171608 0.00794447
3676 -0.00106464 -0.0035079 -0.0150449 0.0139471 0.0170851 -0.00154294 -0.0150781 0.00667533 0.0119526 0.0107129 0.00928361 -0.00951681 -0.0024248 0.00410214 -0.0171866 -0.00971361 0.002287 0.0119353 -0.0201162 0.016424 -0.0174797 -0.0142739 0.00325937 0.0107362
4666 -0.0169837 0.0193759 -0.000131066 -0.0148061 0.0103927 -0.00674757 0.0013942 0.0228473 -0.0144812 -0.0119337 0.00583273 0.00118174 0.0109659 0.00915367 0.0215783 0.0177056 -0.00902029 0.00684108 0.0114435 0.0137131 -0.0047435 0.0153181 0.00258798 0.00584369
3791 -0.0173379 0.0192222 0.0182916 -0.00311969 0.0201276 0.021477 0.0185923 -0.0122223 -0.0122613 0.0178898 -0.00583135 -0.0105454 0.0189816 0.0198001 0.0200492 0.0025328 0.0195011 0.00211103 0.011442 -0.00953869 0.018607 0.0206931 -0.00516215 0.013951
787 0.0130554 0.000843446 -0.0052886 0.000546581 0.00442868 0.0195839 0.016702 -0.00260411 0.00999028 -0.000842261 0.000979756 0.0143447 0.00285548 -0.00543026 -0.015633 -0.0126597 0.0221152 0.00202471 -0.0199026 0.00580736 0.0121296 -0.0105465 0.0102763 0.0152036
4920 -0.0210522 -0.00580109 -0.0198813 0.0204748 0.00989402 0.0185348 0.00226494 -0.0126527 -0.0156415 0.0172749 -0.00764385 -0.0110483 0.0154169 0.0197307 -0.00821829 0.0194212 0.0206005 -0.0104231 -0.00429139 -0.0185406 -0.0132133 -0.0112588 -0.00927394 0.0149959
840 0.0015278 0.00836002 0.00910193 -0.00190951 0.021962 0.000279017 -0.0100565 -0.0154379 -0.0124011 0.00164276 -0.00673705 0.00337685 -0.0057722 0.0134684 0.0121966 0.00604347 0.000718014 0.0105381 0.011725 0.0132227 -0.0114598 -0.0161623 0.018265 0.0169949
733 -0.00620824 -0.0155529 -0.00355841 -0.00415977 -0.00753465 0.0183639 0.00544384 0.00986174 -0.0141291 -0.001542 0.00172964 -0.00327216 0.0211184 0.000357084 0.014076 0.00917754 0.00444016 0.011416 0.0114873 -0.00934755 -0.0160278 0.0133571 0.0164597 -0.0145344
1303 0.0167261 -0.0112757 -0.00686731 5.7655e-05 -0.00742905 -0.00851768 0.0054622 -0.00144396 -0.00762529 0.0126156 0.0106586 -0.0119136 0.0202632 -0.0181619 0.0113381 -0.00278933 0.0132391 0.00420403 0.0160552 0.00253428 -0.00773088 -0.000796085 0.0147364 0.00751663
1010 -0.0108269 0.0205271 -0.0163802 -0.0124121 -0.0124104 -0.0143342 0.013535 0.00119831 -0.00663997 -0.0179414 -0.00766291 -0.0176186 0.00722097 -0.0149655 -0.015432 -0.0172449 0.0204843 0.000609798 0.00705909 0.0213888 -0.00325957 -0.0080054 0.0204566 -0.00446371
1460 -0.00842351 0.0208896 0.009481 0.0182651 -0.0171698 -0.021064 -0.0186286 0.0217445 0.0166656 0.00636404 -0.0170674 -0.00477917 0.0021198 0.0231853 0.00144834 -0.01651 -0.0154318 0.0159452 -0.00902958 0.00837502 0.015013 0.00917638 0.0117325 -0.0114143
1064 0.00880536 -0.0100719 -0.00631347 0.00185433 0.00865804 0.0164248 0.0210225 -0.00323081 0.0118774 -0.00437835 -0.00666561 -0.00700375 0.00888471 -0.0107415 0.00657203 0.0132552 -0.00519604 0.00940593 -0.00280156 0.0151147 0.00737361 -0.00212738 0.00589424 -0.0202444
1162 -0.0100376 -0.0111497 -0.0121046 -0.0124665 0.00993212 0.00427136 0.00928738 0.00246192 0.00789366 0.0123874 -0.00778245 0.0077657 -0.00737288 -0.0152035 0.0170693 -0.0183887 -0.0150995 -0.014763 -0.0135576 -0.0128866 0.003456 -0.0148186 0.0122748 -0.0050982
688 -0.0159353 0.0154191 -0.001084 0.0183634 -0.00650171 -0.0120465 0.00151978 -0.0113906 0.00148025 0.0134459 0.0056287 -0.0169644 -0.013913 -0.0135566 0.00229985 -0.0177802 0.00755445 0.000924478 -0.0140428 -0.0154381 0.00540426 0.0169035 0.00603882 0.00506163
564 -0.000140398 -0.00814078 0.00284577 -0.0160641 -0.0127353 -0.00728409 -0.0112542 0.0113237 -0.0070088 0.00663796 -0.012234 -0.0152691 0.0162519 -0.00963719 -0.00533827 -0.0115289 -0.0189333 -0.00704583 -0.019357 -0.0101591 -0.00295706 0.0176103 -0.0117959 0.00830127
980 0.015648 -0.00187934 -0.00166899 -0.0148462 -0.0187719 -0.0195565 -0.0175413 0.00234527 0.00697634 -0.0125323 -0.00152984 -0.00756224 -0.00905726 -0.00496102 -0.0126956 0.00732864 0.001262 -0.00238514 0.0157289 0.0143314 -0.000459824 -0.00245689 -0.00857429 -0.0169935
2532 0.00410975 0.0181179 0.00100768 0.000631706 -0.0154614 -0.0132033 -0.0180987 -0.0105978 -0.0165522 -0.00300784 -0.0101581 -0.00178872 -0.00553973 0.00649671 -0.0137816 -0.0205366 -0.0124432 0.0106085 -0.0214962 -0.0193571 0.019095 0.0137937 0.00969519 0.00892178
1179 -0.011175 0.00622367 0.0183781 0.0108604 0.0138004 0.00108368 0.0196467 -0.00933556 0.0027605 -0.0216104 -0.00625624 -0.0145977 0.00597652 -0.00334483 -0.00599244 -0.00237423 -0.0126999 0.0200197 -0.0209215 -0.0201173 -0.00511236 -0.0186804 0.010163 -0.00676717
902 -0.00560514 -0.0136126 -0.00693655 -0.0181929 -0.01069 0.0181677 0.0115146 -0.00348841 0.0185542 0.00887206 0.0190984 0.0194114 0.0046922 0.012688 0.00373882 -0.0105855 0.0202914 -0.0136976 0.00552949 0.00444701 -0.0203758 -0.0110204 0.015041 -0.0179765
2056 -0.0195823 -0.00865365 0.00116407 -0.0180509 0.00723884 0.01135 0.0188218 0.0225574 -1.53148e-05 0.00927731 -0.0121376 0.0123044 0.0109104 0.0211493 0.00201486 -0.0203503 0.00853082 0.0177216 0.0013959 0.0145501 -0.0199227 0.0198123 0.00768969 -0.00875097
2360 -0.00973477 -0.000290803 0.00307417 0.0195546 0.0151559 0.0176008 -0.0198792 0.0126771 0.00770243 0.0190623 0.017753 0.00919642 0.0165705 0.00480096 0.0142951 -0.0206926 0.0173188 -0.0206943 -0.00448701 -0.00164407 0.00327226 -0.0103462 0.0118349 -0.00109332
2806 0.0174607 0.0166187 -0.0194099 -0.00510095 0.020388 0.0122667 -0.010145 0.0190358 0.0141926 0.0120829 0.00125872 -0.018007 0.012898 -0.0103103 0.00923276 0.0109597 0.0173885 -0.0205504 0.0156609 0.00506745 0.0185011 0.00935706 -0.016242 0.00802409
4014 -0.00258252 0.00591926 -0.0120668 0.0107694 -0.00672098 0.0121422 -0.012568 0.0124592 0.010673 0.00481976 0.0162631 0.0225173 0.0204938 -0.0149392 0.00128381 -0.0109288 -0.00186169 -0.0108886 -0.000756386 -0.00558566 0.0113582 -0.0198716 0.014199 -0.0068698
1804 0.0130166 0.0213177 -0.00941705 -0.0150956 0.00535028 0.00326365 -0.0199724 -0.0106473 -0.00723318 0.0160632 -0.0018285 0.0197326 0.0114253 -0.0135349 -0.00494724 -0.0134743 0.00873519 0.0163623 -0.0167559 0.0100185 0.0158717 0.00748349 0.010574 0.00619225
3684 -0.0150889 -0.0138882 -0.00707546 0.00237512 -0.0133796 0.00391897 -0.00918421 -0.0131454 0.0182229 -0.00737258 -0.00493279 0.00124004 -0.0139312 -0.00136128 0.00510118 0.00144269 -0.00489764 0.0127704 0.015589 -0.00322246 0.0194648 0.00549831 -0.000430388 -0.0170903
2701 0.00645492 0.00589514 -0.00907311 -0.0194991 -0.0187172 0.0113924 0.00546247 0.0195542 -0.0035544 0.0194822 0.00800666 -0.00578418 0.0136978 0.0252346 0.00771828 0.00751267 0.0032625 0.013421 0.0184638 -0.0148099 0.0106853 -0.00324586 0.00637067 0.0189792
5155 0.00663418 0.00717729 0.0176819 -0.0192592 -0.00569454 -0.00550853 0.0201946 0.0171211 0.0105793 -0.0190526 -0.0167763 -0.0156979 -0.00129326 0.018355 -0.0169935 -0.00316016 0.0205744 0.0166123 -0.000937663 -0.0113359 0.0122288 -0.00815191 0.00163092 0.00594122
710 -0.0224481 0.00258678 -0.0170637 0.00686466 0.0165777 -0.0148298 0.0219905 -0.00612908 -0.0202055 -0.00628608 -0.0160369 -0.0125609 -0.00352179 0.000313757 0.0133804 -0.00780811 0.0145372 0.00519399 -0.0162498 0.00536038 -0.00202712 0.0217613 0.00908224 0.00461481
2739 0.00151411 0.0122951 -0.0177587 0.0205385 -0.00263888 0.00429845 -0.00424781 0.00717218 -0.0183563 -0.00138684 0.013551 -0.00153994 -0.000929559 0.00486703 0.0120025 0.00645761 -0.0135552 -0.0187162 -0.000578273 0.0122419 -0.000535607 -0.00806161 0.0132106 -0.00432647
2780 0.00328188 -0.0100137 -0.0180483 0.0054337 0.014738 0.00613106 0.0149576 -0.0116837 0.0111632 -0.00804345 0.0139567 0.00855584 0.0051679 -0.0164137 -0.0152605 -0.00552023 0.0146596 -0.0153479 0.00662872 0.0165612 0.0178366 -0.00797952 0.00607207 -0.00980538
2959 0.00491864 0.00345459 0.0146544 -0.0181072 -0.0122777 0.00164534 0.0154403 -0.0052478 0.0211412 -0.0168207 0.00296123 -0.00141003 0.00901371 -0.0015567 -0.00253548 -0.00314616 -0.0147274 0.00907097 0.0163349 -0.0106289 0.0211425 0.0141399 -0.00809307 0.00242961
3333 -0.0213495 0.0159844 -0.0220868 -0.00979366 -0.0128405 -0.00699243 0.0122946 0.00836842 0.0123781 -0.00815128 0.00659183 0.00255811 -0.00740369 0.00685898 -0.00848996 -0.0143093 0.00857835 -0.0177382 -0.00261636 -0.00556313 -0.0061345 0.0186914 -0.000301682 -0.00557296
56 -0.0218698 0.0162678 -0.00975265 0.0138964 -0.00359634 -0.00221738 -0.00494847 0.0036571 -0.00586418 -0.0148094 0.00177845 0.0173026 0.00556617 -0.00241239 -0.00418497 -0.0127731 -0.0184157 0.0136306 0.015479 0.0110715 -0.0107879 -0.00333815 0.00762148 0.0081709
1756 0.00371267 0.0114197 -0.00418118 0.0140753 0.00283791 -0.00680423 0.0199764 -0.00738794 0.0198846 0.00294335 0.0209172 -0.00150896 -0.0160954 0.0147124 -0.0150749 -0.00671383 -0.006551 0.00645237 -0.00573805 -0.017892 0.0105092 -0.0117401 -0.00649817 0.01434
525 0.0180364 0.00910537 -0.0181291 -0.0112044 0.0206711 -0.0203091 0.0156129 0.0102261 -0.0216403 0.00232824 -0.00923317 0.0214773 -0.000248914 -0.00597974 0.0074001 0.00786227 0.0216829 0.00566683 -0.0113972 -0.0159992 0.00527243 -0.0183077 -0.0216322 -0.0126426
2803 0.0168383 0.00268696 -0.00535198 0.0183138 -0.0182944 0.0182768 0.0230299 0.00433203 -0.000293552 -0.0212262 0.0139411 -0.0158548 0.0126516 -0.0186479 0.0223763 -0.0123213 0.0219084 0.0217885 0.0114662 -0.00727902 -0.0145662 0.0040539 -0.00632336 0.00133067
3340 -0.00483478 -0.0103776 -0.0206543 0.00667421 0.0134995 -0.0156091 0.00236752 0.011902 0.0188159 0.00491555 0.0140664 -0.0111661 0.00339298 0.0116748 -0.00924796 -0.00420714 0.019375 0.02001 0.0160067 -0.00745263 -0.00332042 0.0148688 -0.0119672 0.00167838
1476 -0.0197273 0.00150432 0.0149638 -0.00487467 0.00262404 0.00603268 -0.00380894 0.000484414 0.00523286 -0.0112061 -0.00707244 -0.0131843 0.00710107 0.0151769 0.0202393 -0.0189045 -0.0154751 -0.0120423 -0.00284138 0.00930203 -0.00199203 -0.00558608 -0.00783414 -0.0221349
5306 -0.0136186 0.00661092 0.00668677 -0.00562808 0.0169544 0.0137304 -0.0173062 -0.00986543 -0.0139025 -0.0107936 -0.0189253 0.0100979 0.00816193 0.0153505 -0.0132002 0.0148959 -0.0155562 0.0119328 -0.0194456 0.00510614 0.0166453 -0.00935552 -0.0199407 0.00567104
5432 0.0104334 0.0160287 -0.00709164 0.00780275 0.00136454 0.00574568 0.0168489 0.0162896 0.015638 -0.0142565 -0.001496 -0.0188141 0.0223929 -0.00310597 0.0136109 0.0045229 -0.012458 0.0163269 0.0140528 -0.0110229 -0.0132622 0.0135023 0.000249325 0.0144303
2185 0.00967928 0.000184538 0.00669608 -0.00237061 -0.0101241 -0.00317626 0.00733521 0.00596497 -0.00177825 -0.00982579 -0.000190022 0.0109018 0.0217414 -0.00092268 -0.00192984 0.0158964 0.0132426 0.0193179 -0.0175733 -0.00608966 -0.0149068 -0.0123278 0.0121104 0.00263852
3874 0.0179556 -0.00811054 0.0151173 -0.0056078 0.0182292 -0.0121209 -0.00219544 0.00377798 0.00404233 0.00932852 0.00593935 0.0196826 -0.00775337 -0.00110686 -0.00532642 0.0130646 0.0180645 -0.00141407 0.00813208 0.0169549 -4.64043e-05 -0.0109995 0.0168031 -0.0127743
1059 -0.0102257 0.0114406 0.00550995 0.00364077 -0.00533192 -0.011159 0.0172928 0.0109547 0.0129954 0.0017967 0.000921866 0.0181547 0.0162206 0.00208361 0.00530107 -0.000543625 -0.017155 -0.00840081 0.00322518 0.0102658 0.00298491 0.0101997 -0.00149444 -0.00506679
3276 -0.00751617 -0.0137188 -0.00818822 0.00863327 0.00467222 0.0116438 -0.00556737 0.00831238 -0.0218655 -0.0162847 -0.0124842 0.0210699 0.0204676 0.0207084 0.0124869 0.0201055 -0.00427998 0.000250434 -0.00181423 -0.0102159 0.0160359 -0.0182711 -0.00454235 0.01592
2214 -0.0178676 -0.0065719 0.0117499 -0.0171925 0.0120546 0.0114652 0.00765297 -0.0162495 0.00583728 -0.0101536 -0.0132541 0.00428266 -0.00387523 0.0108422 -0.00493877 -0.00485367 0.0129945 -0.0116801 -0.00156317 0.0147466 -0.000527884 0.000807199 0.0114896 -0.00746965
154 0.0133774 -0.00465774 -0.00708045 0.0120758 -0.0140681 0.00155653 0.00991399 0.0128246 -0.0175315 0.0117929 -0.0104252 0.000781593 -0.0191811 -0.0105766 0.0179512 -0.00360683 0.0131985 -0.0151662 0.0169496 0.000676471 -0.0131034 -0.0139813 0.000528463 -0.00289034
1446 -0.0112788 0.0229959 -0.00667067 0.0167035 0.000782543 -0.0106959 -0.0123958 0.00730603 -0.00442529 -0.0126544 0.0181765 0.0233752 0.0156508 0.0132599 -0.0113839 0.00213579 0.021061 -0.00950072 -0.0189331 -0.000457725 0.0192184 0.0165626 0.0194748 -0.0189868
4191 -0.00553346 0.00429517 0.0185635 -0.00250514 0.00817999 -0.012217 0.013017 -0.00497573 0.00482653 0.0162119 0.0140079 0.00378794 0.0130963 0.0205294 -0.00316255 -0.00690104 -0.0109166 -0.0083743 -0.00653735 0.0140729 0.00254235 0.0110076 -0.0204407 0.00810494
1841 0.0120586 -0.0171383 -0.0112782 0.0170989 0.0141254 -0.00244278 -0.0207639 0.0195489 0.0137308 -0.0170583 -0.0166829 0.0100531 -0.0182472 -0.00756339 -0.00963283 -0.013027 -0.0148708 0.0112007 0.0196651 -0.0166648 0.00895436 -0.00582946 -0.0141778 0.0170773
4864 0.00965063 -0.00927751 0.0108151 0.0175334 -0.00393792 0.00254089 -0.0176917 0.00120443 -0.0111969 -0.0112718 -0.00639097 0.0030431 0.0124394 -0.00965693 -0.0144785 0.00685188 -0.0154578 -0.0140128 0.0105449 -0.0155111 -0.00618833 0.00477917 -0.0181764 -0.00786975
3883 0.00779737 -0.00169308 -0.0144479 -0.00632913 -0.015994 -0.019457 0.0138298 -0.0114977 0.0151346 -0.00172159 -0.00245351 0.00707881 0.0160811 -0.0167406 0.0217196 0.0171394 -0.00762264 0.0102503 0.00704171 0.0072871 0.0102991 -0.0161731 0.00389599 -0.00489194
2565 -0.0183806 -0.00196006 0.0028264 0.0172937 -0.015388 0.00907593 0.00604063 0.0101373 0.00274316 0.00735027 -0.020226 -0.0103471 0.0198596 -0.0141748 -0.018485 0.0115401 -0.0110575 -0.0182065 -0.0118817 0.00577696 -0.0163743 0.00638006 0.000498323 0.00809409
5104 -0.0083361 0.00837185 -0.000133364 0.0208476 -0.0161298 -0.0204814 0.0111293 -0.00375862 -0.0117229 -0.0118944 0.0125282 0.0187123 0.000764517 0.0178442 -0.0191233 0.0151585 -0.00444334 -0.00333177 0.0198676 0.00553055 0.0177211 0.01278 0.00753411 0.00194106
869 -0.0167841 -0.0190147 -0.0123885 0.0195869 0.0042854 0.0188781 0.0121705 -0.0127006 -0.0205536 0.00332859 0.0130255 -0.018469 -0.00658993 0.0249161 0.0178922 0.0132398 -0.00861427 0.0184146 0.0184419 0.00634252 -0.00285474 -0.0165469 -0.0181309 -0.0187387
2074 -0.000220811 0.0173966 -0.00520891 0.00542602 0.00730462 -0.00497789 -0.0155231 -0.00153556 -0.0157211 0.0198135 -0.00419683 0.0205919 0.0152369 0.0148139 -0.0103196 -0.0187442 -0.000889724 -0.00162405 -0.0127727 0.0143928 0.000804223 0.0059643 -0.00941886 0.013719
155 0.0148609 -0.00305038 -0.00197597 -0.00654164 0.00547488 -0.0195688 0.00865933 0.0128319 0.0172498 -0.0158212 -0.000753625 0.00400197 -0.0163194 0.0130175 -0.00119144 -0.0115811 0.018851 -0.00418747 0.0112396 -0.00334767 -0.00186497 -0.000800561 -0.00977796 0.015358
5013 0.000684984 -0.016589 -0.0182513 -0.018277 0.015949 0.0151291 -0.019837 0.0151444 0.00828593 -0.0165991 -0.0143429 0.019306 -0.0165878 0.0209676 -0.0163043 -0.00488533 0.00480875 0.00303116 -0.00146032 -0.00227144 0.00736114 0.00338598 -0.0175946 -0.0181484
4020 -0.0141528 0.0103528 -0.0233871 0.0143851 0.0147473 0.000536825 0.00783694 0.0142665 0.00400051 0.00969708 0.000896653 -0.00810419 0.00972556 0.019403 0.0146234 -0.00080628 0.023275 -0.0152956 0.00316706 -0.012781 0.0115771 -0.0198253 -0.0138652 -0.00995579
3679 0.0144957 0.000875559 -0.0154874 -0.0158202 0.0168707 -0.0142969 0.0113646 -0.00565036 -0.00306048 0.0143063 0.0118715 -0.00372088 0.0142427 0.0159475 -0.0137655 0.00320344 0.0217216 0.00711794 0.00332222 -0.0154501 0.012062 0.0112333 -0.0155093 0.0128088
1544 -0.0130155 -0.00236386 -0.0103698 -0.00908225 0.0225549 -0.0173846 -0.00871342 -0.0189154 0.0124913 0.0158428 -0.0188614 0.0183569 0.0156013 0.00953302 0.00741172 -0.00819163 -0.014118 0.0107957 -0.000944333 -0.0107823 0.000220445 0.0110832 0.017366 -0.00883269
1017 -0.00250952 -0.00706495 -0.00746 0.0204485 0.0238636 0.015522 0.0130991 -0.0201943 0.0155841 -0.0194879 -0.0143195 0.00688476 -0.00393501 0.022529 -0.000184582 0.00355161 0.00284012 0.0205491 0.0117714 0.00550698 0.000329113 -0.0210273 0.0001419 -0.0132363
78 0.00999517 0.00924704 -0.0174197 -0.00673083 0.0184493 -0.00396643 0.00921639 0.00964308 -0.0176283 0.0156545 -0.0166784 0.0108164 -0.00148671 0.0017882 0.00788472 -0.0196968 0.0162829 -0.0148643 0.00140385 -0.0152614 0.0127155 0.0201308 -0.019165 0.0173399
1277 0.000466905 0.0138916 -0.0194004 0.00837786 0.0209258 0.00463184 -0.0199082 -0.00356303 0.0146668 -0.0177166 -0.0206506 0.00249517 0.00452452 -0.00020541 0.00681249 -0.00408521 -0.0157266 -0.00515962 -0.00870978 -0.00501516 0.0196334 0.00680806 -0.00372652 0.00878042
4699 -0.00772022 -0.0135392 0.00428504 0.00309938 -0.00770062 0.0141372 0.0109478 0.0130901 0.00368744 0.0135043 -0.00521924 -0.0127021 0.0161289 -0.00540235 -0.0110206 -0.0183062 -0.00747199 0.0118714 -0.020523 0.0168469 -0.00546968 -0.0156313 0.00874941 -0.0131459
3177 -0.015474 0.012458 -0.0111276 -0.0152014 0.0206123 0.0103335 0.01483 -0.00156015 0.00403413 0.00118694 -0.0147028 -0.0149678 -0.000494733 -0.0151903 -0.0170947 -0.00217928 -0.0191168 0.00339643 0.0169019 0.00331379 0.0158839 -0.017536 -0.0153782 0.0183231
624 0.0175579 -0.0160155 -0.0193982 0.0101695 0.0201617 0.00422282 -0.0155105 0.0203429 -0.00659322 -0.0041469 0.00946032 0.00870104 -0.0060949 0.0139096 0.0150907 -0.0110665 0.00425836 0.0186216 0.0176911 -0.00798136 0.017086 0.00116307 0.0187879 0.00155137
3020 0.00591249 0.0196868 -0.0195655 -0.0102885 -0.0166513 -0.00586126 -0.0107286 0.0226139 0.00486244 0.0131258 0.00278259 0.00834798 -0.00421541 -0.00498448 0.0115061 -0.0016105 -0.0073616 -0.0171872 -0.0125677 0.00955262 -0.00809592 0.0205938 -0.00997017 0.00472691
3637 -0.0101957 -0.0150358 -0.0107142 -0.0153112 0.0104306 0.0203965 0.0207382 -0.0070613 -0.0041449 0.0151917 0.000595916 0.00109564 0.0127815 -0.000501973 0.0124979 -2.89165e-05 0.00414509 0.00748093 0.0100504 -0.00388318 0.0148418 -0.00392112 0.0161194 0.0112949
929 0.000874415 0.0129339 -0.0132211 0.0194022 0.0133865 -0.0027207 -0.00108293 0.00909581 0.0151768 -0.00179286 -0.00745512 0.0146083 -0.0166252 0.015249 0.00443575 -0.00399704 0.00480514 0.00842667 -0.0161498 0.0143508 0.00360153 0.0183367 -0.00374757 -0.00671472
3645 0.0169852 -0.00855819 0.015798 0.000841654 -0.00630246 -0.0179227 0.0185091 -0.0104969 -0.017309 0.00337341 -0.00673904 0.0182918 -0.00198632 -0.00801132 0.0172063 0.00710541 -0.00122763 -0.00716503 0.000902776 -0.0136631 0.0140332 0.0125358 -0.00137187 0.00632602
1122 -0.00633243 0.0193783 0.0140885 -0.00904756 0.0036976 -0.0058572 0.0194087 -0.0185161 -0.00808618 -0.0145519 0.0148425 -0.00765378 -0.00608411 0.0239968 -0.0188353 -0.0117933 -0.013577 -0.00903026 -0.0202914 0.00150878 -0.00925469 -0.00499707 0.012979 -0.0157264
5011 0.0162476 0.0050569 -0.0156007 -0.0101598 -0.011855 0.0147205 0.00443431 -0.0109402 0.00307372 -0.012464 0.00239278 -0.0101271 0.000581409 0.00477786 0.00429075 0.018266 0.0175284 -0.0189381 0.00450812 -0.00445038 0.0123349 -0.016825 0.0153827 0.0123795
457 0.00980669 0.00821128 -0.0123672 0.0168801 0.022639 -0.000618769 -0.00916856 0.00800841 0.00676221 -0.013857 -0.0176599 0.00137903 -0.00549895 -0.00710208 0.0185923 0.0186189 0.0211825 -0.0013551 -0.0140601 0.0130079 -0.0111913 0.0225539 -0.00316462 -0.0103752
994 -0.0138224 0.00242799 -0.0165719 0.0166497 -0.00936517 -0.00605766 0.00831234 0.0178679 -0.00937488 -0.00121152 -0.00940989 0.0199337 -0.0101821 -0.0090396 -0.0163358 -0.00764509 -0.00655004 0.00969137 0.0125395 -0.0165197 -0.0119335 -0.00384188 -0.0117742 0.0164824
3688 0.00903717 0.00476894 -0.00973259 0.00863348 0.0147579 -0.0159868 0.000205931 0.00274984 0.00380534 0.0177982 -0.0153028 0.0192331 -0.0125858 0.00983442 -0.00711669 -0.00990165 -0.00242968 -0.0196047 -0.018343 0.0183477 0.00895035 -0.0180735 0.00268888 -0.0193128
745 0.017209 -0.00763868 -0.0074311 0.00232531 -0.00948181 0.00265245 0.0200775 -0.0144923 0.000457911 -0.0189816 0.0197681 -0.00502042 -0.00454452 0.00549425 0.003897 0.00133762 -0.00766914 -0.00950871 0.00216963 -0.000475091 0.00159324 -0.011797 -0.0120673 -0.0232177
5318 0.0147237 -0.0083531 -0.0140616 0.0180201 0.00823943 0.00904524 -0.00319894 0.0129337 -0.0185912 0.0178715 0.0152116 0.0134841 0.0193697 0.00750102 -0.0127261 -0.0182088 0.0121053 0.0182688 0.0169246 0.00347623 0.0026755 0.00803074 0.0197015 -0.0225428
862 -0.020076 -0.00708116 -0.00628489 0.0220242 -0.0160759 0.00991633 -0.00903859 -0.00435739 0.00381553 0.00411601 -0.00704085 0.0168736 -0.00602889 0.0226365 -0.0101943 0.00830648 -0.00941787 -0.016685 0.017457 0.00132076 0.000374738 0.00699921 -0.00169191 -0.0071467
4467 0.00713287 -0.00977684 -0.00262713 -0.011638 0.00773076 -0.00796225 0.0201592 -0.000576751 -0.00678711 -0.0120212 -0.011538 -0.00689991 -0.0152315 -0.0116392 -0.0156515 0.00240251 0.000766273 0.0192209 0.00895756 -0.0191496 0.00798608 0.00319121 -0.0186296 -0.0128069
3286 -0.0114755 0.0229988 -0.0173873 0.00195481 -0.0142301 0.00364055 -0.0172323 -0.016084 0.0150737 -0.0197283 -0.0167986 7.77419e-05 0.0187813 0.0115744 -0.0202557 -0.00635689 0.0220556 -0.00212797 -0.0184981 0.002351 0.0193953 -0.0124356 0.0192999 -0.0211557
2693 0.00349236 0.0130381 -0.00111931 0.0078376 0.0105905 0.0135799 -0.00624996 0.00681774 0.019226 0.016844 -0.00251953 0.014016 0.0224449 0.0129883 0.00639842 0.0187147 -0.000287624 0.0053567 0.0100876 -0.0112296 -0.0206188 -0.0160678 -0.00991742 -0.00697644
4472 0.0145193 0.0233287 0.00540359 0.0115752 0.0135885 0.0194635 -0.00607554 0.0220413 0.0047179 -0.0199162 -0.00452714 -0.0017202 0.0174873 0.00615202 0.0146855 -0.00571022 0.00819085 0.012223 0.00928461 -0.0048778 -0.0104261 -0.0114136 -0.0050769 -0.0161796
320 -0.0217467 -0.015137 0.005836 0.00451929 0.0068055 0.00775547 0.0172707 0.00339246 0.0020034 0.000756969 0.00250238 0.00768715 0.00569146 0.00902401 0.0194788 0.0137683 0.00497955 0.0196804 -0.00353355 0.00997097 0.0212154 0.00933753 0.000220157 -0.00142506
4891 0.0144441 0.00302951 -0.00637079 -0.00431841 -0.00162909 0.0139232 0.011334 0.0112495 -0.0116886 0.0121031 -0.00212891 -0.0142547 -0.0121805 0.0211542 -0.0126188 0.00020891 0.0129353 0.00127201 -0.0203394 -0.0183156 0.00332647 -0.0068427 -0.00266877 -0.0123603
3894 -0.0147651 0.017352 -0.0222014 -0.00588648 -0.0103625 -0.0160277 0.0193659 0.0166073 0.00375995 0.0130131 0.00573184 0.00941003 0.0130301 -0.00858083 0.0202323 0.0207662 -0.00887089 0.014554 -0.0160577 -0.0101479 -0.0100958 0.0207191 -0.0173742 -0.0136402
2186 -0.00897543 0.0190203 0.0145077 -0.0055698 -0.0115815 0.0148826 -0.00488436 0.00124968 -0.00924896 0.0194791 -0.0190661 -0.0114855 -0.00739516 -0.0127653 -0.0160082 -0.00310557 0.00495263 0.00794915 0.019745 0.0144907 -0.00528198 -0.0123638 -0.0129086 -0.00834682
4815 0.007306 0.00787855 0.000730615 0.012276 0.00188585 -0.00615113 -0.0017808 0.018094 -0.0207109 -0.0172765 -0.00389223 -0.00488699 -0.0157174 0.0111648 0.00782494 -0.00852635 -0.0152374 0.0150096 -0.00422512 -0.00157317 -0.0108101 -0.00465858 -0.0178682 -0.0197333
4863 0.01637 -0.0145147 0.0176704 -0.00952294 -0.00730103 0.00698492 0.0114823 -0.00568244 -0.021524 -0.00346953 -0.0060793 -0.0101508 0.00922352 -0.00532668 -0.0139946 0.0042797 -0.0195455 0.00636934 -0.0114271 0.00230394 -0.0141919 -0.0156266 -0.016063 0.00395544
1071 0.0129768 -0.018182 0.00718041 0.00719158 -0.0187377 -0.0152893 -0.019699 -0.0058769 0.00865633 0.00648182 -0.00669681 -0.0100757 0.0118818 -0.00712043 0.0220972 0.0149234 0.0223899 -0.0105384 -0.012408 -0.00344754 -0.0182553 0.0218238 0.0182945 -0.0114063
2066 -0.000688096 0.0173963 -0.0150211 -0.0125877 -0.013662 -0.00966633 -0.00751991 0.0124854 0.0204889 -0.01223 0.0011025 -0.000580091 -0.00368366 -0.00424968 0.000619993 -0.00254391 0.0116224 -0.0132254 -0.02173 -0.0113036 -0.00371488 0.0040814 -0.0206557 -0.00461848
5499 -0.0171151 0.0143368 0.0191918 0.0205659 -0.0168461 0.00785826 -0.0120667 -0.0126326 -0.000325069 0.00178349 0.00607824 0.00658028 -0.015847 0.00263548 0.0217222 0.0143122 -0.0166711 0.0167751 0.0133114 -0.00913732 -0.013229 0.0216716 0.019909 0.00488972
2413 0.00817005 0.0119309 0.0103615 -0.0156578 0.0185099 0.0218228 -0.00252744 0.0219791 -0.00597856 -0.0117704 -0.00219989 -0.0184503 0.000277426 0.0145832 -0.00708333 0.0109019 0.00854711 0.00283604 0.00274575 0.0182646 0.00707213 0.00960216 0.00111812 0.0179462
3507 -0.0168687 0.0107221 -0.00879526 -0.0130907 0.0110406 0.0218374 -0.00911753 0.0166259 0.00543469 0.0129451 -0.00503469 0.00752893 0.00414959 0.0234048 0.0197731 0.00621517 0.022476 0.0175594 0.00367883 -0.00716146 0.00285349 0.00948526 -0.0140544 0.0180444
1228 0.00358599 -0.00926669 -0.0112397 -0.00649422 0.0185646 -0.0195261 -0.00959276 -0.0122173 -0.00689111 0.00946146 0.0147026 -0.0108703 0.0171414 -0.0137976 0.00120597 0.00157463 0.0185303 0.00154811 -0.013449 -0.0085235 0.0180148 -0.00365091 0.0203903 0.00303615
3115 -0.00211997 -0.00557132 -0.0117316 -0.000150378 0.0184116 0.00413344 0.0034195 0.0130056 -0.00596925 0.00564344 0.0209396 0.00907086 0.0146177 -0.0138302 0.00227585 0.00200744 -0.0150707 -0.00617751 0.00159104 0.0134243 0.0139697 0.00248994 0.00104163 -0.0203156
215 0.0162762 -0.0112063 -0.0164104 -0.0162097 0.0101649 0.00441954 0.017867 0.00872845 -0.00282732 0.0065305 -0.00460242 -0.00117156 0.0154944 0.0141642 0.0177079 -0.00239255 -0.000783963 0.0147292 -0.0128697 0.0107896 0.0189622 -0.0140427 0.00694609 0.00377173
915 -0.0100837 0.0214588 0.00604609 0.0069177 0.0201599 -0.00503276 0.0176575 0.0178019 0.00166123 0.00143581 -0.0185958 -0.0184629 -0.00498272 0.0125225 0.0074044 0.00284646 0.0150876 0.0199689 0.0105897 0.021745 -0.00687291 0.00607352 -0.0101145 0.0158839
4495 -0.0155081 0.0185609 -0.00245516 -0.00277335 -0.00407413 -0.0038512 -0.00403476 0.0152346 -0.0179184 0.0102825 0.00152451 0.0105682 0.0175984 -0.0134581 0.0123651 -0.00249336 -0.00111342 0.0190017 -0.0121587 0.00684836 0.00200546 0.00823752 -0.0132266 0.0190097
2416 0.0038502 0.0124003 0.00275988 0.01949 0.00923546 0.0140902 0.0193241 0.018446 0.0085834 -0.0141433 -0.00665356 -0.0105791 0.0195894 0.0209665 -0.00113898 -0.0154711 0.0117096 -0.0039574 0.0198735 0.0109572 -0.00935911 0.00915423 0.0171466 0.00301226
2447 -0.0212189 0.0100799 0.000845056 0.0187469 0.00509976 -0.0162825 0.00720744 0.0179208 0.00681899 0.0161558 -0.00108785 0.00948847 0.00959652 0.0193417 0.0184963 0.00329577 0.00360168 0.0117562 -0.0142823 -0.0128142 0.0181131 -0.0149255 -0.0121886 0.00226673
1110 0.0081681 0.0196713 0.00238921 0.0105906 -0.0181128 -0.00697877 -0.0150833 0.00629992 0.0130037 0.0132759 0.00746798 0.0212064 0.00688251 0.0168867 0.0133717 0.00362913 0.0133872 0.0180785 0.0156232 -0.0114773 0.00889066 0.0132017 0.00398449 0.0133857
5114 0.0166506 0.0187688 0.0163734 -0.0194701 0.00946858 0.0150138 -0.00520461 -0.00701295 -0.00236216 -0.0172762 0.000981122 -0.0162083 0.0115139 0.0235476 0.00642318 -0.0166957 -0.0151153 0.00823618 -0.0126579 -0.00574322 0.0163887 -0.0155019 0.0146607 0.00480462
1294 0.0201731 0.0038244 -0.00374717 0.0202869 -0.018971 0.0028706 -0.00242854 -0.0119558 0.00474152 -0.00542342 0.0202071 -0.0105974 -0.00841165 -0.00346054 -0.00620951 -0.0161382 -0.00450155 0.00738137 0.00228903 -0.0116348 -0.0120494 0.0135795 -0.0216757 0.0161947
161 0.0182619 0.00554083 -0.00669484 0.00369582 0.00139825 0.0132345 0.0101727 -0.00739549 -0.0164541 -0.0052163 0.0198656 -0.0182614 0.000763064 0.0018475 0.00672888 0.0168829 -0.00326571 -0.0093145 0.0155669 0.0025592 -0.00585912 0.0195526 0.0113502 0.00868135
978 -0.00443817 0.00388736 -0.0100769 0.00338464 0.0127775 -0.0135091 0.00312129 -0.000643929 0.0101886 0.0147485 0.0102709 -0.0130857 -0.00972528 0.0195722 0.0132645 0.0174749 -0.0171908 -0.00684761 -0.00239241 -0.00152742 -0.0171276 -0.00793269 -0.0125069 -0.017765
68 0.0170598 -0.00134193 -0.00576285 0.00837748 -0.0026293 0.0199308 0.00933868 0.010638 0.016712 0.0120113 -0.00873185 0.00183395 0.0182037 0.0214586 -0.000247112 -0.012833 0.00678556 0.0082164 -0.0136694 -0.0157631 -0.00930843 -0.0110658 0.00534552 0.00915783
425 -0.0173844 0.0144657 -0.000183902 0.00120504 0.00838247 -0.00202331 0.00671962 0.015608 -0.00706891 0.0142443 0.00301417 -0.00372963 -0.00856233 0.00893879 0.0135667 -0.0087324 -0.0170539 0.0157582 -0.0203869 0.00693465 -0.0132668 -0.00133684 0.0188394 0.0107661
2948 0.0119177 -0.0112441 0.00242198 0.00466728 0.00845789 0.00131802 0.0170027 -0.002493 -0.00784451 0.00243078 -0.0168096 0.0224421 -0.000858133 -0.0183828 0.0168779 0.0210778 -0.019785 0.0135027 -0.005988 -0.00558265 0.0119212 0.0176514 -0.00327624 -0.00272588
1249 -0.00105182 -0.00347383 -0.0112111 0.00317883 0.0146063 -0.00139169 -0.0107699 -0.00850016 -0.0206588 -0.0104245 -0.00471006 0.00515054 0.00290762 -0.0170033 -0.0131789 0.00409633 -0.00469763 -0.0149924 0.002312 0.0152277 0.0178526 0.0166805 -0.019281 0.0029506
4833 -0.00804587 0.00357203 0.00123229 0.0112091 0.00769245 -0.00304548 0.00508864 -0.0178095 -0.00930488 -0.00945402 0.0108678 0.0145405 -0.0123291 0.00531629 -0.00393901 -0.00909432 -0.0122462 -0.0140036 -0.0144024 0.0137297 0.0168055 0.00456405 -0.000316459 0.0104692
3680 0.00873925 -0.0093579 0.0179252 0.0152555 -0.00851086 0.020643 -0.00151389 0.00935958 0.00499235 0.0127322 -0.000310623 0.00983415 -0.0116512 0.0227007 0.00832424 -0.00210902 0.0203671 -0.005366 -0.0228543 -0.0156964 -0.0064273 0.021786 0.013103 -0.0137606
5506 -0.00413306 -0.000918216 -0.0053391 -0.00501888 -0.0102817 -0.020309 0.0207274 0.0206914 0.0118721 0.00926057 -0.0127312 -0.0154406 0.0194577 -0.012407 -0.0158779 -0.0175161 0.0169441 0.0012638 0.00463632 0.0188716 -0.0163346 -0.0145354 -0.0147892 0.0157101
2689 0.0032375 0.00641205 -0.000135208 0.0130415 0.0107443 -0.0150576 -0.00121357 0.00526284 -0.000861106 -0.015595 -0.00266161 0.000875354 -0.00958451 -0.0103822 0.000206516 0.00342184 0.00959213 0.00821337 0.00312754 -0.00883464 -0.0173844 -0.00150769 0.000378344 0.0180645
3594 0.00500359 0.0172379 0.00348172 0.0104257 0.00410717 0.00968511 -0.0164173 -0.0134399 0.012058 -0.00219842 -0.00123282 0.0110086 0.00155137 -0.00995334 0.0218886 0.00174293 -0.00971533 0.0112929 0.00579109 -0.0190816 0.0115293 0.00479516 0.0157374 -0.0140634
508 -0.0164796 -0.0119628 -0.020065 -0.0200341 0.0130809 -0.0177897 -0.00279356 -0.019116 -0.0160399 0.00519714 0.00769147 0.0157275 -0.010638 0.0203853 0.0214651 0.00449773 0.00309208 -0.0165068 0.00456625 -0.00408255 0.0212126 0.0150817 -0.00306844 -0.011599
2331 0.00718106 -0.0159715 -0.0106163 -0.0158405 0.0225247 -0.016803 0.0185152 -0.0167337 -0.00239811 0.0168616 0.0208684 0.0215476 -0.00191496 -0.0147409 0.0211298 -0.0157759 0.0226007 0.0191575 0.0152765 -0.0214655 -0.0191404 -0.01692 -0.0034634 -0.00886319
1640 -0.00914658 0.00856517 0.0137156 0.0156397 0.00938123 -0.0119707 0.0208821 0.0172049 0.0151681 0.00481959 0.00207777 -0.00735096 0.0134908 -0.0117524 -0.000216244 -0.0165654 0.0056209 0.0153062 0.0220232 -0.0190829 -0.0198307 -0.0201951 -0.0132585 0.00101994
2972 -0.000821462 -0.0156324 -0.0125347 -0.0136093 -0.0192674 -0.0138702 0.0172082 0.0217417 0.00347738 -0.00450113 -0.0148068 0.0205085 0.0031394 -0.000987144 0.0146733 -0.0098681 -0.00980699 0.0163554 0.0123462 0.0202214 -0.0192637 -0.0152002 -0.0016388 0.000862619
1981 0.0100137 -0.00893558 -0.0163201 -0.0202667 0.0188931 0.0190339 0.00281485 -0.0167047 -0.0134635 -0.0172211 0.0184737 -0.00585636 -0.00287144 0.00759524 0.011091 -0.0116965 -0.0203134 0.0105406 0.00215574 0.0181341 -0.00980534 -0.00165328 0.0143963 0.00194791
577 -0.0180791 -0.0104454 -0.0216408 -0.01309 0.0199908 0.00668629 -0.00812051 0.0167656 -0.012017 0.00190931 -0.0094988 -0.0177454 -0.000862143 -0.0167448 0.0159485 -0.00653194 0.0135296 0.0132049 0.0150538 0.0101097 -0.014825 0.00165002 -0.0144405 -0.00952696
4142 -0.00978825 -0.0114912 0.0186344 -0.00158363 0.00534121 -0.00870335 0.0158024 0.0155624 0.00143168 0.0162876 0.00207536 -0.0105347 0.0192449 0.0147212 -0.00158553 -0.0134291 -0.0139968 0.0146397 -0.00171497 -0.00568929 0.0205324 -0.000555946 -0.0170658 0.0153001
965 -0.0122758 0.00854467 0.00690317 0.0150112 0.0157196 -0.0166132 0.00776936 -0.0143033 0.0185236 0.0173762 0.0105555 -0.0107306 0.019135 0.0201994 -0.0189713 0.0194501 0.0112083 -0.0192764 0.0152899 0.00466979 -0.00325368 0.0220496 0.00922467 -0.0026536
3624 0.00366577 0.01089 0.00640825 0.00947588 -0.010338 -0.000857292 0.0025021 0.00139474 0.00203029 0.01905 0.000223131 -0.0132913 0.0218566 0.00971324 -0.0116797 0.00970449 -0.0159244 -0.006465 -0.0205175 0.020558 0.00426253 0.0106593 0.0132059 -0.00996124
2364 -0.00180682 -0.00990355 0.0192615 -0.0173933 -0.000843459 -0.0202078 0.0205825 0.00992957 -0.00932806 0.0172109 -0.0138512 -0.017736 -0.0109326 -0.0132675 -0.0109443 -0.0128255 0.0204484 -0.0146705 -0.0109985 0.00327141 0.00665037 0.0153583 -0.00799711 0.0134276
4422 0.00554958 0.0062042 0.0144729 0.00150836 0.000586208 -0.00136415 0.00295681 0.00495028 -0.00576926 0.000850287 0.00764808 0.0189979 -0.0104461 0.00111072 0.0225893 0.0169084 0.019262 -0.0059065 -0.0185262 0.00806817 -0.00794531 0.000642572 0.0187261 -0.0187719
2445 -0.002728 -0.0153691 -0.0205746 0.00780649 -0.0154798 -0.00539201 -0.00750022 -0.0112297 0.0086931 0.0197953 0.016606 -0.0117809 0.0135911 -0.0129119 0.0200429 -0.0192182 -0.00839031 -0.0199706 0.0190653 -0.0122084 0.000132071 0.00773732 0.0184747 -0.0110461
2115 -0.0192752 -0.0134353 0.0110277 -0.00413612 -0.0126937 0.00305033 0.0151586 -0.0115475 -0.0156677 0.0107893 0.00185877 -0.00366452 0.00787015 -0.0108847 0.00877479 0.00304301 0.00538706 -0.0110746 0.00545689 0.00307785 0.019988 0.0207013 -0.00952865 -0.0108016
716 0.00247009 -0.017739 -0.0122145 -0.00331968 -0.0159811 0.0127471 -0.0190404 0.00639329 -0.0184703 0.00957978 0.0157738 0.00042172 -0.0105317 0.0213351 0.0131427 -0.000187916 0.00610201 -0.00932761 0.0198392 -0.0106767 0.00268964 -0.00812352 -0.00699187 -0.00952571
4277 0.00837622 -0.00138727 -0.0130361 0.00459576 0.00787384 -0.00507754 -0.00717825 -0.00730894 0.000653926 -0.0131473 -0.021075 0.0225036 0.00474475 0.0115362 0.0213639 0.00532306 0.000800995 0.0159835 0.00819681 -0.0119385 -0.00742215 -0.00414812 -0.00909843 0.0147623
4410 -0.00715361 0.00143532 0.000254596 0.00424103 -0.00693444 -0.00782049 -0.00776766 -0.000219964 0.0109508 -0.0175874 0.00700043 0.00306966 0.00537351 0.0247449 0.0216888 0.0208004 0.00789609 0.00506316 0.0193884 -0.00277177 0.00210196 0.00562202 0.0120931 0.00407482
2243 -0.0158851 -0.0142222 0.00611405 0.0142608 0.0180794 0.0135829 0.00883508 0.0119298 -0.0151592 -0.0155499 0.00227369 -0.00525291 -0.0080869 -0.0140277 -0.018443 -0.0140005 0.0057296 0.014004 -0.00134278 -0.00287167 0.00672051 -0.0202355 -0.0205494 0.018014
1007 0.016065 -0.00568173 -0.0150021 0.00651868 -0.00727478 -0.0115512 0.0222636 -0.00429165 0.014542 0.0140833 -0.00811166 -0.00829996 0.0106169 -0.00505292 -0.0172864 -0.0150319 0.00923045 -0.0089038 0.00479499 -0.0112524 0.00526974 -0.0038142 -0.00313244 0.00651733
1027 0.0133619 0.0178301 0.00720991 -0.00154852 -0.00140392 0.00810586 -0.00358307 -0.00120847 -0.0215868 0.0131336 0.00828921 -0.00219781 0.00120386 0.00763226 -0.0148239 -0.00694315 0.0212433 0.00933016 -0.0153648 -0.0136535 0.012649 -0.0110834 -0.00707541 0.0109338
3320 0.0198432 -0.0172107 -0.0134102 0.0116654 0.0148816 -0.012022 -0.00722337 0.019283 -0.0176572 0.00425088 -0.00472049 -0.0177774 0.00210585 0.0190397 -0.00372676 -0.00442042 0.0100952 0.00690651 -0.00377759 -0.0146329 -0.0134672 -0.00753961 0.0171463 0.00369516
1597 -0.00487507 -0.000315944 0.0163723 0.0190508 0.00411929 0.00138483 -0.00561932 0.0186736 -0.0215018 0.0151435 -0.00677163 -0.0151738 -0.00705047 0.0110428 0.000433498 -0.0126228 0.0172365 -0.0115662 0.0182835 -0.00929278 0.0152007 -0.00124191 0.011412 0.00328929
1013 -0.00824684 0.00224203 -0.0188064 0.00884912 -0.0160185 -0.00456242 0.0103491 -0.0167447 0.017878 0.00161697 -0.00180138 0.00724506 0.0116687 -0.00769644 -0.0124996 -0.0126102 -0.00958063 -0.0139311 0.00359388 -0.0118749 0.0198605 -0.0030861 -0.0111762 -0.00948332
4475 0.00258381 0.0191104 0.00169384 -0.0177735 0.00938669 -0.0106655 -0.0144808 -0.00393404 -0.00729722 0.0116167 0.0104743 -0.00798447 0.0200887 0.0151675 0.00880124 -0.0185462 0.0040661 0.0184515 -0.0122111 -0.0136817 0.0159421 0.00377286 -0.0137126 0.00293328
1594 -0.00388331 0.0159975 0.00138079 0.00867347 0.0189967 9.59909e-05 -0.0131077 0.00932344 -0.020903 0.0119345 -0.00167971 -0.0069902 -0.0142618 -0.0113274 -0.0134079 -0.0128397 0.00193205 -0.0146552 0.0107322 -0.00287018 -0.0024508 0.015575 -0.00536002 -0.0163274
2584 0.000419222 0.0175054 -0.0162018 -0.00488721 -0.000687414 -0.0146408 -0.0203878 -0.0100124 -0.00385324 -0.00818655 -0.0107117 -0.00271456 -0.0111989 0.00379936 0.0182619 0.0200577 0.0146693 -0.000290857 0.00348216 0.00384736 0.0144573 -0.00212206 0.0181836 0.000381696
3669 -0.00103798 -0.0148098 0.00627296 0.00330905 -0.0104 -0.00965201 -0.00374397 0.0154564 0.0198499 0.0171131 0.0177514 0.00998425 0.0160837 0.0203352 0.00644863 -0.0129954 -0.00870437 -0.0172215 0.00419128 0.000865538 -0.0126632 0.0155071 0.00855692 -0.0156319
939 -0.0106698 0.0145298 0.000808886 0.0112781 0.008837 0.010917 -0.0172709 0.0205329 0.00839782 -0.0117792 0.00821863 -0.0129007 -0.0159564 -0.00657789 0.0182152 0.0109271 -0.00450506 0.0153986 0.0130211 -0.00641457 -0.0183243 0.00062866 0.00757984 -0.0109978
3170 -0.00973921 -0.014268 0.0176758 -0.0178129 -0.00162572 -0.00159051 0.017901 0.0231922 0.0163732 -0.00741932 0.0193732 -0.00640407 -0.000790581 -0.012904 -0.0108411 -0.0131045 0.00870502 -0.018643 -0.0164066 0.0113008 0.0197434 -0.00727052 -0.00715616 0.000599149
1615 0.00579659 0.0207444 -0.017734 0.00695148 -0.00289718 -0.011057 0.0119358 0.00973002 0.0113689 -0.0130461 -0.0188562 -0.00155837 -0.0177811 0.0110678 0.0118083 -0.00560623 0.00490857 -0.0135774 -0.00404009 0.0121634 -0.00690375 -0.00232587 -0.0136005 0.0136655
4489 -0.0176685 -0.00995992 -0.00413875 0.00561378 0.0112199 -0.0057917 -0.00658816 0.0156947 0.0161389 -0.0115996 -0.00565002 -0.017801 6.84019e-07 0.00667694 0.00806806 -0.00126821 0.0124169 -0.0034857 0.0149432 -0.00179294 -0.0187832 -0.000273544 0.00610723 0.0148135
2345 0.0143126 -0.0149359 -0.00316286 0.0163359 -0.0173885 0.0165741 0.00748691 -0.0133242 0.00376588 -0.00576664 0.00496359 -0.0148406 -0.00367959 0.0152134 0.0207555 -0.00408079 -0.00787471 0.000826509 0.0115044 -0.0015971 -0.00715705 -0.0177777 -0.00775597 0.00137201
1598 -0.010736 -0.00131176 -0.0104619 -0.00985765 0.0242835 -0.00684667 0.0240613 0.0142336 0.0028235 0.00982801 -0.0209344 0.0118714 0.000588477 0.0193781 -0.0136754 -0.0016471 -0.0132122 0.0202529 0.00708572 0.00218538 -0.00825295 0.0114425 0.0198359 -0.018286
2501 -0.0128208 -0.0111657 0.00255362 0.00539831 0.0177794 0.0151565 0.00571405 -0.0127421 0.0193001 0.00896621 -0.00111485 0.0165364 0.0142537 -0.00695979 0.00672408 -0.0096203 0.0196813 -0.0156464 -0.000325153 0.0113735 -0.00476987 0.0177163 0.0196108 0.0186009
1047 -0.0030132 0.00499862 0.00245219 0.0161357 0.0103441 0.0158738 0.00382068 0.00878506 -0.0123426 -0.00363224 -0.0134903 -0.0175219 -0.00664521 -0.0159203 0.000651172 0.00194928 -0.0156474 0.0192524 0.0161888 -0.0157603 -0.000212556 0.00755093 0.0110847 -0.00819141
4005 -0.0126786 0.0148195 0.003737 -0.000565738 -0.00509086 0.0205607 0.0119634 0.0153873 -0.0160682 0.00249296 -0.0180222 0.00891785 -0.000727621 -0.0157737 0.0185524 0.00793913 -0.0109694 -0.0197921 0.0093169 0.016175 -0.00648884 0.00151737 -0.00453372 0.00833721
2985 0.0193458 0.000195649 0.0101883 0.00331443 -0.0105231 0.00944265 -0.0102492 -0.0047471 -0.018232 -0.00387763 0.0120813 -0.0199877 -0.0136213 0.0173004 0.020258 -0.0098961 -0.00902165 0.005015 0.0188842 -0.0180447 0.012896 0.0174264 0.0151544 0.0122196
2984 -0.0144058 -0.00120716 -0.0203804 -0.00818849 -0.00537053 0.00713602 -0.0143157 -0.00228374 -0.00333318 -0.0180575 -0.000507625 -0.00686206 0.00670662 -0.00899451 -0.0118941 -0.00829435 0.0002024 -0.00985437 0.00844952 -0.0124664 0.0114458 -0.0187087 -0.021083 -0.0067596
2613 -0.0173363 -0.0155466 -0.0224691 0.0196939 0.0103162 -0.00340245 -0.00838897 0.0113506 0.00282932 -0.00463736 -0.00123453 -0.00325984 -0.013698 -0.017296 0.00713082 -0.00288847 0.008372 0.0202859 -0.00337811 -0.00148666 0.0137248 0.000247239 -0.0137674 -0.0126687
1625 -0.00943074 -0.00913318 -0.023768 -0.00453902 0.016299 0.0154937 0.0213374 0.00380545 -0.0182668 -0.00738803 -0.00856748 0.0263825 0.0236168 -0.0104356 0.0125671 0.012761 0.00369388 0.0141685 -0.00121345 -0.00410456 0.0150542 0.00502075 -0.00802724 -0.0137202
3746 0.00261534 0.00569315 0.00126623 -0.00995755 -0.0173584 -0.0170212 -0.0188755 0.00927855 -0.0142689 0.00449232 -0.0106252 -0.00420078 0.0136489 -0.0140856 0.0125705 -0.0208157 -0.0167293 -0.00470571 -0.00442832 -0.000235878 -0.00607036 -0.0117977 0.00197858 -0.00828477
3800 0.0161754 0.0162812 -0.00294899 0.0190156 -0.00418788 -0.0101088 0.00847781 -0.00422148 -0.000807796 0.00202626 0.00210606 0.0205432 0.0113933 0.00898789 -0.0122259 -0.0183424 0.010414 0.0205276 -0.0116073 -0.00810853 0.00827271 0.0187482 -0.0157014 -0.0205486
775 0.0125659 -0.0162082 -0.00633858 0.0207207 0.00844217 0.0120908 0.0161375 0.00148251 0.00840541 0.0179676 -0.0204059 0.0127507 -0.0068133 -0.000683179 1.50295e-05 0.00618982 0.0151146 0.020387 -0.0183822 -0.00791076 -0.0109385 -0.00468712 0.0165623 0.0191275
5405 -0.00677158 0.013233 -0.00640479 -0.018435 0.0191005 -0.0204058 0.00598017 -0.0110738 -0.0178537 -0.0060617 -0.0209755 0.000448447 -0.0117443 0.0214662 0.00606299 0.0166252 -0.0143733 -0.010785 -0.0147237 0.00138219 0.0115007 -0.0159477 -0.0125937 0.00515539
534 0.0166978 0.00703994 -0.00949866 -0.0130169 -0.0124989 -0.00162441 0.00447144 0.00566142 0.00786445 0.00971489 -0.0153861 -0.000622753 0.01947 -0.013409 0.00862854 -0.00530039 -0.00334037 -0.00614862 -0.0134152 0.00644964 -0.0133411 -0.000252426 -0.000676082 -0.0110634
4409 0.00169295 0.00479776 0.0060951 -0.0180524 -0.0123984 0.00582706 0.0220508 -0.010971 -0.0192549 -0.000360457 -0.00052078 0.0206803 0.0018737 -0.0010133 -0.00589619 0.00675333 0.0177302 -0.0183907 0.00606198 -0.000766551 0.00764847 0.0131362 -0.00726019 -0.00370969
5497 0.00591522 0.0226604 -0.00861928 -0.015651 -0.0160801 0.00961946 -0.00761316 0.00763072 -0.00646646 -0.0013667 -0.00447572 0.0205921 -0.0143616 0.00631935 0.0146441 -0.00403889 -0.00964253 0.018376 -0.00604796 -0.00191587 -0.0188232 0.00239438 -0.000853289 0.0177756
219 -0.00498711 0.00480557 0.00274254 0.00920813 -0.010034 0.00882944 0.0131412 0.0160769 2.95861e-05 0.00715338 -0.0119247 0.00377853 0.000717044 0.000971599 -0.0119423 0.0198237 -0.0119531 -0.014596 -0.013755 -0.00764431 0.00232107 0.0115731 0.0198849 -0.0222022
4572 -0.0212573 -0.0027505 -0.0216141 0.00962727 5.09692e-06 0.00568818 0.00865692 -0.0141961 -0.000256794 0.0147381 0.00430758 0.0082305 0.00867736 -0.00459289 0.00628935 -0.00626896 -0.00935792 0.0155264 0.00826457 0.0163323 -0.0125529 -0.0039815 0.0181304 -0.015534
185 0.00935199 0.01081 -0.0133092 0.00284016 -0.0179695 -0.0211528 0.00691977 0.00131103 -0.0104827 0.012154 0.00119149 -0.0130253 0.00678919 0.00873594 0.0229805 0.0154372 -0.014043 -0.011556 -0.00727241 -0.00557695 -0.00282412 0.00644596 0.00781456 0.00371305
4753 -0.0112688 -0.0102894 0.00809234 0.0121296 -0.00486923 -0.0133561 -0.00481158 0.0172914 0.0120843 -0.0171579 -0.0175352 -0.0139349 -0.0158172 0.0221416 0.00853725 -0.0129807 -0.00291475 0.0163635 0.0131122 0.0138594 0.0139099 -0.00385257 -0.00710249 0.0152226
4051 0.00597718 0.0168246 0.0194736 0.011726 0.00785015 -0.0101474 -0.0194982 0.00213539 -0.0189596 -0.00701203 0.0113831 -0.0111424 -0.00731579 -0.0113753 0.0153881 -0.0108901 0.0109738 -0.00692118 -0.0178562 -0.00077049 0.0155193 -0.0139171 0.00246653 -0.0131845
2175 -0.00649256 0.0204859 0.00825105 -0.00505449 0.0165205 0.0131378 -0.000886208 0.00360123 0.0142112 0.0194589 0.012154 -0.0096621 0.00757295 0.0122318 0.0205171 -0.0106121 -0.00195096 -0.00676616 0.0108394 -0.0130889 0.00467629 0.00444461 0.0119579 0.0169597
3542 0.00660628 -0.0154772 -0.0195645 0.00474266 -0.00639855 -0.00088834 -0.00181834 -0.0156996 0.0159634 0.00548131 0.0118664 -0.0193635 -0.0096437 -0.00915835 3.66796e-05 -0.00102887 0.0191105 0.00518943 -0.00170187 -0.00248102 -0.0166787 -0.00874554 0.014047 0.00266387
4334 -0.00506582 -0.0129224 -0.0124785 0.000138805 0.0143184 -0.0173129 -0.00920349 -0.00642723 -0.00120262 0.0201185 -0.0177185 0.010515 0.0142704 -0.00113146 -0.0143529 0.0103607 0.00307417 -0.00597997 0.00550754 -0.0151073 0.00609567 -0.0164423 0.0130341 -0.0141898
1131 -0.00652447 0.0152758 -0.020932 0.00120861 -0.00642672 0.00992781 0.0125343 -0.0200468 0.0086206 0.0172068 0.0119874 -0.0178659 0.00933631 -0.0164865 -0.0139558 -0.0202451 -0.0144144 -0.00726488 0.00148451 0.00698723 0.00308849 -0.0186418 0.00152425 -0.0194901
2114 -0.000208357 -0.00510739 -0.00349859 -8.37776e-05 0.00541205 -0.00908647 0.0212629 -0.00669107 0.0189411 0.00152896 0.007433 -0.0154582 0.00100229 -0.0183201 0.00544409 0.0165289 -0.00624048 0.0126199 -0.01104 -0.0179634 -0.0165107 -0.0085216 -0.00316231 0.0100042
2907 -0.0205584 0.0089715 0.0162018 -0.0188036 0.00506773 0.000670213 0.00101211 0.0022798 -0.00137831 -0.00467392 -0.017911 0.0128303 0.0179053 0.0241497 -0.00474673 -0.0124125 -0.00530942 -0.0120607 -0.00225145 -0.00406671 -0.014 0.0173477 -0.0166294 -0.0188655
2609 0.00998611 -0.00700732 -0.0183555 0.0101542 0.00663756 -0.00530534 -0.0168421 0.00956013 -0.0163333 -0.0209743 -0.0176255 -0.0168166 -0.0174692 -0.00330963 -0.00328138 0.0194529 -0.000141598 0.0130551 0.000291075 0.00363287 0.0167451 -0.0146309 0.0168758 0.00426615
3045 0.0166982 0.00596341 0.00495102 -0.00270863 0.00699214 0.00999164 0.00819292 -0.0156311 -0.0048206 0.00069579 0.0181334 0.00621789 -0.00217248 0.0244287 -0.0145686 0.00945811 0.00804404 -0.0128949 0.00727749 -0.0153554 -0.00429928 -0.00382033 0.00888375 -0.0102546
4260 0.00643072 0.018676 -0.0075569 -0.0118757 -0.00127515 0.00894544 0.0121438 -0.00656372 0.00788936 -0.00387395 0.0189424 -0.00365123 0.017884 0.023813 -0.00799569 0.00968486 0.0104953 -0.00728745 0.00644348 -0.000357811 -0.00339323 -0.0194493 0.00627499 -0.00274414
748 -0.0064162 0.0102515 0.00324556 0.00548901 0.0103203 0.0178863 -0.00511093 0.0100737 -0.0156841 0.00871868 0.0205907 0.00965679 0.0183416 -0.00691351 -0.0183153 -0.00193781 0.00815468 -0.0147366 -0.00317923 -0.0126402 -0.00532537 -0.0167858 0.0150682 0.0134079
2315 2.53884e-05 0.00630295 0.0123308 -0.00228195 0.0183096 -0.00838786 0.000689045 0.0213749 -0.0203238 0.0107934 -0.010001 0.00855145 0.00877663 -0.00933537 -0.00344463 0.0124976 0.00399035 -0.0101457 0.0039692 -0.00391184 -0.0127914 0.000188285 0.0125464 -0.00663235
1989 0.0163335 -0.00667742 -0.00111441 -0.00308899 -0.0155745 -0.0176348 0.00614656 -0.0132757 0.00505835 0.00401767 -0.00644242 0.00478599 0.00404823 -0.00936899 0.00718426 0.00123719 -0.00675353 0.00674654 -0.00249905 0.00659393 -0.0144307 0.00629598 -0.0195578 0.00878358
3113 0.0104995 -0.00507961 -0.0187972 0.0101563 -0.000136738 -0.0177863 0.0199832 0.0156598 0.0139347 -0.00119626 -0.00836189 0.00929458 -0.0146212 0.0137554 -0.00377634 0.001226 0.0101019 -0.00798436 0.013358 -0.0181393 0.0152668 -0.017201 -0.00972983 0.00646516
871 0.0110187 -0.0100278 -0.0125984 -0.00515693 -0.0139947 -0.0200694 -0.0200164 -0.00648228 0.00226124 -0.00876884 -0.016507 0.00176205 0.0134074 -0.0147852 0.0119129 -0.0141074 -0.0145085 -0.0163273 0.0146765 0.0129273 0.0195763 0.011648 -0.0184795 -0.020646
3346 -0.0101725 0.00237104 -0.0170741 -0.0112014 0.0146911 0.0168532 0.0046705 -0.0117133 0.00157306 -0.0105606 0.00794338 -0.0121649 -0.00540149 -0.00890874 -0.00523186 0.00667161 -0.00752468 0.0143933 0.00773829 0.00532785 0.0135739 0.0105765 0.0145419 -0.000411911
3014 0.0147442 0.0228078 -0.0210957 0.00650682 -0.0121471 0.00268231 0.0173875 -0.0105658 -0.000998142 -0.00903411 -0.0179714 0.0153712 -0.013487 0.00813472 0.0172727 0.0192682 0.00825953 -0.012906 -0.0223752 0.000577438 -0.0201606 0.000405235 0.0184772 -0.00975094
315 0.00167633 0.00762237 0.00169473 0.00636517 0.00550536 -0.0105636 -0.0143352 0.00663876 -0.0110752 0.0138285 -0.0018678 -0.0103081 -0.0171992 -0.0100673 -0.00812757 0.00665492 9.23386e-06 0.0143682 -0.00513526 0.00208959 0.000119885 0.0071035 -0.0140504 -0.00645861
3009 -0.00946865 0.0064283 0.0102281 -0.014344 0.00993986 -0.00790052 -0.00567887 -0.0105603 -0.00828312 -0.00237038 0.0107715 0.0156052 0.000657544 0.0154503 -0.00282515 0.0201417 0.00509662 -0.0103914 -0.0117356 -0.00224717 0.0127644 -0.00649706 -0.0104612 0.0132882
1765 0.0101021 -0.0176557 -0.0130866 -0.0053696 0.0131308 -0.0142262 -0.0118882 -0.0024171 -0.00946493 -0.0162574 0.0202823 -0.00771205 0.00289189 -0.0102088 0.00685665 -0.0163215 -0.00106164 -0.0188477 -0.0158311 -0.00628311 -0.0145362 0.00272215 -0.00360439 0.0047711
2753 -0.00718302 0.0229271 -0.0201441 -0.00411753 0.0159364 -0.0183912 0.00281945 -0.00943275 -0.0192616 0.00942145 -0.00783424 0.0184154 0.0195524 0.00127917 -0.0120508 -0.00134219 -0.00783481 -0.00296117 -0.0216602 0.00684082 0.0179683 -0.0218279 -0.0106899 -0.0169996
4707 0.00410261 0.020633 -0.0224232 -0.0170697 -0.00982624 -0.0184894 0.0186784 -0.00102678 0.00529256 -0.017343 -0.00286508 -0.0011318 0.01327 -0.00999937 -0.00414669 -0.0139787 0.0218344 -0.0112331 -0.00506494 0.0116355 -0.00201743 -0.0137589 0.0104801 0.0135483
911 -0.018242 0.0240758 0.00231661 0.003487 -0.00416993 0.0122062 -0.00910274 0.0181392 0.0089677 0.0143442 -0.00204374 0.0181471 -0.00944684 -0.00153291 0.0155496 0.0163976 0.00202856 0.0150884 -0.00794712 0.00866161 0.0143863 -0.00844748 -0.0108244 -0.000600733
685 -0.00139751 0.0229374 -0.0211252 -0.00288058 -0.00719854 0.0185343 -0.00847905 -0.00487938 -1.31792e-05 -0.00681504 0.0111191 -0.00103085 0.0220611 -0.00186812 0.0115312 -0.000441254 0.0084989 -0.00714031 -0.0185691 0.00153497 0.0134683 -0.00603784 -0.00977324 -0.0125665
3987 -0.0178086 0.0216498 -0.00141619 -0.0209537 -0.0106448 -0.0173283 0.00609104 -0.0122546 -8.42024e-05 -0.00140378 0.000242088 0.0206178 0.00892808 -0.00891833 0.00240189 -0.00306254 -0.0143832 -0.00806992 0.0101978 0.00532747 0.0127929 -0.0196455 0.00105151 0.012524
2639 0.00526296 -0.0111377 -0.00106291 0.000543599 -0.00746336 0.0181772 -0.00495969 -0.00927544 0.00769664 -0.0192814 0.0156754 0.0200508 0.00382674 0.00475596 -0.00321344 0.0121746 -0.00361927 0.017933 0.00436475 -0.0116367 0.007962 0.00547047 -0.00774104 0.00594913
810 0.00818272 0.0234964 -0.000304139 -0.000445423 -0.00162871 -0.019833 0.00697095 0.00676349 0.00372634 0.0054089 0.00865222 -0.00421702 0.00340975 0.0185508 -0.00864219 -0.00323047 -0.0126448 0.014158 -0.00563029 0.00864857 0.0206018 -0.00908328 -0.013019 -0.000752592
5290 -0.0146184 0.0112563 -0.0224823 0.0201355 -0.016127 -0.00325934 0.0218923 0.00472576 0.00628101 -0.00608997 0.0155048 0.0119314 0.0145138 0.00730186 -0.00673927 0.016088 0.00916639 -0.00159744 -0.00610423 0.0123033 0.0164402 -0.0181394 -0.0133903 0.0115521
4406 0.0182388 -0.0189715 -0.0168022 -0.00936714 0.0120409 0.00245721 0.00806914 0.00700885 0.0164597 -0.0115527 0.0176356 -0.0124324 0.0108966 0.00860457 0.0163436 -0.00996531 -0.000237993 0.0121119 -0.00640766 0.019318 0.019498 -0.00200676 -0.00623835 0.00337244
2997 0.000800357 0.0143398 -0.00540094 0.0158793 -0.011857 0.00518377 -0.00801494 0.0162058 -0.00663039 0.0201646 -0.0183323 0.0152951 0.00205376 0.00761714 0.00491903 0.00735621 -0.00474809 0.0063449 -0.0216255 -0.0186291 -0.0161985 0.0123382 0.0191493 -0.00893787
2860 0.0102327 -0.0179499 -0.00515945 0.0203976 0.00341183 -0.0187731 0.019577 -0.0117829 -0.0112682 -0.00612077 -0.000250052 -0.00221408 0.00816581 0.0166416 -0.0115824 -0.0190653 0.0108005 0.0216431 -0.0154812 -0.00585897 -0.0152848 0.00279698 0.00896372 -0.0214838
3026 0.018742 -0.00957165 -0.0156033 -0.0202869 0.0139077 -0.0153941 -0.00230465 0.00660762 0.0169055 0.020306 -0.00300157 -0.0138873 0.00174531 0.00316208 -0.0113593 -0.00367459 0.0198054 -0.0173952 0.0152875 0.019018 0.00338887 -0.00637937 -0.00502289 -0.00381445
5107 -0.0134848 0.0164249 0.0136686 -0.0126516 0.00239344 -0.0211665 0.0118766 0.0119867 0.00693442 0.00798389 -0.0173486 -0.0189366 -0.00227457 -0.00115617 0.00446417 -0.0192243 0.0127753 0.0165915 -0.00439623 -0.0207133 0.0211019 -0.0195949 0.0201272 -0.0106865
4293 0.00711789 0.0013715 -0.0161137 0.0206061 0.0101776 0.0187791 -0.00950379 -0.00704184 -0.01074 -0.0046304 0.0162892 -0.0114495 0.00848887 -0.00923141 -0.00569738 0.00120043 -0.0159794 0.0112742 -0.00830226 -0.0172583 -0.00364467 0.00228946 0.017017 -0.0175711
4692 0.0172305 0.0206429 0.00648034 0.00600446 0.00826322 -0.018892 0.00950775 0.0212093 -0.0184689 0.00797974 0.0128384 0.0108028 -0.0125579 -0.0146317 0.019269 -0.00314762 0.00227943 0.0166877 0.0194008 -0.0170843 0.0183509 0.0215428 -0.0110234 -0.000510895
669 0.00515205 0.00762822 -0.0185015 0.00892837 0.0112402 0.00732311 -0.0126349 0.0232052 0.00510563 0.0117075 -0.0118979 -0.0154757 -0.0128945 0.0134338 0.00178568 -0.0212874 0.0222499 0.0148996 -0.0109079 0.0117475 0.0198401 0.00256629 0.0111117 -0.00954179
3460 -0.00565398 0.00290112 0.00307139 0.000996357 0.00351305 0.0119384 -0.0095217 0.0178262 -0.0108855 -0.0108862 0.0204698 0.00687513 0.00847175 -0.0082979 -0.0103694 -0.0204095 0.0123583 0.00234715 -0.0157353 -0.00288644 -0.00556861 0.0122279 -0.0107991 -0.00923337
1856 -0.0155602 0.0140046 -0.00602567 -0.0169655 -0.0175009 0.0147775 0.00761004 0.0177406 -0.00733055 -0.0102382 0.00763708 -0.00404396 -0.00805512 -0.00508098 -0.00851053 -0.019643 -0.0197691 0.0156614 0.0102013 0.00973134 -0.0032439 0.00434752 0.0157839 0.0149652
3261 -0.0143016 0.0207067 -0.00254401 -0.00951854 0.00764253 0.0142476 0.0222267 -0.000237878 0.00532793 0.00517767 0.000954248 0.018313 -0.00253476 0.00789574 -0.011323 0.00755635 -0.011752 0.0219464 -0.0065219 -0.0194382 -0.0115067 -0.0123967 0.00522219 0.00814239
4255 0.00717954 0.0142748 0.0134147 0.0158636 -0.0162213 -0.010885 0.000929185 -0.00234143 0.0188731 0.000811421 0.0184114 -0.00623212 0.00134332 0.000588169 0.0135927 0.00548175 -0.00729251 -0.000993109 0.000353125 0.000415998 -0.0151416 0.0132121 -0.00915208 -0.0078617
4462 -0.00555703 -0.0180991 0.000515955 -0.00139941 0.00692123 0.0119968 -0.0173511 -0.0116536 -0.0113252 -0.00484809 -0.00990521 0.0210733 0.0072029 0.00391905 -0.00261082 0.00888912 -0.0140084 0.019743 0.0155922 0.0114319 0.000854693 -0.00441899 -0.00995136 -0.00077118
73 0.0165555 0.0159897 0.0147461 -0.0140473 0.0143356 0.000739866 0.0085654 6.55651e-05 0.0147554 -0.011094 -0.00603248 -0.00416151 -0.0155936 0.0166451 0.0118362 -0.00513369 -0.00691918 0.00311483 -0.00261838 0.0114601 0.00619288 0.0175288 0.0137627 0.0127027
4301 0.004442 -0.00451834 0.0099223 -0.0195731 -0.0156592 -0.0140121 0.0109177 -0.0167885 -0.0193415 0.0192454 0.00905979 -0.00997319 -0.0141461 0.0162963 0.00798971 -0.00956399 -0.0195106 -0.00652225 -0.0146262 -0.0194145 -0.0191766 -0.0207603 0.00394266 0.00951642
1261 -0.00616067 0.0225434 -0.0107212 0.00314497 0.0115539 -0.00155412 -0.0150583 -0.00395236 0.00871873 0.0190661 -0.0212732 0.0125676 0.00608995 0.00345382 -0.00187161 -0.0128704 0.0138116 0.0143968 -0.00527639 -0.00665227 -0.0104237 0.00859732 0.0119949 0.00470829
612 0.00922538 0.0100589 0.0108281 -0.00698194 -0.0195433 -0.00674532 -0.0201989 -0.00547693 -0.00749304 0.0121078 0.009804 -0.0099761 -0.0149813 -0.00706341 -0.00130564 0.00802667 0.0122336 -0.0170867 0.0152104 -0.00153388 -0.012585 -0.0103072 0.0135472 -0.00470168
860 -0.0236179 -0.00884119 -0.00077111 -0.0204624 0.00279383 -0.00426438 0.0113996 -0.00300919 0.0175516 -0.00118715 -0.0133992 0.015855 0.0238977 -0.00579345 -0.0056419 -0.0125527 0.021487 0.0128586 -0.00720017 0.0196245 0.0136525 0.0163258 0.0138308 -0.0028899
529 -0.00383751 0.00902093 -0.0161071 -0.0184037 -0.0152584 0.012052 0.00955939 0.00620872 -0.00501644 -0.00371459 0.00634087 0.0162391 -0.0078591 0.00192341 0.0142363 -0.0148907 -0.0179001 0.0115343 -0.00183385 0.0155962 -0.00908002 -0.00381791 0.0115431 0.0119161
3593 0.0135083 0.0127384 0.011931 0.00521172 0.0138191 -0.0189452 0.0122123 -0.0116391 -0.00873372 -0.0193375 0.00738584 -0.0039436 0.00685055 -0.0163583 -0.0118972 -0.00867088 -0.00410031 -0.00699872 0.00828099 0.0172979 -0.00365309 -0.00292911 -0.0159646 0.0106706
3431 -0.0170417 -0.00289078 0.0179612 -0.00981375 -0.0112836 0.012742 -0.0144246 -0.00585803 0.00621286 0.00708215 -0.00932992 -0.00828524 0.00314093 0.0101006 0.0120589 -0.0169211 -0.00444434 0.00377426 -0.0071198 -0.0159681 -0.017151 0.0153307 0.000226475 0.000916919
2176 0.0139356 -0.0025598 0.0022237 -0.0136425 0.0182888 -0.0201603 0.0169884 -0.0200417 0.0200688 -0.0187493 -0.00624227 0.0157724 0.000486301 -0.0169841 0.00659857 0.0128555 -0.000119146 -0.0176915 -0.00164343 0.000185775 0.0142796 0.00572702 -0.0126172 0.0069546
4262 0.0179578 -0.00748045 -0.0128404 0.0169084 -0.0107895 -0.005445 0.00431374 0.00960823 0.0118366 0.00460019 0.00665845 0.0234452 -0.0150844 0.0231812 -0.0174277 0.00320622 0.00316254 -0.00355328 0.0148384 0.00816407 0.00665861 -0.0126643 -0.00485558 0.0206717
2231 0.0112653 0.0174159 0.00927317 0.0160527 -0.0164952 -0.0137874 -0.015403 -0.00842773 0.00206734 -0.00243968 -0.0146776 0.0158192 -0.0179315 -0.00976305 0.01295 -0.000249481 0.0104477 -0.0131084 -0.00367845 0.0163977 -0.0199845 -0.0100842 0.011778 0.0173518
1587 -0.0106642 -0.0105455 0.00563881 0.0194942 0.0153283 0.0183517 0.0195437 -0.00567109 -0.0162028 -0.0212854 -0.00644253 0.00493646 -0.00509998 0.0193297 -0.00994999 0.000422233 -0.0195283 0.015588 0.0200036 0.0210458 0.00234574 0.0153084 0.014851 -0.00437839
458 -0.0167591 0.00165376 -0.00422974 -0.00785524 -0.0101811 0.0195238 -0.00553575 -0.0144429 -0.0142443 0.00886965 -0.018493 0.00182605 0.00400842 -0.00720301 0.00302877 0.00832137 0.0224161 0.0031644 0.00725678 -0.00547511 -0.0114337 0.0150397 -0.0158045 -0.0197732
3093 0.00847523 0.0188814 0.0105148 -0.0139204 0.00343411 -0.0136518 0.0042488 0.00542818 -0.00844635 0.00828482 -9.21688e-05 0.00127042 0.0126008 0.0181763 0.0188075 -0.00604481 0.0158102 -0.0203093 0.0170405 -0.00829719 -0.0175759 -1.97327e-05 0.0112068 0.00678784
3480 0.0101789 -0.00480445 -0.0146589 -0.00672876 -0.0168292 0.00127106 -0.00985853 0.00624909 -0.00079948 -0.0185808 0.0182947 0.000754752 -0.011638 0.00933514 0.00464878 -0.00952176 -0.00916996 -0.000138488 -0.0134981 -0.000117254 0.00719174 -0.0138538 -0.00490826 -0.00477804
4749 0.0113154 0.0113887 0.0190503 -0.00367167 -0.000961158 -0.00505216 -0.0154015 0.00785229 -0.000781269 -0.00744688 0.000843602 -0.0148166 0.00512677 -0.0137805 -0.0183971 0.0125411 0.0200077 -0.0203406 -0.0117267 0.00356279 -0.013197 0.00217369 -0.0065905 -0.00592547
1963 -0.0181553 0.00689994 0.0138571 0.0183731 0.0145862 0.0184136 0.0192981 0.00164945 -0.00279053 0.0182036 0.016296 0.0231017 -0.0157578 0.00650168 -0.000933202 -0.00620503 -0.007801 0.00241771 -0.00392713 -0.00612082 -0.0205805 -0.00332436 -0.0184568 -0.00947182
4150 -0.0181571 0.0213956 0.0147736 -0.00165246 -0.0153713 -0.00540884 -0.00143882 -0.00710904 -0.0124112 -0.0175861 -0.0118879 0.020136 0.00160486 -0.00883432 -0.0122144 0.0167487 -0.00157349 -0.00655258 0.0106698 0.0137401 -0.00143475 0.0175531 -0.00129756 0.00913245
476 0.0128928 -0.0121629 0.00576046 0.0129951 0.00934915 0.00611527 -0.00517863 -0.00588559 -0.00866138 -0.012406 0.00880641 0.0209828 -0.0143397 -0.0142215 -0.0138784 -0.00739099 0.0145759 -0.0147121 -0.0176253 0.0217152 0.0144297 0.00566422 0.00706187 -0.0183746
5092 -0.022192 0.0130086 -0.00696167 -0.017856 -0.0106822 0.0122696 -0.0139482 0.0190757 0.0103459 -0.0124826 0.0130065 -0.0149283 0.0161698 0.0191318 -0.0149427 -3.64327e-05 0.0131898 -0.00321691 0.00953648 0.00399951 0.0109173 0.00690057 -0.0160622 0.0122129
4720 -0.0123219 -0.0131756 -0.0102076 0.00674788 0.0158346 -0.00908344 -0.00424729 0.0146307 0.00648707 0.00558728 -0.0108564 -0.00217213 0.0159594 0.0238111 0.015521 0.0128307 0.00964707 -0.0168776 0.00126729 0.000103223 -0.0172607 0.0187743 0.0129387 0.0108155
3421 -0.00214835 0.0148081 -0.00723993 -0.0148801 -0.0121714 0.022093 0.00440438 -0.0124627 -0.0114947 0.00484947 0.00185423 0.0194993 0.0189632 0.0192514 0.0203474 -0.00975445 0.0183869 -0.00994065 -0.0127554 0.0178535 0.0166817 0.00873399 0.0184867 0.0151968
247 0.00760291 0.00338762 -0.00392743 -0.0137221 0.0222622 -0.00130984 0.0153271 0.000620911 0.00671669 0.0174347 0.0183565 -0.00871863 0.0019207 0.00349333 0.0165698 0.00359147 -0.000137699 -0.0107839 0.00314954 0.00446199 -0.0106377 0.00701255 -0.0206657 -0.0169419
4966 -0.0185352 -0.0165585 -0.0184485 -0.00782534 -0.00722645 0.00352586 0.0129097 -0.000674754 -0.0180075 0.0192438 -0.0188578 0.0175676 0.00645949 -0.0171279 0.00329764 -0.0163488 -0.0104221 0.0132478 0.0179618 0.00389808 0.00452025 0.0099517 -0.0167756 0.00552614
4099 -0.020842 -0.0168478 -0.0183961 -0.00764946 -0.00957999 -0.00385535 -0.0111833 0.000989076 -0.0186073 -0.0185794 0.000228351 -0.00742788 -0.00240893 -0.00705713 0.0174084 0.00408617 0.00850818 0.0126849 0.0104492 -0.008073 0.00182644 -0.00269559 -0.018377 -0.0170664
2386 -0.0176436 0.02088 -0.00877119 -0.0192048 -0.00245579 -0.0171326 -0.00614833 -0.0131229 -0.0216438 -0.00187813 0.015217 0.00078018 -0.0129192 -0.00983807 0.000738484 -0.0193533 0.0117837 -0.0153586 -0.0144167 0.0134126 0.0055814 0.0208623 -0.0164533 0.018778
5115 0.0084873 0.0146932 0.0164848 -0.00843655 -0.013243 0.0111651 0.0125562 0.00440164 0.0014579 0.00275154 0.0162752 0.00206236 0.0016321 0.00303467 0.0108295 0.00323345 0.0187816 -0.0157503 -0.0113814 -0.0105986 0.00483212 0.00524322 0.0138514 0.00791658
3100 -0.0114361 0.0081964 -0.0150108 0.0198458 -0.000557087 -0.00495477 -0.00888476 -0.00929168 0.00776318 0.0143023 0.0118831 0.0114108 -0.0144482 0.00399557 0.010451 -0.00909198 0.0117055 -0.000270989 0.0148879 0.0133382 -0.0168488 0.00911619 -0.000850676 -0.0198466
854 -0.00290539 -8.01738e-05 0.00828278 -0.00961484 0.00080593 0.000856594 -0.000140932 -0.00128756 0.0012677 -0.00815517 -0.0157881 -0.0171917 -0.00711612 0.00811604 -0.014047 0.0211303 0.0178996 -0.0167072 -0.0194128 0.0185443 0.017513 0.0115021 -0.0199465 0.010878
4622 -0.000560307 -0.0150275 0.010525 0.00685457 0.0177761 -0.0191001 0.00262473 0.0183312 -0.0191613 -0.01432 -0.0123615 -0.0181151 0.0013346 0.0232906 0.00804613 0.0161476 -0.0108426 -0.0164744 0.00763553 -0.00159422 -0.01943 0.00633126 -0.00528498 -0.0110922
1905 -0.0144032 -0.00785807 -0.0148405 0.0160649 -0.00444527 -0.00293683 -0.0110492 0.0115152 0.0145719 0.00882838 -0.0164275 -0.0111951 -0.00441975 0.0238864 0.00732217 0.0191354 0.00174728 -0.0104441 -0.000461865 -0.0107403 0.0193255 0.0169762 -0.013037 -0.00956177
5441 -0.010742 -0.0117448 -0.0202642 -0.0135119 0.0150349 -0.0143882 -0.00992411 0.00565752 0.0145897 -0.0102391 0.00660883 0.0103849 -0.0206608 0.0184474 0.017612 -0.00896518 0.0221191 -0.0111314 0.00560054 0.0101615 0.00871 -0.00882144 0.00136641 0.00836215
1502 0.0136662 0.00570047 -0.00768173 -0.00194818 -0.00561523 -0.0173522 -0.0100488 0.0111973 -0.0105903 -0.0126401 0.00687476 0.00995464 -0.0107703 -0.00666691 0.00335308 0.0084524 0.0130061 -0.00171146 0.00770764 -0.00442733 0.000185174 0.00947594 -0.00113049 -0.0159244
2807 -0.00412883 -0.0146017 0.00354717 0.0124366 -0.00464628 0.00321705 -0.00498269 0.001969 -0.0187762 0.0166612 -0.00972468 -0.0186578 0.00770081 -0.015393 0.0175496 -0.0110026 0.0151207 -0.00514386 0.00961135 -0.0156308 -0.00647754 0.00871619 0.0049636 -0.008423
3879 -0.00699407 0.0187891 -0.00284817 8.16237e-05 0.0149866 -0.0139472 -0.00087874 0.0146456 0.0114641 -0.00334994 0.00862082 -0.00251728 0.00778247 0.0165814 -0.0107988 -0.0132478 0.011547 0.00491617 0.00481881 0.00613503 0.0184369 0.00434251 -0.0128857 -0.0190487
3303 -0.0158182 0.000748127 0.019755 -0.00227101 0.0129361 0.00967491 0.00214361 0.0173859 -0.00669712 -0.0155525 0.0101799 0.00926375 -0.00836912 -0.0156198 -0.016655 -0.0135608 -0.017801 0.0128631 0.000421787 0.00686622 -0.00918286 -0.00565715 0.0172277 -0.0011828
583 0.0128048 0.0222589 -0.0106569 0.0061204 -0.00441897 -0.0166244 -0.0198198 0.0028803 0.00284348 0.0150715 0.0130475 0.0190856 -0.0193581 0.00730111 0.02185 -0.00426407 0.0180038 -0.00183709 -0.00545015 0.0112459 -0.000776686 0.00919051 -0.0188361 0.0143656
290 0.00642161 -0.00253336 0.00895475 -0.0199536 -0.00275087 0.0175957 0.0137156 0.0231489 0.00267307 -0.0166789 -0.0161585 0.0225039 0.01385 0.00205599 0.00902615 -0.0142042 -0.000667135 -0.00735335 -0.0178684 -0.0171463 -0.00833375 0.0121563 -0.0174068 -0.0177724
2434 -0.0198378 -0.00873016 -0.000881191 -0.00914341 -0.00812977 -0.0180907 -0.00290412 0.00250678 -0.00470364 -0.0128754 0.00531181 -0.0012582 -0.0129784 -0.0146955 -0.0148505 0.0145319 0.0177541 0.0185875 -0.00074512 0.0182445 -0.013188 0.00216252 -0.00959908 0.00137173
4038 0.00494214 -0.000310079 -0.00840035 -0.00409692 -0.00651895 -0.0183842 -0.0114017 0.0126736 -0.000814252 -0.0206037 0.0043349 -0.00543776 -0.015789 0.00803045 -0.00532645 0.0144754 0.0219688 -0.00498308 0.000741547 -0.011704 -0.011202 -0.00998507 -0.000345671 0.00703224
5386 -0.0169843 -0.0147641 0.00399991 0.00152482 -0.00129084 -0.00974738 0.000973166 0.00858371 0.0205465 -0.00509067 -0.00783202 0.0164733 -0.0166832 -0.00929889 0.0089669 0.0158333 -0.014471 -0.0120105 -0.00106322 -0.00892147 -0.0151983 -0.00923625 0.00915946 0.00955547
4063 0.0173949 -0.00741383 -0.00375989 0.0025918 -0.00166646 -0.00361742 -0.000259674 0.0139479 0.0129071 0.0165823 0.0140985 0.0172859 -0.0191074 -0.0131239 0.0156178 0.0128468 0.0219538 0.0113698 -0.0170468 0.000354089 0.00455035 -0.00941211 0.00587586 0.00644891
