5636 24
4079 -1.3668 0.0929086 0.378095 0.462711 0.524836 -0.806975 0.606835 0.130491 0.2816 -0.830452 0.474286 0.342945 -0.799286 0.0898796 0.297758 -1.69762 1.10098 -0.913451 -0.628618 1.44605 1.1404 0.747807 -2.83754 -0.50986
967 -1.24478 0.138839 0.350273 0.370785 0.524952 -0.815017 0.600827 0.127289 0.28479 -0.884497 0.493271 0.422312 -0.769317 0.158613 0.294553 -1.62285 1.09713 -0.93027 -0.620006 1.38924 1.10055 0.769534 -2.85897 -0.615586
2127 -1.35988 0.0989773 0.399417 0.399892 0.621193 -0.79024 0.601562 0.0879357 0.23489 -0.860973 0.500329 0.409773 -0.831118 0.0924353 0.288716 -1.60489 1.0764 -0.910595 -0.605022 1.41147 1.11871 0.788444 -2.85713 -0.584875
2527 0.469184 1.16849 0.28542 0.611087 0.0671334 1.09372 1.06642 0.00807868 -2.27398 0.495436 0.596439 -0.517831 -0.894739 0.196604 -0.813118 -1.34317 1.69648 -0.156969 0.341075 -0.464466 1.04441 0.844786 -0.95542 -0.371504
5149 0.48092 1.23196 0.319352 0.679807 0.0409229 1.15656 1.12195 0.0416776 -2.37692 0.482291 0.619755 -0.529634 -0.975345 0.209418 -0.799669 -1.41624 1.87525 -0.160883 0.38551 -0.50701 1.0231 0.86859 -1.00935 -0.412366
1110 0.409994 1.01008 0.266301 0.546175 0.098126 0.897347 0.854486 -0.0143804 -1.932 0.367767 0.505232 -0.413142 -0.751428 0.168489 -0.599033 -1.1151 1.45939 -0.167333 0.307177 -0.402841 0.839726 0.730006 -0.768844 -0.345596
4292 0.467798 1.21682 0.315516 0.652873 0.10274 1.14992 1.09072 -0.0348926 -2.39966 0.487764 0.643768 -0.499532 -0.931388 0.191468 -0.821249 -1.399 1.77559 -0.195213 0.390757 -0.50503 1.04089 0.827092 -1.00877 -0.410841
1822 0.387435 1.15635 0.299877 0.638965 0.0587022 1.09642 1.04195 -0.0296467 -2.29747 0.4641 0.577457 -0.488377 -0.921311 0.228915 -0.833158 -1.28357 1.73235 -0.175524 0.338846 -0.472496 1.03455 0.800007 -0.939755 -0.381081
757 0.464788 1.18019 0.291807 0.605871 0.0691938 1.08984 0.981105 -0.0287934 -2.27759 0.460803 0.593563 -0.480835 -0.912657 0.198093 -0.771669 -1.26469 1.61966 -0.223137 0.42198 -0.517084 1.01622 0.826658 -0.971144 -0.417831
4008 0.4789 1.15516 0.261266 0.619571 0.103464 1.09837 1.00632 -0.00239 -2.28835 0.435842 0.650596 -0.498514 -0.927627 0.238115 -0.749306 -1.33103 1.76905 -0.141512 0.407691 -0.495849 1.02203 0.806957 -0.94558 -0.457149
3999 -0.23068 -0.838855 0.705235 -0.226526 0.577687 0.590068 -0.816815 -0.339603 -1.35318 0.53311 -0.0184384 -1.44649 -0.120357 -1.31819 -1.57805 -1.50468 0.732406 1.13249 -1.49578 -0.328073 0.412739 -0.328338 -1.53903 -0.679615
2304 -0.25125 -0.776148 0.653686 -0.20438 0.587703 0.609694 -0.721062 -0.292305 -1.28044 0.446852 -0.0134445 -1.28171 -0.0871711 -1.23995 -1.44298 -1.43093 0.664356 1.0698 -1.40454 -0.327842 0.427415 -0.283073 -1.46343 -0.646738
4407 -0.22337 -0.766502 0.667917 -0.220931 0.556264 0.584826 -0.731008 -0.262568 -1.26676 0.50005 -0.00865799 -1.32155 -0.105779 -1.25163 -1.47172 -1.42987 0.634356 1.09521 -1.38016 -0.352676 0.421328 -0.346152 -1.43339 -0.710117
5016 -0.210576 -0.719926 0.615796 -0.176031 0.446097 0.530543 -0.624277 -0.259052 -1.05744 0.430518 -0.00443816 -1.15206 -0.0672756 -1.08789 -1.32982 -1.20667 0.5799 0.961922 -1.22385 -0.299412 0.337629 -0.277148 -1.23698 -0.571695
1950 0.635176 0.74087 -0.243364 -0.0314435 1.47943 0.190657 -0.0965305 0.394941 -0.613766 0.473634 0.626598 -0.670562 -1.4153 -0.146445 -0.951139 -0.590451 0.86192 0.722696 -0.64906 -0.599373 1.04781 -0.569312 -1.53797 0.0222683
750 0.625255 0.791417 -0.202718 -0.0731164 1.5526 0.196815 -0.212793 0.414429 -0.597426 0.441253 0.59934 -0.750221 -1.50326 -0.269207 -0.950986 -0.578937 0.918715 0.771561 -0.619267 -0.631116 1.07929 -0.658933 -1.58748 0.0426601
5585 0.686233 0.825711 -0.284216 -0.0651482 1.59757 0.148766 -0.110606 0.403177 -0.57601 0.454682 0.628968 -0.697183 -1.46198 -0.182262 -0.988246 -0.611935 0.887481 0.812745 -0.650719 -0.652292 1.04338 -0.598854 -1.61534 0.0414037
3956 0.527909 0.730471 -0.00155234 -0.106432 1.59193 0.308895 -0.365931 0.479235 -0.495975 0.469205 0.500772 -0.813817 -1.55904 -0.510403 -0.976174 -0.492052 0.951371 0.863707 -0.685442 -0.639478 1.1054 -0.825286 -1.60948 -0.0171612
1135 0.573514 0.746604 -0.164948 -0.0662926 1.54641 0.212003 -0.214141 0.399258 -0.536726 0.483396 0.581997 -0.725882 -1.48967 -0.264179 -0.940598 -0.534671 0.94407 0.80542 -0.61919 -0.604398 1.04804 -0.666236 -1.55197 0.0382961
911 0.605926 0.739996 -0.101875 -0.0836695 1.54751 0.241923 -0.239885 0.37991 -0.579958 0.524471 0.55469 -0.808605 -1.54096 -0.335042 -0.960942 -0.590657 0.960244 0.790122 -0.667103 -0.625399 1.06161 -0.709817 -1.5716 -0.00303871
978 0.638916 0.766424 -0.144219 -0.0834825 1.56062 0.203931 -0.194738 0.416046 -0.579629 0.457048 0.58339 -0.727203 -1.49269 -0.257607 -0.90669 -0.566726 0.942149 0.768894 -0.690883 -0.608521 1.06905 -0.688331 -1.59192 0.00084498
4638 0.648437 0.755995 -0.207594 -0.126057 1.55076 0.190811 -0.181474 0.439483 -0.546655 0.440139 0.63285 -0.696528 -1.46525 -0.244566 -0.934788 -0.556869 0.866299 0.793457 -0.653207 -0.624028 1.06555 -0.64754 -1.59911 0.0137337
1994 -0.533746 0.268965 0.609248 0.413333 0.0347404 0.211889 -0.206647 -1.14583 -0.898972 0.0059194 0.739697 -0.988687 0.267427 -1.68725 -1.17014 -0.319748 0.1943 -1.3942 -0.967336 -0.216752 0.890122 0.386416 -1.95112 -0.669059
959 -0.601331 0.302289 0.635525 0.429502 -0.00943076 0.189787 -0.209797 -1.13241 -0.961021 0.015561 0.732307 -0.993304 0.321185 -1.73262 -1.16461 -0.324954 0.204564 -1.41591 -0.964393 -0.203591 0.91728 0.381533 -2.04261 -0.706384
2172 -0.574947 0.36154 0.578892 0.409146 0.00916491 0.169375 -0.193348 -1.14094 -0.934868 0.0645917 0.73907 -1.00246 0.34975 -1.72071 -1.21006 -0.343559 0.170757 -1.47295 -1.024 -0.247446 0.895117 0.411001 -2.01019 -0.751503
1612 -0.55352 0.289179 0.59291 0.403061 -0.022704 0.171658 -0.198475 -1.10229 -0.915919 0.0180935 0.75734 -0.960124 0.289211 -1.7073 -1.20263 -0.349526 0.244701 -1.41937 -1.02506 -0.228314 0.915557 0.425948 -2.01141 -0.730834
4811 0.927923 0.0044334 0.495724 0.981467 0.69033 0.637276 0.610298 -0.786291 -0.298952 -0.523503 1.2838 -0.359059 -0.108783 -0.289157 -0.0242985 -0.738545 0.806593 0.418805 0.258066 1.3172 0.272499 0.498036 -1.357 0.504399
3235 1.36103 0.0508677 0.485342 1.26759 0.783517 0.68372 0.791865 -0.743984 -0.689081 -0.650349 1.34671 -0.538779 -0.27776 -0.229051 0.0944511 -0.95655 1.14544 0.795653 0.207143 1.57034 0.0666263 0.56254 -1.98322 0.61211
2258 1.41498 0.121026 0.413236 1.16299 0.782811 0.63234 0.712244 -0.713955 -0.733332 -0.551268 1.21912 -0.435413 -0.260463 -0.183603 0.0949557 -1.05025 1.04889 0.627946 0.151363 1.32292 -0.0685631 0.530729 -1.81798 0.608576
4592 1.41805 0.0572891 0.438563 1.11873 0.711784 0.663883 0.641754 -0.714583 -0.649265 -0.511298 1.21379 -0.465382 -0.312609 -0.0783028 0.124288 -1.10309 1.02764 0.718204 0.148883 1.36509 -0.046658 0.503238 -1.80274 0.596855
1217 1.55931 0.123414 0.420923 1.21621 0.74807 0.779452 0.732246 -0.693195 -0.824156 -0.414093 1.06586 -0.517911 -0.380691 -0.0950383 0.237293 -1.37421 1.24588 0.722663 0.0222734 1.25112 -0.315934 0.444352 -2.00314 0.67559
2263 1.37789 0.266176 0.355501 1.24997 0.608845 0.559843 0.857314 -0.253155 -1.31339 -0.42508 0.829759 -0.452199 -0.566664 0.17673 0.289597 -1.01148 1.43604 1.15598 -0.17141 1.1365 -0.594362 0.28929 -2.37253 0.46527
889 1.38678 0.158303 0.284598 1.09712 0.541532 0.274038 0.69035 -0.158462 -1.25908 -0.350787 0.555512 -0.503181 -0.571872 0.161642 0.133526 -0.834795 1.11596 0.889986 -0.122288 0.900872 -0.473985 0.24768 -1.69401 0.220895
610 1.15832 0.137081 0.21378 0.960624 0.456874 0.247693 0.596622 -0.113529 -1.0765 -0.278948 0.455992 -0.37563 -0.478563 0.128333 0.0606318 -0.702151 1.0154 0.761637 -0.149889 0.737729 -0.396334 0.235281 -1.46548 0.196103
3938 1.15176 0.107929 0.224657 0.970652 0.399332 0.253636 0.557243 -0.0706491 -1.12239 -0.277563 0.46031 -0.39825 -0.515351 0.143838 0.0498022 -0.74493 0.99978 0.727786 -0.195778 0.708236 -0.418538 0.177349 -1.55803 0.208473
957 1.21307 0.120681 0.239318 0.972748 0.459632 0.311375 0.608018 -0.0976446 -1.03308 -0.307031 0.472528 -0.365109 -0.450611 0.12873 0.155103 -0.753074 0.96245 0.774562 -0.168678 0.731884 -0.453425 0.171401 -1.51152 0.244121
4153 1.25574 0.105495 0.358689 1.02666 0.637201 0.454039 0.651253 -0.428883 -0.801179 -0.408195 0.785717 -0.421709 -0.337135 0.034127 0.141861 -0.876888 1.02572 0.78219 0.0800228 1.03521 -0.34938 0.395523 -1.60913 0.423693
87 1.28921 0.134039 0.384482 1.10915 0.653974 0.574163 0.715243 -0.50513 -0.776199 -0.434984 0.935171 -0.426647 -0.315172 -0.00260172 0.170877 -0.967052 1.05636 0.789211 0.0556811 1.20746 -0.272554 0.409132 -1.75576 0.480706
3965 1.43129 0.0685926 0.466677 1.16755 0.764561 0.6238 0.643372 -0.71204 -0.637969 -0.423687 1.12425 -0.482685 -0.296609 -0.182738 0.110557 -1.08692 1.04302 0.643277 0.157448 1.23012 -0.10824 0.504821 -1.71064 0.65189
1190 -1.32652 -0.364588 0.22055 0.160169 0.73929 -0.280647 -0.71374 0.112168 -1.9936 0.936645 0.670656 -0.360243 -0.64159 -0.00437733 0.0333323 -0.880252 1.13891 -0.758352 -1.34719 0.214949 0.929202 -0.281752 -0.978197 0.619489
2311 -1.25383 -0.38147 0.187554 0.175505 0.744779 -0.329992 -0.696344 0.124801 -1.97734 0.908699 0.652868 -0.33682 -0.622279 0.022897 0.0538472 -0.907701 1.11454 -0.768768 -1.35186 0.166347 0.887289 -0.283647 -0.941194 0.626084
2220 -1.25863 -0.364561 0.217179 0.147026 0.739274 -0.317871 -0.698642 0.0987506 -1.91421 0.89996 0.65356 -0.398519 -0.647494 0.0195099 0.0548659 -0.901006 1.07449 -0.770457 -1.27322 0.181509 0.857141 -0.308577 -0.920074 0.629389
2864 -1.6285 -0.486132 0.280951 0.19875 0.999856 -0.365023 -0.837083 0.118119 -2.44764 1.15549 0.813549 -0.444973 -0.824881 0.0638776 0.0677392 -1.17018 1.41944 -1.01012 -1.70729 0.259349 1.11186 -0.403837 -1.1999 0.79542
3975 -1.56142 -0.370715 0.239443 0.125141 0.812931 -0.357638 -0.769465 0.0910206 -2.35983 1.05705 0.796763 -0.407474 -0.705268 0.0774257 0.0826153 -1.03561 1.3176 -0.974236 -1.58576 0.21824 1.01435 -0.368643 -1.01955 0.77007
3050 -1.53936 -0.479371 0.23689 0.189008 0.850028 -0.290832 -0.797613 0.152273 -2.25153 1.07094 0.741318 -0.371945 -0.727166 0.0861362 0.117672 -1.03491 1.27495 -0.89847 -1.55176 0.257632 0.952407 -0.395891 -1.07916 0.765136
2123 -1.53493 -0.431925 0.210804 0.158031 0.863195 -0.365388 -0.764139 0.0971288 -2.31203 1.04092 0.837445 -0.334655 -0.742487 0.114934 0.0582642 -1.05719 1.31887 -0.922221 -1.53555 0.215012 0.926831 -0.345474 -1.10462 0.745971
4307 -1.52735 -0.467482 0.267796 0.103296 0.867348 -0.314663 -0.746748 0.112063 -2.27048 1.05583 0.748539 -0.349593 -0.700938 0.0432764 0.143764 -1.0429 1.27619 -0.896993 -1.5196 0.235995 0.960184 -0.332977 -1.01865 0.753758
1610 -1.45148 -0.401358 0.274981 0.137367 0.903837 -0.305914 -0.849318 0.114849 -2.296 1.00052 0.731192 -0.391986 -0.741883 0.0340606 0.0853348 -1.02697 1.30361 -0.853419 -1.58084 0.236087 1.00226 -0.391706 -1.08241 0.723056
179 -1.56059 -0.446611 0.252499 0.158564 0.843923 -0.346425 -0.798253 0.1126 -2.27315 1.02643 0.768368 -0.410991 -0.768155 0.0852978 0.0661121 -1.06655 1.26555 -0.955996 -1.56614 0.21615 0.987828 -0.335917 -1.03691 0.725987
5460 0.0434882 -0.0814892 1.04328 0.496408 0.900045 0.746352 -0.369029 -1.27159 -0.639357 0.301634 0.544163 0.671716 -0.719469 -0.955486 0.356815 -2.07669 0.550365 0.529563 -1.50158 -0.119776 1.25907 -0.678369 -1.48078 0.0804875
5384 0.0263324 -0.0999334 1.0214 0.543662 0.96749 0.764595 -0.345627 -1.28587 -0.675775 0.247057 0.517662 0.729202 -0.758912 -0.998703 0.367928 -2.06128 0.530297 0.532786 -1.48331 -0.106001 1.24824 -0.676808 -1.49823 0.137959
4454 0.070289 -0.116294 0.956939 0.543627 0.931381 0.712816 -0.387523 -1.27889 -0.64092 0.255489 0.483481 0.627105 -0.775159 -0.985753 0.406338 -2.03318 0.516721 0.550777 -1.44209 -0.104586 1.25899 -0.637508 -1.54002 0.0881659
1596 0.0362288 -1.20253 -0.438158 1.06618 -0.502643 -1.17067 0.581125 -0.537561 -1.00603 0.867482 -0.0617756 -0.0334968 0.223963 0.542638 -2.11224 -0.491485 1.05408 0.339775 -0.47143 0.655643 1.15606 0.306073 -2.42703 0.86736
4682 -0.0552196 -1.19513 -0.421099 1.02271 -0.521653 -1.17752 0.604297 -0.508057 -1.02669 0.85906 0.00826067 -0.0362793 0.142993 0.516301 -2.10712 -0.452358 1.05214 0.374183 -0.480112 0.696561 1.14941 0.376225 -2.44538 0.890646
4512 0.0487937 -1.28872 -0.457612 1.0917 -0.487763 -1.25345 0.643521 -0.548774 -1.06223 0.900923 0.00682635 -0.0698594 0.16648 0.575304 -2.26793 -0.48668 1.20742 0.400863 -0.523754 0.774395 1.20647 0.307645 -2.61992 0.981894
4883 1.11188 1.37133 0.439926 -0.37054 0.471195 0.567955 -1.19395 -0.354189 -1.87399 -0.0241599 1.3262 -1.03309 -1.60582 0.58528 -0.154408 -1.6992 0.598595 -0.364305 -0.248495 0.769835 0.691783 -0.664656 -1.12774 0.670457
3875 1.105 1.36473 0.52597 -0.396465 0.445838 0.666608 -1.25069 -0.339244 -1.85881 0.000720178 1.36364 -1.08539 -1.58973 0.572354 -0.147332 -1.77455 0.652284 -0.243728 -0.184234 0.701692 0.629794 -0.683016 -1.15551 0.591375
3312 0.112362 -0.0880856 -0.818435 1.15077 0.398283 -0.171135 0.0310051 -0.157997 0.168565 0.467077 0.994525 0.0168819 -0.569872 0.204127 -0.0174795 -2.06821 0.876211 -0.312461 -0.816125 0.274024 -0.0569358 -0.565859 -1.91064 -0.637514
2151 0.0859387 -0.0879035 -0.841872 1.15575 0.388642 -0.155493 0.00423441 -0.179885 0.158185 0.487719 1.01818 0.0199128 -0.530862 0.164121 -0.05924 -2.12499 0.940385 -0.363845 -0.823328 0.288252 -0.0498098 -0.611105 -1.92782 -0.619217
4016 0.138853 -0.0635271 -0.911114 1.27156 0.447692 -0.156658 0.0636884 -0.224432 0.186756 0.575924 1.15296 0.0285964 -0.57054 0.169774 0.0372905 -2.39806 1.05459 -0.376791 -0.98572 0.296521 -0.00332595 -0.676869 -2.22165 -0.714281
5316 0.110246 -0.089924 -0.869862 1.14919 0.444996 -0.146559 0.0707922 -0.167824 0.135371 0.517171 1.04366 0.0330819 -0.520275 0.151685 -0.0421676 -2.22705 0.929477 -0.344145 -0.849808 0.323127 -0.0115271 -0.640585 -1.99357 -0.619412
3244 0.134555 -0.0721474 -0.823147 1.16986 0.432946 -0.155701 0.0168886 -0.16449 0.161054 0.543186 1.09476 0.0552654 -0.531906 0.227855 -0.010376 -2.24401 0.943286 -0.330202 -0.828024 0.29865 -0.0202586 -0.616889 -2.0447 -0.66471
5626 0.644094 -0.601885 -0.112029 0.794731 1.52887 -0.670379 0.360406 0.0637855 -1.47776 -0.0378012 0.628194 -0.640649 -0.163586 -0.848629 0.357925 0.37262 1.73161 -0.0227107 -0.604295 -0.321661 0.929517 -0.777787 -1.44042 1.27189
4934 0.660862 -0.62867 -0.0617089 0.731418 1.4966 -0.674909 0.35161 0.0610554 -1.46043 -0.0177703 0.612273 -0.614732 -0.206228 -0.899083 0.349031 0.355936 1.71226 0.0180873 -0.610169 -0.320876 0.939203 -0.762083 -1.41308 1.24939
5077 0.640032 -0.638756 -0.0758001 0.772266 1.54592 -0.710399 0.354269 0.112988 -1.47192 -0.0197861 0.609889 -0.648904 -0.211346 -0.923506 0.378189 0.38575 1.70661 -0.0203647 -0.595548 -0.329569 0.975647 -0.821474 -1.47919 1.31142
2753 0.651617 -0.610013 -0.13661 0.763498 1.50408 -0.711297 0.381103 0.0466528 -1.39358 -0.00317263 0.577767 -0.621977 -0.141557 -0.87321 0.355438 0.37258 1.70154 0.00561281 -0.573312 -0.345303 0.929493 -0.786307 -1.43173 1.27849
976 0.634618 -0.636129 -0.104246 0.781834 1.5877 -0.701662 0.376104 0.0729308 -1.44184 -0.0506367 0.582517 -0.612503 -0.165028 -0.897291 0.366477 0.375569 1.75469 0.0347887 -0.595504 -0.328165 0.943664 -0.762553 -1.45234 1.27463
4269 0.72453 -0.632694 -0.082544 0.791236 1.54174 -0.711123 0.369566 0.0991746 -1.48836 -0.00705515 0.648591 -0.639604 -0.173231 -0.914422 0.381305 0.358851 1.79033 -0.0192056 -0.585774 -0.327304 0.974398 -0.787006 -1.4599 1.31569
2814 0.639648 -0.648801 -0.111641 0.789565 1.58516 -0.677823 0.38726 0.0846919 -1.42108 -0.0232148 0.612964 -0.62824 -0.192037 -0.910983 0.378449 0.350687 1.78187 -0.0182933 -0.583892 -0.303979 0.975806 -0.805799 -1.47518 1.32327
2344 0.254849 -0.703389 0.844895 1.51733 -0.124998 0.774286 -1.19553 -0.392469 -1.65162 -0.336795 0.983239 -0.890878 0.377049 -0.448258 -0.06384 0.148778 1.43296 0.23337 -1.38041 0.688132 1.11918 -0.242982 -0.796551 0.650962
826 0.264604 -0.697351 0.84754 1.56902 -0.127756 0.807876 -1.12214 -0.398086 -1.68863 -0.36983 0.99073 -0.972953 0.362343 -0.4298 -0.11326 0.19672 1.49522 0.253157 -1.34899 0.684931 1.00551 -0.203829 -0.800895 0.624928
3510 0.254361 -0.662735 0.873649 1.51068 -0.13145 0.787724 -1.12171 -0.437643 -1.68261 -0.394751 1.00475 -0.963727 0.394732 -0.449091 -0.0666501 0.196315 1.42134 0.221415 -1.37941 0.68157 1.04098 -0.18006 -0.829139 0.616138
385 0.282988 -0.694848 0.887307 1.57729 -0.123225 0.772795 -1.14434 -0.500061 -1.74008 -0.383575 1.01831 -0.96587 0.363606 -0.433054 -0.081851 0.185147 1.45703 0.266744 -1.42934 0.701042 1.09398 -0.23487 -0.830008 0.608519
3514 0.289602 -0.693833 0.878858 1.54991 -0.085111 0.774718 -1.15118 -0.467322 -1.73636 -0.403935 1.02864 -1.02072 0.404915 -0.469552 -0.107472 0.148295 1.44555 0.209461 -1.37681 0.648851 1.10182 -0.257354 -0.871058 0.689455
4424 0.284695 -0.678356 0.797543 1.60313 -0.141628 0.803447 -1.17569 -0.423514 -1.73592 -0.412621 0.992395 -0.994738 0.415382 -0.449067 -0.0982503 0.18221 1.46883 0.255455 -1.38754 0.732629 1.1294 -0.174446 -0.795616 0.676815
2034 1.06539 -0.148076 -0.09688 0.871612 0.745503 0.00613608 -0.00854179 -0.903095 -0.290383 0.371532 0.506225 -0.517141 0.224625 -1.195 -0.733036 0.0224621 2.20952 0.762078 0.0538869 1.00545 -0.937348 -0.746136 -2.08487 0.223237
4876 1.1029 -0.196942 -0.0752334 0.913029 0.735924 0.0420523 0.0202974 -0.883972 -0.2507 0.357744 0.539941 -0.502091 0.24691 -1.15845 -0.736261 -0.000328741 2.22772 0.750377 0.0599984 1.01154 -0.898303 -0.74336 -2.11043 0.211611
4581 1.09907 -0.167091 -0.0635023 0.920917 0.772805 0.0702612 0.0398087 -0.927724 -0.26908 0.327074 0.516575 -0.496162 0.24519 -1.17721 -0.752019 -0.0309087 2.19532 0.724665 0.0321905 1.0075 -0.939185 -0.786189 -2.09776 0.196403
4242 1.10835 -0.189912 -0.0634892 0.889523 0.712479 0.0173749 0.0461842 -0.915513 -0.228248 0.343102 0.552729 -0.504779 0.262228 -1.13811 -0.721476 -0.0207772 2.1926 0.743651 0.0451937 1.02134 -0.907239 -0.770455 -2.07718 0.203053
5054 1.07438 -0.187312 -0.0508719 0.937412 0.729856 0.0472037 0.0142099 -0.894119 -0.227113 0.331032 0.492245 -0.509923 0.215505 -1.17957 -0.713392 0.00294451 2.25165 0.695244 0.112812 1.02932 -0.922422 -0.783708 -2.09992 0.231475
3002 0.460062 0.116327 0.996012 0.0181491 0.0130836 -1.22598 0.216183 -0.672412 -1.32397 -0.316258 0.726427 -0.98694 -1.06406 -0.563114 -0.200557 -1.38347 0.482934 0.365222 -1.31535 0.691222 -0.747389 -1.76587 -1.84162 0.206547
3851 0.390961 0.100913 0.910678 0.0648758 -0.0397008 -1.16113 0.226777 -0.574692 -1.20565 -0.245242 0.626879 -0.951117 -0.932639 -0.525533 -0.193834 -1.31873 0.384839 0.339951 -1.26482 0.63805 -0.712662 -1.63789 -1.70104 0.261602
4072 0.461108 0.180493 0.999672 0.0564865 -0.0415515 -1.19217 0.205492 -0.682958 -1.29762 -0.274667 0.704732 -0.994323 -1.03607 -0.552678 -0.187354 -1.36949 0.48615 0.369151 -1.3285 0.614118 -0.750974 -1.75065 -1.85727 0.263271
3004 0.386938 0.0897965 0.873879 0.0715056 -0.0308957 -1.1403 0.233899 -0.625122 -1.15862 -0.251983 0.631007 -0.909906 -0.969356 -0.526722 -0.181574 -1.29251 0.384472 0.313378 -1.19646 0.640881 -0.721384 -1.68202 -1.73028 0.18465
1599 0.248158 0.4804 0.571501 -0.217033 1.53625 0.463974 -0.859409 0.499569 -0.403615 0.608878 0.364939 -1.16601 -1.84636 -1.1355 -0.984822 -0.313815 1.21807 0.894084 -0.74166 -0.438741 1.19471 -1.35035 -1.77824 -0.133101
1654 0.172298 0.421016 0.698669 -0.201577 1.46922 0.493873 -0.965067 0.538143 -0.314825 0.577971 0.315011 -1.20118 -1.88889 -1.25723 -0.906013 -0.221867 1.21517 0.840323 -0.709036 -0.393998 1.21636 -1.37127 -1.72401 -0.174444
4241 0.179613 0.411486 0.640961 -0.177315 1.4596 0.473446 -0.895419 0.492902 -0.284391 0.548508 0.308961 -1.17189 -1.86102 -1.22864 -0.86234 -0.193721 1.21328 0.810658 -0.756237 -0.345859 1.11761 -1.36641 -1.70288 -0.180988
1398 0.200477 0.452718 0.730326 -0.166565 1.48653 0.450705 -0.851758 0.508627 -0.271067 0.620362 0.267064 -1.22366 -1.92744 -1.29202 -0.896325 -0.230851 1.21378 0.862835 -0.755342 -0.365353 1.19419 -1.36046 -1.76045 -0.21582
4596 0.141311 0.357668 0.738671 -0.20256 1.37667 0.482392 -0.980742 0.472818 -0.321082 0.632324 0.328832 -1.18828 -1.84888 -1.28115 -0.898281 -0.219219 1.25258 0.881884 -0.771105 -0.341001 1.13238 -1.31951 -1.70298 -0.178208
4767 0.118404 0.391358 0.752204 -0.199766 1.43937 0.535293 -0.98566 0.477062 -0.343901 0.639901 0.312943 -1.26079 -1.93577 -1.37568 -0.933824 -0.240541 1.27149 0.880373 -0.763361 -0.334963 1.24559 -1.42613 -1.80138 -0.220134
930 0.554775 -0.0235282 0.650511 1.90252 0.643047 -0.759757 -1.22096 0.250804 -0.237221 0.717114 1.24844 -0.289851 -0.177509 1.00883 -0.665224 -1.24319 1.46508 -1.56607 -0.363494 -0.0488551 0.898186 0.342422 -2.26028 0.871511
2168 0.4887 -0.0378498 0.589815 1.7426 0.693412 -0.784388 -1.20342 0.257982 -0.25543 0.663802 1.24661 -0.318066 -0.15973 0.965333 -0.631325 -1.16369 1.29686 -1.55523 -0.338011 -0.102224 0.918173 0.342813 -2.18512 0.802623
1666 0.532644 -0.0468149 0.609572 1.74959 0.723383 -0.736466 -1.2025 0.256802 -0.187188 0.682977 1.20054 -0.246847 -0.13175 0.984304 -0.668414 -1.10951 1.28459 -1.56153 -0.387208 -0.0940327 0.886335 0.389531 -2.10398 0.763903
5184 0.477364 -0.036366 0.612668 1.76497 0.656089 -0.746604 -1.18652 0.276442 -0.198 0.670315 1.22216 -0.265732 -0.155981 0.945162 -0.639367 -1.11206 1.34008 -1.49977 -0.384255 -0.0433435 0.874829 0.308872 -2.11949 0.857909
1602 0.493434 -0.041344 0.582714 1.77222 0.663426 -0.8011 -1.22428 0.28451 -0.212308 0.769158 1.24394 -0.26683 -0.145375 0.998718 -0.643486 -1.16474 1.37243 -1.52187 -0.382368 -0.116197 0.865906 0.36831 -2.1755 0.808024
3055 0.475533 0.0116954 0.530459 1.7244 0.638837 -0.721293 -1.18922 0.311041 -0.207182 0.701543 1.18622 -0.253194 -0.122039 0.953385 -0.625057 -1.06138 1.29723 -1.45224 -0.319292 -0.0301411 0.847584 0.352385 -2.04184 0.845927
4279 0.475774 0.00431118 0.466618 1.48104 0.547362 -0.652615 -1.02853 0.254256 -0.159285 0.610602 1.0495 -0.243362 -0.13876 0.866851 -0.517811 -0.965566 1.11123 -1.30639 -0.350505 -0.084556 0.809623 0.278862 -1.79361 0.671399
779 0.468668 -0.0362849 0.518371 1.4838 0.572922 -0.650405 -1.03289 0.242235 -0.125241 0.603578 1.0702 -0.230618 -0.14302 0.842097 -0.588969 -0.985793 1.09695 -1.35561 -0.331139 -0.121198 0.776062 0.281251 -1.79552 0.734554
3157 0.523107 -0.135431 0.113385 1.50515 -0.354213 -1.28045 1.20898 0.577697 -0.237861 -0.122039 0.347304 -0.388225 0.495917 -0.939922 -0.868333 -0.808922 2.04263 0.295831 0.482839 0.283409 1.21333 -0.112647 -1.7387 -0.378015
2140 0.535199 -0.176035 0.165231 1.52558 -0.4032 -1.2624 1.19929 0.614622 -0.254295 -0.128603 0.290155 -0.403155 0.518737 -0.970603 -0.892644 -0.790273 2.13795 0.312636 0.529178 0.327116 1.28776 -0.0977503 -1.81605 -0.387196
533 0.538722 -0.150674 0.122263 1.49473 -0.340744 -1.25408 1.24571 0.587428 -0.239467 -0.11878 0.346512 -0.430633 0.474905 -0.941874 -0.877341 -0.80492 2.08016 0.286285 0.479044 0.29955 1.19684 -0.109173 -1.79567 -0.335092
3771 0.507478 -0.131601 0.0927205 1.48982 -0.321151 -1.2503 1.26156 0.603386 -0.197487 -0.14076 0.329395 -0.364594 0.492779 -0.928062 -0.862825 -0.812876 2.07713 0.30273 0.502264 0.294042 1.24459 -0.0790814 -1.81 -0.37184
4172 0.51014 -0.119311 0.129562 1.5327 -0.38331 -1.25823 1.23205 0.597374 -0.250841 -0.128341 0.36231 -0.412864 0.455874 -0.924709 -0.843616 -0.807207 2.07804 0.28667 0.505438 0.302115 1.25475 -0.0881348 -1.87852 -0.337158
400 0.519311 -0.155526 0.132995 1.47553 -0.328515 -1.26408 1.25878 0.599126 -0.214024 -0.158288 0.365337 -0.390126 0.479646 -0.949438 -0.823679 -0.80411 2.09519 0.316803 0.489129 0.289535 1.25717 -0.0951446 -1.82216 -0.373059
44 1.09383 -0.265391 0.442687 0.420417 0.300227 -0.461517 0.349347 -0.474729 -0.422167 -0.436277 0.0389373 -0.780241 -0.765147 0.223171 -1.19725 -0.299925 0.926514 -0.300985 -0.867543 0.234235 0.48995 0.67544 -0.615304 -1.09087
2495 1.61359 -0.362549 0.705396 0.497557 0.435648 -0.746091 0.608656 -0.755333 -0.73755 -0.655523 0.0537455 -1.26805 -1.19068 0.295673 -2.00535 -0.632521 1.61266 -0.531915 -1.53188 0.449878 0.862007 1.03806 -1.15701 -1.77119
5370 1.55002 -0.389255 0.613482 0.470529 0.418043 -0.666395 0.535721 -0.73895 -0.736232 -0.613196 0.163173 -1.15231 -1.14032 0.314296 -1.93661 -0.550026 1.52081 -0.509142 -1.42709 0.425244 0.790264 0.950959 -1.06251 -1.61024
1165 1.54839 -0.359225 0.610998 0.4458 0.411179 -0.752813 0.49378 -0.732352 -0.770889 -0.621977 0.128727 -1.14918 -1.17179 0.381079 -1.86667 -0.586483 1.51351 -0.456599 -1.41627 0.390811 0.778341 0.973064 -1.13309 -1.60926
5517 1.4718 -0.41805 0.610077 0.478753 0.382621 -0.679591 0.473005 -0.61992 -0.629462 -0.596902 0.0909061 -1.11333 -1.02092 0.275136 -1.69573 -0.527436 1.41734 -0.465812 -1.3462 0.319058 0.72271 0.885281 -0.981922 -1.51371
791 1.4348 -0.364238 0.619086 0.440491 0.411605 -0.671588 0.499366 -0.670195 -0.64737 -0.603945 0.0195427 -1.0629 -1.11258 0.30485 -1.77565 -0.500785 1.3844 -0.375759 -1.32205 0.320653 0.755024 0.893344 -0.983303 -1.52652
1719 1.26106 -0.35592 0.521814 0.45028 0.358797 -0.535409 0.427301 -0.560134 -0.576694 -0.447 0.0966095 -0.906875 -0.922557 0.24581 -1.43668 -0.417192 1.10766 -0.33934 -1.04654 0.297751 0.635416 0.754812 -0.785715 -1.19358
1604 1.29062 -0.34702 0.549733 0.440139 0.366302 -0.521863 0.435059 -0.589218 -0.605625 -0.430314 0.11696 -0.904727 -0.924031 0.212978 -1.46983 -0.435742 1.16428 -0.337838 -1.1025 0.303306 0.585148 0.749919 -0.822919 -1.2349
205 1.23706 -0.30922 0.451039 0.446873 0.307005 -0.549312 0.423306 -0.575622 -0.586128 -0.452695 0.0837123 -0.937282 -0.925778 0.26698 -1.45714 -0.360858 1.17766 -0.35863 -1.09543 0.326575 0.579151 0.773707 -0.842098 -1.27525
5587 1.44907 -0.341959 0.625253 0.47009 0.409224 -0.656956 0.483492 -0.652814 -0.660004 -0.544706 0.0618275 -1.07498 -1.11043 0.263619 -1.69294 -0.549733 1.37273 -0.391222 -1.26964 0.364488 0.698631 0.906547 -0.963377 -1.50252
4285 1.38784 -0.283922 0.582915 0.490945 0.377954 -0.646749 0.444566 -0.651167 -0.633133 -0.538597 0.101445 -1.05742 -1.09494 0.265192 -1.74758 -0.494446 1.33009 -0.337963 -1.26836 0.380461 0.718634 0.871594 -0.947513 -1.46858
5572 1.70219 -0.408942 0.725149 0.499367 0.457806 -0.785537 0.621741 -0.740761 -0.771748 -0.676549 0.12528 -1.28276 -1.29675 0.353604 -2.06561 -0.617206 1.7359 -0.56446 -1.54847 0.411515 0.844235 1.00139 -1.28898 -1.80722
1647 1.28209 -0.298416 0.515718 0.394163 0.292918 -0.566959 0.433171 -0.581166 -0.494843 -0.463106 0.0701039 -0.870072 -0.87064 0.258385 -1.433 -0.40204 1.11447 -0.343685 -1.0843 0.284355 0.586276 0.795777 -0.757957 -1.30428
4823 -0.476223 0.381964 -0.792005 1.4309 1.75928 1.62172 0.660504 -0.239246 -0.0901553 -0.992574 0.808555 -0.204255 -0.814641 0.702691 -1.3017 -0.670501 1.37336 -0.726146 -0.534181 0.043799 0.598103 -0.721127 -1.56167 -0.479476
3665 -0.519609 0.447018 -0.842948 1.62927 1.90457 1.80907 0.697746 -0.251368 -0.0740512 -1.17854 0.881113 -0.226054 -0.950801 0.76375 -1.37795 -0.712837 1.53664 -0.774895 -0.612882 0.0213261 0.66145 -0.82296 -1.77255 -0.576928
3416 -0.465109 0.427864 -0.734955 1.5311 1.74393 1.69526 0.652637 -0.232949 -0.0814006 -1.00887 0.747757 -0.179677 -0.81534 0.665466 -1.24379 -0.690927 1.40151 -0.726807 -0.566498 0.0150849 0.57379 -0.720953 -1.56946 -0.477874
522 -0.415163 0.387313 -0.654904 1.24314 1.49084 1.45722 0.581834 -0.206371 0.00590399 -0.852511 0.608505 -0.184196 -0.678412 0.566588 -1.07065 -0.573277 1.14044 -0.626373 -0.445312 -0.00175065 0.530188 -0.62601 -1.39576 -0.348629
5493 0.0697778 0.521407 -0.916928 1.23328 0.176084 -1.31944 -1.00823 -1.36165 -1.89858 0.919129 0.332111 -0.600447 -0.897217 -0.486194 -0.997524 -1.5293 0.0880833 0.228452 -0.437187 0.82018 1.26258 -0.23775 -1.56122 0.0986659
870 0.0687944 0.348026 -0.753761 0.853676 0.108026 -1.00975 -0.753632 -0.962794 -1.32563 0.672759 0.212351 -0.366845 -0.616707 -0.354347 -0.704139 -1.10394 0.0378276 0.185957 -0.273797 0.555608 0.841024 -0.203029 -1.08041 0.0118522
1384 0.0796953 0.551966 -0.974137 1.18928 0.219527 -1.37874 -0.824206 -1.17397 -1.77644 0.907992 0.213045 -0.568105 -0.822097 -0.480182 -1.0048 -1.47402 0.0504852 0.205807 -0.486635 0.636685 1.32226 -0.239486 -1.52498 0.0859895
75 0.0777954 0.467631 -0.947424 1.19057 0.234883 -1.30785 -0.921454 -1.23652 -1.83845 0.879188 0.250765 -0.595794 -0.863604 -0.486338 -0.980355 -1.51948 0.0418558 0.237912 -0.451639 0.675754 1.31176 -0.304357 -1.47518 0.0948903
3562 -0.017648 0.417519 -0.742228 0.816875 0.0662335 -1.05563 -0.655217 -0.887746 -1.30358 0.685328 0.153289 -0.416852 -0.59281 -0.373502 -0.704674 -1.10639 -0.0166071 0.175786 -0.287111 0.521034 0.910362 -0.131253 -1.0051 0.036565
1930 0.0477007 0.520654 -1.04127 1.18875 0.247288 -1.39014 -0.90315 -1.26872 -1.90985 0.905734 0.251157 -0.545763 -0.880678 -0.517381 -1.0391 -1.52849 0.0338082 0.222587 -0.512978 0.654195 1.36165 -0.254512 -1.56713 0.0993081
4729 0.0534877 0.501045 -0.983331 1.28969 0.0854526 -1.27724 -1.20041 -1.5789 -1.98479 0.846896 0.518861 -0.621566 -0.956207 -0.399118 -1.04604 -1.72945 0.182338 0.245845 -0.414056 1.06082 1.19605 -0.346397 -1.59778 0.0591477
63 0.0157082 0.531828 -0.982068 1.15011 0.181965 -1.31364 -0.848231 -1.22409 -1.7624 0.87937 0.202349 -0.563905 -0.783243 -0.448571 -0.985726 -1.43931 0.0682242 0.252166 -0.479207 0.656349 1.32601 -0.268299 -1.44729 0.0695336
2487 0.129299 0.32025 -0.655957 0.896997 0.04855 -0.882575 -0.672226 -0.991467 -1.19806 0.631488 0.222436 -0.402323 -0.614328 -0.276686 -0.645822 -1.05825 0.08628 0.187635 -0.256703 0.557347 0.773866 -0.234232 -0.923312 0.0438552
4381 0.141591 0.335399 -0.782345 1.09211 -0.0409098 -0.986719 -1.01031 -1.39804 -1.52548 0.690061 0.548356 -0.519401 -0.816496 -0.211884 -0.79592 -1.40801 0.241539 0.186663 -0.22112 0.953955 0.735403 -0.268276 -1.19398 0.146858
249 0.239094 0.319625 -0.801503 1.13118 -0.180336 -0.964389 -1.18456 -1.62004 -1.64563 0.672692 0.670326 -0.621346 -0.934731 -0.202478 -0.837303 -1.53743 0.368666 0.224267 -0.14131 1.16918 0.619499 -0.337049 -1.2385 0.172204
3668 -1.26705 0.161219 1.25411 0.161372 0.114378 -0.645303 0.392967 -0.183626 -1.21792 -0.50887 0.811047 -1.46345 0.0604133 -0.995214 0.310655 -1.24069 1.35839 -0.483719 -0.19636 -0.339795 0.818933 -0.0521859 -1.73358 0.202971
4183 -1.31971 0.164392 1.22916 0.141877 0.098414 -0.622722 0.421507 -0.131121 -1.19217 -0.546666 0.815336 -1.4768 0.047478 -0.97968 0.301742 -1.23534 1.34858 -0.507826 -0.174568 -0.380136 0.821696 -0.0661137 -1.64247 0.224707
2473 -1.31438 0.168404 1.27581 0.125052 0.0825808 -0.650672 0.378825 -0.1685 -1.20146 -0.484917 0.847527 -1.4761 0.0790011 -0.990209 0.323392 -1.2146 1.36644 -0.486941 -0.171227 -0.380362 0.811148 -0.0337226 -1.70708 0.186736
4007 -1.31329 0.157113 1.23469 0.160211 0.113498 -0.644542 0.402392 -0.140223 -1.18968 -0.474547 0.835706 -1.46404 0.0317847 -0.979743 0.307408 -1.22876 1.318 -0.452917 -0.193674 -0.363628 0.816683 -0.0508776 -1.70152 0.175868
5 -1.27242 0.153716 1.23278 0.149328 0.118808 -0.635623 0.407184 -0.138032 -1.20999 -0.462573 0.81802 -1.44853 0.071283 -0.979092 0.310513 -1.20038 1.33881 -0.493424 -0.144287 -0.378091 0.81093 -0.0516828 -1.67334 0.191226
5488 0.670641 -0.0726283 0.626071 -0.302357 1.06114 0.675473 -0.396142 -1.04192 -1.3169 -1.08471 0.279652 -0.941142 -0.846852 -0.897388 -0.304115 -1.85925 0.623791 0.191854 0.742701 0.873248 0.192199 0.149462 -1.48214 -0.203453
3762 0.778753 -0.104139 0.69217 -0.337057 1.12297 0.821479 -0.384473 -1.10862 -1.49748 -1.21385 0.359527 -1.10781 -0.943823 -1.00901 -0.353847 -2.03756 0.78695 0.27947 0.78438 1.00931 0.213171 0.124427 -1.65861 -0.225648
1328 0.687085 -0.106421 0.668149 -0.399558 0.998572 0.687924 -0.399207 -1.0216 -1.3041 -1.12076 0.366423 -0.991566 -0.863717 -0.831963 -0.328873 -1.84065 0.718158 0.278796 0.658673 0.885763 0.220597 0.047531 -1.37657 -0.160092
360 0.6605 -0.124075 0.625369 -0.398645 0.987055 0.704479 -0.351971 -1.00275 -1.27846 -1.09154 0.406784 -0.975272 -0.844363 -0.833184 -0.332624 -1.77434 0.657023 0.290748 0.5882 0.86937 0.223323 0.0707569 -1.34651 -0.161526
3973 0.722311 -0.138195 0.612123 -0.371362 1.02822 0.70822 -0.338184 -0.979784 -1.30182 -1.11314 0.386413 -0.977987 -0.811317 -0.816443 -0.346809 -1.76452 0.692507 0.266732 0.648855 0.883467 0.193452 0.0826763 -1.37291 -0.172521
1868 0.718081 -0.0410071 0.597595 -0.304275 1.01897 0.689553 -0.325486 -1.00157 -1.27125 -1.07795 0.228509 -0.962242 -0.788109 -0.895729 -0.359681 -1.89044 0.662167 0.181761 0.747939 0.876841 0.182615 0.141425 -1.44158 -0.177024
1553 0.716785 -0.0830985 0.622613 -0.337695 0.938219 0.750552 -0.353693 -1.02844 -1.28203 -1.0386 0.241466 -0.922811 -0.802084 -0.871372 -0.283615 -1.85025 0.576619 0.188366 0.697171 0.832942 0.179504 0.124574 -1.44913 -0.157798
5103 0.744614 -0.111857 0.638627 -0.327809 1.01014 0.735106 -0.375046 -1.02311 -1.28044 -1.07726 0.266325 -1.00796 -0.874948 -0.916399 -0.329125 -1.86379 0.678182 0.253618 0.776981 0.901943 0.209377 0.157795 -1.52875 -0.195533
2115 0.695779 -0.141227 0.671614 -0.385781 1.02402 0.704401 -0.389041 -1.00192 -1.31273 -1.10136 0.455126 -0.954181 -0.81379 -0.81533 -0.341059 -1.75929 0.675278 0.323295 0.643712 0.892638 0.206812 0.0300551 -1.4007 -0.164806
244 0.682731 -0.122025 0.684517 -0.343961 1.04411 0.671982 -0.394717 -0.9461 -1.32843 -1.10462 0.358118 -0.9279 -0.829619 -0.81139 -0.302833 -1.74327 0.714114 0.261411 0.631116 0.879852 0.227666 0.0290907 -1.42768 -0.19381
1515 0.710613 -0.120082 0.624978 -0.383138 0.991076 0.66881 -0.392399 -0.96944 -1.2859 -1.07905 0.40286 -0.986431 -0.817326 -0.848673 -0.353045 -1.777 0.706686 0.248438 0.62605 0.899944 0.185502 0.0277687 -1.41252 -0.187579
734 0.545025 1.22491 1.07465 0.0250024 0.66963 0.0892359 0.62718 -0.59212 -0.826707 -0.990276 0.270083 -0.81074 -0.7951 -0.840531 -0.863988 -1.43022 -0.172121 -0.340085 -0.279447 0.917947 0.825858 -1.04413 -1.75905 -1.03332
2651 0.594781 1.31293 1.17728 0.0331791 0.748196 0.107708 0.690702 -0.763843 -0.856402 -1.02798 0.220283 -0.846764 -0.924859 -0.990935 -0.911766 -1.57359 -0.124591 -0.342933 -0.289314 1.08268 0.942532 -1.07087 -1.91051 -1.0324
1255 0.599983 1.26096 1.12353 0.0821388 0.729846 0.0761493 0.668015 -0.702218 -0.920473 -1.00322 0.299009 -0.893343 -0.918441 -0.939749 -0.897018 -1.56893 -0.0878133 -0.313394 -0.278541 1.03676 0.923104 -1.11474 -1.95082 -1.11531
2364 0.537617 1.10047 1.04093 0.0717429 0.687325 0.0996469 0.657788 -0.603401 -0.751057 -0.930472 0.303131 -0.784157 -0.76886 -0.849779 -0.780896 -1.43084 -0.0775235 -0.302583 -0.225896 0.839196 0.787419 -0.9867 -1.64114 -0.896544
4085 0.564069 1.14346 1.04772 0.022319 0.684033 0.06952 0.634076 -0.564611 -0.721693 -0.882371 0.254695 -0.803518 -0.753016 -0.821673 -0.773075 -1.38879 -0.176321 -0.258548 -0.243279 0.866003 0.761205 -1.0035 -1.56764 -0.957661
2213 0.560309 1.09681 0.96932 0.0443611 0.642146 0.0915898 0.635249 -0.526258 -0.736652 -0.897658 0.279557 -0.710318 -0.724953 -0.747762 -0.752599 -1.34431 -0.147276 -0.22103 -0.247245 0.871663 0.764753 -0.967921 -1.57397 -0.908501
4066 0.540489 1.21667 1.0977 0.0812609 0.7402 0.0555438 0.652457 -0.609789 -0.824171 -0.94419 0.29034 -0.80517 -0.850221 -0.884827 -0.844269 -1.47569 -0.137224 -0.3294 -0.288809 0.966812 0.859351 -1.00289 -1.72421 -0.986117
1496 0.492714 1.09246 0.970912 0.0432972 0.599878 0.103568 0.520388 -0.539057 -0.720121 -0.799184 0.234602 -0.703756 -0.692161 -0.744482 -0.690316 -1.25685 -0.161829 -0.244293 -0.198907 0.871562 0.685116 -0.874386 -1.52241 -0.867303
3211 0.512017 1.05413 0.964717 0.0162075 0.644374 0.104795 0.538596 -0.534529 -0.684684 -0.831633 0.260929 -0.708828 -0.669254 -0.788621 -0.711118 -1.28626 -0.180226 -0.259111 -0.226267 0.851958 0.669903 -0.878387 -1.51761 -0.881256
5038 0.877417 -1.18688 0.142817 0.616396 1.2911 1.10154 -1.29413 -0.435501 -0.782047 0.51354 0.887346 -0.299838 -0.24996 -0.817894 0.142775 -1.16586 1.49132 -0.100466 -0.364669 0.89507 1.11999 0.752324 -1.22631 -0.0876336
163 0.870567 -1.13658 0.210705 0.657915 1.34205 1.03155 -1.42711 -0.434889 -0.781303 0.507331 0.833869 -0.348053 -0.424554 -0.710318 0.112159 -1.0647 1.40458 -0.0357363 -0.493819 0.793118 1.04152 0.836026 -1.16921 -0.172199
4784 0.829433 -1.06545 0.199119 0.781906 1.40996 1.04377 -1.74193 -0.39807 -0.905605 0.559821 0.844421 -0.419153 -0.624738 -0.707654 0.146843 -1.04148 1.42665 0.0749143 -0.629251 0.978442 1.09538 0.969524 -1.2128 -0.230599
2284 1.00298 -0.968996 0.289704 0.903767 1.4815 0.774803 -1.81892 -0.466999 -0.918208 0.416916 0.740575 -0.760424 -1.11525 -0.636672 0.172515 -0.740066 1.31291 0.185481 -0.95263 0.76849 0.905806 0.992283 -1.27192 -0.469401
4589 1.00976 -0.89508 0.32128 0.907019 1.54015 0.68295 -1.70464 -0.404674 -0.934258 0.444557 0.678014 -0.789755 -1.14578 -0.557928 0.178976 -0.720899 1.1657 0.13238 -0.925986 0.654058 0.853883 0.934012 -1.15332 -0.546213
4606 0.861703 -0.748688 0.279183 0.843598 1.32013 0.640601 -1.64221 -0.351356 -0.866193 0.364337 0.606962 -0.739414 -1.11597 -0.444512 0.118104 -0.578742 1.05725 0.189171 -0.864493 0.702704 0.733026 0.884937 -1.01836 -0.40966
2467 0.769773 -0.667263 0.255162 0.865346 1.23458 0.575002 -1.66663 -0.321167 -0.916384 0.393887 0.577423 -0.70032 -1.19399 -0.443564 0.142023 -0.581745 0.993908 0.188568 -0.912736 0.699141 0.747832 0.885894 -0.971754 -0.412781
2548 0.847836 -0.736581 0.305038 0.893682 1.39344 0.627872 -1.83023 -0.400714 -0.980719 0.441171 0.688285 -0.823711 -1.25327 -0.562851 0.127887 -0.674737 1.12132 0.251627 -1.06401 0.722973 0.836707 1.0207 -1.20562 -0.496699
1338 0.808164 -0.707694 0.310307 0.890936 1.33997 0.615332 -1.69175 -0.379382 -0.931019 0.361086 0.62531 -0.667815 -1.13054 -0.47015 0.113692 -0.615981 1.0741 0.205863 -0.90658 0.697416 0.822094 0.884235 -1.05749 -0.429172
2476 0.435612 -0.317754 0.242917 1.04923 1.19351 0.604763 -2.14627 -0.317901 -1.28214 0.281225 0.614395 -0.818415 -1.58712 -0.507367 0.0103048 -0.466861 1.08635 0.493282 -1.31974 0.883516 1.02856 1.11234 -1.33522 -0.548413
5282 0.170954 0.0882679 0.227319 1.0853 0.906953 0.335322 -2.03186 -0.151005 -1.43799 0.0901693 0.495297 -0.735268 -1.61433 -0.428307 -0.209768 -0.240548 0.807356 0.536681 -1.23108 0.804424 0.890491 0.962282 -1.18745 -0.503177
2616 0.133148 0.130714 0.209978 1.09903 0.873574 0.32721 -1.96881 -0.162557 -1.33022 0.120591 0.464818 -0.706898 -1.59264 -0.394147 -0.265453 -0.256919 0.830047 0.525193 -1.27873 0.810234 0.915432 0.924222 -1.20282 -0.465134
1163 0.23109 0.0509917 0.263674 1.10104 0.990212 0.395185 -2.09841 -0.256385 -1.35071 0.122276 0.494546 -0.685516 -1.60539 -0.431013 -0.179948 -0.296796 0.841851 0.507733 -1.26852 0.868002 0.934717 0.982904 -1.26449 -0.485763
1978 0.209583 0.16096 0.183159 1.07004 0.846089 0.271532 -1.94054 -0.143525 -1.32519 0.0557408 0.415206 -0.712101 -1.5282 -0.382811 -0.21205 -0.257231 0.733463 0.477365 -1.22844 0.761008 0.871205 0.925249 -1.1216 -0.461793
5502 0.215078 0.112103 0.235601 1.07432 0.904286 0.334629 -1.94842 -0.174161 -1.27495 0.122889 0.452957 -0.625152 -1.4767 -0.337828 -0.178869 -0.27228 0.776624 0.483052 -1.22842 0.790886 0.856728 0.968816 -1.1199 -0.461796
4123 0.0919338 0.252359 0.194342 1.06706 0.884767 0.339431 -2.05882 -0.161013 -1.48308 0.122161 0.476566 -0.702655 -1.60005 -0.422767 -0.253369 -0.28734 0.816819 0.593482 -1.34001 0.866316 0.912175 0.960959 -1.28416 -0.467819
3162 0.164345 0.157313 0.208883 0.947815 0.736031 0.274987 -1.759 -0.0673674 -1.22985 0.049507 0.367876 -0.574651 -1.41197 -0.317113 -0.246416 -0.173458 0.627594 0.46295 -1.09104 0.763412 0.757716 0.882187 -0.988451 -0.406682
3231 0.2805 0.0763938 0.1966 1.09709 0.99184 0.386589 -2.1883 -0.199065 -1.40904 0.078557 0.539488 -0.727481 -1.64873 -0.437031 -0.180546 -0.314541 0.926688 0.547461 -1.3829 0.815219 0.911929 0.982018 -1.33054 -0.506408
4256 -0.146758 0.226305 -0.965256 1.38302 1.13165 -0.309748 0.15636 -0.540736 -0.512617 -0.208947 1.00776 -1.03608 -0.429921 0.860459 -0.346312 -0.46506 1.04231 -0.133529 0.0574956 0.159741 1.15108 -0.0816602 -1.41588 0.746158
5305 -0.166062 0.283607 -1.15773 1.5819 1.26889 -0.364255 0.241666 -0.673725 -0.654776 -0.337064 1.07589 -1.1463 -0.516536 0.980625 -0.39904 -0.637081 1.2609 -0.199432 0.0562633 0.11474 1.36203 -0.091561 -1.61588 0.900575
4572 -0.166961 0.285406 -1.08504 1.45856 1.12935 -0.354162 0.198363 -0.564069 -0.611465 -0.351844 0.950354 -1.01804 -0.418626 0.867537 -0.413147 -0.548666 1.11613 -0.189345 0.076164 0.0975701 1.27531 -0.160603 -1.48161 0.84675
5562 -0.157925 0.298856 -1.06709 1.414 1.13909 -0.346545 0.210695 -0.557684 -0.613003 -0.302547 0.939912 -1.02205 -0.437745 0.836166 -0.366921 -0.557713 1.13961 -0.211379 0.053541 0.0787412 1.2264 -0.171167 -1.46194 0.859446
3192 -0.183994 0.290828 -1.01827 1.46162 1.18247 -0.355334 0.224305 -0.583409 -0.609785 -0.311384 0.940032 -1.00832 -0.424336 0.849763 -0.422211 -0.547872 1.13617 -0.157551 0.0501241 0.0728295 1.24711 -0.104107 -1.45247 0.857732
936 -0.157938 0.251303 -1.1829 1.57733 1.29053 -0.349837 0.146218 -0.595335 -0.506158 -0.169682 1.23231 -1.21205 -0.521281 0.948583 -0.340133 -0.480311 1.19828 -0.175869 0.0862605 0.196467 1.30387 -0.00198628 -1.66931 0.887652
1402 -0.191734 0.21988 -1.08822 1.69447 1.35217 -0.274035 0.103474 -0.658096 -0.45568 -0.128707 1.32924 -1.28082 -0.553345 0.976859 -0.325046 -0.486635 1.22533 -0.136795 0.0665635 0.196824 1.2816 0.0139493 -1.77266 0.826533
4770 -0.21409 0.20557 -1.17073 1.76897 1.3705 -0.348023 0.136071 -0.688668 -0.482792 -0.146105 1.44913 -1.39593 -0.622176 1.00498 -0.30293 -0.499948 1.37166 -0.144193 0.137896 0.306106 1.35589 0.0409941 -1.88826 0.833997
286 -0.236482 0.223924 -1.12891 1.75033 1.36699 -0.33961 0.132551 -0.659793 -0.464961 -0.0996633 1.39393 -1.29546 -0.552684 1.00852 -0.287455 -0.500212 1.29097 -0.184172 0.0922116 0.280982 1.30655 0.0286493 -1.83737 0.848156
1912 -0.276152 0.250615 -1.15735 1.74104 1.4657 -0.347445 0.125075 -0.715751 -0.492531 -0.145393 1.40952 -1.39659 -0.617194 0.990129 -0.283037 -0.555783 1.37852 -0.138486 0.0733972 0.27163 1.34368 0.0732425 -2.05502 0.871876
5003 -0.136785 0.177656 -1.07762 1.607 1.26015 -0.259724 0.101981 -0.633995 -0.420799 -0.100509 1.32046 -1.26569 -0.517797 0.933813 -0.232372 -0.373646 1.17208 -0.139965 0.118982 0.197443 1.25882 0.0910157 -1.72202 0.846753
3223 -0.140262 0.17597 -1.06307 1.5497 1.27905 -0.276581 0.113543 -0.611098 -0.411717 -0.130588 1.27435 -1.23036 -0.537842 0.986538 -0.246024 -0.470215 1.15437 -0.122564 0.0645909 0.248037 1.1865 0.0448231 -1.68377 0.759398
3011 -0.149384 0.238664 -1.03756 1.59524 1.31273 -0.281964 0.0831605 -0.606389 -0.427554 -0.124749 1.30938 -1.23795 -0.541406 0.96416 -0.237999 -0.413667 1.22951 -0.118122 0.123575 0.218932 1.27085 0.0682636 -1.69585 0.814313
4440 -0.303349 0.394864 0.0242455 1.75378 -0.228351 0.595427 0.251103 0.569598 -0.442074 -1.11761 1.18379 -0.215234 -1.35086 -1.97701 -1.18365 0.0478528 0.703085 0.557867 0.134719 1.33509 0.527052 -0.482002 -2.38804 -0.532261
1680 -0.2565 0.359105 -0.0249924 1.41694 -0.23681 0.562201 0.208679 0.523443 -0.330726 -0.927801 1.03324 -0.202603 -1.05956 -1.60058 -0.963458 0.0303412 0.467004 0.517128 0.167019 0.964484 0.451874 -0.300184 -1.89606 -0.428272
552 -0.322949 0.417801 0.0724938 1.82491 -0.22624 0.658917 0.264226 0.589891 -0.509719 -1.25817 1.22551 -0.266829 -1.38971 -2.10978 -1.25978 0.00171787 0.732118 0.614 0.158383 1.3768 0.606391 -0.474231 -2.56724 -0.558967
1886 -0.310689 0.354635 0.0292778 1.58663 -0.240279 0.594735 0.306359 0.596942 -0.433614 -1.05003 1.11462 -0.28656 -1.2162 -1.8347 -1.12611 0.0116388 0.592687 0.593161 0.129829 1.16816 0.47613 -0.464438 -2.28041 -0.512295
5078 -0.289563 0.35972 -4.64998e-05 1.68821 -0.207783 0.61162 0.281562 0.54598 -0.399188 -1.12876 1.14129 -0.217565 -1.28523 -1.88647 -1.16201 0.0243066 0.704732 0.601245 0.129467 1.25301 0.535584 -0.424188 -2.26557 -0.5235
284 -0.291241 0.355854 0.0309665 1.73236 -0.212565 0.619034 0.291564 0.569466 -0.463891 -1.15677 1.20319 -0.261776 -1.3291 -1.95493 -1.23712 0.0484483 0.673515 0.591862 0.169304 1.25427 0.55453 -0.393722 -2.34814 -0.531107
4860 -0.179396 0.350259 -0.0264812 1.47633 -0.165085 0.515532 0.21959 0.554213 -0.347297 -0.911134 1.02756 -0.288164 -1.06517 -1.60984 -0.991353 0.00461441 0.527939 0.450777 0.0885502 0.905819 0.391262 -0.295213 -1.92358 -0.448514
1141 -0.325606 0.372961 0.0388919 1.67879 -0.181953 0.575236 0.303267 0.580287 -0.414088 -1.08686 1.14985 -0.215059 -1.29851 -1.89496 -1.17123 0.0483647 0.62846 0.535736 0.137704 1.32402 0.533151 -0.439117 -2.2749 -0.548388
3053 -0.206395 0.349631 -0.0170426 1.67906 -0.141385 0.598218 0.217196 0.522486 -0.414652 -1.00956 1.0984 -0.357446 -1.25139 -1.71429 -1.0869 -0.0546596 0.687644 0.453919 0.105105 0.953211 0.49542 -0.378842 -2.18237 -0.536167
3726 -0.167356 0.300599 0.0144603 1.48078 -0.166799 0.537057 0.226067 0.519824 -0.379623 -0.880559 0.962104 -0.280318 -1.08567 -1.62046 -0.945051 0.0109671 0.536825 0.445555 0.165143 0.918292 0.394536 -0.270366 -1.87047 -0.427031
497 0.834596 -0.520728 -0.102119 0.0386894 0.428863 0.207921 -0.289682 0.084677 -0.98118 -0.410639 0.216081 -0.0665592 -0.701214 -1.31963 -0.57722 -0.885278 1.0794 -0.315988 -0.559317 0.566892 0.567803 -0.95176 -0.630078 0.99459
2679 0.904595 -0.55705 -0.0776752 0.109032 0.397005 0.198559 -0.250616 0.0687011 -1.02197 -0.466404 0.241599 -0.0788008 -0.700884 -1.33848 -0.550073 -0.911192 1.12489 -0.318804 -0.622785 0.576982 0.537655 -0.99628 -0.652033 1.01178
2640 1.06621 -0.668613 -0.0686728 0.114219 0.524285 0.296293 -0.361584 0.112927 -1.28843 -0.573498 0.316834 -0.118324 -0.92087 -1.62966 -0.739684 -1.05848 1.33868 -0.391665 -0.768835 0.720275 0.724165 -1.23713 -0.886686 1.23395
363 1.10345 -0.748867 -0.201465 -0.0044238 0.543304 0.29069 -0.482336 0.121542 -1.44675 -0.60883 0.288013 -0.0717593 -1.07876 -1.90428 -0.756397 -1.25628 1.56806 -0.469986 -0.877545 0.889786 0.924042 -1.48524 -1.18323 1.466
2574 0.954578 -0.638921 -0.11904 0.00163732 0.501039 0.208651 -0.441219 0.108072 -1.30162 -0.530385 0.269524 -0.0905259 -0.910926 -1.68137 -0.728746 -1.0677 1.34243 -0.412848 -0.747156 0.747883 0.831691 -1.29233 -0.869712 1.28091
5157 1.03603 -0.64876 -0.15756 0.0209939 0.583661 0.266911 -0.397226 0.089834 -1.27259 -0.581755 0.280381 -0.0858277 -0.998561 -1.69345 -0.74105 -1.14654 1.41213 -0.456855 -0.734058 0.773179 0.800021 -1.25896 -0.942352 1.31038
3403 0.963579 -0.571927 -0.107555 0.0397669 0.50079 0.268874 -0.378855 0.0679776 -1.16521 -0.501505 0.186539 -0.0600522 -0.854299 -1.57439 -0.672242 -1.00729 1.26625 -0.386735 -0.676602 0.73465 0.71119 -1.15823 -0.820828 1.23424
3472 1.06211 -0.763486 -0.112981 0.0334739 0.575324 0.242161 -0.459101 0.0847751 -1.41154 -0.610049 0.312102 -0.154817 -1.01256 -1.89169 -0.810631 -1.21862 1.52942 -0.444986 -0.819645 0.899777 0.879421 -1.43917 -1.06543 1.44696
5317 1.01712 -0.638537 -0.097608 0.0314987 0.534222 0.241181 -0.436537 0.0718124 -1.2606 -0.509696 0.284113 -0.0875735 -0.883023 -1.61009 -0.669975 -1.09977 1.31048 -0.445783 -0.707206 0.721985 0.74672 -1.24399 -0.912558 1.23069
2037 0.97078 -0.620639 -0.0678043 0.0296094 0.473161 0.245022 -0.36674 0.124356 -1.13477 -0.45605 0.209369 -0.0724385 -0.8332 -1.5414 -0.658766 -1.02318 1.25327 -0.406016 -0.676507 0.708525 0.729948 -1.18912 -0.811427 1.16842
2036 1.03851 -0.644343 -0.138117 0.124692 0.499561 0.242345 -0.356233 0.0857013 -1.21065 -0.513089 0.250058 -0.127732 -0.899762 -1.59795 -0.631988 -1.01304 1.30551 -0.442785 -0.761386 0.725211 0.69384 -1.2037 -0.879279 1.20251
1524 0.8607 -0.526622 -0.122434 0.038567 0.400433 0.173887 -0.289121 0.0830276 -0.986967 -0.443648 0.171748 -0.0396227 -0.762787 -1.33636 -0.495021 -0.88117 1.10145 -0.339349 -0.522195 0.598921 0.613688 -1.0299 -0.68111 1.01921
5630 1.00926 -0.629065 -0.112482 0.0751621 0.527529 0.192857 -0.383885 0.0587148 -1.20633 -0.527267 0.233326 -0.0896267 -0.931616 -1.59756 -0.663677 -1.11167 1.37168 -0.416656 -0.698364 0.734678 0.801887 -1.26673 -0.863667 1.21511
138 1.01362 -0.693181 -0.15444 0.0445356 0.503956 0.231449 -0.419274 0.0604329 -1.26271 -0.540871 0.201717 -0.0533118 -0.949837 -1.65341 -0.70273 -1.08292 1.35502 -0.463726 -0.731032 0.737647 0.808131 -1.3187 -0.932765 1.31906
2145 1.02107 -0.699234 -0.189314 -0.0483705 0.484582 0.21497 -0.416383 0.000191379 -1.40707 -0.650178 0.266864 -0.0760819 -1.11075 -1.9156 -0.845262 -1.32557 1.64422 -0.433904 -0.905228 0.939322 0.949456 -1.51275 -1.16399 1.5097
5536 1.05915 -0.67786 -0.123749 0.0696719 0.512377 0.279562 -0.411494 0.087808 -1.33704 -0.555515 0.277838 -0.0990125 -0.938514 -1.76145 -0.728469 -1.11969 1.42879 -0.499164 -0.781269 0.78463 0.84807 -1.29825 -0.998474 1.36569
2890 1.25003 -0.903714 0.637222 1.23121 0.874089 -0.0511931 1.24269 0.0529036 -0.759017 0.640463 0.0738676 0.0244405 -1.56065 -0.987629 -1.61264 0.402069 1.47948 0.310891 0.52941 0.9128 1.30947 -0.225132 -1.51406 -1.16915
1383 0.940324 -0.665657 0.446958 0.876202 0.681242 0.0017625 0.970164 0.04442 -0.578837 0.495922 0.076654 0.0363435 -1.12593 -0.703278 -1.16133 0.252948 1.02404 0.241714 0.449312 0.653663 0.99419 -0.172148 -1.06698 -0.841079
2560 1.20713 -0.77144 0.559574 1.07906 0.830622 -0.0569974 1.09097 0.0382201 -0.707792 0.516805 0.0882105 0.00575765 -1.42737 -0.901385 -1.4414 0.327071 1.31906 0.246597 0.516069 0.805275 1.1843 -0.253182 -1.29986 -1.00969
3721 1.2408 -0.908411 0.637989 1.18088 0.893655 -0.0542122 1.24564 0.0261266 -0.802423 0.59522 0.137302 0.0482645 -1.57286 -0.994376 -1.68533 0.41303 1.52035 0.39598 0.610674 0.907592 1.35096 -0.285984 -1.46665 -1.20144
3362 1.19177 -0.841943 0.622879 1.08358 0.847315 -0.0389082 1.14536 0.0677968 -0.78932 0.593823 0.100234 0.0488883 -1.49858 -1.01801 -1.56401 0.367991 1.46203 0.329846 0.572508 0.836886 1.31412 -0.244296 -1.43615 -1.12389
3553 1.15478 -0.794089 0.551462 1.08486 0.819458 -0.0358729 1.09415 0.0693317 -0.703923 0.56009 0.033597 0.0680134 -1.38483 -0.866201 -1.41802 0.354039 1.33455 0.320394 0.48096 0.816577 1.22685 -0.189119 -1.29158 -1.06357
5281 -0.381798 -1.27519 0.0728572 0.872517 0.401205 0.837701 0.256086 -0.328671 -0.480001 -0.256683 -0.747173 -0.320023 -1.30788 -1.23079 -0.707892 -0.596365 0.96382 0.964891 -2.01379 0.913233 2.11077 0.686221 -1.16032 0.0397159
2575 -0.436179 -1.26475 0.0752253 0.885077 0.421331 0.777209 0.315155 -0.342548 -0.51199 -0.312359 -0.754527 -0.311688 -1.36303 -1.21309 -0.644682 -0.624056 0.973867 0.995957 -2.00564 0.920691 2.09999 0.66179 -1.1236 0.0801908
4362 0.332301 -0.023723 -0.473639 0.379877 1.33786 -0.42541 0.366873 0.499258 -1.90357 -0.209311 0.4674 -1.29092 -0.216462 -0.380139 0.0144842 0.294487 1.10994 -1.14295 1.07312 -0.860271 1.03639 -0.507877 -2.53338 -0.73047
1435 0.341067 0.0107213 -0.477196 0.366755 1.32787 -0.472155 0.366581 0.50056 -1.99497 -0.302988 0.470138 -1.29529 -0.223899 -0.311487 -0.0365761 0.278713 1.10377 -1.14816 1.08218 -0.820143 1.00083 -0.523488 -2.47518 -0.731017
4928 -0.175738 -0.452663 -0.320421 0.5766 -0.00570001 0.0853566 -0.404228 -1.07029 -1.73432 -0.612939 0.638019 -0.888007 -0.874141 -0.907803 1.32808 -1.5119 0.902294 -0.187922 -0.14388 -0.442866 0.395786 1.12741 -1.73937 0.0156441
3656 -0.199714 -0.459181 -0.341845 0.627676 -0.0119207 0.0601469 -0.390278 -1.05528 -1.75865 -0.58136 0.682769 -0.897758 -0.9077 -0.88197 1.32566 -1.5265 0.930211 -0.204581 -0.186834 -0.445428 0.40887 1.12543 -1.81099 0.060631
1050 -0.187722 -0.469579 -0.365391 0.676623 -0.015662 0.135576 -0.392001 -1.12197 -1.79024 -0.616726 0.706246 -0.922024 -0.925625 -0.940153 1.34095 -1.56543 0.979945 -0.196954 -0.168674 -0.465018 0.448566 1.10979 -1.82076 0.0224936
1467 -0.1702 -0.456828 -0.390277 0.63824 -0.0019147 0.104811 -0.404668 -1.04676 -1.72267 -0.600512 0.717576 -0.874782 -0.925353 -0.890559 1.29537 -1.54721 0.929907 -0.214097 -0.157894 -0.405804 0.457706 1.08474 -1.88753 0.0577612
3491 -0.171267 -0.4579 -0.357391 0.628601 0.0429786 0.0981082 -0.432492 -1.16022 -1.73772 -0.615842 0.700793 -0.911026 -0.882849 -0.903718 1.3621 -1.54691 0.944175 -0.221238 -0.186282 -0.493158 0.462788 1.13421 -1.78454 0.0779529
1588 -0.148033 -0.465164 -0.369293 0.659461 -0.0290554 0.101004 -0.384374 -1.13525 -1.75638 -0.587745 0.674858 -0.955752 -0.879959 -0.887442 1.31153 -1.54294 0.952262 -0.192272 -0.237998 -0.436334 0.421376 1.06978 -1.89109 0.0325394
604 -0.143334 -0.46091 -0.345586 0.615892 -0.0233816 0.0907273 -0.39386 -1.07809 -1.74277 -0.578102 0.713596 -0.905795 -0.897096 -0.832025 1.33126 -1.5597 0.896697 -0.181954 -0.177715 -0.381954 0.454509 1.11968 -1.91751 0.09034
4015 -0.178744 -0.456833 -0.418387 0.617751 0.0408212 0.0668747 -0.446282 -1.05081 -1.76905 -0.638047 0.684395 -0.906699 -0.930544 -0.889988 1.38003 -1.53773 0.915771 -0.213183 -0.199703 -0.463216 0.449754 1.09109 -1.76825 0.0436301
3134 -0.148582 -0.435387 -0.39052 0.616008 0.00228275 0.0883761 -0.436838 -1.09297 -1.75822 -0.648078 0.687127 -0.89503 -0.889777 -0.919318 1.35603 -1.59383 0.970911 -0.16194 -0.170938 -0.435736 0.432391 1.09567 -1.83672 0.0234808
3722 -0.177897 -0.467855 -0.34601 0.597937 0.0209855 0.100966 -0.333014 -1.06852 -1.724 -0.618705 0.697929 -0.878181 -0.850974 -0.91521 1.34814 -1.48716 0.931803 -0.197604 -0.232992 -0.419033 0.425792 1.08167 -1.79249 0.00671049
5542 -0.917189 0.934048 1.20619 1.00391 1.4969 -0.605941 1.0998 -0.796027 -0.466713 -0.547 -0.902743 -0.510471 -0.787198 -0.41153 -0.740376 -1.28769 1.31675 1.07203 -1.60059 0.34808 0.787362 0.113952 -1.39584 -0.215707
2506 -0.90066 0.927282 1.17452 0.984784 1.50925 -0.5748 1.0857 -0.801693 -0.508485 -0.539137 -0.853993 -0.503765 -0.835744 -0.384506 -0.764475 -1.24835 1.29469 1.15631 -1.59385 0.366259 0.78399 0.106187 -1.39774 -0.20367
2514 -0.36538 0.926923 -0.542315 0.708045 -0.10481 0.140906 1.27606 -0.0346882 -0.739659 -0.132542 1.39886 -1.40069 -2.39754 -1.37488 -1.07899 -0.479344 1.64939 -0.43698 -0.791334 0.307703 0.418898 0.282901 -0.466124 -0.451867
5516 -0.425555 0.964466 -0.475506 0.699006 -0.10477 0.137728 1.29165 -0.0393574 -0.7314 -0.0592431 1.35187 -1.43701 -2.42402 -1.38703 -1.03825 -0.506643 1.55104 -0.436453 -0.814578 0.245809 0.427437 0.350537 -0.513017 -0.423891
1504 -0.435667 0.924624 -0.476873 0.658627 -0.121692 0.0836627 1.2574 -0.050968 -0.735671 -0.107875 1.36255 -1.44581 -2.43872 -1.42155 -1.05002 -0.454323 1.54025 -0.484322 -0.799816 0.327152 0.396608 0.324948 -0.499725 -0.404132
1613 0.555784 -0.165498 -0.0305397 0.892744 0.513994 0.115723 0.937774 -0.408808 0.427115 0.428829 0.0829446 -0.613487 0.0198747 -0.264248 -0.514307 -1.38541 1.81984 0.567697 -1.16377 1.19936 0.283907 -0.995936 -0.971111 -0.757644
1533 0.624389 -0.192964 -0.0344714 0.968327 0.585629 0.0761861 0.97611 -0.45802 0.419479 0.441132 0.0737392 -0.663788 -0.0278756 -0.349161 -0.578137 -1.54954 2.10815 0.582625 -1.27551 1.39244 0.342053 -1.18399 -1.1401 -0.820875
4609 0.568496 -0.158043 -0.0346622 0.895108 0.521996 0.112203 0.982344 -0.438786 0.420421 0.415114 0.0751522 -0.674528 0.0263959 -0.295925 -0.595349 -1.45333 1.949 0.548194 -1.24158 1.29176 0.307836 -1.11537 -1.00465 -0.812278
161 0.659107 -0.140049 -0.0359676 0.910889 0.497303 0.105488 1.03811 -0.438043 0.437974 0.463511 0.104923 -0.642403 0.0300245 -0.300325 -0.550525 -1.53357 2.00154 0.643675 -1.25058 1.35692 0.326594 -1.14969 -1.06363 -0.837757
2900 0.622417 -0.195814 -0.0531055 0.982217 0.529987 0.149323 1.0777 -0.447772 0.47073 0.449968 0.120948 -0.680216 -0.0178597 -0.347242 -0.535546 -1.55854 2.13133 0.635884 -1.28331 1.37931 0.394363 -1.15611 -1.1316 -0.847015
2546 -0.0102035 -0.635334 0.921236 1.28907 0.923782 -0.307681 -0.481094 0.000452336 -1.03888 0.437222 0.679755 0.560229 -1.40324 0.107037 0.870239 -0.98832 0.384236 -1.66832 -0.639393 1.17964 0.746893 -0.727429 -1.88614 0.0877801
2494 -0.0544802 -0.658866 0.99486 1.31746 0.919036 -0.308091 -0.517007 -0.029913 -1.02715 0.464644 0.648921 0.591739 -1.49541 0.148629 0.901699 -0.988418 0.375206 -1.697 -0.612075 1.22643 0.774124 -0.684581 -1.88882 0.132718
4230 -0.0402339 -0.726924 1.12325 1.51234 1.09641 -0.297363 -0.594008 -0.104115 -1.22612 0.504198 0.809812 0.639523 -1.74112 0.100227 0.979809 -1.16925 0.461944 -2.00224 -0.740979 1.39192 0.90913 -0.746512 -2.26592 0.129379
3859 -0.0171549 -0.681255 1.01378 1.35483 0.990078 -0.296924 -0.475891 0.0278249 -1.05887 0.49913 0.69145 0.613872 -1.5609 0.133082 0.921469 -1.06261 0.399978 -1.76795 -0.584233 1.27215 0.859706 -0.700324 -1.98661 0.0895025
3611 -0.0298617 -0.623983 0.8762 1.22786 0.896731 -0.307166 -0.450494 -0.00448346 -0.925529 0.423216 0.551813 0.520083 -1.33839 0.136192 0.795606 -0.875559 0.378339 -1.52567 -0.565583 1.12357 0.797119 -0.676569 -1.7817 0.0870128
3863 -0.0428137 -0.649874 0.922921 1.29693 0.881397 -0.297148 -0.485784 0.0147828 -0.955312 0.442676 0.658747 0.579615 -1.4077 0.14747 0.890004 -0.951727 0.362975 -1.62892 -0.580088 1.16554 0.754822 -0.687565 -1.83408 0.108534
3515 -0.0331053 -0.559288 0.734063 1.05529 0.709989 -0.286737 -0.36795 0.0292062 -0.769557 0.342098 0.449814 0.482603 -1.16779 0.144288 0.725739 -0.76178 0.266619 -1.33368 -0.487698 0.980744 0.587137 -0.562844 -1.49042 0.050253
3400 0.457661 0.027792 0.340556 0.923839 0.415947 -0.099488 -0.511066 -1.66021 0.038322 0.0696594 -0.762344 0.437121 -0.277005 -0.985045 -1.15865 -0.623911 1.10277 1.02506 -0.608765 0.581111 1.91298 0.585873 -2.22118 0.396254
5627 0.428815 -0.0332524 0.350426 0.964385 0.475995 -0.0160007 -0.58487 -1.66823 0.0411288 0.0824963 -0.789321 0.429181 -0.274426 -0.988433 -1.1836 -0.601862 1.0709 1.02323 -0.529762 0.620884 1.9802 0.505096 -2.20906 0.411577
4864 0.42085 0.0219814 0.361129 0.9769 0.452969 -0.095662 -0.540013 -1.65463 0.0241463 0.0770078 -0.706232 0.419384 -0.332616 -0.996499 -1.14208 -0.599035 1.11866 1.01071 -0.547796 0.608009 1.93134 0.569862 -2.17795 0.372203
4681 0.459047 -0.00706177 0.319012 0.918685 0.444937 -0.0396193 -0.532218 -1.63893 -0.0148963 0.130868 -0.738543 0.414908 -0.272132 -0.979906 -1.13206 -0.605543 1.09458 1.00421 -0.531889 0.547227 1.94164 0.481537 -2.19684 0.366506
4677 0.737617 -0.686937 0.694579 0.892401 0.627171 0.520207 -0.262683 -0.692797 -0.997988 0.161156 0.676286 -0.517845 0.101266 -0.126467 -0.258592 -0.306679 0.507762 -0.351962 -0.130435 0.00862445 -0.603428 -0.575166 -0.964899 -0.320084
11 1.29803 -1.06756 1.25156 1.46186 1.06939 0.88826 -0.521345 -1.34162 -1.59514 0.219107 1.21164 -1.02522 0.119516 -0.225505 -0.368326 -0.521767 1.04332 -0.506133 -0.3234 0.0358074 -0.903189 -1.10229 -1.79157 -0.578326
4540 1.23711 -0.965633 1.19941 1.4203 1.07196 0.839004 -0.564561 -1.17745 -1.57666 0.210566 1.15828 -0.966933 0.15746 -0.203526 -0.355231 -0.53368 1.09312 -0.46662 -0.263223 0.097071 -0.900018 -1.08028 -1.77344 -0.562868
2966 1.29764 -1.03265 1.19131 1.45204 1.07061 0.864801 -0.514007 -1.27648 -1.57058 0.2281 1.16389 -0.962352 0.104818 -0.219789 -0.430058 -0.604957 1.07697 -0.52101 -0.236509 0.102017 -0.858726 -1.07556 -1.79881 -0.60514
2841 1.32136 -1.05731 1.26352 1.54577 1.11983 0.921353 -0.50981 -1.29821 -1.70027 0.320292 1.16967 -0.991138 0.115574 -0.258311 -0.357218 -0.539216 1.0842 -0.474731 -0.317291 0.0358604 -0.888723 -1.11238 -1.80516 -0.524102
3554 1.26241 -1.01227 1.16434 1.46088 0.98571 0.904135 -0.524157 -1.21886 -1.5599 0.227171 1.15734 -0.962902 0.0916504 -0.254592 -0.388192 -0.50857 1.01774 -0.450975 -0.266795 0.0820706 -0.904304 -1.07588 -1.67824 -0.592993
4578 1.29801 -0.996712 1.20519 1.42608 1.03902 0.84946 -0.547627 -1.21066 -1.63425 0.219243 1.14123 -0.974631 0.157735 -0.238954 -0.369832 -0.461479 1.08915 -0.58617 -0.285751 0.0316637 -0.878332 -1.0496 -1.76126 -0.548672
4287 1.25841 -0.964798 1.19682 1.43004 1.08719 0.85221 -0.59774 -1.27264 -1.51634 0.219456 1.24314 -0.98147 0.179288 -0.256249 -0.379569 -0.590032 1.04159 -0.478342 -0.314655 0.0925717 -0.833966 -1.10468 -1.69662 -0.562433
2071 1.25598 -1.05195 1.33124 1.56202 1.10463 0.862982 -0.564031 -1.29027 -1.66301 0.34062 1.24525 -0.939726 0.064917 -0.265695 -0.339228 -0.552088 1.06854 -0.572723 -0.287182 0.118568 -0.875767 -1.16935 -1.83801 -0.637999
1687 1.24357 -0.973596 1.17989 1.41543 0.957602 0.782312 -0.523083 -1.21398 -1.47119 0.287944 1.12684 -0.956081 0.105757 -0.209123 -0.34692 -0.494185 1.04745 -0.470672 -0.235586 0.13025 -0.867436 -1.04689 -1.70078 -0.583478
5442 0.118464 0.151735 -0.0551952 1.67552 0.332571 0.557858 -0.534811 -0.75119 -1.47717 -0.0417557 -0.51342 -0.282143 0.157239 -0.104351 -0.677756 -0.691139 0.195135 0.305552 -0.948647 0.324328 1.42368 -0.0725745 -1.35086 1.17414
1178 0.0892812 0.149059 -0.0274385 2.16991 0.397804 0.724487 -0.621844 -0.959262 -1.97902 -0.062444 -0.627747 -0.32179 0.161111 -0.147524 -0.872682 -0.915526 0.23393 0.358158 -1.23353 0.452951 1.85732 -0.126015 -1.80676 1.52213
2817 0.119081 0.0827178 -0.0582307 1.65667 0.332641 0.552281 -0.48015 -0.78035 -1.49936 -0.023687 -0.552187 -0.229961 0.215905 -0.0860619 -0.692573 -0.612638 0.184829 0.277893 -0.938266 0.339049 1.43668 -0.0363235 -1.32793 1.19311
3539 0.102359 0.142839 -0.0695058 2.04252 0.431091 0.663359 -0.574764 -0.897428 -1.83887 -0.0966729 -0.55296 -0.273716 0.213393 -0.161765 -0.794252 -0.843811 0.158634 0.285596 -1.08987 0.430559 1.69916 -0.110778 -1.58615 1.38075
677 0.0944749 0.141123 -0.041115 2.06186 0.368417 0.693185 -0.641334 -0.9424 -1.82834 -0.0525347 -0.58606 -0.298128 0.215011 -0.164571 -0.796481 -0.836738 0.184711 0.36431 -1.12441 0.420288 1.7021 -0.0533192 -1.65446 1.45466
1256 0.156073 0.116972 -0.0541051 1.95354 0.392293 0.696446 -0.632996 -0.917471 -1.82879 -0.0865591 -0.634498 -0.249139 0.215734 -0.142435 -0.820132 -0.851777 0.202248 0.350405 -1.14647 0.446892 1.68544 -0.0717193 -1.63917 1.45098
3764 0.13277 0.101545 -0.0150556 2.02407 0.369501 0.666184 -0.607538 -0.899261 -1.83872 -0.0582001 -0.657052 -0.288781 0.249892 -0.120046 -0.814876 -0.855654 0.232353 0.345513 -1.13103 0.411392 1.73997 -0.100425 -1.60871 1.39936
4721 -0.304249 0.19674 0.992537 -0.408756 0.397678 -0.73281 -1.2365 -0.541122 -1.78617 0.324483 -0.665582 0.0215654 -1.64212 -0.795101 0.169078 -1.69296 1.92558 -0.422765 -0.549928 -0.368658 -0.239761 -0.144025 -1.52118 0.0572607
2674 -0.286913 0.131911 0.970513 -0.409124 0.375246 -0.745721 -1.17595 -0.539002 -1.79984 0.334705 -0.613333 0.00883349 -1.56342 -0.786619 0.13307 -1.64671 1.92015 -0.375965 -0.541816 -0.337115 -0.208386 -0.132488 -1.50589 0.0286637
1387 -0.261748 0.184444 0.960963 -0.390963 0.413587 -0.759598 -1.22494 -0.544283 -1.78401 0.264304 -0.596885 -0.0212997 -1.62029 -0.793178 0.141381 -1.72431 1.86487 -0.466363 -0.538424 -0.353433 -0.247136 -0.0966179 -1.52102 0.00810167
646 -0.23995 0.124901 0.996263 -0.337504 0.431928 -0.744974 -1.17503 -0.53225 -1.7858 0.3057 -0.61181 0.0334347 -1.5729 -0.811545 0.169032 -1.6838 1.89255 -0.454923 -0.463443 -0.385154 -0.238352 -0.132512 -1.50094 -0.0207962
3454 -0.574647 0.749769 -0.221395 0.834371 1.36682 -0.38604 -0.636037 -1.52411 -0.0880364 0.314702 1.96968 -0.408084 -0.644054 -0.393551 -0.547049 -0.592947 1.60597 -0.927281 0.0141488 -0.106695 0.88904 -1.63015 -1.398 0.124817
2678 -0.552481 0.750874 -0.226406 0.765902 1.34974 -0.353604 -0.604371 -1.55603 -0.0740796 0.302285 1.94469 -0.448254 -0.697245 -0.392581 -0.555958 -0.481545 1.64212 -0.895695 -0.0415298 -0.173211 0.90899 -1.61472 -1.31799 0.119381
3163 -0.581202 0.697627 -0.2686 0.805604 1.36672 -0.411867 -0.63408 -1.49005 -0.075093 0.265904 1.92887 -0.439178 -0.649186 -0.398203 -0.592454 -0.559587 1.64428 -0.896888 0.0272508 -0.205685 0.913342 -1.57351 -1.40111 0.137398
149 -0.580642 0.687799 -0.232554 0.807996 1.34884 -0.442501 -0.615896 -1.49814 -0.115593 0.30865 1.92296 -0.427902 -0.646044 -0.341026 -0.594468 -0.524868 1.62082 -0.884017 0.066212 -0.17615 0.917111 -1.6218 -1.29684 0.204618
733 -0.557973 0.732138 -0.228122 0.824417 1.33715 -0.446039 -0.653844 -1.48389 -0.0905916 0.272921 1.99332 -0.441986 -0.668582 -0.433657 -0.500153 -0.565503 1.61698 -0.892048 0.0259741 -0.160562 0.972144 -1.62277 -1.34185 0.144532
1525 -0.571653 0.722098 -0.25902 0.840176 1.39116 -0.403067 -0.666852 -1.53967 -0.122586 0.299772 1.98295 -0.420232 -0.67126 -0.390221 -0.531856 -0.522684 1.66545 -0.88443 -0.0459647 -0.190944 0.863347 -1.61903 -1.34128 0.135291
5603 -0.28996 -0.952382 0.122076 1.05149 0.00261287 -1.6512 0.00551222 -0.439245 -0.798368 0.649403 0.813624 -0.111055 -0.112638 -1.23691 0.496395 -0.241486 1.78986 0.64131 0.252583 0.438929 0.311565 -1.04884 -2.37643 0.137107
3757 -0.306943 -0.954066 0.080248 1.0752 0.041161 -1.64997 0.0327292 -0.482542 -0.830141 0.597298 0.844392 -0.123751 -0.0951623 -1.24296 0.48695 -0.205108 1.79899 0.69318 0.274027 0.42827 0.363752 -1.06846 -2.40149 0.154868
5153 -0.324678 -0.97911 0.10822 1.07509 0.0493697 -1.63138 0.0630113 -0.478406 -0.813371 0.623273 0.8762 -0.115537 -0.0054808 -1.16019 0.464951 -0.264828 1.82979 0.659264 0.260497 0.418073 0.323443 -1.05458 -2.36562 0.151614
2725 -0.279191 -1.01369 0.131127 1.00723 0.0553067 -1.60394 0.0277249 -0.446042 -0.794275 0.677605 0.854952 -0.162767 -0.0837295 -1.2927 0.455482 -0.229636 1.86028 0.649889 0.249826 0.400573 0.349222 -1.08879 -2.34033 0.111844
5151 -1.51189 -0.391652 0.249581 0.129709 0.851781 -0.309238 -0.818082 0.130773 -2.24578 1.0554 0.777785 -0.382481 -0.739713 0.0447195 0.13466 -0.99441 1.27803 -0.863705 -1.57073 0.20746 1.01893 -0.37154 -1.03537 0.740948
504 0.417361 -0.633724 1.12685 0.857486 0.663342 0.911339 0.0251124 0.511385 -0.963287 -0.223493 0.715375 -0.399979 0.351396 0.208947 0.493059 -0.238575 1.67538 0.975752 -1.47167 1.49479 1.6341 -0.40012 -1.21178 -0.624023
2233 0.28748 -0.679342 1.10687 0.900525 0.594426 0.863839 0.044624 0.476315 -0.998668 -0.215878 0.639037 -0.438263 0.377393 0.169484 0.513855 -0.298482 1.67217 1.01934 -1.46002 1.49553 1.60354 -0.440548 -1.23862 -0.647074
851 0.307559 -0.660679 1.09781 0.923226 0.640852 0.836613 0.0209759 0.513926 -1.0062 -0.243027 0.665334 -0.529779 0.451489 0.251967 0.528042 -0.303333 1.72402 0.973152 -1.43284 1.5398 1.61204 -0.45507 -1.245 -0.650768
755 0.291831 -0.663481 1.11167 0.916984 0.683271 0.877071 0.00930577 0.440244 -0.982828 -0.208928 0.703935 -0.513517 0.432743 0.22064 0.543933 -0.299089 1.68943 1.03235 -1.4936 1.53533 1.66182 -0.450862 -1.19047 -0.604063
2702 -0.278648 0.147206 1.65309 0.38207 0.147454 -1.30611 1.12265 0.356985 -1.4004 -0.36535 -0.291485 0.324169 -1.27043 -0.967052 -0.832826 -0.595042 0.43856 -0.439347 0.493291 0.312242 0.531233 0.236281 -2.74757 -0.988645
1838 -0.206498 0.128536 1.60185 0.3793 0.239619 -1.3431 1.11528 0.417369 -1.43411 -0.290077 -0.263994 0.361879 -1.35854 -0.960126 -0.827866 -0.598636 0.402146 -0.442574 0.531106 0.281707 0.506548 0.189294 -2.71417 -0.942401
4588 1.14247 0.604124 1.16713 0.35127 0.498902 1.08421 -1.2556 -0.817818 -0.382988 0.0165844 1.27557 1.06066 -0.854678 -1.04727 -0.831399 -0.516353 0.857846 -0.853777 0.0698186 0.765182 0.425406 -0.130842 -2.42744 -0.525745
180 1.1547 0.577831 1.14315 0.39303 0.512392 1.03109 -1.24922 -0.894784 -0.422213 0.00781953 1.26861 1.06781 -0.840148 -1.06791 -0.828439 -0.494945 0.829283 -0.812885 0.0516676 0.808535 0.437213 -0.133084 -2.42383 -0.59542
1280 1.20965 0.550984 1.16731 0.359642 0.492749 1.1048 -1.29043 -0.905053 -0.457749 0.0449745 1.32933 1.01988 -0.926462 -1.09869 -0.866759 -0.587508 0.837272 -0.79905 0.000760455 0.842688 0.450245 -0.1155 -2.4615 -0.585812
3128 1.21001 0.557803 1.18521 0.431092 0.470857 1.00977 -1.30095 -0.857634 -0.446625 0.0276574 1.25122 1.08455 -0.839614 -1.03433 -0.832941 -0.537188 0.849485 -0.801332 0.0557114 0.817778 0.404125 -0.0911767 -2.37355 -0.542311
3149 1.13734 0.557057 1.1501 0.300862 0.479081 1.0448 -1.28425 -0.88711 -0.455637 0.0191283 1.26593 1.01426 -0.828463 -1.0738 -0.864422 -0.526728 0.840029 -0.800601 0.0573201 0.812277 0.409897 -0.122845 -2.4428 -0.562091
1458 1.16621 0.595998 1.14509 0.340979 0.474287 1.01266 -1.1947 -0.866331 -0.426043 0.0393156 1.22128 1.01261 -0.773315 -0.999331 -0.836451 -0.523845 0.836376 -0.765164 0.0666168 0.771908 0.431279 -0.155211 -2.40962 -0.540618
762 1.17273 0.55768 1.12717 0.34579 0.506313 1.05166 -1.25067 -0.825364 -0.393787 -0.00934678 1.27883 0.997784 -0.861596 -1.04866 -0.802418 -0.500628 0.817785 -0.740572 0.0713015 0.765832 0.422264 -0.12796 -2.31711 -0.593508
2463 -0.641861 0.939078 -0.0409188 1.17106 0.17629 0.370116 0.0869478 0.374634 -1.47271 0.0373384 -0.0428611 -0.788585 0.829392 -0.274184 0.702627 -1.86351 0.868739 -0.00532759 -1.19966 -0.539983 1.68987 -0.662918 -2.23759 0.598665
1201 -0.626878 0.91073 -0.051155 1.28534 0.200024 0.423617 0.0393357 0.367282 -1.51019 -0.0103654 -0.0909346 -0.837095 0.840531 -0.254804 0.726867 -1.82325 0.851507 -0.0133286 -1.25352 -0.566876 1.65006 -0.657357 -2.16598 0.544314
5060 1.06623 -0.694645 -0.189357 0.0269748 0.513088 0.226041 -0.376316 0.0851362 -1.34528 -0.5356 0.264931 -0.0917931 -0.907764 -1.73104 -0.6935 -1.09739 1.41878 -0.457697 -0.783945 0.803163 0.812203 -1.30679 -0.949601 1.30953
725 1.02444 -0.67395 -0.144234 0.0834511 0.497425 0.221818 -0.413057 0.107164 -1.26384 -0.531273 0.26155 -0.115693 -0.917024 -1.56811 -0.678312 -1.01589 1.3459 -0.419431 -0.61678 0.7235 0.73749 -1.25864 -0.883662 1.24288
4653 0.991878 -0.645893 -0.102188 0.0562604 0.476663 0.207756 -0.378086 0.0565306 -1.17703 -0.515287 0.290945 -0.0778771 -0.866026 -1.49038 -0.656596 -0.992688 1.25685 -0.384313 -0.638435 0.672436 0.7275 -1.15234 -0.818804 1.18136
5037 1.02453 -0.671821 -0.130964 0.092709 0.564293 0.224182 -0.380687 0.107673 -1.26087 -0.542055 0.284238 -0.126161 -0.929333 -1.60323 -0.672542 -1.01967 1.34234 -0.351604 -0.643423 0.711039 0.762463 -1.25107 -0.903571 1.23973
4332 0.91971 -0.598948 -0.145908 0.0134952 0.487634 0.222346 -0.388498 0.0524467 -1.10527 -0.492318 0.255643 -0.104341 -0.850177 -1.55656 -0.633753 -1.0292 1.23369 -0.434499 -0.670695 0.677879 0.686143 -1.23455 -0.833211 1.20128
4350 0.974648 -0.634002 -0.114003 0.0316519 0.426348 0.231597 -0.387734 0.0559995 -1.1752 -0.544824 0.291148 -0.10666 -0.87159 -1.51691 -0.641255 -0.952995 1.24325 -0.407157 -0.635937 0.656492 0.66667 -1.17511 -0.839797 1.13711
3242 0.822361 -0.529594 -0.127294 0.00404399 0.44058 0.189766 -0.321285 0.0279279 -1.03624 -0.390292 0.237904 -0.0580671 -0.713747 -1.33869 -0.533593 -0.838301 1.04132 -0.344424 -0.537973 0.563966 0.624041 -1.03227 -0.639839 1.0204
3215 1.10539 -0.666655 -0.153567 0.0638974 0.560378 0.237536 -0.415799 0.0504182 -1.41257 -0.552984 0.293591 -0.150803 -1.02733 -1.81775 -0.783742 -1.18188 1.47877 -0.459746 -0.84508 0.866427 0.858191 -1.40846 -1.03965 1.40166
4949 0.780095 -0.480362 -0.0914516 -0.037385 0.390505 0.167884 -0.292074 0.0751112 -0.88448 -0.405536 0.147851 -0.0858183 -0.629303 -1.21892 -0.46374 -0.762569 0.899816 -0.243692 -0.494891 0.535764 0.524662 -0.863419 -0.561906 0.980376
5608 0.380728 0.624324 0.0300343 0.843767 0.494979 -0.148744 -0.382702 1.0192 -1.34042 0.494796 -0.273924 -0.668106 -0.551703 -1.15395 -1.43074 -1.2363 1.06777 1.14104 -0.357924 1.02474 -0.49537 -0.903107 -1.64828 0.447505
4463 0.383993 0.650102 0.0234423 0.942606 0.577788 -0.205768 -0.459827 1.0597 -1.478 0.528638 -0.343895 -0.635626 -0.641209 -1.26032 -1.5661 -1.34646 1.10085 1.27445 -0.391 1.12173 -0.586413 -0.949796 -1.69514 0.456415
5106 0.384418 0.596055 -0.017615 0.816502 0.504095 -0.187128 -0.437384 0.977967 -1.35632 0.532527 -0.292667 -0.632792 -0.59132 -1.18882 -1.45461 -1.22662 1.01055 1.15016 -0.350663 1.11167 -0.552829 -0.85745 -1.66908 0.498202
2607 0.391754 0.646132 0.0410846 0.825901 0.526897 -0.200925 -0.429622 1.05544 -1.41361 0.548915 -0.341376 -0.652907 -0.61756 -1.23135 -1.51151 -1.33165 1.07748 1.19377 -0.420903 1.11346 -0.544078 -0.894417 -1.74528 0.479678
1528 0.38221 0.630561 0.000158741 0.88837 0.468696 -0.187142 -0.373204 1.00636 -1.38786 0.542796 -0.273365 -0.603112 -0.595882 -1.22097 -1.52379 -1.27178 1.06515 1.13682 -0.372539 1.04142 -0.501487 -0.865495 -1.60257 0.492293
4693 0.428741 0.60011 0.00535982 0.933214 0.53313 -0.20417 -0.454927 1.07374 -1.44428 0.543465 -0.315705 -0.658231 -0.554236 -1.26101 -1.53032 -1.29629 1.10224 1.20443 -0.432568 1.14169 -0.563559 -0.931194 -1.72722 0.519986
5125 0.409618 0.599574 -0.0148627 0.860393 0.54833 -0.226147 -0.438823 1.01443 -1.41914 0.539404 -0.309829 -0.694903 -0.564278 -1.23348 -1.47211 -1.27092 1.07374 1.21104 -0.390622 1.1363 -0.500991 -0.89895 -1.66436 0.485197
1276 0.315161 0.494557 0.00754744 0.703461 0.396927 -0.160094 -0.369766 0.855965 -1.10457 0.484195 -0.290718 -0.490422 -0.448112 -0.940779 -1.22704 -1.03463 0.861269 0.98642 -0.31467 0.864354 -0.430208 -0.723275 -1.35178 0.405391
3945 0.367656 0.575667 0.0306194 0.787634 0.508292 -0.166922 -0.404064 0.942391 -1.24302 0.490859 -0.277075 -0.56882 -0.550869 -1.14821 -1.38681 -1.1486 0.966251 1.10821 -0.3091 1.00561 -0.498117 -0.83761 -1.52329 0.466694
4577 0.367173 0.565991 0.0120633 0.922552 0.464412 -0.215584 -0.446258 0.994652 -1.33503 0.519632 -0.269861 -0.602876 -0.558511 -1.21195 -1.47965 -1.2941 1.05579 1.15708 -0.410778 1.0825 -0.558049 -0.917707 -1.63027 0.508714
43 -1.28576 -0.366964 0.651707 0.0967505 0.570397 0.255767 -0.621062 -0.114495 -0.831925 -0.920673 0.163111 0.749348 -0.711843 -0.617187 -1.4638 -0.553794 1.8644 0.497068 -0.593392 1.18374 0.00164434 -0.390184 -2.00169 -0.681425
4302 -1.22982 -0.341767 0.74041 0.134298 0.727613 0.413979 -0.65967 -0.136967 -0.925247 -0.995195 0.237035 0.716321 -0.7711 -0.711099 -1.55916 -0.591478 1.91814 0.356642 -0.702825 1.13911 -0.00598482 -0.466372 -1.91292 -0.712043
3213 -0.96118 -0.249455 0.682507 0.195415 0.841802 0.369672 -0.53298 -0.201889 -0.980834 -0.847838 0.259417 0.562087 -0.712788 -0.711089 -1.50972 -0.422021 1.59064 0.276041 -0.689353 1.08002 -0.187009 -0.386858 -1.51224 -0.762649
694 -1.16345 -0.22961 0.681482 0.152341 0.760035 0.319995 -0.665143 -0.197359 -0.934028 -0.939664 0.209609 0.684568 -0.666646 -0.723887 -1.52646 -0.595873 1.84226 0.366733 -0.667583 1.13434 -0.0893964 -0.491721 -1.8628 -0.81319
1753 -1.2893 -0.323163 0.657976 0.114573 0.481162 0.263442 -0.680864 -0.00654321 -0.835819 -0.939832 0.147608 0.70925 -0.62606 -0.595195 -1.38866 -0.530642 1.76417 0.476743 -0.588158 1.09054 0.00166491 -0.424057 -1.93598 -0.606429
3230 -1.31722 -0.285644 0.765056 0.20176 0.763707 0.363103 -0.687437 -0.105652 -0.963656 -1.04244 0.225273 0.760932 -0.721889 -0.712299 -1.54656 -0.556546 1.99775 0.443193 -0.732716 1.14175 0.0540718 -0.45586 -1.98656 -0.74863
4989 -1.0492 -0.236374 0.526164 0.0513559 0.494641 0.28418 -0.48869 -0.073306 -0.69758 -0.735124 0.134354 0.495624 -0.493456 -0.533809 -1.18556 -0.389396 1.3943 0.352294 -0.513338 0.867748 -0.00399895 -0.313374 -1.45758 -0.557742
4993 -1.03735 -0.268468 0.525184 0.0457969 0.447809 0.292611 -0.473321 -0.0929713 -0.72306 -0.777994 0.146157 0.559606 -0.577951 -0.529301 -1.19527 -0.465474 1.44795 0.342025 -0.483249 0.914833 -0.029168 -0.319905 -1.52042 -0.546319
939 -1.05488 -0.165732 0.653024 0.122532 1.06502 0.627579 -0.469238 -0.509649 -1.03324 -0.898787 0.361588 0.492263 -0.913577 -1.05854 -1.69578 -0.779537 1.73578 -0.072889 -0.656132 1.0329 -0.314199 -0.673721 -1.56614 -0.957237
828 -1.09001 -0.000591014 0.661325 0.383003 0.86909 0.501792 -0.822639 -0.0630258 -1.14571 -0.809496 0.382365 0.543841 -0.582112 -0.91978 -1.63051 -0.383748 1.91738 0.168241 -0.782624 0.78648 -0.0434744 -0.79448 -1.68197 -1.06342
3893 -0.713255 -0.0121746 0.586373 0.517191 0.987799 0.27795 -0.918985 -0.0330946 -1.27136 -0.669274 0.451884 0.397384 -0.440566 -0.786281 -1.62617 -0.119551 1.69458 0.275235 -0.767665 0.785181 -0.144087 -0.67293 -1.38507 -1.07413
780 -0.57409 0.0162655 0.472616 0.421793 0.881242 0.301858 -0.710427 -0.0998603 -1.1067 -0.589822 0.412527 0.313024 -0.478264 -0.753637 -1.37557 -0.166748 1.45749 0.140175 -0.630463 0.702906 -0.196565 -0.575247 -1.06803 -0.926581
5321 -0.694536 0.0338703 0.700907 0.451875 1.08272 0.438479 -0.723442 -0.179717 -1.17661 -0.641901 0.461473 0.363796 -0.58207 -0.857014 -1.46262 -0.303502 1.71883 0.0598953 -0.746633 0.734874 -0.214569 -0.635731 -1.11881 -1.04804
3266 -0.642038 0.00118292 0.642159 0.462837 1.09014 0.321994 -0.900693 -0.0807419 -1.342 -0.719256 0.448225 0.36891 -0.563001 -0.836066 -1.6516 -0.103923 1.85245 0.289161 -0.871692 0.922212 -0.174829 -0.568751 -1.34385 -1.18113
2722 -0.596923 -0.0715639 0.606333 0.360854 1.06498 0.361099 -0.688115 -0.159233 -1.15337 -0.66974 0.361415 0.35199 -0.589328 -0.728479 -1.5465 -0.221738 1.54497 0.192737 -0.765087 0.93938 -0.230546 -0.475098 -1.18563 -1.01394
1153 -0.573661 -0.0255142 0.672055 0.300455 1.07172 0.452842 -0.414809 -0.300606 -0.90869 -0.639175 0.386616 0.295147 -0.693578 -0.794853 -1.26801 -0.423852 1.40419 -0.0792187 -0.598733 0.679389 -0.284859 -0.467145 -0.785055 -0.862533
883 -1.31736 0.162863 0.0968842 1.29732 -0.204361 0.22711 -0.0502217 -0.00966031 -0.786337 0.518809 0.18305 -0.625003 -1.45352 -0.189588 -0.748399 -0.727142 0.747831 0.123303 -0.839691 -0.684803 1.31835 0.121738 -1.81073 0.893434
3317 -1.64481 0.123729 0.0445596 1.79358 -0.257752 0.308 -0.0443444 -0.0226219 -1.11118 0.61748 0.170389 -0.852864 -2.03907 -0.297125 -1.03232 -0.983715 1.10995 0.0404061 -1.17397 -0.814971 1.81866 0.211258 -2.49068 1.16507
2166 -1.22577 0.100112 0.0660758 1.17539 -0.191893 0.216131 0.0412854 0.0197824 -0.731854 0.465504 0.109749 -0.582686 -1.32655 -0.173436 -0.685829 -0.64478 0.680826 0.0661342 -0.789079 -0.618149 1.19123 0.158493 -1.56479 0.799902
1292 -1.33612 0.0954639 0.117454 1.39271 -0.251821 0.230023 -0.00521576 0.0369676 -0.880785 0.521261 0.228473 -0.706846 -1.60703 -0.186135 -0.768697 -0.766975 0.829789 0.0608678 -0.920691 -0.6583 1.34268 0.176593 -1.92114 0.897651
1439 -1.33629 0.12007 0.0484757 1.29486 -0.228241 0.191894 -0.000977811 -0.011557 -0.77863 0.516694 0.150678 -0.631058 -1.44733 -0.16152 -0.694517 -0.713819 0.74299 0.0873629 -0.862575 -0.661656 1.27148 0.219323 -1.76051 0.873735
3577 -1.19887 0.142221 0.0673268 1.18377 -0.207493 0.172103 -0.0355813 -0.00390918 -0.715044 0.43517 0.150878 -0.578273 -1.37291 -0.178973 -0.689389 -0.656602 0.660006 0.0804275 -0.765577 -0.623253 1.20916 0.117357 -1.55662 0.798875
106 -1.20673 0.130652 0.0991965 1.13353 -0.224017 0.1765 -0.0509842 -0.0192674 -0.723799 0.460627 0.10161 -0.527 -1.30129 -0.169416 -0.652466 -0.653311 0.687348 0.0846541 -0.787805 -0.614359 1.13505 0.171869 -1.60397 0.75392
3365 -1.39787 0.147859 0.0796182 1.48365 -0.270677 0.231953 -0.0240938 -0.0833866 -0.901034 0.525788 0.121181 -0.603711 -1.74257 -0.239119 -0.867284 -0.810771 0.941065 0.114791 -0.945383 -0.771061 1.45553 0.119636 -2.03115 0.98599
3428 -1.52412 0.123392 0.0670458 1.45016 -0.247852 0.207427 0.0262448 -0.0648713 -0.880261 0.507293 0.142103 -0.648776 -1.7745 -0.2232 -0.849442 -0.825288 0.926808 0.117727 -0.995106 -0.747628 1.52853 0.164852 -2.0965 0.928034
2058 -1.337 0.160948 0.103829 1.24763 -0.208977 0.238387 -0.00432749 -0.0523002 -0.803645 0.456938 0.215972 -0.639086 -1.47176 -0.179251 -0.728471 -0.722957 0.73383 0.128983 -0.824756 -0.606734 1.28014 0.13597 -1.79999 0.811652
152 -1.34686 0.190765 0.0850093 1.28306 -0.210428 0.231127 -0.0274091 -0.0369051 -0.831179 0.537892 0.195875 -0.629158 -1.48045 -0.198063 -0.732077 -0.713503 0.773513 0.113064 -0.866414 -0.625567 1.33088 0.127707 -1.80761 0.874819
1065 0.72721 -1.20779 1.11811 0.781876 -0.0474356 0.0451529 0.198654 0.790677 -1.02486 0.349876 0.0372733 -0.71239 0.499842 -1.83044 -0.276189 -0.616159 1.99348 -0.389337 -1.04037 -0.0796004 0.536584 0.0941738 -1.28829 0.0169324
1199 0.764488 -1.22129 1.12831 0.764215 -0.0490941 0.0345133 0.247315 0.748436 -0.991882 0.327413 0.0939097 -0.7589 0.454277 -1.775 -0.249765 -0.593592 2.01222 -0.354532 -1.00024 -0.115692 0.493906 0.138104 -1.23568 0.00639124
2333 0.757215 -1.21114 1.11673 0.841013 -0.0743552 0.00482133 0.246818 0.778748 -1.06047 0.30922 -0.020293 -0.789755 0.512686 -1.83817 -0.263939 -0.634954 2.07033 -0.374678 -1.07947 -0.0908692 0.557923 0.0859054 -1.27065 0.0692253
2634 0.772378 -1.20607 1.09979 0.79707 -0.106991 0.00604056 0.217106 0.733047 -1.04529 0.325528 0.0354911 -0.741656 0.477842 -1.78462 -0.245911 -0.585614 2.00649 -0.409719 -1.0544 -0.0780068 0.509907 0.143218 -1.2518 0.0136386
4818 -0.288556 -0.564674 -0.735302 0.0196186 1.21773 0.238026 -0.53563 -0.00249562 0.228334 0.112085 0.233635 -1.08256 -1.84098 -1.10342 -0.928236 -0.311793 1.49816 -1.36853 -1.51867 0.997357 -0.0732323 0.789183 -1.49582 0.395275
4547 -0.258748 -0.571058 -0.701955 0.028317 1.20038 0.189101 -0.526547 0.0125658 0.271546 0.113339 0.235879 -1.0784 -1.75638 -1.05932 -0.921834 -0.24892 1.6071 -1.27431 -1.47411 0.942452 -0.0845472 0.790771 -1.4791 0.436797
1215 -0.241613 -0.569525 -0.706916 -0.0435645 1.2579 0.206974 -0.529237 0.0118135 0.242309 0.112156 0.238704 -1.09733 -1.81672 -1.07694 -0.963686 -0.297695 1.5893 -1.32259 -1.53486 0.99613 -0.104268 0.791523 -1.4923 0.466625
2481 -0.243463 -0.56843 -0.699718 0.0295933 1.21818 0.176964 -0.510287 0.0286658 0.247935 0.111642 0.183744 -1.09936 -1.8423 -1.10249 -0.905144 -0.329719 1.55356 -1.40316 -1.53042 0.97011 -0.0524813 0.788933 -1.51346 0.40774
339 -0.25512 -0.507187 -0.740889 0.0138566 1.2172 0.207537 -0.500046 0.0291885 0.200042 0.131228 0.260427 -1.13891 -1.7967 -1.11895 -0.95377 -0.322789 1.52491 -1.34652 -1.50515 1.06122 -0.100821 0.830244 -1.47013 0.400116
2539 -0.253079 -0.483515 -0.715205 0.0404857 1.19934 0.188297 -0.61795 -0.0222542 0.225516 0.0778084 0.237007 -1.05099 -1.81828 -1.15013 -0.999473 -0.324801 1.51437 -1.31802 -1.50999 1.01098 -0.0372391 0.782582 -1.50183 0.428771
2752 0.56312 0.172549 -0.250741 0.194946 -0.882391 -0.297782 -0.350309 -0.539223 -1.75797 0.327292 1.61017 0.392396 -0.256985 -1.02329 -1.02584 -0.295226 0.384718 -1.33683 -0.651689 -0.0762942 0.0537087 -1.23589 -2.53833 1.10131
4084 0.552578 0.208318 -0.291424 0.0995825 -0.79626 -0.262096 -0.328572 -0.581801 -1.78785 0.314342 1.61114 0.450194 -0.283474 -0.981716 -1.04203 -0.339046 0.368654 -1.24213 -0.676934 -0.120609 0.0658198 -1.27423 -2.57134 1.10883
5337 0.525994 0.186812 -0.208981 0.176182 -0.862357 -0.269275 -0.346685 -0.591448 -1.79403 0.281864 1.67814 0.450755 -0.294757 -0.975032 -1.0934 -0.318088 0.397499 -1.30361 -0.707878 -0.161934 0.103153 -1.2797 -2.51419 1.07637
2372 -0.443616 0.226764 -0.0144902 0.507831 -0.414706 0.0855816 0.96935 -0.92578 -0.871512 -0.0794091 0.254257 -0.621443 -0.525261 -0.444367 -0.904127 0.783806 1.97159 -0.0146017 0.121312 0.507136 0.665684 0.417617 -1.70669 -0.142594
3860 -0.392607 0.223448 -0.044633 0.496977 -0.403874 0.0532519 0.92037 -0.898067 -0.859254 -0.0976554 0.185778 -0.594116 -0.494019 -0.390298 -0.930263 0.783679 1.95574 0.000292535 0.194287 0.493269 0.657062 0.452959 -1.65787 -0.160619
1705 -0.484251 0.31674 -0.0284541 0.684365 -0.525324 0.107176 1.1122 -1.09496 -1.07453 -0.119554 0.35361 -0.747775 -0.613936 -0.582164 -1.21231 0.95555 2.51362 -0.0200097 0.21968 0.681411 0.802024 0.488995 -2.13648 -0.192589
679 -0.522928 0.290285 -0.0407406 0.612526 -0.472218 0.0458603 0.995807 -0.979427 -0.975387 -0.0617163 0.252977 -0.682863 -0.552914 -0.463966 -1.05854 0.886954 2.19304 0.0199701 0.182824 0.569599 0.75204 0.452658 -1.8811 -0.141467
4927 -0.493646 0.26151 -0.0421245 0.629407 -0.443215 0.0282762 1.02674 -1.04247 -1.02236 -0.103442 0.320227 -0.71979 -0.609708 -0.479253 -1.09276 0.888729 2.3242 -0.00488752 0.177507 0.60074 0.727969 0.493312 -2.0202 -0.13308
1143 -0.487278 0.264521 -0.0392049 0.658744 -0.509965 0.0891288 1.07706 -1.07648 -1.05023 -0.109572 0.324707 -0.658472 -0.605487 -0.511515 -1.16371 0.900679 2.37018 -0.0282435 0.184414 0.568239 0.800867 0.478691 -2.06585 -0.188241
5173 -0.447468 0.277815 -0.0501454 0.643265 -0.446689 0.139575 1.05356 -1.00879 -1.0337 -0.0425595 0.250499 -0.704685 -0.559073 -0.538509 -1.10267 0.868309 2.26541 -0.00576317 0.15684 0.577767 0.799907 0.49959 -1.9908 -0.203516
1548 -0.495266 0.236639 -0.0214188 0.564029 -0.411176 0.0707359 0.966434 -0.953131 -0.915135 -0.100129 0.236078 -0.618414 -0.497591 -0.409708 -1.04636 0.807413 2.05816 0.0238827 0.209435 0.519803 0.653915 0.432091 -1.77429 -0.0983516
908 -0.515453 0.340592 -0.0485615 0.715004 -0.534976 0.0648843 1.15353 -1.14194 -1.09993 -0.136449 0.33149 -0.71237 -0.638206 -0.534152 -1.17383 0.940297 2.56305 -0.0139914 0.174806 0.618834 0.772325 0.53132 -2.21759 -0.195985
486 -0.456584 0.255348 -0.0172067 0.645807 -0.40813 0.113411 1.07872 -1.07281 -0.987884 -0.0904422 0.297854 -0.67542 -0.591741 -0.517829 -1.10747 0.892891 2.33451 0.0681539 0.150906 0.53387 0.723803 0.508732 -1.98012 -0.197275
705 -0.43195 0.260128 -0.0127437 0.571038 -0.422125 0.0915915 0.975416 -0.927086 -0.947595 -0.111121 0.2893 -0.671053 -0.497962 -0.434126 -1.072 0.835117 2.12336 -0.0172483 0.208807 0.532683 0.713362 0.436139 -1.87641 -0.123399
5161 -0.404597 0.248438 -0.00692098 0.555113 -0.424934 0.0803253 0.930619 -0.902737 -0.848025 -0.0908546 0.265054 -0.55018 -0.490885 -0.414537 -0.922832 0.782506 1.98387 0.023138 0.200143 0.508404 0.61973 0.414338 -1.62608 -0.108944
1362 -0.435276 0.262229 -0.0654486 0.565325 -0.461558 0.0608101 0.944707 -0.950717 -0.967893 -0.0545251 0.264381 -0.619542 -0.526815 -0.413508 -1.00264 0.847829 2.15761 -0.0119833 0.211822 0.530939 0.693667 0.467421 -1.80895 -0.151579
3590 -1.25777 -0.626813 0.696613 0.0891362 0.0184429 0.417868 -0.462132 0.204334 -1.72581 -0.980589 -0.665706 -0.56153 -0.700348 -1.40892 -1.12689 -1.44164 1.10798 0.376447 0.190493 0.262201 1.13336 0.544494 -1.82103 1.03337
4011 -1.31339 -0.654595 0.78946 0.0618731 0.000197716 0.437835 -0.52077 0.206221 -1.77853 -0.973471 -0.585924 -0.564863 -0.754892 -1.46001 -1.16349 -1.49678 1.15462 0.343456 0.209132 0.364148 1.20583 0.535744 -1.92007 1.06778
4249 -1.27287 -0.583158 0.730158 0.0586373 0.0979222 0.381808 -0.484371 0.18814 -1.69117 -0.902615 -0.61996 -0.499224 -0.692538 -1.38171 -1.14972 -1.44516 1.10717 0.381103 0.204438 0.238932 1.1019 0.539923 -1.78532 1.02353
4266 -1.2455 -0.603079 0.741749 0.0892272 0.0440597 0.436469 -0.512107 0.222308 -1.72494 -0.95109 -0.6486 -0.544159 -0.753276 -1.39467 -1.16089 -1.43172 1.08075 0.395388 0.243041 0.256363 1.12114 0.560194 -1.76395 1.01119
3583 -1.32588 -0.590925 0.768385 0.0982169 0.0436067 0.447296 -0.50556 0.205872 -1.83513 -0.999316 -0.690649 -0.587957 -0.77384 -1.4516 -1.16385 -1.4823 1.23401 0.38055 0.16062 0.268283 1.17752 0.568035 -1.88529 1.10402
110 -1.24177 -0.643681 0.750392 0.0462093 0.01853 0.412849 -0.505741 0.18632 -1.66857 -0.954415 -0.639134 -0.558616 -0.674893 -1.39407 -1.10826 -1.40231 1.08126 0.363051 0.236097 0.302921 1.13216 0.4854 -1.83034 1.01699
2051 -0.386702 0.726423 0.941935 0.749343 0.200331 -0.386348 -0.177488 -1.27348 -1.79604 0.602156 1.05107 0.607471 0.171234 -1.02791 0.0796546 -1.20128 1.41418 0.3507 -0.322519 1.33148 0.161262 0.439488 -1.29291 -0.159334
5152 -0.45053 0.76301 0.908703 0.784166 0.249622 -0.392033 -0.189932 -1.30142 -1.77201 0.608678 1.02703 0.623964 0.222342 -1.05969 0.160443 -1.22144 1.44688 0.285637 -0.302189 1.30193 0.144695 0.500832 -1.28704 -0.140617
3121 -0.455406 0.749439 0.932533 0.785285 0.226802 -0.352145 -0.166452 -1.25558 -1.7764 0.611143 1.05429 0.623014 0.20594 -1.03055 0.143689 -1.18826 1.42578 0.306866 -0.330647 1.30629 0.158503 0.468756 -1.29158 -0.11733
4715 -0.414576 0.729579 0.974782 0.716837 0.191323 -0.354069 -0.188011 -1.33331 -1.83201 0.630431 1.06652 0.625505 0.21358 -1.00959 0.108758 -1.22012 1.45097 0.315481 -0.364734 1.38998 0.190983 0.492761 -1.31458 -0.0995684
183 -0.44341 0.725859 0.926927 0.745315 0.180826 -0.355062 -0.136381 -1.29138 -1.74171 0.63741 1.02453 0.621564 0.20513 -1.03651 0.131325 -1.22914 1.40022 0.232636 -0.3465 1.31659 0.179638 0.485096 -1.29461 -0.0848432
2000 -0.397898 0.770844 0.986295 0.806633 0.210366 -0.368977 -0.150696 -1.34324 -1.84303 0.629334 1.11359 0.637072 0.181815 -1.10658 0.154388 -1.24587 1.43332 0.295212 -0.371636 1.37463 0.168562 0.456599 -1.3337 -0.0998392
5072 -0.427563 0.744606 0.914907 0.805712 0.225974 -0.388715 -0.146742 -1.30976 -1.76725 0.621978 1.02347 0.632061 0.227825 -1.01026 0.158312 -1.20332 1.4089 0.285503 -0.303525 1.35519 0.16904 0.443531 -1.26603 -0.0996199
4639 -0.418186 0.138842 0.934081 1.01071 0.754536 -0.888187 0.510476 -0.34153 -0.520116 -0.385013 0.253218 -0.0712327 -0.831934 0.574366 0.0166143 -2.34654 2.66392 0.407198 -0.14103 0.368088 0.42813 0.353796 -0.814802 -0.321538
1020 -0.47428 0.108182 0.903824 0.994294 0.759442 -0.867635 0.454652 -0.359092 -0.458711 -0.305185 0.234448 -0.0757781 -0.816774 0.566423 0.052414 -2.32517 2.67027 0.397863 -0.116134 0.388165 0.44739 0.322102 -0.804345 -0.328537
4047 -0.452349 0.110846 0.916876 0.988052 0.740736 -0.879708 0.439074 -0.32245 -0.484974 -0.358152 0.183656 -0.12455 -0.808202 0.594469 0.0278248 -2.36495 2.63222 0.416401 -0.229312 0.381083 0.459621 0.31971 -0.789886 -0.302019
4465 -0.47444 0.143464 0.879707 0.945134 0.739832 -0.854123 0.480309 -0.30232 -0.440737 -0.302957 0.219728 -0.113546 -0.77382 0.538027 0.0552568 -2.16683 2.53706 0.364967 -0.126958 0.394524 0.425568 0.364641 -0.76821 -0.36327
3831 -0.497637 0.0917236 0.869912 0.985564 0.779839 -0.899103 0.518119 -0.310297 -0.504593 -0.296159 0.194047 -0.068863 -0.784621 0.559542 0.0686965 -2.24816 2.60824 0.358199 -0.124377 0.401422 0.393298 0.336701 -0.764056 -0.350276
2952 -1.20526 -0.558459 0.708065 0.0478133 0.019651 0.349549 -0.42851 0.183304 -1.69657 -0.955727 -0.633061 -0.558623 -0.655597 -1.30984 -1.06722 -1.32556 1.0696 0.346335 0.18725 0.313953 1.10683 0.525003 -1.73673 0.944437
609 -1.33675 -0.641693 0.762696 0.124962 4.63904e-05 0.414984 -0.464658 0.179148 -1.81887 -1.01731 -0.63052 -0.561114 -0.779162 -1.46557 -1.17345 -1.41681 1.1259 0.360495 0.184452 0.320592 1.18764 0.520123 -1.81689 1.03861
5253 -1.03247 -0.50038 0.568553 0.04317 -0.0107294 0.349093 -0.397031 0.174447 -1.46101 -0.857747 -0.529895 -0.439247 -0.580597 -1.03868 -0.814489 -1.0969 0.874389 0.282051 0.22807 0.238504 0.870633 0.439598 -1.42066 0.766563
437 -1.15369 -0.504773 0.616647 0.0555237 7.68245e-05 0.377009 -0.404582 0.241492 -1.5411 -0.90149 -0.541952 -0.491447 -0.585853 -1.137 -0.925001 -1.19333 0.966594 0.294159 0.163638 0.262377 0.96717 0.4649 -1.4784 0.860655
4533 0.522021 0.979748 -0.130904 0.914132 0.103807 1.19971 -0.157574 -0.438782 -1.99924 0.287462 0.508736 -0.950505 0.0239214 -0.109206 -1.03148 -0.947504 1.66139 -0.706398 -1.17717 0.906009 -0.75044 -0.0820265 -0.800044 1.25637
1025 0.622168 1.06062 -0.15711 1.02861 0.0702872 1.28562 -0.102698 -0.461217 -2.19411 0.338957 0.568296 -1.03307 -0.0305749 -0.144447 -1.17682 -0.993214 1.85123 -0.772314 -1.35207 0.981243 -0.822136 -0.0931416 -0.919425 1.35257
2630 0.548648 0.994882 -0.1675 0.875562 0.0457262 1.18855 -0.0686995 -0.429353 -2.02992 0.345745 0.524012 -0.926514 0.0271063 -0.105238 -1.0775 -0.924245 1.73971 -0.716132 -1.2224 0.915022 -0.730849 -0.109632 -0.783645 1.19759
4368 0.564099 1.05627 -0.206146 0.960709 0.0442098 1.26627 -0.102622 -0.430304 -2.1587 0.29903 0.532002 -0.973448 -0.0384318 -0.0854973 -1.11395 -0.936678 1.77702 -0.730443 -1.35194 0.937437 -0.842553 -0.129088 -0.887541 1.26645
1990 0.485731 0.904337 -0.153254 0.900252 0.101997 1.15127 -0.102529 -0.411598 -1.87604 0.291771 0.512179 -0.854993 0.0237743 -0.0642319 -1.00182 -0.902384 1.6319 -0.619162 -1.11703 0.828356 -0.683247 -0.0392457 -0.745838 1.13833
1272 0.547059 0.984363 -0.192952 0.987795 0.111006 1.22656 -0.134224 -0.438335 -2.05786 0.329864 0.533786 -0.875003 0.0139343 -0.0820347 -1.04809 -0.90121 1.71544 -0.684281 -1.24124 0.868663 -0.714155 -0.0878262 -0.781656 1.23672
5607 0.441983 -0.0630828 0.0993437 1.57201 0.417692 -0.0456855 -0.791935 -0.362458 -1.19591 1.17791 -0.800303 0.429377 -0.780592 -0.677518 -0.851037 -0.719288 1.91596 0.411073 -0.779895 0.508894 0.362493 0.269128 -1.46306 1.83102
1583 0.445146 -0.0407735 0.0417777 1.55217 0.431882 -0.072832 -0.760551 -0.376853 -1.16169 1.20802 -0.830731 0.460861 -0.735081 -0.71692 -0.800172 -0.800713 1.90038 0.442448 -0.821645 0.496506 0.333742 0.240378 -1.49899 1.79908
2216 0.447903 -0.0291565 0.0669573 1.60013 0.416278 -0.0828115 -0.760414 -0.380807 -1.17764 1.18369 -0.853881 0.460562 -0.743639 -0.723033 -0.806335 -0.755765 1.86466 0.456366 -0.805446 0.493791 0.419605 0.2207 -1.51876 1.77097
4121 0.402058 -0.0246361 0.0402578 1.60745 0.383075 -0.0770702 -0.771318 -0.358654 -1.20674 1.15925 -0.806087 0.471649 -0.771649 -0.706657 -0.805247 -0.742927 1.88402 0.391557 -0.832052 0.518298 0.389 0.267509 -1.50241 1.77811
2699 0.879346 0.738556 -0.438072 -0.0509636 0.779396 0.829722 0.0748436 -0.439806 -0.605869 -1.64861 -0.0991761 0.0922427 -1.48004 -0.922416 0.453588 -1.39772 1.40714 -0.380613 -0.419814 -0.615195 0.489387 -0.0923534 -2.238 0.511977
2178 0.914797 0.75251 -0.395918 -0.0238542 0.759168 0.755901 0.0719884 -0.434563 -0.679328 -1.61657 -0.103645 0.0517556 -1.46305 -0.980555 0.454638 -1.39073 1.3544 -0.364164 -0.425078 -0.582395 0.422209 -0.066758 -2.18414 0.409988
4570 0.912523 0.777485 -0.412807 -0.0111714 0.733654 0.829132 0.101815 -0.459113 -0.621597 -1.70065 -0.119306 0.115971 -1.5223 -0.93671 0.476511 -1.42216 1.39189 -0.315194 -0.452471 -0.598477 0.417905 -0.0862556 -2.24882 0.436888
873 -0.180727 -0.738703 1.05628 1.59304 1.09483 -1.07825 0.702407 -0.907215 -0.676305 -0.2099 0.581615 0.770098 -0.938064 -0.295547 -0.645077 0.102794 0.848256 0.645794 -0.864486 0.727375 0.396692 0.12773 -1.87217 0.826904
598 -0.211477 -0.751214 1.0711 1.59017 1.05399 -1.07536 0.685598 -0.948653 -0.677561 -0.149055 0.609184 0.812127 -0.973693 -0.323485 -0.601641 0.0276134 0.827002 0.602635 -0.845215 0.691016 0.421233 0.119926 -1.87469 0.777849
4374 -0.19018 -0.750307 1.05231 1.60122 1.08631 -1.08443 0.695606 -0.900984 -0.671711 -0.244628 0.622526 0.781663 -0.943068 -0.327575 -0.597697 0.0598912 0.797456 0.607996 -0.819664 0.74112 0.397208 0.119982 -1.86893 0.805109
1722 -0.211899 -0.700927 1.08941 1.60522 1.05569 -1.08376 0.705583 -0.908883 -0.7129 -0.201702 0.603842 0.772166 -0.975514 -0.295995 -0.624509 0.0246779 0.791945 0.601163 -0.808719 0.700005 0.374846 0.147689 -1.87816 0.823474
3864 -1.26207 0.114472 0.0442853 1.19266 -0.168522 0.171783 -0.0245967 0.042829 -0.7641 0.463069 0.113575 -0.578371 -1.42664 -0.140447 -0.713269 -0.701707 0.657706 0.0744558 -0.836631 -0.620897 1.17199 0.114925 -1.66262 0.820163
3287 -1.41159 0.0882147 0.0573505 1.50991 -0.3387 0.214385 0.0353351 -0.0226038 -0.875613 0.516576 0.163452 -0.665713 -1.71896 -0.227071 -0.876317 -0.875363 0.898543 0.100112 -0.993214 -0.76345 1.59633 0.163325 -2.1007 0.954784
4820 -1.44971 0.13487 0.0781379 1.44168 -0.265969 0.174384 0.0100652 -0.024101 -0.900893 0.510055 0.13768 -0.593937 -1.76509 -0.266918 -0.869851 -0.850786 0.927508 0.130456 -0.936767 -0.810151 1.5181 0.140744 -2.08866 1.01715
1491 -1.42277 0.103568 0.0399788 1.47408 -0.273727 0.220828 -0.0195082 -0.0487833 -0.883865 0.533836 0.146696 -0.691976 -1.76896 -0.26657 -0.870337 -0.863449 0.87799 0.116419 -0.97119 -0.743717 1.4802 0.152198 -2.07718 1.00118
2586 -1.44442 0.17701 0.0473655 1.47133 -0.263777 0.221261 0.00396587 -0.0590416 -0.892774 0.621768 0.106213 -0.638601 -1.80135 -0.239283 -0.854663 -0.819553 0.909614 0.127755 -0.964466 -0.817213 1.55913 0.155936 -2.13359 0.953085
5348 -1.29115 0.154229 0.0470791 1.22916 -0.187864 0.222291 0.00117157 0.00818332 -0.751074 0.428561 0.145764 -0.579364 -1.40243 -0.172966 -0.669542 -0.729856 0.720489 0.0629251 -0.818426 -0.654572 1.2273 0.167875 -1.68229 0.781465
3181 -0.883283 -0.0231261 0.306512 1.98167 0.406722 0.668672 0.805685 -0.581745 -0.557782 0.872476 1.05448 0.0432014 0.60402 -0.211266 -1.01701 -1.77903 0.730383 -0.769397 0.338699 0.73378 0.944369 0.279029 -1.69146 -0.718365
5290 -0.878931 -0.0174647 0.266933 2.00743 0.421493 0.624966 0.831383 -0.556693 -0.544841 0.891005 0.982934 0.038951 0.636199 -0.210738 -0.994151 -1.78179 0.744153 -0.73714 0.323631 0.733124 0.940753 0.199081 -1.67126 -0.691053
2747 -0.856723 0.00310671 0.266851 1.97102 0.393995 0.667322 0.847435 -0.541754 -0.532888 0.874155 1.00306 0.041102 0.64431 -0.209487 -0.980972 -1.83307 0.68532 -0.805078 0.378137 0.732268 1.01036 0.227145 -1.73384 -0.715824
970 0.526392 0.0382757 -0.0182982 2.23002 1.05424 0.211659 0.148492 0.769061 -1.32589 0.325117 -0.029024 -0.752389 -0.561771 -1.46278 -1.64986 -0.132848 1.1071 -0.149366 0.744826 -0.30805 0.207017 0.45738 -1.53306 -0.332176
776 0.481503 0.0686484 -0.056355 2.20593 1.04753 0.213093 0.101077 0.722143 -1.35168 0.242471 -0.0684232 -0.686987 -0.550319 -1.40518 -1.69777 -0.127677 1.13096 -0.135039 0.724365 -0.40781 0.225222 0.453668 -1.52979 -0.353295
236 0.537107 0.0773445 -0.0520697 2.18528 1.03064 0.218677 0.0844363 0.717878 -1.32886 0.260096 -0.0091424 -0.707183 -0.568097 -1.4592 -1.6427 -0.125993 1.09873 -0.133329 0.755274 -0.333875 0.237388 0.438646 -1.51773 -0.33046
4479 0.83624 -0.0352752 1.13946 -0.303882 0.772054 0.179782 0.475311 0.532985 -1.15681 -0.472942 0.292202 -0.831362 -0.990123 0.0366312 -0.859845 -0.567594 0.509625 -1.71551 -0.527967 0.359538 1.20319 0.105583 -1.4329 0.199168
5423 0.940226 -0.00966179 1.26486 -0.241523 0.895361 0.227176 0.574993 0.522001 -1.31332 -0.483216 0.319495 -0.91576 -1.1261 0.079031 -1.00993 -0.69713 0.627213 -1.85536 -0.623008 0.400338 1.32866 0.0759529 -1.59524 0.185264
636 0.851163 -0.00106969 1.16552 -0.309912 0.805438 0.168959 0.483927 0.428194 -1.17841 -0.456897 0.307289 -0.825002 -0.962095 0.0334979 -0.876076 -0.583438 0.552136 -1.7117 -0.530283 0.397567 1.171 0.0838827 -1.4058 0.250646
317 0.913499 0.00698816 1.16279 -0.254445 0.796071 0.171773 0.538709 0.518469 -1.13984 -0.410937 0.289301 -0.828014 -0.965129 0.0669535 -0.91242 -0.594854 0.516415 -1.71247 -0.554021 0.37232 1.18353 0.0798318 -1.44456 0.223162
907 0.878844 0.0213156 1.13994 -0.330754 0.795632 0.175767 0.496654 0.48201 -1.11351 -0.405467 0.291949 -0.856882 -0.956023 0.0626686 -0.858782 -0.561373 0.513025 -1.72006 -0.504295 0.375932 1.15884 0.111386 -1.42882 0.21562
3534 0.907213 -0.00411408 1.27754 -0.336618 0.913561 0.201023 0.55806 0.53598 -1.28389 -0.442174 0.286901 -0.931921 -1.07248 0.0676136 -0.972368 -0.619805 0.642923 -1.84078 -0.559918 0.418066 1.28376 0.0825878 -1.53934 0.196318
1155 0.891408 -0.0333069 1.12884 -0.304603 0.795822 0.179094 0.482452 0.471585 -1.17385 -0.424351 0.288349 -0.859809 -0.94675 0.000394064 -0.895601 -0.564222 0.525798 -1.71765 -0.523375 0.358663 1.15607 0.0964993 -1.39061 0.210668
5569 0.944067 -0.0174703 1.24027 -0.291233 0.872185 0.195463 0.526765 0.566955 -1.26559 -0.488445 0.288459 -0.897565 -1.05075 0.048974 -0.988194 -0.661881 0.587712 -1.83989 -0.600299 0.397724 1.29004 0.0871012 -1.52346 0.182709
712 0.837301 -0.00732305 1.15919 -0.281852 0.81153 0.15446 0.503969 0.491926 -1.14714 -0.45016 0.268145 -0.78734 -0.910191 0.0397794 -0.89458 -0.592274 0.531984 -1.68246 -0.549919 0.341372 1.17157 0.0835472 -1.41995 0.222639
3857 0.945421 0.00380483 1.32292 -0.320354 0.957606 0.210894 0.558494 0.541282 -1.39573 -0.514168 0.309983 -0.982134 -1.12696 0.0432864 -1.02557 -0.760412 0.653123 -1.95953 -0.671827 0.382613 1.37633 0.067415 -1.73415 0.22535
4534 0.843624 0.00725075 1.14991 -0.242087 0.839465 0.185559 0.546488 0.508618 -1.19173 -0.449213 0.291941 -0.819893 -0.956701 0.0575823 -0.915468 -0.584642 0.517337 -1.71296 -0.542772 0.34742 1.1663 0.112393 -1.40166 0.199254
4509 -0.46084 -0.196998 0.345383 0.292867 -0.671274 1.92834 0.37793 -0.533739 -1.37518 -0.633718 0.28827 0.0222363 -0.656076 -1.92284 0.128661 -0.368992 1.84721 -1.07785 -1.43542 -0.0584694 0.933793 0.451027 -1.42003 0.176525
5557 -0.489967 -0.218259 0.337808 0.289486 -0.676361 1.91637 0.359693 -0.441918 -1.38918 -0.64231 0.277899 0.0800165 -0.665244 -1.91041 0.165479 -0.396579 1.87226 -1.13456 -1.48612 -0.0542604 0.910159 0.476827 -1.43447 0.131204
2360 0.749847 -0.96175 1.4838 0.22709 0.0276922 -0.383102 0.319022 0.0147804 -0.11378 -0.708263 1.16752 -1.36163 -0.381098 -0.588226 -0.347108 -0.712793 1.88695 0.729314 -0.0313141 -1.11869 0.398551 0.329245 -2.44757 -0.506431
743 0.746988 -0.899715 1.48762 0.225308 0.0232582 -0.410441 0.307781 0.0447249 -0.0825477 -0.714734 1.18784 -1.37289 -0.369332 -0.549873 -0.290903 -0.70684 1.87495 0.650372 -0.0418704 -1.06859 0.313037 0.335058 -2.46069 -0.486369
5524 0.726279 -0.863356 1.44217 0.241079 0.0199293 -0.448642 0.32877 0.0426946 -0.0918601 -0.718655 1.17705 -1.37564 -0.405648 -0.586971 -0.31182 -0.660973 1.89077 0.723043 -0.00770551 -1.06201 0.372212 0.320164 -2.47711 -0.488501
