35 24
16 0.0387266 0.00678346 0.0541668 0.1135 0.10783 0.0355476 0.0679844 0.0301304 -0.0151796 0.121138 0.0629524 0.0424045 0.0259543 0.0163879 -0.0558222 -0.00882865 -0.0311365 0.040614 0.00585862 -0.0840673 -0.111406 -0.106079 0.0479282 0.0424454
34 0.198341 -0.0163503 0.219916 0.423417 0.564982 0.163598 0.315305 0.271885 -0.0957712 0.487679 0.450017 0.259127 0.180217 -0.0267145 -0.281265 -0.0141875 -0.0518714 0.20576 -0.000375027 -0.471539 -0.340507 -0.402822 0.224651 0.131484
0 0.133937 -0.0413192 0.283477 0.402701 0.462712 0.150429 0.253336 0.173691 -0.0768756 0.416887 0.283747 0.173545 0.0751139 -0.0281676 -0.193871 -0.104602 -0.0986854 0.1275 -0.0339383 -0.413156 -0.459991 -0.410411 0.181345 0.154668
11 0.119812 -0.00518622 0.175649 0.296652 0.380559 0.135701 0.201018 0.174141 -0.0603423 0.355317 0.303761 0.172644 0.120589 -0.0164389 -0.170102 -0.0291613 -0.0603727 0.126516 -0.0107393 -0.324431 -0.259922 -0.272412 0.146836 0.120782
30 0.0701702 0.000446875 0.12932 0.187114 0.255781 0.0622344 0.131403 0.0903742 -0.0508132 0.217076 0.164482 0.102863 0.0510619 -0.0192891 -0.09188 -0.00779439 -0.0273342 0.0659637 0.0061681 -0.190681 -0.190516 -0.181361 0.0934859 0.0662204
33 0.102696 -0.0429746 0.258764 0.336588 0.400355 0.0998688 0.219781 0.134482 -0.0245626 0.34518 0.199884 0.18683 0.0676245 -0.045698 -0.122564 -0.0778586 -0.0404999 0.114883 -0.0168622 -0.291829 -0.377224 -0.329466 0.12437 0.121462
7 0.0915586 -0.0191044 0.167547 0.280808 0.36811 0.108099 0.206331 0.134684 -0.0500867 0.281509 0.254664 0.172985 0.0854944 -0.0127891 -0.136439 -0.0129817 -0.0475268 0.138869 -0.0189354 -0.281535 -0.240087 -0.255778 0.127525 0.110513
17 0.12417 -0.0120957 0.194895 0.332326 0.470974 0.130242 0.245307 0.207384 -0.073067 0.375749 0.341573 0.214119 0.113003 -0.0192953 -0.199428 -0.0177075 -0.0616491 0.177084 0.00510659 -0.374827 -0.313715 -0.322864 0.18983 0.116651
6 0.0737006 -0.019823 0.112681 0.181149 0.235419 0.0733386 0.116584 0.112691 -0.0482527 0.19626 0.156551 0.0971736 0.0726842 0.0130417 -0.111248 -0.0104265 -0.0161509 0.100859 -0.0146536 -0.211433 -0.17824 -0.199113 0.0981679 0.068938
15 0.0444837 -0.0157696 0.0801604 0.129454 0.126588 0.0287842 0.0692265 0.0579881 -0.00191315 0.130929 0.0751335 0.0723936 0.0362185 -0.0111787 -0.0452267 -0.0324699 -0.0337888 0.0525075 -0.0277679 -0.0848552 -0.097135 -0.104876 0.0450857 0.0475843
26 0.0911275 -0.0145428 0.200076 0.28868 0.341991 0.0953678 0.204955 0.128129 -0.0442169 0.289007 0.238385 0.141206 0.0689017 -0.0224184 -0.147121 -0.0221665 -0.0273449 0.139175 -0.0208648 -0.255162 -0.284141 -0.259087 0.112494 0.106284
32 0.0877903 -0.0344502 0.203722 0.300507 0.397872 0.123029 0.204586 0.15985 -0.0284382 0.322735 0.216047 0.184774 0.0645689 -0.00328091 -0.166105 -0.0352501 -0.0452173 0.134429 -0.0389073 -0.296781 -0.314051 -0.313383 0.107315 0.107034
19 0.0442504 -0.0209774 0.0790663 0.131419 0.185105 0.0612075 0.0811479 0.0575133 -0.0346268 0.137222 0.109002 0.0770324 0.0579702 -0.0195152 -0.0836889 0.003604 -0.0319057 0.0710086 -0.0148816 -0.142717 -0.130407 -0.136808 0.0416111 0.0441294
25 0.0682816 -0.00975163 0.114675 0.19155 0.233863 0.0856145 0.137436 0.0836743 -0.043102 0.185798 0.13253 0.0905664 0.0533112 0.00465508 -0.0839837 -0.00850885 -0.0427808 0.0637654 -0.0250863 -0.158164 -0.184033 -0.187114 0.0575562 0.0618585
28 0.0778689 -0.0174952 0.100093 0.173407 0.185504 0.0773627 0.0968469 0.0670272 -0.0165573 0.188693 0.108805 0.0864317 0.0273227 -0.00111873 -0.0771445 -0.0344473 -0.0370553 0.053006 -0.0249515 -0.164404 -0.156917 -0.172601 0.0527911 0.0412082
1 0.0707129 -0.0141079 0.145708 0.199235 0.241488 0.0830524 0.120349 0.116031 -0.0390596 0.219923 0.163351 0.127092 0.070573 0.00907948 -0.115024 -0.0153972 -0.0149855 0.109464 -0.017917 -0.215603 -0.211128 -0.187368 0.105246 0.0628474
13 0.101829 -0.0238723 0.158037 0.269519 0.378287 0.115743 0.20888 0.147154 -0.0429665 0.317817 0.268897 0.169289 0.104044 0.0108638 -0.146335 -0.00423862 -0.0203468 0.124636 -0.0066219 -0.290223 -0.223517 -0.286337 0.14113 0.118188
12 0.0527602 -0.00928458 0.115711 0.185637 0.232603 0.0482307 0.105116 0.0917938 -0.0561256 0.205465 0.171876 0.0828348 0.054384 0.0129433 -0.0855826 -0.0295108 -0.0236645 0.0829747 -0.00801388 -0.181279 -0.135172 -0.161664 0.0828811 0.0727894
20 0.0486261 -0.00825277 0.0735622 0.0971111 0.129137 0.0582373 0.0750662 0.0494884 -0.0200009 0.0957142 0.096631 0.0425708 0.0216025 -0.00586281 -0.0560672 0.00602544 -0.0267366 0.0406505 0.00539557 -0.115838 -0.0820405 -0.0839036 0.0496417 0.0461442
5 0.0925605 -0.0282159 0.157934 0.248558 0.330077 0.104051 0.178464 0.138261 -0.0538354 0.287561 0.230828 0.162363 0.0673564 0.00988937 -0.160431 -0.0327487 -0.0480514 0.116737 -0.017336 -0.270219 -0.240968 -0.243835 0.115085 0.0897087
23 0.0465669 -0.00629762 0.0564331 0.0801105 0.0943295 0.0523285 0.0698597 0.0227817 -0.0191279 0.0922634 0.0870802 0.0557752 0.0238325 -0.00707509 -0.0522979 -0.0193504 -0.0172288 0.0488771 -0.0254948 -0.093419 -0.099508 -0.100201 0.0405454 0.0365684
21 0.0364896 0.00374406 0.0757 0.0748602 0.116362 0.0405285 0.0548456 0.037918 -0.00330636 0.0849404 0.0808662 0.0669433 0.0315422 -0.0135755 -0.0577829 -0.00348049 -0.00460848 0.0238157 -0.0258612 -0.0884235 -0.10804 -0.0700785 0.0450458 0.0236948
18 0.0794712 -0.0102075 0.105224 0.147712 0.221884 0.0813075 0.126863 0.0939778 -0.0159383 0.197535 0.140408 0.108694 0.0724699 -0.0181244 -0.0939858 -0.025157 -0.0132386 0.0600555 -0.0101193 -0.18852 -0.13648 -0.171341 0.0837566 0.0618447
8 0.119105 -0.0327674 0.152805 0.269198 0.353441 0.0973631 0.184791 0.147472 -0.0615153 0.317593 0.273503 0.168303 0.0712657 -0.00894536 -0.166904 -0.0133721 -0.0356927 0.127232 -0.00369745 -0.268143 -0.232358 -0.252546 0.143183 0.0863323
22 0.105175 -0.0238281 0.137728 0.231554 0.312183 0.105268 0.179985 0.146166 -0.0417279 0.281412 0.22553 0.117249 0.0878691 -0.00948775 -0.137107 0.000544889 -0.0205824 0.107089 -0.0146987 -0.243718 -0.209697 -0.219467 0.108126 0.0885099
3 0.0677088 -0.0181544 0.135841 0.228432 0.286875 0.0882725 0.135207 0.102158 -0.0348532 0.247013 0.195487 0.113979 0.0691467 0.00357324 -0.125058 -0.0174759 -0.0169277 0.0978327 -0.0125632 -0.213817 -0.207496 -0.22095 0.097168 0.0817837
4 0.0867671 -0.0200424 0.17839 0.281407 0.365735 0.108243 0.167724 0.142397 -0.0650782 0.299957 0.235575 0.166624 0.074609 -0.0178251 -0.155912 -0.0310636 -0.0489214 0.122779 -0.0314418 -0.268815 -0.229452 -0.258154 0.113352 0.0950662
14 0.0588495 -0.0310564 0.120082 0.164194 0.204629 0.0556079 0.113547 0.0857081 -0.0043755 0.163169 0.117493 0.0984468 0.0591538 -0.00201462 -0.0805648 -0.0351119 -0.0402857 0.044627 -0.030058 -0.146849 -0.15619 -0.161806 0.0472731 0.0458307
29 0.0711292 0.00196684 0.117225 0.153089 0.199587 0.0804276 0.109072 0.0678813 -0.0173595 0.176273 0.128754 0.0932284 0.0544691 0.0118147 -0.0906979 -0.00785377 -0.0119049 0.0901166 -0.00152683 -0.185417 -0.15822 -0.160576 0.0941269 0.0763201
10 0.0380629 -0.0169187 0.0709314 0.0716939 0.129742 0.0417746 0.0492168 0.0451648 -0.027742 0.0847313 0.0708679 0.0273584 0.0138037 -0.00964481 -0.0544656 -0.00240554 -0.0247742 0.0347803 0.0136223 -0.102949 -0.0789397 -0.083881 0.0226297 0.0494555
27 0.0393496 0.00234739 0.103258 0.139662 0.155959 0.0624436 0.103042 0.0625821 -0.0419588 0.129631 0.125849 0.053711 0.0391326 0.0152056 -0.0626248 -0.031044 -0.0326596 0.0539389 -0.0123923 -0.121413 -0.141478 -0.14799 0.0453097 0.048826
31 0.0407163 -0.00127943 0.0745176 0.14866 0.159468 0.0588244 0.102339 0.0409685 -0.0173672 0.124143 0.104864 0.0867998 0.0155538 0.00987685 -0.0621204 -0.0387854 -0.0082008 0.0701623 -0.0290336 -0.121966 -0.120365 -0.140382 0.0352951 0.0373811
24 0.0686359 -0.000858473 0.127682 0.178375 0.26709 0.0683457 0.112475 0.0789864 -0.0200086 0.190988 0.148551 0.0999757 0.0625521 0.00131112 -0.0930243 -0.0212239 -0.0304483 0.0828358 -0.0218861 -0.19138 -0.194914 -0.191383 0.0644673 0.0616897
9 0.0571749 -0.0138639 0.131062 0.202082 0.235965 0.0596778 0.137323 0.0842793 -0.0324255 0.192659 0.148147 0.113328 0.0411858 0.00297659 -0.0866286 -0.0416899 -0.0341151 0.0838184 -0.0217121 -0.176395 -0.173646 -0.198041 0.0695585 0.0737908
2 0.0975056 -0.0291289 0.134836 0.234315 0.285315 0.0979802 0.170355 0.11731 -0.05305 0.253617 0.187143 0.124453 0.0679288 0.0038064 -0.111273 -0.025809 -0.0401167 0.122098 -0.0103415 -0.215173 -0.213522 -0.221635 0.0825979 0.0965621
